{"learner":{"attributes":{"scikit_learn":"{\"_estimator_type\": \"regressor\"}"},"feature_names":["year","month","ward","primary_type","delta_count","count_0"],"feature_types":["int","int","int","int","float","int"],"gradient_booster":{"model":{"gbtree_model_param":{"num_parallel_tree":"1","num_trees":"400"},"iteration_indptr":[0,1,2,3,4,5,6,7,8,9,10,11,12,13,14,15,16,17,18,19,20,21,22,23,24,25,26,27,28,29,30,31,32,33,34,35,36,37,38,39,40,41,42,43,44,45,46,47,48,49,50,51,52,53,54,55,56,57,58,59,60,61,62,63,64,65,66,67,68,69,70,71,72,73,74,75,76,77,78,79,80,81,82,83,84,85,86,87,88,89,90,91,92,93,94,95,96,97,98,99,100,101,102,103,104,105,106,107,108,109,110,111,112,113,114,115,116,117,118,119,120,121,122,123,124,125,126,127,128,129,130,131,132,133,134,135,136,137,138,139,140,141,142,143,144,145,146,147,148,149,150,151,152,153,154,155,156,157,158,159,160,161,162,163,164,165,166,167,168,169,170,171,172,173,174,175,176,177,178,179,180,181,182,183,184,185,186,187,188,189,190,191,192,193,194,195,196,197,198,199,200,201,202,203,204,205,206,207,208,209,210,211,212,213,214,215,216,217,218,219,220,221,222,223,224,225,226,227,228,229,230,231,232,233,234,235,236,237,238,239,240,241,242,243,244,245,246,247,248,249,250,251,252,253,254,255,256,257,258,259,260,261,262,263,264,265,266,267,268,269,270,271,272,273,274,275,276,277,278,279,280,281,282,283,284,285,286,287,288,289,290,291,292,293,294,295,296,297,298,299,300,301,302,303,304,305,306,307,308,309,310,311,312,313,314,315,316,317,318,319,320,321,322,323,324,325,326,327,328,329,330,331,332,333,334,335,336,337,338,339,340,341,342,343,344,345,346,347,348,349,350,351,352,353,354,355,356,357,358,359,360,361,362,363,364,365,366,367,368,369,370,371,372,373,374,375,376,377,378,379,380,381,382,383,384,385,386,387,388,389,390,391,392,393,394,395,396,397,398,399,400],"tree_info":[0,0,0,0,0,0,0,0,0,0,0,0,0,0,0,0,0,0,0,0,0,0,0,0,0,0,0,0,0,0,0,0,0,0,0,0,0,0,0,0,0,0,0,0,0,0,0,0,0,0,0,0,0,0,0,0,0,0,0,0,0,0,0,0,0,0,0,0,0,0,0,0,0,0,0,0,0,0,0,0,0,0,0,0,0,0,0,0,0,0,0,0,0,0,0,0,0,0,0,0,0,0,0,0,0,0,0,0,0,0,0,0,0,0,0,0,0,0,0,0,0,0,0,0,0,0,0,0,0,0,0,0,0,0,0,0,0,0,0,0,0,0,0,0,0,0,0,0,0,0,0,0,0,0,0,0,0,0,0,0,0,0,0,0,0,0,0,0,0,0,0,0,0,0,0,0,0,0,0,0,0,0,0,0,0,0,0,0,0,0,0,0,0,0,0,0,0,0,0,0,0,0,0,0,0,0,0,0,0,0,0,0,0,0,0,0,0,0,0,0,0,0,0,0,0,0,0,0,0,0,0,0,0,0,0,0,0,0,0,0,0,0,0,0,0,0,0,0,0,0,0,0,0,0,0,0,0,0,0,0,0,0,0,0,0,0,0,0,0,0,0,0,0,0,0,0,0,0,0,0,0,0,0,0,0,0,0,0,0,0,0,0,0,0,0,0,0,0,0,0,0,0,0,0,0,0,0,0,0,0,0,0,0,0,0,0,0,0,0,0,0,0,0,0,0,0,0,0,0,0,0,0,0,0,0,0,0,0,0,0,0,0,0,0,0,0,0,0,0,0,0,0,0,0,0,0,0,0,0,0,0,0,0,0,0,0,0,0,0,0,0,0,0,0,0,0,0,0,0,0,0,0,0,0,0,0,0,0,0,0,0,0,0,0,0,0,0,0,0,0],"trees":[{"base_weights":[-5.0958764E-2,-1.019169E1,7.239535E1,-1.7898375E1,8.174258E0,6.0031174E1,1.5727164E2,-2.0078156E1,-1.0313951E1,2.1547995E0,1.9155886E1,4.7959625E1,8.509242E1,1.2922374E2,2.6702512E2,-2.0569283E1,-1.754329E1,-1.2686751E1,-7.538E0,-7.08102E-1,7.5959063E0,1.5797419E1,2.6854769E1,4.03033E1,5.6953922E1,7.698212E1,4.754148E0,5.7686357E0,7.1582904E0,1.1193801E1,1.8070555E1,-2.0736675E1,-9.722005E-1,-9.2132264E-1,-1.6852276E1,-1.4072848E1,-1.1507557E1,-8.480568E0,-6.0195494E0,-3.1851106E0,1.0111885E0,6.1973777E0,8.784441E0,1.3793112E1,1.9247639E1,2.3725384E1,1.4590172E0,3.536568E1,4.4332363E1,5.329512E1,3.144263E0,3.697395E0,4.1835475E0,-1.0453125E0,-1.0122211E0,-8.010483E-1,-8.6497176E-1,-6.219693E-1,-7.221922E-1,-6.20341E-1,-5.494891E-1,-2.724855E-1,-4.3507686E-1,-3.5986736E-1,-2.6130542E-1,-1.8400806E-1,-7.996215E-2,1.8899648E-2,1.3050827E-1,2.2676109E-1,3.4458956E-1,4.661587E-1,3.2045916E-1,5.9637547E-1,7.7936614E-1,9.3196964E-1,1.1427644E0,1.208264E0,9.202056E-1,1.789876E0,1.0265125E0,2.2258976E0,1.103331E0,7.395819E-1,2.6680956E0],"categories":[],"categories_nodes":[],"categories_segments":[],"categories_sizes":[],"default_left":[0,0,0,0,0,0,0,0,0,0,0,0,0,0,0,0,0,0,0,0,0,0,0,0,0,0,0,0,0,0,0,0,0,0,0,0,0,0,0,0,0,0,0,0,0,0,0,0,0,0,0,0,0,0,0,0,0,0,0,0,0,0,0,0,0,0,0,0,0,0,0,0,0,0,0,0,0,0,0,0,0,0,0,0,0],"id":0,"left_children":[1,3,5,7,9,11,13,15,17,19,21,23,25,27,29,31,33,35,37,39,41,43,45,47,49,51,-1,-1,-1,-1,-1,53,-1,-1,55,57,59,61,63,65,67,69,71,73,75,77,-1,79,81,83,-1,-1,-1,-1,-1,-1,-1,-1,-1,-1,-1,-1,-1,-1,-1,-1,-1,-1,-1,-1,-1,-1,-1,-1,-1,-1,-1,-1,-1,-1,-1,-1,-1,-1,-1],"loss_changes":[1.249875E7,2.1124978E6,2.182807E6,1.73598E5,2.9160706E5,5.48033E5,7.81258E5,9.804E3,1.5376719E4,4.4416414E4,3.9963562E4,8.268175E4,4.06475E4,2.461525E4,1.349405E5,8.84E2,5.0234375E2,1.9056719E3,1.5018516E3,7.962726E3,1.5794961E3,7.2721875E3,2.75E3,1.1761125E4,8.91E3,5.5075E2,0E0,0E0,0E0,0E0,0E0,7.225E1,0E0,0E0,5.015625E0,1.6999219E2,1.8446875E2,3.9928125E2,3.5394727E2,5.9548975E2,1.1167749E3,4.9391406E2,6.171719E2,2.1337344E3,4.4734375E2,3.9804688E1,0E0,1.2254688E3,5.25875E2,1.261875E2,0E0,0E0,0E0,0E0,0E0,0E0,0E0,0E0,0E0,0E0,0E0,0E0,0E0,0E0,0E0,0E0,0E0,0E0,0E0,0E0,0E0,0E0,0E0,0E0,0E0,0E0,0E0,0E0,0E0,0E0,0E0,0E0,0E0,0E0,0E0],"parents":[2147483647,0,0,1,1,2,2,3,3,4,4,5,5,6,6,7,7,8,8,9,9,10,10,11,11,12,12,13,13,14,14,15,15,16,16,17,17,18,18,19,19,20,20,21,21,22,22,23,23,24,24,25,25,31,31,34,34,35,35,36,36,37,37,38,38,39,39,40,40,41,41,42,42,43,43,44,44,45,45,47,47,48,48,49,49],"right_children":[2,4,6,8,10,12,14,16,18,20,22,24,26,28,30,32,34,36,38,40,42,44,46,48,50,52,-1,-1,-1,-1,-1,54,-1,-1,56,58,60,62,64,66,68,70,72,74,76,78,-1,80,82,84,-1,-1,-1,-1,-1,-1,-1,-1,-1,-1,-1,-1,-1,-1,-1,-1,-1,-1,-1,-1,-1,-1,-1,-1,-1,-1,-1,-1,-1,-1,-1,-1,-1,-1,-1],"split_conditions":[5.4E1,1.6E1,1.35E2,6E0,3.3E1,9.2E1,2.14E2,3E0,1.1E1,2.6E1,4.6E1,7.1E1,1.12E2,1.57E2,3.5E1,2E0,4E0,8E0,1.4E1,2E1,2.9E1,4E1,4.9E1,6.1E1,8.3E1,1.05E2,4.754148E0,5.7686357E0,7.1582904E0,1.1193801E1,1.8070555E1,1.2E1,-9.722005E-1,-9.2132264E-1,7E0,6E0,9E0,3E0,7E0,1.9E1,2.4E1,2.7E1,4.1E1,3.6E1,1.7E1,1.9E1,1.4590172E0,1.9E1,1.9E1,2E0,3.144263E0,3.697395E0,4.1835475E0,-1.0453125E0,-1.0122211E0,-8.010483E-1,-8.6497176E-1,-6.219693E-1,-7.221922E-1,-6.20341E-1,-5.494891E-1,-2.724855E-1,-4.3507686E-1,-3.5986736E-1,-2.6130542E-1,-1.8400806E-1,-7.996215E-2,1.8899648E-2,1.3050827E-1,2.2676109E-1,3.4458956E-1,4.661587E-1,3.2045916E-1,5.9637547E-1,7.7936614E-1,9.3196964E-1,1.1427644E0,1.208264E0,9.202056E-1,1.789876E0,1.0265125E0,2.2258976E0,1.103331E0,7.395819E-1,2.6680956E0],"split_indices":[5,5,5,5,5,5,5,5,5,5,5,5,5,5,2,5,5,5,5,5,5,5,5,5,5,5,0,0,0,0,0,3,0,0,3,3,5,3,3,5,5,5,2,5,3,3,0,3,3,2,0,0,0,0,0,0,0,0,0,0,0,0,0,0,0,0,0,0,0,0,0,0,0,0,0,0,0,0,0,0,0,0,0,0,0],"split_type":[0,0,0,0,0,0,0,0,0,0,0,0,0,0,0,0,0,0,0,0,0,0,0,0,0,0,0,0,0,0,0,0,0,0,0,0,0,0,0,0,0,0,0,0,0,0,0,0,0,0,0,0,0,0,0,0,0,0,0,0,0,0,0,0,0,0,0,0,0,0,0,0,0,0,0,0,0,0,0,0,0,0,0,0,0],"sum_hessian":[1.7011E4,1.4923E4,2.088E3,1.0512E4,4.411E3,1.824E3,2.64E2,8.164E3,2.348E3,2.85E3,1.561E3,1.233E3,5.91E2,2.12E2,5.2E1,6.833E3,1.331E3,1.264E3,1.084E3,1.868E3,9.82E2,1.089E3,4.72E2,6.69E2,5.64E2,3.31E2,2.6E2,1.11E2,1.01E2,3.8E1,1.4E1,5.933E3,9E2,5.73E2,7.58E2,5.76E2,6.88E2,6.66E2,4.18E2,7.65E2,1.103E3,4.54E2,5.28E2,6.92E2,3.97E2,2.06E2,2.66E2,3.05E2,3.64E2,3.55E2,2.09E2,2.36E2,9.5E1,4.382E3,1.551E3,2.78E2,4.8E2,1.13E2,4.63E2,2.43E2,4.45E2,4.7E1,6.19E2,1.65E2,2.53E2,5.82E2,1.83E2,7.91E2,3.12E2,1.36E2,3.18E2,4.28E2,1E2,3.43E2,3.49E2,3.45E2,5.2E1,1.87E2,1.9E1,2.95E2,1E1,3.6E2,4E0,1E0,3.54E2],"tree_param":{"num_deleted":"0","num_feature":"6","num_nodes":"85","size_leaf_vector":"1"}},{"base_weights":[-5.1398873E-2,-3.9275937E0,3.7368637E1,3.146167E1,-8.354498E0,2.5967144E1,7.225785E1,5.9398357E1,2.1004848E1,-1.0590679E1,7.639603E0,2.0608133E1,5.20378E1,6.420851E1,1.19838524E2,1.2231836E2,5.34072E1,1.6278786E1,4.2705826E1,2.667332E0,-1.3171546E1,4.70378E0,2.6553E1,3.6675476E1,1.436944E1,6.963197E1,3.6671247E0,5.6306072E1,8.184514E1,8.395048E1,1.6098169E2,7.537544E1,1.537381E2,4.515711E1,7.509199E1,3.3637135E1,9.779483E0,6.064888E1,1.519991E0,1.7460587E1,1.0020942E-3,-1.4171985E1,2.8980794E0,2.3300049E1,5.4666407E-2,5.8147884E1,-3.6485865E0,2.0638296E1,4.885093E1,9.196489E0,2.1106134E1,1.13033066E2,6.2528534E1,5.595991E0,-4.7324195E0,7.443099E1,4.498024E1,8.830186E1,1.2967472E1,4.3910236E0,8.63351E-1,1.3078357E2,1.0997531E1,4.8983474E0,2.795789E0,8.753063E0,5.055874E0,2.9102044E0,1.4969543E0,4.2113056E0,3.6824498E-1,8.347843E-1,2.3455648E0,-3.095026E-1,5.76451E-1,3.1978052E0,1.5870186E0,2.732657E-1,-7.385005E-2,2.9380295E-1,1.7688315E0,-1.6190651E-1,8.7560844E-1,-4.6077022E-1,-8.4167606E-1,2.7476766E0,-5.6880003E-1,5.054928E-1,2.0230587E0,-3.9824E-1,8.0154255E-2,2.3852916E0,3.1261997E0,-2.685481E-1,4.491995E-2,1.5079682E0,8.254394E-1,1.9933951E0,2.9443772E0,-2.1287262E-1,5.2658695E-1,1.2313206E0,4.330716E-1,1.033232E1,3.835717E0,2.4674718E0,3.3962033E0,7.5156294E-2,5.1984364E-1,-3.5527718E-1,1.9822127E-1,2.1100554E0,4.4152884E0,2.4837265E0,9.230518E-1,3.0726156E0,4.555992E0,7.72984E-1,9.995454E-2,3.8218E0,7.805833E0],"categories":[],"categories_nodes":[],"categories_segments":[],"categories_sizes":[],"default_left":[0,0,0,0,0,0,0,0,0,0,0,0,0,0,0,0,0,0,0,0,0,0,0,0,0,0,0,0,0,0,0,0,0,0,0,0,0,0,0,0,0,0,0,0,0,0,0,0,0,0,0,0,0,0,0,0,0,0,0,0,0,0,0,0,0,0,0,0,0,0,0,0,0,0,0,0,0,0,0,0,0,0,0,0,0,0,0,0,0,0,0,0,0,0,0,0,0,0,0,0,0,0,0,0,0,0,0,0,0,0,0,0,0,0,0,0,0,0,0,0,0],"id":1,"left_children":[1,3,5,7,9,11,13,15,17,19,21,23,25,27,29,31,33,35,37,39,41,43,45,47,49,51,53,55,57,59,61,63,65,67,69,71,73,75,77,79,81,83,85,87,89,91,93,95,97,99,101,103,105,107,109,111,113,115,117,-1,-1,119,-1,-1,-1,-1,-1,-1,-1,-1,-1,-1,-1,-1,-1,-1,-1,-1,-1,-1,-1,-1,-1,-1,-1,-1,-1,-1,-1,-1,-1,-1,-1,-1,-1,-1,-1,-1,-1,-1,-1,-1,-1,-1,-1,-1,-1,-1,-1,-1,-1,-1,-1,-1,-1,-1,-1,-1,-1,-1,-1],"loss_changes":[2.4817618E6,2.429195E6,6.36973E5,5.0238275E5,4.9296825E5,1.6825962E5,1.435875E5,1.7026312E5,1.2812044E5,4.1375475E5,9.3770195E4,1.00413875E5,1.7505931E5,4.277825E4,6.917225E4,4.7409375E4,7.3536625E4,1.1621119E5,1.6544372E5,7.7743516E4,1.6275312E5,1.2665701E5,2.1681911E5,5.3859844E4,2.5140844E4,3.9485062E4,9.337721E2,4.5508625E4,4.46615E4,6.741672E3,1.57528125E4,2.4353203E3,8.105125E3,6.0601875E4,7.175906E4,6.2409062E4,2.1109656E4,1.28846875E4,8.239353E2,6.226432E4,9.483748E4,1.2553925E5,4.4199306E5,6.5913984E4,1.4578485E4,2.0894688E3,9.2112463E2,4.3381367E3,1.1987594E4,7.4641133E3,1.3586484E4,5.2145625E4,6.03425E3,8.882429E2,2.5519498E2,3.6519812E4,1.7631781E4,1.5126875E3,2.4244958E2,0E0,0E0,1.4226094E4,0E0,0E0,0E0,0E0,0E0,0E0,0E0,0E0,0E0,0E0,0E0,0E0,0E0,0E0,0E0,0E0,0E0,0E0,0E0,0E0,0E0,0E0,0E0,0E0,0E0,0E0,0E0,0E0,0E0,0E0,0E0,0E0,0E0,0E0,0E0,0E0,0E0,0E0,0E0,0E0,0E0,0E0,0E0,0E0,0E0,0E0,0E0,0E0,0E0,0E0,0E0,0E0,0E0,0E0,0E0,0E0,0E0,0E0,0E0],"parents":[2147483647,0,0,1,1,2,2,3,3,4,4,5,5,6,6,7,7,8,8,9,9,10,10,11,11,12,12,13,13,14,14,15,15,16,16,17,17,18,18,19,19,20,20,21,21,22,22,23,23,24,24,25,25,26,26,27,27,28,28,29,29,30,30,31,31,32,32,33,33,34,34,35,35,36,36,37,37,38,38,39,39,40,40,41,41,42,42,43,43,44,44,45,45,46,46,47,47,48,48,49,49,50,50,51,51,52,52,53,53,54,54,55,55,56,56,57,57,58,58,61,61],"right_children":[2,4,6,8,10,12,14,16,18,20,22,24,26,28,30,32,34,36,38,40,42,44,46,48,50,52,54,56,58,60,62,64,66,68,70,72,74,76,78,80,82,84,86,88,90,92,94,96,98,100,102,104,106,108,110,112,114,116,118,-1,-1,120,-1,-1,-1,-1,-1,-1,-1,-1,-1,-1,-1,-1,-1,-1,-1,-1,-1,-1,-1,-1,-1,-1,-1,-1,-1,-1,-1,-1,-1,-1,-1,-1,-1,-1,-1,-1,-1,-1,-1,-1,-1,-1,-1,-1,-1,-1,-1,-1,-1,-1,-1,-1,-1,-1,-1,-1,-1,-1,-1],"split_conditions":[9E0,-7E0,2.1E1,-1.7E1,4E0,1.7E1,4.3E1,-4.1E1,1.7E1,-2E0,1.8E1,3E0,1.9E1,1.7E1,1.5E1,1.3E1,1.7E1,3E0,1.9E1,3E0,1.8E1,3E0,1.9E1,2E0,1.3E1,1E1,9E0,3E0,1.9E1,1.4E1,6.3E1,3E0,1.1E1,6E0,1.9E1,2E0,4E0,1.2E1,9E0,2E0,1.8E1,8E0,1.9E1,2E0,5E0,6E0,7E0,5E0,1.3E1,4E0,1.4E1,2.023E3,2.023E3,1.3E1,1.2E1,2E0,1.4E1,4E0,2.024E3,4.3910236E0,8.63351E-1,2.023E3,1.0997531E1,4.8983474E0,2.795789E0,8.753063E0,5.055874E0,2.9102044E0,1.4969543E0,4.2113056E0,3.6824498E-1,8.347843E-1,2.3455648E0,-3.095026E-1,5.76451E-1,3.1978052E0,1.5870186E0,2.732657E-1,-7.385005E-2,2.9380295E-1,1.7688315E0,-1.6190651E-1,8.7560844E-1,-4.6077022E-1,-8.4167606E-1,2.7476766E0,-5.6880003E-1,5.054928E-1,2.0230587E0,-3.9824E-1,8.0154255E-2,2.3852916E0,3.1261997E0,-2.685481E-1,4.491995E-2,1.5079682E0,8.254394E-1,1.9933951E0,2.9443772E0,-2.1287262E-1,5.2658695E-1,1.2313206E0,4.330716E-1,1.033232E1,3.835717E0,2.4674718E0,3.3962033E0,7.5156294E-2,5.1984364E-1,-3.5527718E-1,1.9822127E-1,2.1100554E0,4.4152884E0,2.4837265E0,9.230518E-1,3.0726156E0,4.555992E0,7.72984E-1,9.995454E-2,3.8218E0,7.805833E0],"split_indices":[4,4,4,4,4,3,4,4,3,4,3,3,3,3,3,3,3,3,3,3,3,3,3,3,4,4,1,3,3,3,4,3,1,3,3,3,3,1,1,3,3,3,3,3,3,1,4,1,4,3,3,0,0,4,1,3,3,1,0,0,0,0,0,0,0,0,0,0,0,0,0,0,0,0,0,0,0,0,0,0,0,0,0,0,0,0,0,0,0,0,0,0,0,0,0,0,0,0,0,0,0,0,0,0,0,0,0,0,0,0,0,0,0,0,0,0,0,0,0,0,0],"split_type":[0,0,0,0,0,0,0,0,0,0,0,0,0,0,0,0,0,0,0,0,0,0,0,0,0,0,0,0,0,0,0,0,0,0,0,0,0,0,0,0,0,0,0,0,0,0,0,0,0,0,0,0,0,0,0,0,0,0,0,0,0,0,0,0,0,0,0,0,0,0,0,0,0,0,0,0,0,0,0,0,0,0,0,0,0,0,0,0,0,0,0,0,0,0,0,0,0,0,0,0,0,0,0,0,0,0,0,0,0,0,0,0,0,0,0,0,0,0,0,0,0],"sum_hessian":[1.7108E4,1.5503E4,1.605E3,1.723E3,1.378E4,1.211E3,3.94E2,4.68E2,1.255E3,1.209E4,1.69E3,1.006E3,2.05E2,3.39E2,5.5E1,3.9E1,4.29E2,1.032E3,2.23E2,1.97E3,1.012E4,1.464E3,2.26E2,2.8E2,7.26E2,1.5E2,5.5E1,2.37E2,1.02E2,3.1E1,2.4E1,1.7E1,2.2E1,3.13E2,1.16E2,2.8E2,7.52E2,1.55E2,6.8E1,3E2,1.67E3,9.527E3,5.93E2,2.92E2,1.172E3,1.1E2,1.16E2,1.22E2,1.58E2,4.12E2,3.14E2,1.9E1,1.31E2,4.5E1,1E1,8.9E1,1.48E2,9.3E1,9E0,2.9E1,2E0,1.8E1,6E0,6E0,1.1E1,1.4E1,8E0,1.67E2,1.46E2,1.02E2,1.4E1,1.24E2,1.56E2,7.4E1,6.78E2,1.38E2,1.7E1,2.9E1,3.9E1,1.83E2,1.17E2,1.41E3,2.6E2,3.33E3,6.197E3,1.27E2,4.66E2,1.66E2,1.26E2,1.89E2,9.83E2,3.6E1,7.4E1,8.4E1,3.2E1,3.5E1,8.7E1,8.6E1,7.2E1,3.7E1,3.75E2,2.44E2,7E1,4E0,1.5E1,4.1E1,9E1,2.5E1,2E1,8E0,2E0,2.8E1,6.1E1,1.25E2,2.3E1,1.1E1,8.2E1,7E0,2E0,7E0,1.1E1],"tree_param":{"num_deleted":"0","num_feature":"6","num_nodes":"121","size_leaf_vector":"1"}},{"base_weights":[2.2940351E-1,-3.8483295E0,3.4018753E1,3.4677242E1,-7.6618E0,2.3872423E1,7.129932E1,9.945004E1,3.0570496E1,-9.305344E0,1.1978482E1,1.875966E1,4.974539E1,5.6601852E1,1.0140584E2,6.320908E1,1.3685803E2,2.4728468E1,5.225832E1,-2.9225645E0,-1.3633606E1,5.9374943E1,-9.167065E0,3.5359554E1,1.1969798E1,6.419124E1,5.0750303E0,6.0533E1,1.4604364E1,9.220327E1,2.267686E2,6.81749E1,-2.2513652E0,1.4827611E2,2.467293E0,4.12705E1,1.7362213E1,6.627138E1,1.6410015E0,-9.554182E-1,1.0478305E-1,-1.8893318E1,-9.381743E0,9.196713E1,5.292454E1,-3.6791532E0,-1.5306737E1,4.760903E1,1.6732767E1,1.807993E1,2.6435978E0,1.1767027E2,5.9294262E1,-1.8980795E0,7.7138176E0,6.623902E1,3.729711E1,1.8160957E1,8.750122E0,9.635398E1,1.1434113E1,1.2176581E1,2.7356863E0,4.2611136E0,2.6629531E0,-1.3454804E-1,-2.3314476E-2,3.75561E0,8.580532E0,1.0439461E0,2.6953247E0,1.6136662E0,5.9136575E-1,5.0786114E0,3.0410035E0,-2.986924E-1,1.4636992E-1,1.0608194E0,-3.0526423E-1,-9.2786753E-1,-9.6054125E-1,6.203778E-1,-5.968107E-1,5.534897E0,3.810787E0,1.8154608E0,3.2423782E0,-7.6834244E-1,-1.4364819E-1,-6.8367517E-1,-8.906498E-1,1.4121149E0,3.2993915E0,2.1458171E-1,1.2017789E0,-1.1052489E-1,1.0033139E0,-3.975163E-1,1.9041276E-1,2.7053733E0,6.504336E0,2.6336508E0,4.646062E0,6.0126554E-2,-2.7682915E-1,-4.3076444E-1,4.153866E-1,3.9911199E0,2.7851312E0,2.9300076E-1,2.0725403E0,9.545752E-1,1.5159622E-1,1.05204776E-1,9.927322E-1,5.058137E0,2.106498E0,9.662273E-2,7.4241424E-1],"categories":[],"categories_nodes":[],"categories_segments":[],"categories_sizes":[],"default_left":[0,0,0,0,0,0,0,0,0,0,0,0,0,0,0,0,0,0,0,0,0,0,0,0,0,0,0,0,0,0,0,0,0,0,0,0,0,0,0,0,0,0,0,0,0,0,0,0,0,0,0,0,0,0,0,0,0,0,0,0,0,0,0,0,0,0,0,0,0,0,0,0,0,0,0,0,0,0,0,0,0,0,0,0,0,0,0,0,0,0,0,0,0,0,0,0,0,0,0,0,0,0,0,0,0,0,0,0,0,0,0,0,0,0,0,0,0,0,0],"id":2,"left_children":[1,3,5,7,9,11,13,15,17,19,21,23,25,27,29,31,33,35,37,39,41,43,45,47,49,51,53,55,57,59,61,63,65,67,-1,69,71,73,75,-1,77,79,81,83,85,87,89,91,93,95,97,99,101,103,105,107,109,111,113,115,117,-1,-1,-1,-1,-1,-1,-1,-1,-1,-1,-1,-1,-1,-1,-1,-1,-1,-1,-1,-1,-1,-1,-1,-1,-1,-1,-1,-1,-1,-1,-1,-1,-1,-1,-1,-1,-1,-1,-1,-1,-1,-1,-1,-1,-1,-1,-1,-1,-1,-1,-1,-1,-1,-1,-1,-1,-1,-1],"loss_changes":[2.3414935E6,2.2281018E6,6.905155E5,3.6032325E5,4.455385E5,1.8955331E5,1.6727362E5,1.0116119E5,1.61645E5,3.51754E5,1.0689151E6,1.3528078E5,1.5261062E5,4.2867E4,1.25606E5,1.4131266E4,3.1652812E4,1.2296406E5,1.9282169E5,2.5220522E5,1.6951762E5,6.429925E4,2.480984E4,7.883416E4,4.873078E4,3.990025E4,1.1002742E3,2.9614938E4,3.4079688E2,3.9128188E4,9.74875E3,5.632172E3,1.884079E0,4.515625E4,0E0,7.926681E4,5.7720484E4,3.481125E4,6.0523096E2,0E0,5.687297E5,5.125E0,2.3380928E5,7.2E3,5.25205E4,3.6400483E3,1.1809062E3,7.288316E4,1.2616582E4,2.0881453E4,4.225296E3,4.0104844E3,3.2065938E4,1.984448E2,4.8859106E2,2.3175688E4,6.2861016E3,1.3921191E2,7.700345E2,2.54635E4,1.9838849E2,0E0,0E0,0E0,0E0,0E0,0E0,0E0,0E0,0E0,0E0,0E0,0E0,0E0,0E0,0E0,0E0,0E0,0E0,0E0,0E0,0E0,0E0,0E0,0E0,0E0,0E0,0E0,0E0,0E0,0E0,0E0,0E0,0E0,0E0,0E0,0E0,0E0,0E0,0E0,0E0,0E0,0E0,0E0,0E0,0E0,0E0,0E0,0E0,0E0,0E0,0E0,0E0,0E0,0E0,0E0,0E0,0E0,0E0],"parents":[2147483647,0,0,1,1,2,2,3,3,4,4,5,5,6,6,7,7,8,8,9,9,10,10,11,11,12,12,13,13,14,14,15,15,16,16,17,17,18,18,19,19,20,20,21,21,22,22,23,23,24,24,25,25,26,26,27,27,28,28,29,29,30,30,31,31,32,32,33,33,35,35,36,36,37,37,38,38,40,40,41,41,42,42,43,43,44,44,45,45,46,46,47,47,48,48,49,49,50,50,51,51,52,52,53,53,54,54,55,55,56,56,57,57,58,58,59,59,60,60],"right_children":[2,4,6,8,10,12,14,16,18,20,22,24,26,28,30,32,34,36,38,40,42,44,46,48,50,52,54,56,58,60,62,64,66,68,-1,70,72,74,76,-1,78,80,82,84,86,88,90,92,94,96,98,100,102,104,106,108,110,112,114,116,118,-1,-1,-1,-1,-1,-1,-1,-1,-1,-1,-1,-1,-1,-1,-1,-1,-1,-1,-1,-1,-1,-1,-1,-1,-1,-1,-1,-1,-1,-1,-1,-1,-1,-1,-1,-1,-1,-1,-1,-1,-1,-1,-1,-1,-1,-1,-1,-1,-1,-1,-1,-1,-1,-1,-1,-1,-1,-1],"split_conditions":[8E0,-9E0,2.1E1,-3.3E1,1.8E1,1.7E1,1.7E1,1.7E1,1.7E1,8E0,1.9E1,3E0,1.9E1,1.4E1,6.3E1,1.3E1,4.5E1,3E0,1.9E1,1E0,1.2E1,1E1,3E1,3E1,2.9E1,5E0,1.1E1,3E1,1.5E1,1.9E1,4.3E1,3E0,2.7E1,2.5E1,2.467293E0,2E0,-1.7E1,7E0,6E0,-9.554182E-1,3E0,1E1,1.3E1,5E0,2.5E1,3E0,4.3E1,2E0,2E0,4E0,4E0,5E0,4.1E1,2.1E1,3E0,3E0,3.3E1,3.8E1,1E1,4.7E1,1E1,1.2176581E1,2.7356863E0,4.2611136E0,2.6629531E0,-1.3454804E-1,-2.3314476E-2,3.75561E0,8.580532E0,1.0439461E0,2.6953247E0,1.6136662E0,5.9136575E-1,5.0786114E0,3.0410035E0,-2.986924E-1,1.4636992E-1,1.0608194E0,-3.0526423E-1,-9.2786753E-1,-9.6054125E-1,6.203778E-1,-5.968107E-1,5.534897E0,3.810787E0,1.8154608E0,3.2423782E0,-7.6834244E-1,-1.4364819E-1,-6.8367517E-1,-8.906498E-1,1.4121149E0,3.2993915E0,2.1458171E-1,1.2017789E0,-1.1052489E-1,1.0033139E0,-3.975163E-1,1.9041276E-1,2.7053733E0,6.504336E0,2.6336508E0,4.646062E0,6.0126554E-2,-2.7682915E-1,-4.3076444E-1,4.153866E-1,3.9911199E0,2.7851312E0,2.9300076E-1,2.0725403E0,9.545752E-1,1.5159622E-1,1.05204776E-1,9.927322E-1,5.058137E0,2.106498E0,9.662273E-2,7.4241424E-1],"split_indices":[4,4,4,4,3,3,3,3,3,3,3,3,3,3,4,3,2,3,3,3,3,2,2,2,2,2,4,2,3,3,2,3,2,2,0,3,4,2,2,0,3,3,3,2,2,2,2,3,3,3,3,1,2,2,2,3,2,2,1,2,2,0,0,0,0,0,0,0,0,0,0,0,0,0,0,0,0,0,0,0,0,0,0,0,0,0,0,0,0,0,0,0,0,0,0,0,0,0,0,0,0,0,0,0,0,0,0,0,0,0,0,0,0,0,0,0,0,0,0],"split_type":[0,0,0,0,0,0,0,0,0,0,0,0,0,0,0,0,0,0,0,0,0,0,0,0,0,0,0,0,0,0,0,0,0,0,0,0,0,0,0,0,0,0,0,0,0,0,0,0,0,0,0,0,0,0,0,0,0,0,0,0,0,0,0,0,0,0,0,0,0,0,0,0,0,0,0,0,0,0,0,0,0,0,0,0,0,0,0,0,0,0,0,0,0,0,0,0,0,0,0,0,0,0,0,0,0,0,0,0,0,0,0,0,0,0,0,0,0,0,0],"sum_hessian":[1.6992E4,1.5163E4,1.829E3,1.365E3,1.3798E4,1.439E3,3.9E2,8E1,1.285E3,1.2733E4,1.065E3,1.203E3,2.36E2,2.64E2,1.26E2,4.2E1,3.8E1,1.014E3,2.71E2,5.146E3,7.587E3,3.28E2,7.37E2,3.48E2,8.55E2,1.78E2,5.8E1,2.41E2,2.3E1,1.19E2,7E0,3.9E1,3E0,3.3E1,5E0,3.11E2,7.03E2,2.12E2,5.9E1,8.1E2,4.336E3,3.39E3,4.197E3,5.2E1,2.76E2,3.9E2,3.47E2,2.09E2,1.39E2,5.16E2,3.39E2,1.3E1,1.65E2,1.6E1,4.2E1,1.92E2,4.9E1,1.3E1,1E1,1.13E2,6E0,6E0,1E0,1.6E1,2.3E1,2E0,1E0,9E0,2.4E1,1.2E2,1.91E2,1.89E2,5.14E2,2.6E1,1.86E2,8E0,5.1E1,9.85E2,3.351E3,1.676E3,1.714E3,4.4E2,3.757E3,2.1E1,3.1E1,1.17E2,1.59E2,2.4E1,3.66E2,2.14E2,1.33E2,1.03E2,1.06E2,5.2E1,8.7E1,4.6E1,4.7E2,3.3E1,3.06E2,3E0,1E1,1.4E2,2.5E1,9E0,7E0,1E0,4.1E1,8.1E1,1.11E2,6E0,4.3E1,1.2E1,1E0,7E0,3E0,1.03E2,1E1,2E0,4E0],"tree_param":{"num_deleted":"0","num_feature":"6","num_nodes":"119","size_leaf_vector":"1"}},{"base_weights":[3.626666E-2,-9.021532E0,6.3932648E1,-1.5771811E1,7.0188975E0,5.4499115E1,1.4938354E2,-1.7668283E1,-9.302407E0,1.0896487E0,1.5320541E1,4.2438152E1,7.784946E1,1.2212975E2,2.3415305E2,-1.80841E1,-1.5549359E1,-1.139548E1,-6.873828E0,-7.407231E-1,5.826764E0,1.1429377E1,2.1296978E1,3.5069233E1,5.0920494E1,3.481849E0,8.722983E1,5.703248E0,6.887616E0,1.68419E1,1.0480173E1,-1.8395096E1,-1.7624619E1,-7.952027E-1,-7.2333896E-1,-1.2683831E1,-1.0292791E1,-8.02359E0,-5.9307632E0,-2.4474955E0,1.1623359E0,7.2009287E0,5.3621845E0,9.379032E0,1.3921689E1,1.8870586E1,2.509448E1,3.0335505E1,3.881319E1,4.76623E1,2.8105628E0,4.538814E0,7.798554E1,-9.4824356E-1,-9.088053E-1,-8.925582E-1,-8.559117E-1,-5.60863E-1,-6.510963E-1,-5.337363E-1,-4.67041E-1,-3.5561267E-1,-5.1798886E-1,-1.6168919E-1,-3.4152737E-1,-1.6959086E-1,-5.513632E-2,-1.4472328E-2,7.597694E-2,2.7447528E-1,4.8937187E-1,3.0201894E-1,1.6049567E-1,5.187714E-1,3.3912998E-1,6.3726175E-1,7.7191556E-1,8.6513805E-1,1.0326662E0,1.318242E0,1.0880822E0,1.5318426E0,9.206132E-1,2.052119E0,1.8402861E0,2.4854076E0,2.0958052E0,3.2882576E0,4.1796975E0],"categories":[],"categories_nodes":[],"categories_segments":[],"categories_sizes":[],"default_left":[0,0,0,0,0,0,0,0,0,0,0,0,0,0,0,0,0,0,0,0,0,0,0,0,0,0,0,0,0,0,0,0,0,0,0,0,0,0,0,0,0,0,0,0,0,0,0,0,0,0,0,0,0,0,0,0,0,0,0,0,0,0,0,0,0,0,0,0,0,0,0,0,0,0,0,0,0,0,0,0,0,0,0,0,0,0,0,0,0],"id":3,"left_children":[1,3,5,7,9,11,13,15,17,19,21,23,25,27,29,31,33,35,37,39,41,43,45,47,49,-1,51,-1,-1,-1,-1,53,55,-1,-1,57,59,61,63,65,67,69,71,73,75,77,79,81,83,85,-1,-1,87,-1,-1,-1,-1,-1,-1,-1,-1,-1,-1,-1,-1,-1,-1,-1,-1,-1,-1,-1,-1,-1,-1,-1,-1,-1,-1,-1,-1,-1,-1,-1,-1,-1,-1,-1,-1],"loss_changes":[9.873076E6,1.6178826E6,1.699186E6,1.28857E5,2.1784217E5,5.343235E5,4.56564E5,6.883E3,1.2050156E4,2.2400688E4,4.2639344E4,7.7034E4,4.392225E4,4.57225E3,5.544125E4,6.46E2,2.8484375E2,1.6878906E3,1.1527344E3,6.057282E3,4.2104297E2,5.587625E3,6.216E3,1.0838625E4,7.388125E3,0E0,2.72325E3,0E0,0E0,0E0,0E0,1.57875E2,1.16875E1,0E0,0E0,1.4448438E2,1.5298438E2,9.823301E2,1.4630527E3,1.2445654E3,4.5782812E2,7.3863574E2,7.717451E2,1.5258516E3,7.0071094E2,8.920156E2,6.1175E2,5.281875E2,1.675625E2,2.2426875E3,0E0,0E0,6.7075E2,0E0,0E0,0E0,0E0,0E0,0E0,0E0,0E0,0E0,0E0,0E0,0E0,0E0,0E0,0E0,0E0,0E0,0E0,0E0,0E0,0E0,0E0,0E0,0E0,0E0,0E0,0E0,0E0,0E0,0E0,0E0,0E0,0E0,0E0,0E0,0E0],"parents":[2147483647,0,0,1,1,2,2,3,3,4,4,5,5,6,6,7,7,8,8,9,9,10,10,11,11,12,12,13,13,14,14,15,15,16,16,17,17,18,18,19,19,20,20,21,21,22,22,23,23,24,24,26,26,31,31,32,32,35,35,36,36,37,37,38,38,39,39,40,40,41,41,42,42,43,43,44,44,45,45,46,46,47,47,48,48,49,49,52,52],"right_children":[2,4,6,8,10,12,14,16,18,20,22,24,26,28,30,32,34,36,38,40,42,44,46,48,50,-1,52,-1,-1,-1,-1,54,56,-1,-1,58,60,62,64,66,68,70,72,74,76,78,80,82,84,86,-1,-1,88,-1,-1,-1,-1,-1,-1,-1,-1,-1,-1,-1,-1,-1,-1,-1,-1,-1,-1,-1,-1,-1,-1,-1,-1,-1,-1,-1,-1,-1,-1,-1,-1,-1,-1,-1,-1],"split_conditions":[5.4E1,1.6E1,1.44E2,6E0,3.1E1,9.2E1,2.14E2,3E0,1.1E1,2.6E1,4.2E1,7.1E1,1.12E2,1.73E2,2.023E3,1E0,5E0,8E0,7E0,2.1E1,2.023E3,3.6E1,4.9E1,6.1E1,8.3E1,3.481849E0,1E1,5.703248E0,6.887616E0,1.68419E1,1.0480173E1,5E0,2E0,-7.952027E-1,-7.2333896E-1,4E0,1E1,6E0,1.3E1,1.9E1,2.2E1,2.9E1,1E1,1E1,8E0,4.6E1,1E1,1.9E1,7E0,1E1,2.8105628E0,4.538814E0,1.1E1,-9.4824356E-1,-9.088053E-1,-8.925582E-1,-8.559117E-1,-5.60863E-1,-6.510963E-1,-5.337363E-1,-4.67041E-1,-3.5561267E-1,-5.1798886E-1,-1.6168919E-1,-3.4152737E-1,-1.6959086E-1,-5.513632E-2,-1.4472328E-2,7.597694E-2,2.7447528E-1,4.8937187E-1,3.0201894E-1,1.6049567E-1,5.187714E-1,3.3912998E-1,6.3726175E-1,7.7191556E-1,8.6513805E-1,1.0326662E0,1.318242E0,1.0880822E0,1.5318426E0,9.206132E-1,2.052119E0,1.8402861E0,2.4854076E0,2.0958052E0,3.2882576E0,4.1796975E0],"split_indices":[5,5,5,5,5,5,5,5,5,5,5,5,5,5,0,5,5,5,3,5,0,5,5,5,5,0,1,0,0,0,0,3,5,0,0,3,5,3,3,5,5,5,1,1,3,5,1,3,1,1,0,0,1,0,0,0,0,0,0,0,0,0,0,0,0,0,0,0,0,0,0,0,0,0,0,0,0,0,0,0,0,0,0,0,0,0,0,0,0],"split_type":[0,0,0,0,0,0,0,0,0,0,0,0,0,0,0,0,0,0,0,0,0,0,0,0,0,0,0,0,0,0,0,0,0,0,0,0,0,0,0,0,0,0,0,0,0,0,0,0,0,0,0,0,0,0,0,0,0,0,0,0,0,0,0,0,0,0,0,0,0,0,0,0,0,0,0,0,0,0,0,0,0,0,0,0,0,0,0,0,0],"sum_hessian":[1.7057E4,1.494E4,2.117E3,1.0515E4,4.425E3,1.908E3,2.09E2,8.13E3,2.385E3,2.582E3,1.843E3,1.26E3,6.48E2,1.6E2,4.9E1,6.79E3,1.34E3,1.279E3,1.106E3,1.863E3,7.19E2,1.118E3,7.25E2,6.77E2,5.83E2,3.5E2,2.98E2,1.11E2,4.9E1,7E0,4.2E1,4.026E3,2.764E3,9.99E2,3.41E2,5.85E2,6.94E2,4.95E2,6.11E2,9.82E2,8.81E2,1.78E2,5.41E2,6.16E2,5.02E2,4.46E2,2.79E2,3.03E2,3.74E2,3.67E2,2.16E2,2.09E2,8.9E1,1.094E3,2.932E3,1.886E3,8.78E2,1.16E2,4.69E2,4.88E2,2.06E2,3.59E2,1.36E2,1.54E2,4.57E2,5.76E2,4.06E2,1.74E2,7.07E2,1.09E2,6.9E1,4.1E2,1.31E2,4.43E2,1.73E2,2.88E2,2.14E2,2.43E2,2.03E2,1.97E2,8.2E1,2.94E2,9E0,1.68E2,2.06E2,2.65E2,1.02E2,3.2E1,5.7E1],"tree_param":{"num_deleted":"0","num_feature":"6","num_nodes":"89","size_leaf_vector":"1"}},{"base_weights":[1.1456768E-2,-8.631308E0,6.0715027E1,-1.5219404E1,6.1295185E0,4.965453E1,1.2499117E2,-1.680683E1,-9.250519E0,1.2832844E0,1.5661287E1,3.9250126E1,6.907764E1,1.0675493E2,2.1550945E2,-1.720206E1,-1.4784591E1,-1.123172E1,-7.402454E0,-1.2590601E0,5.5559807E0,1.2814168E1,2.1863304E1,3.1394287E1,4.4580917E1,6.1778805E1,7.593251E1,9.662092E1,6.063193E0,3.0251135E2,9.614395E0,-1.7841825E1,-1.6999334E1,-7.5487393E-1,-6.9182867E-1,-1.216769E1,-1.0036993E1,-8.447256E0,-6.510195E0,-3.0509415E0,5.3601927E-1,3.7767234E0,6.7022386E0,9.29582E0,1.4415586E1,2.324743E1,1.817773E1,2.8258099E1,3.4214195E1,4.014562E1,4.776891E1,3.1995254E0,2.7637012E0,2.2485006E0,3.814061E0,5.072273E0,4.2417703E0,2.1086485E1,1.0410094E1,-8.6239636E-1,-9.190982E-1,-8.56417E-1,-8.101773E-1,-6.3686335E-1,-5.7389975E-1,-4.3668053E-1,-5.243992E-1,-3.8668215E-1,-5.05341E-1,-2.7361318E-1,-3.9944208E-1,-1.9276348E-1,-9.1981694E-2,-1.4666589E-2,5.368352E-2,4.3563265E-2,2.0910771E-1,3.6673775E-1,2.4364375E-1,5.2397364E-1,3.637362E-1,6.551007E-1,8.0339926E-1,1.0340488E0,1.2705387E0,7.746497E-1,9.8688823E-1,1.4331274E0,6.650083E-1,1.8345417E0,1.5841967E0,2.1165974E0,1.7578119E0,2.2952192E0,2.6209762E0],"categories":[],"categories_nodes":[],"categories_segments":[],"categories_sizes":[],"default_left":[0,0,0,0,0,0,0,0,0,0,0,0,0,0,0,0,0,0,0,0,0,0,0,0,0,0,0,0,0,0,0,0,0,0,0,0,0,0,0,0,0,0,0,0,0,0,0,0,0,0,0,0,0,0,0,0,0,0,0,0,0,0,0,0,0,0,0,0,0,0,0,0,0,0,0,0,0,0,0,0,0,0,0,0,0,0,0,0,0,0,0,0,0,0,0],"id":4,"left_children":[1,3,5,7,9,11,13,15,17,19,21,23,25,27,29,31,33,35,37,39,41,43,45,47,49,51,53,55,-1,57,-1,59,61,-1,-1,63,65,67,69,71,73,75,77,79,81,83,85,87,89,91,93,-1,-1,-1,-1,-1,-1,-1,-1,-1,-1,-1,-1,-1,-1,-1,-1,-1,-1,-1,-1,-1,-1,-1,-1,-1,-1,-1,-1,-1,-1,-1,-1,-1,-1,-1,-1,-1,-1,-1,-1,-1,-1,-1,-1],"loss_changes":[8.907451E6,1.4453595E6,1.4981135E6,9.721125E4,2.1186803E5,3.62458E5,4.887145E5,6.23225E3,7.8291094E3,3.3051227E4,2.7018906E4,4.7974375E4,2.67795E4,2.651225E4,4.4867E4,5.765E2,1.868125E2,1.0419531E3,9.9004297E2,6.138849E3,2.289504E3,5.8496875E3,2.0515469E3,3.2781875E3,7.980125E3,9.2275E2,2.45E1,3.77625E2,0E0,1.3385875E4,0E0,2.0003125E2,2.53375E2,0E0,0E0,8.125781E1,1.805586E2,5.29375E2,8.9093555E2,9.233535E2,4.2570496E2,5.2290576E2,7.6150195E2,7.251758E2,1.369625E3,1.4121719E3,2.679961E2,1.028375E3,3.9159375E2,1.7734062E3,1.0795E3,0E0,0E0,0E0,0E0,0E0,0E0,0E0,0E0,0E0,0E0,0E0,0E0,0E0,0E0,0E0,0E0,0E0,0E0,0E0,0E0,0E0,0E0,0E0,0E0,0E0,0E0,0E0,0E0,0E0,0E0,0E0,0E0,0E0,0E0,0E0,0E0,0E0,0E0,0E0,0E0,0E0,0E0,0E0,0E0],"parents":[2147483647,0,0,1,1,2,2,3,3,4,4,5,5,6,6,7,7,8,8,9,9,10,10,11,11,12,12,13,13,14,14,15,15,16,16,17,17,18,18,19,19,20,20,21,21,22,22,23,23,24,24,25,25,26,26,27,27,29,29,31,31,32,32,35,35,36,36,37,37,38,38,39,39,40,40,41,41,42,42,43,43,44,44,45,45,46,46,47,47,48,48,49,49,50,50],"right_children":[2,4,6,8,10,12,14,16,18,20,22,24,26,28,30,32,34,36,38,40,42,44,46,48,50,52,54,56,-1,58,-1,60,62,-1,-1,64,66,68,70,72,74,76,78,80,82,84,86,88,90,92,94,-1,-1,-1,-1,-1,-1,-1,-1,-1,-1,-1,-1,-1,-1,-1,-1,-1,-1,-1,-1,-1,-1,-1,-1,-1,-1,-1,-1,-1,-1,-1,-1,-1,-1,-1,-1,-1,-1,-1,-1,-1,-1,-1,-1],"split_conditions":[5.4E1,1.5E1,1.3E2,6E0,3.3E1,8.9E1,2.14E2,3E0,1E1,2.5E1,4.6E1,6.5E1,1.05E2,1.57E2,2.023E3,5E0,5E0,8E0,7E0,2E1,2.8E1,3.6E1,1E1,5.9E1,7.5E1,1E1,2E0,1E1,6.063193E0,7E0,9.614395E0,4E0,2E0,-7.5487393E-1,-6.9182867E-1,7E0,6E0,6E0,1.5E1,1.8E1,2.2E1,2E0,1E1,9E0,4.1E1,4.9E1,4.9E1,1.9E1,7E0,1E1,8.5E1,3.1995254E0,2.7637012E0,2.2485006E0,3.814061E0,5.072273E0,4.2417703E0,2.1086485E1,1.0410094E1,-8.6239636E-1,-9.190982E-1,-8.56417E-1,-8.101773E-1,-6.3686335E-1,-5.7389975E-1,-4.3668053E-1,-5.243992E-1,-3.8668215E-1,-5.05341E-1,-2.7361318E-1,-3.9944208E-1,-1.9276348E-1,-9.1981694E-2,-1.4666589E-2,5.368352E-2,4.3563265E-2,2.0910771E-1,3.6673775E-1,2.4364375E-1,5.2397364E-1,3.637362E-1,6.551007E-1,8.0339926E-1,1.0340488E0,1.2705387E0,7.746497E-1,9.8688823E-1,1.4331274E0,6.650083E-1,1.8345417E0,1.5841967E0,2.1165974E0,1.7578119E0,2.2952192E0,2.6209762E0],"split_indices":[5,5,5,5,5,5,5,5,5,5,5,5,5,5,0,3,5,5,3,5,5,5,1,5,5,1,3,1,0,1,0,3,5,0,0,5,3,3,3,5,5,3,1,1,5,5,5,3,1,1,5,0,0,0,0,0,0,0,0,0,0,0,0,0,0,0,0,0,0,0,0,0,0,0,0,0,0,0,0,0,0,0,0,0,0,0,0,0,0,0,0,0,0,0,0],"split_type":[0,0,0,0,0,0,0,0,0,0,0,0,0,0,0,0,0,0,0,0,0,0,0,0,0,0,0,0,0,0,0,0,0,0,0,0,0,0,0,0,0,0,0,0,0,0,0,0,0,0,0,0,0,0,0,0,0,0,0,0,0,0,0,0,0,0,0,0,0,0,0,0,0,0,0,0,0,0,0,0,0,0,0,0,0,0,0,0,0,0,0,0,0,0,0],"sum_hessian":[1.6976E4,1.4861E4,2.115E3,1.0275E4,4.586E3,1.806E3,3.09E2,8.115E3,2.16E3,3.041E3,1.545E3,1.178E3,6.28E2,2.59E2,5E1,6.782E3,1.333E3,1.04E3,1.12E3,1.907E3,1.134E3,1.061E3,4.84E2,4.79E2,6.99E2,3.09E2,3.19E2,1.57E2,1.02E2,8E0,4.2E1,1.611E3,5.171E3,9.91E2,3.42E2,5.78E2,4.62E2,5.12E2,6.08E2,9.54E2,9.53E2,4.46E2,6.88E2,3.34E2,7.27E2,3.48E2,1.36E2,2.32E2,2.47E2,2.98E2,4.01E2,2.24E2,8.5E1,5E0,3.14E2,1.06E2,5.1E1,2E0,6E0,7.83E2,8.28E2,4.432E3,7.39E2,3.07E2,2.71E2,1.24E2,3.38E2,3.62E2,1.5E2,3.6E2,2.48E2,5.72E2,3.82E2,3.75E2,5.78E2,5.5E1,3.91E2,5.09E2,1.79E2,2.08E2,1.26E2,4.1E2,3.17E2,1.64E2,1.84E2,5.4E1,8.2E1,2.25E2,7E0,1.18E2,1.29E2,2.02E2,9.6E1,2.94E2,1.07E2],"tree_param":{"num_deleted":"0","num_feature":"6","num_nodes":"95","size_leaf_vector":"1"}},{"base_weights":[6.320661E-2,-8.19904E0,5.763387E1,-1.4274677E1,6.4620996E0,4.7186134E1,1.17707825E2,-1.5813958E1,-7.8841033E0,1.2141451E0,1.3863872E1,3.725891E1,6.6099014E1,1.01233315E2,2.0003447E2,-1.6330778E1,-1.3681586E1,-1.0303204E1,-6.4608397E0,-9.966838E-1,4.4435434E0,1.149386E1,2.172347E1,2.9889406E1,4.2587204E1,5.8943512E1,7.246638E1,4.5741453E0,1.16352974E2,5.708299E0,1.0337018E1,-1.6620096E1,-1.590399E1,-1.2082126E1,-1.4544861E1,-9.163957E0,-1.2413209E1,-4.549919E0,-8.167052E0,5.777551E-1,-3.875478E0,6.6483526E0,1.4087297E0,1.4229169E1,7.36797E0,2.6116552E1,1.7392815E1,3.343653E1,2.4241917E1,4.4312733E1,3.40069E1,3.1660411E0,5.116934E1,7.884013E1,3.327372E0,6.0081663E0,4.204565E0,-8.5691947E-1,-8.203837E-1,-7.5211406E-1,-8.101854E-1,-6.444771E-1,-5.5357337E-1,-6.874685E-1,-7.544128E-1,-3.1212538E-1,-4.900909E-1,-5.724116E-1,-6.682012E-1,-2.605007E-1,-1.545295E-1,-4.7086826E-1,-3.4787366E-1,-5.4546047E-2,1.11424066E-1,-2.558156E-1,-1.0166796E-1,2.3026393E-1,4.0719706E-1,1.4857091E-1,-5.146293E-2,5.596082E-1,8.310332E-1,2.2265224E-1,4.9812862E-1,1.3673391E0,1.0394268E0,9.425869E-1,6.4569396E-1,1.4728707E0,1.8208674E0,1.3094575E0,8.4763986E-1,1.9349979E0,2.3697631E0,1.8343318E0,1.4583583E0,2.5741072E0,3.955601E-1,3.4611099E0,4.1991744E0],"categories":[],"categories_nodes":[],"categories_segments":[],"categories_sizes":[],"default_left":[0,0,0,0,0,0,0,0,0,0,0,0,0,0,0,0,0,0,0,0,0,0,0,0,0,0,0,0,0,0,0,0,0,0,0,0,0,0,0,0,0,0,0,0,0,0,0,0,0,0,0,0,0,0,0,0,0,0,0,0,0,0,0,0,0,0,0,0,0,0,0,0,0,0,0,0,0,0,0,0,0,0,0,0,0,0,0,0,0,0,0,0,0,0,0,0,0,0,0,0,0],"id":5,"left_children":[1,3,5,7,9,11,13,15,17,19,21,23,25,27,29,31,33,35,37,39,41,43,45,47,49,51,53,-1,55,-1,-1,57,59,61,63,65,67,69,71,73,75,77,79,81,83,85,87,89,91,93,95,-1,97,99,-1,-1,-1,-1,-1,-1,-1,-1,-1,-1,-1,-1,-1,-1,-1,-1,-1,-1,-1,-1,-1,-1,-1,-1,-1,-1,-1,-1,-1,-1,-1,-1,-1,-1,-1,-1,-1,-1,-1,-1,-1,-1,-1,-1,-1,-1,-1],"loss_changes":[8.152386E6,1.3351598E6,1.344493E6,1.0411675E5,1.705867E5,3.41875E5,4.1105E5,9.187E3,7.0226016E3,1.836046E4,3.3689375E4,4.604375E4,2.443225E4,2.87175E4,6.340125E3,5.8375E2,2.1329062E3,1.7155469E3,4.1981484E3,6.923345E3,6.982924E3,1.5717547E4,7.55525E3,9.385875E3,8.8125E3,7.037E3,7.165125E3,0E0,2.311125E3,0E0,0E0,1.67E2,4.789375E2,3.403828E2,2.598125E2,8.668242E2,8.922656E1,5.763252E2,9.704375E2,2.723904E3,1.2239087E3,1.8111309E3,1.6831875E3,5.9294062E3,4.1985215E3,7.883281E2,1.161457E3,2.6041562E3,2.3947422E3,8.14875E3,4.9921875E2,0E0,1.1353438E3,1.7550625E3,0E0,0E0,0E0,0E0,0E0,0E0,0E0,0E0,0E0,0E0,0E0,0E0,0E0,0E0,0E0,0E0,0E0,0E0,0E0,0E0,0E0,0E0,0E0,0E0,0E0,0E0,0E0,0E0,0E0,0E0,0E0,0E0,0E0,0E0,0E0,0E0,0E0,0E0,0E0,0E0,0E0,0E0,0E0,0E0,0E0,0E0,0E0],"parents":[2147483647,0,0,1,1,2,2,3,3,4,4,5,5,6,6,7,7,8,8,9,9,10,10,11,11,12,12,13,13,14,14,15,15,16,16,17,17,18,18,19,19,20,20,21,21,22,22,23,23,24,24,25,25,26,26,28,28,31,31,32,32,33,33,34,34,35,35,36,36,37,37,38,38,39,39,40,40,41,41,42,42,43,43,44,44,45,45,46,46,47,47,48,48,49,49,50,50,52,52,53,53],"right_children":[2,4,6,8,10,12,14,16,18,20,22,24,26,28,30,32,34,36,38,40,42,44,46,48,50,52,54,-1,56,-1,-1,58,60,62,64,66,68,70,72,74,76,78,80,82,84,86,88,90,92,94,96,-1,98,100,-1,-1,-1,-1,-1,-1,-1,-1,-1,-1,-1,-1,-1,-1,-1,-1,-1,-1,-1,-1,-1,-1,-1,-1,-1,-1,-1,-1,-1,-1,-1,-1,-1,-1,-1,-1,-1,-1,-1,-1,-1,-1,-1,-1,-1,-1,-1],"split_conditions":[5.4E1,1.6E1,1.3E2,7E0,3.1E1,8.9E1,2.14E2,3E0,1E1,2.4E1,4.7E1,6.6E1,1.05E2,1.57E2,5E0,1E0,0E0,2E0,0E0,3E0,3E0,5E0,2E0,6E0,1.7E1,1E1,1E0,4.5741453E0,3.8E1,5.708299E0,1.0337018E1,5E0,0E0,5E0,2E0,-6E0,4E0,1.4E1,1.3E1,2E1,2.1E1,2.7E1,9E0,3.6E1,3.7E1,1.5E1,1.6E1,5.9E1,2E1,7.3E1,1.4E1,3.1660411E0,4.9E1,1.12E2,3.327372E0,6.0081663E0,4.204565E0,-8.5691947E-1,-8.203837E-1,-7.5211406E-1,-8.101854E-1,-6.444771E-1,-5.5357337E-1,-6.874685E-1,-7.544128E-1,-3.1212538E-1,-4.900909E-1,-5.724116E-1,-6.682012E-1,-2.605007E-1,-1.545295E-1,-4.7086826E-1,-3.4787366E-1,-5.4546047E-2,1.11424066E-1,-2.558156E-1,-1.0166796E-1,2.3026393E-1,4.0719706E-1,1.4857091E-1,-5.146293E-2,5.596082E-1,8.310332E-1,2.2265224E-1,4.9812862E-1,1.3673391E0,1.0394268E0,9.425869E-1,6.4569396E-1,1.4728707E0,1.8208674E0,1.3094575E0,8.4763986E-1,1.9349979E0,2.3697631E0,1.8343318E0,1.4583583E0,2.5741072E0,3.955601E-1,3.4611099E0,4.1991744E0],"split_indices":[5,5,5,5,5,5,5,5,5,5,5,5,5,5,2,5,4,4,4,4,4,4,4,4,4,4,4,0,4,0,0,3,4,5,4,4,4,5,5,5,5,5,4,5,5,3,4,5,4,5,3,0,4,5,0,0,0,0,0,0,0,0,0,0,0,0,0,0,0,0,0,0,0,0,0,0,0,0,0,0,0,0,0,0,0,0,0,0,0,0,0,0,0,0,0,0,0,0,0,0,0],"split_type":[0,0,0,0,0,0,0,0,0,0,0,0,0,0,0,0,0,0,0,0,0,0,0,0,0,0,0,0,0,0,0,0,0,0,0,0,0,0,0,0,0,0,0,0,0,0,0,0,0,0,0,0,0,0,0,0,0,0,0,0,0,0,0,0,0,0,0,0,0,0,0,0,0,0,0,0,0,0,0,0,0,0,0,0,0,0,0,0,0,0,0,0,0,0,0,0,0,0,0,0,0],"sum_hessian":[1.7137E4,1.4987E4,2.15E3,1.0596E4,4.391E3,1.833E3,3.17E2,8.538E3,2.058E3,2.57E3,1.821E3,1.204E3,6.29E2,2.66E2,5.1E1,6.867E3,1.671E3,7.6E2,1.298E3,1.526E3,1.044E3,1.401E3,4.2E2,5.08E2,6.96E2,3.01E2,3.28E2,1.66E2,1E2,5E0,4.6E1,4.07E3,2.797E3,5.91E2,1.08E3,4.97E2,2.63E2,6.14E2,6.84E2,9.87E2,5.39E2,6.04E2,4.4E2,8.41E2,5.6E2,2.06E2,2.14E2,3.09E2,1.99E2,5.76E2,1.2E2,1.88E2,1.13E2,1.52E2,1.76E2,8.7E1,1.3E1,1.16E3,2.91E3,7.35E2,2.062E3,3.22E2,2.69E2,4.49E2,6.31E2,9.1E1,4.06E2,1.37E2,1.26E2,4.21E2,1.93E2,3.33E2,3.51E2,4.91E2,4.96E2,3.21E2,2.18E2,2.57E2,3.47E2,2.68E2,1.72E2,3.73E2,4.68E2,2.65E2,2.95E2,1.64E2,4.2E1,1.59E2,5.5E1,1.37E2,1.72E2,1.55E2,4.4E1,2.09E2,3.67E2,7.3E1,4.7E1,1.12E2,1E0,5.8E1,9.4E1],"tree_param":{"num_deleted":"0","num_feature":"6","num_nodes":"101","size_leaf_vector":"1"}},{"base_weights":[-9.2332745E-3,-7.8017793E0,5.5042534E1,-1.3769001E1,5.582545E0,4.489847E1,1.142407E2,-1.5161535E1,-8.461421E0,1.6093851E0,1.5194018E1,3.5446457E1,6.2829052E1,9.816601E1,9.30536E0,-1.5644184E1,-1.3863633E1,-1.0199395E1,-6.720414E0,-1.0071094E0,5.960295E0,1.2643754E1,2.0617313E1,2.9989096E1,4.223429E1,5.6443142E1,6.897187E1,4.3768864E0,1.1304182E2,-6.6800344E-1,-1.5666846E1,-1.2552974E1,-1.4507375E1,-7.8361506E0,-1.0965639E1,-5.436169E0,-9.477438E0,7.561616E-1,-3.432752E0,8.294741E0,2.8422573E0,1.5340269E1,9.045967E0,2.4183676E1,1.6168026E1,3.3207436E1,2.4221418E1,4.4586216E1,3.267367E1,2.9775198E0,4.870262E1,7.405586E1,6.443275E1,5.8184853E0,3.746601E0,-7.905859E-1,-7.673733E-1,-6.648142E-1,-5.66717E-1,-7.409176E-1,-6.896483E-1,-4.457677E-1,-3.3406156E-1,-5.2070504E-1,-6.527242E-1,-2.1924095E-1,-3.1002945E-1,-4.7753868E-1,3.827485E-1,-8.2784325E-2,1.1341826E-1,-2.649226E-1,-9.577637E-2,3.4550515E-1,5.274058E-1,1.9057862E-1,3.580184E-2,5.8777416E-1,8.499095E-1,3.52759E-1,5.530979E-1,1.3918772E0,1.1548461E0,9.232394E-1,6.450829E-1,1.3985921E0,1.7719959E0,1.0056015E0,1.3966714E0,2.1020935E0,2.512961E0,1.9357245E0,1.4664904E0,2.4530213E0,3.8567105E-1,3.257138E0,3.944749E0,3.353928E0,2.7737515E0],"categories":[],"categories_nodes":[],"categories_segments":[],"categories_sizes":[],"default_left":[0,0,0,0,0,0,0,0,0,0,0,0,0,0,0,0,0,0,0,0,0,0,0,0,0,0,0,0,0,0,0,0,0,0,0,0,0,0,0,0,0,0,0,0,0,0,0,0,0,0,0,0,0,0,0,0,0,0,0,0,0,0,0,0,0,0,0,0,0,0,0,0,0,0,0,0,0,0,0,0,0,0,0,0,0,0,0,0,0,0,0,0,0,0,0,0,0,0,0],"id":6,"left_children":[1,3,5,7,9,11,13,15,17,19,21,23,25,27,-1,29,31,33,35,37,39,41,43,45,47,49,51,-1,53,-1,55,57,59,61,63,65,67,69,71,73,75,77,79,81,83,85,87,89,91,-1,93,95,97,-1,-1,-1,-1,-1,-1,-1,-1,-1,-1,-1,-1,-1,-1,-1,-1,-1,-1,-1,-1,-1,-1,-1,-1,-1,-1,-1,-1,-1,-1,-1,-1,-1,-1,-1,-1,-1,-1,-1,-1,-1,-1,-1,-1,-1,-1],"loss_changes":[7.275729E6,1.1866642E6,1.257743E6,7.58215E4,1.7495258E5,3.02329E5,3.36387E5,4.88175E3,6.400672E3,3.6924746E4,1.8272656E4,4.2407875E4,2.038875E4,3.0105E4,0E0,9.7375E1,1.6867188E3,1.8480234E3,3.7405664E3,8.66793E3,8.842109E3,8.728406E3,6.3845312E3,1.13911875E4,1.030325E4,4.53175E3,2.40525E3,0E0,4.216375E3,0E0,2.85E1,5.168906E2,1.241875E2,2.7072852E2,7.903203E2,5.619043E2,4.990371E2,4.285575E3,2.4044258E3,2.098707E3,1.0751626E3,2.8966172E3,1.5032383E3,2.9020312E2,1.2096719E3,3.9060938E3,3.0839219E3,3.9060625E3,1.0258828E3,0E0,1.0002031E3,8.99E2,3.553125E2,0E0,0E0,0E0,0E0,0E0,0E0,0E0,0E0,0E0,0E0,0E0,0E0,0E0,0E0,0E0,0E0,0E0,0E0,0E0,0E0,0E0,0E0,0E0,0E0,0E0,0E0,0E0,0E0,0E0,0E0,0E0,0E0,0E0,0E0,0E0,0E0,0E0,0E0,0E0,0E0,0E0,0E0,0E0,0E0,0E0,0E0],"parents":[2147483647,0,0,1,1,2,2,3,3,4,4,5,5,6,6,7,7,8,8,9,9,10,10,11,11,12,12,13,13,15,15,16,16,17,17,18,18,19,19,20,20,21,21,22,22,23,23,24,24,25,25,26,26,28,28,30,30,31,31,32,32,33,33,34,34,35,35,36,36,37,37,38,38,39,39,40,40,41,41,42,42,43,43,44,44,45,45,46,46,47,47,48,48,50,50,51,51,52,52],"right_children":[2,4,6,8,10,12,14,16,18,20,22,24,26,28,-1,30,32,34,36,38,40,42,44,46,48,50,52,-1,54,-1,56,58,60,62,64,66,68,70,72,74,76,78,80,82,84,86,88,90,92,-1,94,96,98,-1,-1,-1,-1,-1,-1,-1,-1,-1,-1,-1,-1,-1,-1,-1,-1,-1,-1,-1,-1,-1,-1,-1,-1,-1,-1,-1,-1,-1,-1,-1,-1,-1,-1,-1,-1,-1,-1,-1,-1,-1,-1,-1,-1,-1,-1],"split_conditions":[5.4E1,1.5E1,1.3E2,6E0,3.5E1,8.9E1,2.14E2,2E0,1E1,2.6E1,4.7E1,7.1E1,1.05E2,1.57E2,9.30536E0,-4E0,0E0,-3E0,3E0,2E0,3E0,5E0,4E0,6E0,1.7E1,1.3E1,1E0,4.3768864E0,3.8E1,-6.6800344E-1,1E0,4E0,4E0,8E0,4E0,-3E0,1.2E1,1.9E1,2E1,3.1E1,1.1E1,3.8E1,4E1,-1.3E1,1.3E1,5.9E1,6.1E1,8.3E1,2.023E3,2.9775198E0,4.9E1,1.12E2,1E1,5.8184853E0,3.746601E0,-7.905859E-1,-7.673733E-1,-6.648142E-1,-5.66717E-1,-7.409176E-1,-6.896483E-1,-4.457677E-1,-3.3406156E-1,-5.2070504E-1,-6.527242E-1,-2.1924095E-1,-3.1002945E-1,-4.7753868E-1,3.827485E-1,-8.2784325E-2,1.1341826E-1,-2.649226E-1,-9.577637E-2,3.4550515E-1,5.274058E-1,1.9057862E-1,3.580184E-2,5.8777416E-1,8.499095E-1,3.52759E-1,5.530979E-1,1.3918772E0,1.1548461E0,9.232394E-1,6.450829E-1,1.3985921E0,1.7719959E0,1.0056015E0,1.3966714E0,2.1020935E0,2.512961E0,1.9357245E0,1.4664904E0,2.4530213E0,3.8567105E-1,3.257138E0,3.944749E0,3.353928E0,2.7737515E0],"split_indices":[5,5,5,5,5,5,5,5,5,5,5,5,5,5,0,4,4,4,4,4,4,4,4,4,4,4,4,0,4,0,5,5,5,5,4,4,4,5,5,5,4,5,5,4,4,5,5,5,0,0,4,5,1,0,0,0,0,0,0,0,0,0,0,0,0,0,0,0,0,0,0,0,0,0,0,0,0,0,0,0,0,0,0,0,0,0,0,0,0,0,0,0,0,0,0,0,0,0,0],"split_type":[0,0,0,0,0,0,0,0,0,0,0,0,0,0,0,0,0,0,0,0,0,0,0,0,0,0,0,0,0,0,0,0,0,0,0,0,0,0,0,0,0,0,0,0,0,0,0,0,0,0,0,0,0,0,0,0,0,0,0,0,0,0,0,0,0,0,0,0,0,0,0,0,0,0,0,0,0,0,0,0,0,0,0,0,0,0,0,0,0,0,0,0,0,0,0,0,0,0,0],"sum_hessian":[1.6958E4,1.4856E4,2.102E3,1.0275E4,4.581E3,1.796E3,3.06E2,8.138E3,2.137E3,3.242E3,1.339E3,1.178E3,6.18E2,2.52E2,5.4E1,5.924E3,2.214E3,1.067E3,1.07E3,2.025E3,1.217E3,9.13E2,4.26E2,6.56E2,5.22E2,3.08E2,3.1E2,1.51E2,1.01E2,6.4E1,5.86E3,7.36E2,1.478E3,2.64E2,8.03E2,7.32E2,3.38E2,1.173E3,8.52E2,6.95E2,5.22E2,5.2E2,3.93E2,2.34E2,1.92E2,4.18E2,2.38E2,4.16E2,1.06E2,2.15E2,9.3E1,1.39E2,1.71E2,9.1E1,1E1,3.998E3,1.862E3,4.51E2,2.85E2,1.016E3,4.62E2,1.33E2,1.31E2,6.4E2,1.63E2,3.11E2,4.21E2,3.37E2,1E0,4.52E2,7.21E2,3.81E2,4.71E2,4.33E2,2.62E2,3.58E2,1.64E2,1.67E2,3.53E2,2E2,1.93E2,4.8E1,1.86E2,1.1E2,8.2E1,1.29E2,2.89E2,1.16E2,1.22E2,2.93E2,1.23E2,3.4E1,7.2E1,9.2E1,1E0,5.4E1,8.5E1,1.27E2,4.4E1],"tree_param":{"num_deleted":"0","num_feature":"6","num_nodes":"99","size_leaf_vector":"1"}},{"base_weights":[3.7626337E-2,-7.4013987E0,5.3229836E1,-1.267884E1,6.205701E0,4.3606747E1,1.1780282E2,-1.4265436E1,-6.790718E0,1.3109034E0,1.2528546E1,3.4308903E1,6.2100304E1,9.747041E1,1.9770395E2,-1.4729569E1,-1.2325844E1,-8.81739E0,-5.2068787E0,-2.8818193E-1,4.975597E0,9.371059E0,1.755911E1,2.8609709E1,4.078186E1,5.684224E1,6.840591E1,9.0595024E1,5.8838277E0,8.144042E0,2.6391415E2,-1.5320925E1,-1.454841E1,-6.482049E-1,-1.1329432E1,-9.577029E0,-7.887194E0,-5.9072556E0,-3.6855114E0,-1.6499728E0,8.8445497E-1,3.5659873E0,5.3054075E0,7.964004E0,1.10554905E1,1.5715106E1,2.0458145E1,2.5616528E1,3.1890877E1,3.8445374E1,4.4845085E1,2.9471982E0,5.0395897E1,3.5620022E0,6.133269E1,4.749103E0,3.849519E0,2.2110546E0,2.7488116E2,-7.3776907E-1,-7.918945E-1,-7.4017614E-1,-7.1047425E-1,-5.81468E-1,-4.9073002E-1,-4.0888116E-1,-4.9649054E-1,-4.1888878E-1,-3.676612E-1,-3.44614E-1,-2.5535902E-1,-2.374699E-1,-1.4733078E-1,-2.5345463E-1,-7.037743E-2,1.984517E-3,7.364788E-2,5.0024476E-2,2.2264765E-1,2.892738E-1,2.0329046E-1,4.5160756E-1,2.6632676E-1,5.7291734E-1,3.8626882E-1,5.8317083E-1,7.993552E-1,1.1026572E0,8.2661897E-1,4.068176E-1,1.2950956E0,5.830782E-1,1.6060101E0,1.9967393E0,1.7174307E0,2.2685926E0,1.0081656E0,2.1064928E0,2.722119E0,3.1702802E0,1.6727602E0,1.4213124E1,3.3540413E0],"categories":[],"categories_nodes":[],"categories_segments":[],"categories_sizes":[],"default_left":[0,0,0,0,0,0,0,0,0,0,0,0,0,0,0,0,0,0,0,0,0,0,0,0,0,0,0,0,0,0,0,0,0,0,0,0,0,0,0,0,0,0,0,0,0,0,0,0,0,0,0,0,0,0,0,0,0,0,0,0,0,0,0,0,0,0,0,0,0,0,0,0,0,0,0,0,0,0,0,0,0,0,0,0,0,0,0,0,0,0,0,0,0,0,0,0,0,0,0,0,0,0,0],"id":7,"left_children":[1,3,5,7,9,11,13,15,17,19,21,23,25,27,29,31,33,35,37,39,41,43,45,47,49,51,53,55,-1,-1,57,59,61,-1,63,65,67,69,71,73,75,77,79,81,83,85,87,89,91,93,95,-1,97,-1,99,-1,-1,-1,101,-1,-1,-1,-1,-1,-1,-1,-1,-1,-1,-1,-1,-1,-1,-1,-1,-1,-1,-1,-1,-1,-1,-1,-1,-1,-1,-1,-1,-1,-1,-1,-1,-1,-1,-1,-1,-1,-1,-1,-1,-1,-1,-1,-1],"loss_changes":[6.753379E6,1.0752998E6,1.2960565E6,1.0069475E5,1.2950536E5,3.115065E5,4.209915E5,7.4685E3,7.3112344E3,1.3831408E4,2.8839531E4,4.369225E4,1.630325E4,1.9624625E4,8.1518E4,5.1125E2,9.005625E2,6.3391406E2,1.3516992E3,2.6267402E3,3.1441602E2,2.5759297E3,3.436625E3,5.5668125E3,3.6588125E3,1.60875E3,1.08325E3,2.654625E3,0E0,0E0,2.8803875E4,2.3059375E2,2.44875E2,0E0,1.8164062E2,1.8933594E2,5.8109375E1,6.591094E2,3.07521E2,6.236404E2,4.3941876E2,3.1184045E2,3.210371E2,1.6872852E3,5.9433203E2,2.9182812E2,1.3260391E3,1.5103125E3,1.0449688E3,8.676875E2,1.6984062E3,0E0,7.1671875E2,0E0,2.7906875E3,0E0,0E0,0E0,1.2122375E4,0E0,0E0,0E0,0E0,0E0,0E0,0E0,0E0,0E0,0E0,0E0,0E0,0E0,0E0,0E0,0E0,0E0,0E0,0E0,0E0,0E0,0E0,0E0,0E0,0E0,0E0,0E0,0E0,0E0,0E0,0E0,0E0,0E0,0E0,0E0,0E0,0E0,0E0,0E0,0E0,0E0,0E0,0E0,0E0],"parents":[2147483647,0,0,1,1,2,2,3,3,4,4,5,5,6,6,7,7,8,8,9,9,10,10,11,11,12,12,13,13,14,14,15,15,16,16,17,17,18,18,19,19,20,20,21,21,22,22,23,23,24,24,25,25,26,26,27,27,30,30,31,31,32,32,34,34,35,35,36,36,37,37,38,38,39,39,40,40,41,41,42,42,43,43,44,44,45,45,46,46,47,47,48,48,49,49,50,50,52,52,54,54,58,58],"right_children":[2,4,6,8,10,12,14,16,18,20,22,24,26,28,30,32,34,36,38,40,42,44,46,48,50,52,54,56,-1,-1,58,60,62,-1,64,66,68,70,72,74,76,78,80,82,84,86,88,90,92,94,96,-1,98,-1,100,-1,-1,-1,102,-1,-1,-1,-1,-1,-1,-1,-1,-1,-1,-1,-1,-1,-1,-1,-1,-1,-1,-1,-1,-1,-1,-1,-1,-1,-1,-1,-1,-1,-1,-1,-1,-1,-1,-1,-1,-1,-1,-1,-1,-1,-1,-1,-1],"split_conditions":[5.4E1,1.7E1,1.35E2,7E0,3.1E1,9.2E1,2.14E2,3E0,1.1E1,2.6E1,4.2E1,7.1E1,1.12E2,1.73E2,3.5E1,5E0,5E0,9E0,1.5E1,2.1E1,2.7E1,3.6E1,4.9E1,6.2E1,8.3E1,1E1,1E1,1E1,5.8838277E0,8.144042E0,2E0,4E0,1E0,-6.482049E-1,4.2E1,6E0,7E0,7E0,7E0,2E0,2.3E1,4E0,1E1,1E1,4.3E1,2E0,1E1,3E0,2E0,1E1,4.9E1,2.9471982E0,1.1E1,3.5620022E0,4.5E1,4.749103E0,3.849519E0,2.2110546E0,1.2E1,-7.3776907E-1,-7.918945E-1,-7.4017614E-1,-7.1047425E-1,-5.81468E-1,-4.9073002E-1,-4.0888116E-1,-4.9649054E-1,-4.1888878E-1,-3.676612E-1,-3.44614E-1,-2.5535902E-1,-2.374699E-1,-1.4733078E-1,-2.5345463E-1,-7.037743E-2,1.984517E-3,7.364788E-2,5.0024476E-2,2.2264765E-1,2.892738E-1,2.0329046E-1,4.5160756E-1,2.6632676E-1,5.7291734E-1,3.8626882E-1,5.8317083E-1,7.993552E-1,1.1026572E0,8.2661897E-1,4.068176E-1,1.2950956E0,5.830782E-1,1.6060101E0,1.9967393E0,1.7174307E0,2.2685926E0,1.0081656E0,2.1064928E0,2.722119E0,3.1702802E0,1.6727602E0,1.4213124E1,3.3540413E0],"split_indices":[5,5,5,5,5,5,5,5,5,5,5,5,5,5,2,3,5,5,5,5,5,5,5,5,5,1,1,1,0,0,1,3,5,0,2,3,3,3,3,1,5,3,1,1,2,1,1,2,2,1,2,0,1,0,2,0,0,0,1,0,0,0,0,0,0,0,0,0,0,0,0,0,0,0,0,0,0,0,0,0,0,0,0,0,0,0,0,0,0,0,0,0,0,0,0,0,0,0,0,0,0,0,0],"split_type":[0,0,0,0,0,0,0,0,0,0,0,0,0,0,0,0,0,0,0,0,0,0,0,0,0,0,0,0,0,0,0,0,0,0,0,0,0,0,0,0,0,0,0,0,0,0,0,0,0,0,0,0,0,0,0,0,0,0,0,0,0,0,0,0,0,0,0,0,0,0,0,0,0,0,0,0,0,0,0,0,0,0,0,0,0,0,0,0,0,0,0,0,0,0,0,0,0,0,0,0,0,0,0],"sum_hessian":[1.7065E4,1.4972E4,2.093E3,1.0788E4,4.184E3,1.823E3,2.7E2,8.497E3,2.291E3,2.359E3,1.825E3,1.215E3,6.08E2,2.17E2,5.3E1,6.851E3,1.646E3,1.003E3,1.288E3,1.643E3,7.16E2,1.123E3,7.02E2,6.49E2,5.66E2,3.37E2,2.71E2,1.66E2,5.1E1,3.7E1,1.6E1,1.587E3,5.264E3,9.96E2,6.5E2,5.47E2,4.56E2,8.8E2,4.08E2,7.6E2,8.83E2,1.38E2,5.78E2,6.15E2,5.08E2,4.33E2,2.69E2,3.44E2,3.05E2,3.66E2,2E2,2.48E2,8.9E1,1.87E2,8.4E1,1.21E2,4.5E1,1E0,1.5E1,7.72E2,8.15E2,2.979E3,2.285E3,5.37E2,1.13E2,1.15E2,4.32E2,2.3E2,2.26E2,3.91E2,4.89E2,1.65E2,2.43E2,4.9E1,7.11E2,3.63E2,5.2E2,3.6E1,1.02E2,4.14E2,1.64E2,4.36E2,1.79E2,4.51E2,5.7E1,3E1,4.03E2,1.88E2,8.1E1,6E0,3.38E2,4E0,3.01E2,2.62E2,1.04E2,1.95E2,5E0,3.3E1,5.6E1,7.7E1,7E0,1.4E1,1E0],"tree_param":{"num_deleted":"0","num_feature":"6","num_nodes":"103","size_leaf_vector":"1"}},{"base_weights":[6.6895587E-3,-6.9952674E0,5.0086773E1,-1.2064755E1,5.835906E0,4.2449783E1,1.1854352E2,-1.3560192E1,-6.4297023E0,1.8343239E0,1.2587092E1,3.3011967E1,6.005026E1,9.428103E1,1.8476428E2,-1.3993811E1,-1.1759603E1,-8.370617E0,-5.02994E0,-1.681206E-1,5.1155567E0,1.034763E1,1.7700281E1,2.7614336E1,3.9135105E1,5.305442E1,6.747869E1,4.9413376E0,3.9615655E0,7.6770425E0,2.4041571E2,-1.4561679E1,-1.3816404E1,-6.171435E-1,-1.0819291E1,-9.033251E0,-7.6258802E0,-5.9661474E0,-3.9909859E0,-1.8554535E0,7.114361E-1,3.8872342E0,6.19197E0,8.9313345E0,1.2218024E1,1.8922483E1,1.4210493E1,2.4156626E1,3.126978E1,3.684883E1,4.4742615E1,2.8502433E0,2.5316782E0,6.4305374E1,3.7058556E0,3.8610501E0,2.5598874E2,-7.0172876E-1,-7.519653E-1,-6.970261E-1,-6.542419E-1,-4.7043434E-1,-5.527192E-1,-3.7970495E-1,-4.692789E-1,-3.5925004E-1,-4.1671082E-1,-3.4748846E-1,-2.530682E-1,-2.4799667E-1,-1.6706394E-1,-1.5670499E-1,-5.166916E-2,5.664856E-2,-1.6195899E-2,2.5220114E-1,1.4476828E-1,4.4188786E-1,2.8971544E-1,3.869022E-1,5.5778897E-1,5.619716E-1,7.553763E-1,8.483759E-1,1.0575087E0,7.4344313E-1,4.1297603E-1,1.2229019E0,4.276507E-1,1.6465603E0,1.2805862E0,2.0940645E0,1.7604283E0,2.2526264E0,6.701542E-1,3.256026E0,2.3158245E0,1.3216707E1,3.27019E0],"categories":[],"categories_nodes":[],"categories_segments":[],"categories_sizes":[],"default_left":[0,0,0,0,0,0,0,0,0,0,0,0,0,0,0,0,0,0,0,0,0,0,0,0,0,0,0,0,0,0,0,0,0,0,0,0,0,0,0,0,0,0,0,0,0,0,0,0,0,0,0,0,0,0,0,0,0,0,0,0,0,0,0,0,0,0,0,0,0,0,0,0,0,0,0,0,0,0,0,0,0,0,0,0,0,0,0,0,0,0,0,0,0,0,0,0,0,0,0],"id":8,"left_children":[1,3,5,7,9,11,13,15,17,19,21,23,25,27,29,31,33,35,37,39,41,43,45,47,49,51,53,-1,-1,-1,55,57,59,-1,61,63,65,67,69,71,73,75,77,79,81,83,85,87,89,91,93,-1,-1,95,-1,-1,97,-1,-1,-1,-1,-1,-1,-1,-1,-1,-1,-1,-1,-1,-1,-1,-1,-1,-1,-1,-1,-1,-1,-1,-1,-1,-1,-1,-1,-1,-1,-1,-1,-1,-1,-1,-1,-1,-1,-1,-1,-1,-1],"loss_changes":[5.96891E6,9.7148944E5,1.086582E6,9.01225E4,1.1425217E5,3.1030475E5,3.1837625E5,6.43975E3,6.062578E3,1.7458645E4,1.7840406E4,3.9439125E4,3.0459E4,2.77375E3,5.8655875E4,4.8525E2,7.702969E2,3.949922E2,1.2484492E3,2.4515774E3,1.3073672E3,2.7968516E3,1.7698594E3,7.5235E3,5.6844375E3,3.84375E2,1.848625E3,0E0,0E0,0E0,2.5978125E4,1.925E2,2.90625E2,0E0,1.0790625E2,1.7819531E2,8.033594E1,5.753418E2,3.7562598E2,5.917047E2,4.7433868E2,5.281074E2,5.116797E2,1.5806445E3,1.1591953E3,1.1697578E3,3.7868555E2,1.3945781E3,2.1177188E3,1.9263125E3,9.59875E2,0E0,0E0,2.098125E2,0E0,0E0,8.15975E3,0E0,0E0,0E0,0E0,0E0,0E0,0E0,0E0,0E0,0E0,0E0,0E0,0E0,0E0,0E0,0E0,0E0,0E0,0E0,0E0,0E0,0E0,0E0,0E0,0E0,0E0,0E0,0E0,0E0,0E0,0E0,0E0,0E0,0E0,0E0,0E0,0E0,0E0,0E0,0E0,0E0,0E0],"parents":[2147483647,0,0,1,1,2,2,3,3,4,4,5,5,6,6,7,7,8,8,9,9,10,10,11,11,12,12,13,13,14,14,15,15,16,16,17,17,18,18,19,19,20,20,21,21,22,22,23,23,24,24,25,25,26,26,30,30,31,31,32,32,34,34,35,35,36,36,37,37,38,38,39,39,40,40,41,41,42,42,43,43,44,44,45,45,46,46,47,47,48,48,49,49,50,50,53,53,56,56],"right_children":[2,4,6,8,10,12,14,16,18,20,22,24,26,28,30,32,34,36,38,40,42,44,46,48,50,52,54,-1,-1,-1,56,58,60,-1,62,64,66,68,70,72,74,76,78,80,82,84,86,88,90,92,94,-1,-1,96,-1,-1,98,-1,-1,-1,-1,-1,-1,-1,-1,-1,-1,-1,-1,-1,-1,-1,-1,-1,-1,-1,-1,-1,-1,-1,-1,-1,-1,-1,-1,-1,-1,-1,-1,-1,-1,-1,-1,-1,-1,-1,-1,-1,-1],"split_conditions":[5.4E1,1.7E1,1.44E2,7E0,3.3E1,9.2E1,2.14E2,3E0,1.1E1,2.6E1,4.6E1,7.1E1,1.12E2,1E1,3.5E1,5E0,5E0,9E0,1.4E1,2E1,2.9E1,8E0,1E1,6.2E1,8.5E1,9E0,1.3E2,4.9413376E0,3.9615655E0,7.6770425E0,4E0,4E0,2E0,-6.171435E-1,4E0,4E0,9E0,7E0,7E0,7E0,3.8E1,7E0,7E0,4E1,4.2E1,5E1,4.2E1,1.9E1,1E1,1E1,4.9E1,2.8502433E0,2.5316782E0,4.5E1,3.7058556E0,3.8610501E0,1.2E1,-7.0172876E-1,-7.519653E-1,-6.970261E-1,-6.542419E-1,-4.7043434E-1,-5.527192E-1,-3.7970495E-1,-4.692789E-1,-3.5925004E-1,-4.1671082E-1,-3.4748846E-1,-2.530682E-1,-2.4799667E-1,-1.6706394E-1,-1.5670499E-1,-5.166916E-2,5.664856E-2,-1.6195899E-2,2.5220114E-1,1.4476828E-1,4.4188786E-1,2.8971544E-1,3.869022E-1,5.5778897E-1,5.619716E-1,7.553763E-1,8.483759E-1,1.0575087E0,7.4344313E-1,4.1297603E-1,1.2229019E0,4.276507E-1,1.6465603E0,1.2805862E0,2.0940645E0,1.7604283E0,2.2526264E0,6.701542E-1,3.256026E0,2.3158245E0,1.3216707E1,3.27019E0],"split_indices":[5,5,5,5,5,5,5,5,5,5,5,5,5,1,2,3,5,5,5,5,5,3,1,5,5,2,5,0,0,0,1,3,5,0,3,3,1,3,3,3,2,1,2,5,5,5,2,3,1,2,2,0,0,2,0,0,1,0,0,0,0,0,0,0,0,0,0,0,0,0,0,0,0,0,0,0,0,0,0,0,0,0,0,0,0,0,0,0,0,0,0,0,0,0,0,0,0,0,0],"split_type":[0,0,0,0,0,0,0,0,0,0,0,0,0,0,0,0,0,0,0,0,0,0,0,0,0,0,0,0,0,0,0,0,0,0,0,0,0,0,0,0,0,0,0,0,0,0,0,0,0,0,0,0,0,0,0,0,0,0,0,0,0,0,0,0,0,0,0,0,0,0,0,0,0,0,0,0,0,0,0,0,0,0,0,0,0,0,0,0,0,0,0,0,0,0,0,0,0,0,0],"sum_hessian":[1.702E4,1.4933E4,2.087E3,1.0704E4,4.229E3,1.879E3,2.08E2,8.458E3,2.246E3,2.656E3,1.573E3,1.225E3,6.54E2,1.54E2,5.4E1,6.811E3,1.647E3,9.39E2,1.307E3,1.65E3,1.006E3,1.096E3,4.77E2,6.54E2,5.71E2,3.41E2,3.13E2,1.14E2,4E1,3.7E1,1.7E1,1.602E3,5.209E3,1.009E3,6.38E2,4.91E2,4.48E2,6.85E2,6.22E2,5.65E2,1.085E3,4.72E2,5.34E2,6.27E2,4.69E2,3.5E2,1.27E2,3.4E2,3.14E2,4.11E2,1.6E2,1.21E2,2.2E2,2.19E2,9.4E1,2E0,1.5E1,7.76E2,8.26E2,4.438E3,7.71E2,9.7E1,5.41E2,1.01E2,3.9E2,2.83E2,1.65E2,3.25E2,3.6E2,2.47E2,3.75E2,2.2E2,3.45E2,7.71E2,3.14E2,2.16E2,2.56E2,6.7E1,4.67E2,4.11E2,2.16E2,3.54E2,1.15E2,1.91E2,1.59E2,1.13E2,1.4E1,3.33E2,7E0,2.39E2,7.5E1,9.5E1,3.16E2,1.58E2,2E0,2.07E2,1.2E1,1.4E1,1E0],"tree_param":{"num_deleted":"0","num_feature":"6","num_nodes":"99","size_leaf_vector":"1"}},{"base_weights":[-8.894756E-3,-2.5499916E0,2.2565506E1,1.0103065E1,-5.1080756E0,5.0015987E1,-5.264532E0,-1.926614E0,3.3734516E1,-1.1134048E0,-7.0968065E0,8.317003E1,4.7311287E1,-1.361884E0,-1.0475005E1,-6.710325E-1,9.746322E0,4.6644104E1,1.6592617E1,-9.779902E0,4.7691045E0,-1.321864E1,-3.0517259E0,7.357559E1,1.0202129E2,3.539925E1,5.761362E1,-5.696501E-1,-7.061455E-1,-9.172901E0,-6.3175505E-1,1.7261358E1,-4.9625382E-1,4.3333035E1,7.7212524E1,1.9617659E1,1.0898088E1,-5.379073E0,-7.126159E-1,1.8978521E1,-2.2541544E0,-1.29578E1,-6.733938E-1,1.4326959E1,-6.4584374E0,3.9688587E0,5.2742573E1,2.0827112E0,5.3336525E0,2.7823942E0,2.9542473E1,7.553238E0,5.2674534E1,3.057026E0,-2.084628E0,-9.868548E0,-1.3056192E0,-3.988416E-2,9.307777E-1,1.4343706E-1,-1.2211161E-1,6.031466E-1,2.3018048E0,4.7668796E0,2.3988397E0,7.807204E-1,2.8615375E0,-1.5378611E-1,6.710437E-1,-5.9325166E-2,-3.115568E-1,1.3288254E0,3.6584082E-1,-4.6414232E-1,2.502949E-1,-6.3046193E-1,-6.6999024E-1,1.1481384E0,9.90386E-2,-6.668419E-2,-4.9262476E-1,5.294406E-1,2.7686493E0,1.082638E0,1.6884669E0,2.0976658E0,3.4720407E0,-7.75687E-2,3.259475E-1,-3.8031393E-1,1.3367615E-2,-4.3552634E-1,-6.214233E-1,-1.5552752E-1,-2.4830278E-2],"categories":[],"categories_nodes":[],"categories_segments":[],"categories_sizes":[],"default_left":[0,0,0,0,0,0,0,0,0,0,0,0,0,0,0,0,0,0,0,0,0,0,0,0,0,0,0,0,0,0,0,0,0,0,0,0,0,0,0,0,0,0,0,0,0,0,0,0,0,0,0,0,0,0,0,0,0,0,0,0,0,0,0,0,0,0,0,0,0,0,0,0,0,0,0,0,0,0,0,0,0,0,0,0,0,0,0,0,0,0,0,0,0,0,0],"id":9,"left_children":[1,3,5,7,9,11,13,15,17,19,21,23,25,27,29,-1,31,33,35,37,39,41,43,45,47,49,51,-1,53,55,-1,57,59,61,63,65,67,69,-1,71,73,75,-1,77,79,-1,81,-1,-1,-1,83,-1,85,87,89,91,93,-1,-1,-1,-1,-1,-1,-1,-1,-1,-1,-1,-1,-1,-1,-1,-1,-1,-1,-1,-1,-1,-1,-1,-1,-1,-1,-1,-1,-1,-1,-1,-1,-1,-1,-1,-1,-1,-1],"loss_changes":[9.751837E5,4.946282E5,1.3142538E6,7.306615E5,1.0097244E5,7.372075E4,1.7371854E4,2.2875502E5,1.9108862E5,2.1549131E5,2.101011E5,4.06925E3,9.6506125E4,3.2150723E3,9.1353906E2,0E0,6.5128E4,4.6654E4,6.2288047E3,3.3560438E4,2.5133019E5,4.49375E1,3.0268503E5,1.3732031E3,8.920469E2,4.2827906E4,1.9005338E5,0E0,2.3977947E3,1.2568164E3,0E0,1.1949125E4,2.3578125E3,3.7311812E4,2.033125E4,3.5696016E4,4.694664E3,3.0755293E3,0E0,7.3613875E4,8.6080805E4,8.925E1,0E0,8.9301484E4,7.432755E4,0E0,8.551289E2,0E0,0E0,0E0,9.039969E3,0E0,7.06065E4,1.9884004E3,4.3915767E3,5.2316797E2,2.7659561E1,0E0,0E0,0E0,0E0,0E0,0E0,0E0,0E0,0E0,0E0,0E0,0E0,0E0,0E0,0E0,0E0,0E0,0E0,0E0,0E0,0E0,0E0,0E0,0E0,0E0,0E0,0E0,0E0,0E0,0E0,0E0,0E0,0E0,0E0,0E0,0E0,0E0,0E0],"parents":[2147483647,0,0,1,1,2,2,3,3,4,4,5,5,6,6,7,7,8,8,9,9,10,10,11,11,12,12,13,13,14,14,16,16,17,17,18,18,19,19,20,20,21,21,22,22,23,23,24,24,25,25,26,26,28,28,29,29,31,31,32,32,33,33,34,34,35,35,36,36,37,37,39,39,40,40,41,41,43,43,44,44,46,46,50,50,52,52,53,53,54,54,55,55,56,56],"right_children":[2,4,6,8,10,12,14,16,18,20,22,24,26,28,30,-1,32,34,36,38,40,42,44,46,48,50,52,-1,54,56,-1,58,60,62,64,66,68,70,-1,72,74,76,-1,78,80,-1,82,-1,-1,-1,84,-1,86,88,90,92,94,-1,-1,-1,-1,-1,-1,-1,-1,-1,-1,-1,-1,-1,-1,-1,-1,-1,-1,-1,-1,-1,-1,-1,-1,-1,-1,-1,-1,-1,-1,-1,-1,-1,-1,-1,-1,-1,-1],"split_conditions":[1.8E1,3E0,1.9E1,2E0,8E0,5E0,3E1,1E0,3E1,5E0,1.2E1,4E0,2.7E1,3E0,4.3E1,-6.710325E-1,3E1,2.7E1,4.3E1,4E0,6E0,1E1,1.3E1,3E0,2E0,1E1,2.8E1,-5.696501E-1,1E1,4.2E1,-6.3175505E-1,3E0,3.8E1,3E0,2.9E1,4.2E1,4.4E1,1E1,-7.126159E-1,3E1,7E0,2.9E1,-6.733938E-1,3E1,1.5E1,3.9688587E0,2E0,2.0827112E0,5.3336525E0,2.7823942E0,1.6E1,7.553238E0,4.2E1,6E0,1.6E1,3.8E1,5E0,-3.988416E-2,9.307777E-1,1.4343706E-1,-1.2211161E-1,6.031466E-1,2.3018048E0,4.7668796E0,2.3988397E0,7.807204E-1,2.8615375E0,-1.5378611E-1,6.710437E-1,-5.9325166E-2,-3.115568E-1,1.3288254E0,3.6584082E-1,-4.6414232E-1,2.502949E-1,-6.3046193E-1,-6.6999024E-1,1.1481384E0,9.90386E-2,-6.668419E-2,-4.9262476E-1,5.294406E-1,2.7686493E0,1.082638E0,1.6884669E0,2.0976658E0,3.4720407E0,-7.75687E-2,3.259475E-1,-3.8031393E-1,1.3367615E-2,-4.3552634E-1,-6.214233E-1,-1.5552752E-1,-2.4830278E-2],"split_indices":[3,3,3,3,3,2,2,3,2,3,3,2,2,2,2,0,2,2,2,3,3,3,3,2,1,2,2,0,2,2,0,2,2,2,2,2,2,2,0,2,3,2,0,2,3,0,1,0,0,0,2,0,2,2,2,2,1,0,0,0,0,0,0,0,0,0,0,0,0,0,0,0,0,0,0,0,0,0,0,0,0,0,0,0,0,0,0,0,0,0,0,0,0,0,0],"split_type":[0,0,0,0,0,0,0,0,0,0,0,0,0,0,0,0,0,0,0,0,0,0,0,0,0,0,0,0,0,0,0,0,0,0,0,0,0,0,0,0,0,0,0,0,0,0,0,0,0,0,0,0,0,0,0,0,0,0,0,0,0,0,0,0,0,0,0,0,0,0,0,0,0,0,0,0,0,0,0,0,0,0,0,0,0,0,0,0,0,0,0,0,0,0,0],"sum_hessian":[1.6998E4,1.5279E4,1.719E3,2.569E3,1.271E4,8.65E2,8.54E2,1.703E3,8.66E2,4.225E3,8.485E3,6.3E1,8.02E2,4.89E2,3.65E2,8.58E2,8.45E2,4.93E2,3.73E2,1.708E3,2.517E3,3.375E3,5.11E3,4.5E1,1.8E1,3.74E2,4.28E2,2.9E1,4.6E2,2.31E2,1.34E2,4.87E2,3.58E2,4.47E2,4.6E1,2.42E2,1.31E2,8.62E2,8.46E2,8.32E2,1.685E3,1.675E3,1.7E3,8.37E2,4.273E3,3.3E1,1.2E1,2E0,1.6E1,8.2E1,2.92E2,2E1,4.08E2,1.23E2,3.37E2,2.12E2,1.9E1,3.4E1,4.53E2,1.31E2,2.27E2,3.6E1,4.11E2,2.7E1,1.9E1,2.2E2,2.2E1,2E1,1.11E2,1.46E2,7.16E2,5.03E2,3.29E2,8.56E2,8.29E2,9.53E2,7.22E2,4.92E2,3.45E2,1.703E3,2.57E3,1E0,1.1E1,1.04E2,1.88E2,2.51E2,1.57E2,5.3E1,7E1,1E2,2.37E2,1.49E2,6.3E1,5E0,1.4E1],"tree_param":{"num_deleted":"0","num_feature":"6","num_nodes":"95","size_leaf_vector":"1"}},{"base_weights":[-6.9185324E-2,-6.4370136E0,4.538344E1,-1.0843282E1,5.501214E0,3.838591E1,1.0596948E2,-1.23210535E1,-5.6653576E0,2.2192233E0,1.2172833E1,2.972832E1,5.539231E1,8.7767685E1,1.5488379E2,-1.2689703E1,-1.0769823E1,-7.205643E0,-4.1036644E0,-1.1739406E-2,4.913986E0,1.5639574E1,9.292607E0,2.4776806E1,3.589517E1,5.104456E1,6.4667366E1,8.0769844E1,1.0100292E2,6.8157363E0,1.8754375E2,-1.1948133E1,-1.2789951E1,-9.41569E0,-1.1532481E1,-4.8757563E0,-8.035081E0,-2.711817E0,-6.321136E0,1.4808892E0,-2.5878842E0,7.111266E0,1.9650075E0,1.31007185E1,1.9702188E1,5.5452933E0,1.1380444E1,2.8068525E1,2.0443867E1,3.9681454E1,3.1581688E1,5.2312145E1,4.02886E1,3.462673E0,5.7244644E1,8.28093E1,2.7536001E0,5.4357696E0,3.7622662E0,4.9741287E0,2.2328412E2,-6.218631E-1,-5.7051504E-1,-6.480969E-1,-6.261782E-1,-5.086558E-1,-4.2436E-1,-5.426508E-1,-6.0008067E-1,-2.8256553E-1,-1.7376028E-1,-3.625661E-1,-4.6978673E-1,-2.794335E-1,-1.2563963E-1,-2.4272099E-1,-3.4718814E-1,2.50834E-1,5.438319E-2,-1.0755842E-1,-2.4832669E-1,2.8280437E-1,4.3562308E-1,1.5403864E-1,3.178039E-2,7.4344486E-1,5.80614E-1,1.0778621E0,7.5101686E-1,3.646147E-1,1.6319756E-1,6.78616E-1,4.6568155E-1,1.1528392E0,1.5214504E0,8.731551E-1,1.2025312E0,1.097036E0,1.9990027E0,1.6808176E0,1.200565E0,7.659022E-1,2.618437E0,2.0570228E0,6.614668E-1,3.0531924E0,2.2479327E0,4.3839564E0,3.464938E0,1.1615201E1,3.1016345E0],"categories":[],"categories_nodes":[],"categories_segments":[],"categories_sizes":[],"default_left":[0,0,0,0,0,0,0,0,0,0,0,0,0,0,0,0,0,0,0,0,0,0,0,0,0,0,0,0,0,0,0,0,0,0,0,0,0,0,0,0,0,0,0,0,0,0,0,0,0,0,0,0,0,0,0,0,0,0,0,0,0,0,0,0,0,0,0,0,0,0,0,0,0,0,0,0,0,0,0,0,0,0,0,0,0,0,0,0,0,0,0,0,0,0,0,0,0,0,0,0,0,0,0,0,0,0,0,0,0,0,0],"id":10,"left_children":[1,3,5,7,9,11,13,15,17,19,21,23,25,27,29,31,33,35,37,39,41,43,45,47,49,51,53,55,57,-1,59,61,63,65,67,69,71,73,75,77,79,81,83,85,87,89,91,93,95,97,99,101,103,-1,105,107,-1,-1,-1,-1,109,-1,-1,-1,-1,-1,-1,-1,-1,-1,-1,-1,-1,-1,-1,-1,-1,-1,-1,-1,-1,-1,-1,-1,-1,-1,-1,-1,-1,-1,-1,-1,-1,-1,-1,-1,-1,-1,-1,-1,-1,-1,-1,-1,-1,-1,-1,-1,-1,-1,-1],"loss_changes":[4.903891E6,7.8179325E5,8.78602E5,8.29905E4,8.771102E4,2.7338725E5,1.7782675E5,4.692125E3,5.772383E3,1.6154075E4,1.3044859E4,3.697425E4,2.2064E4,6.56825E3,9.0035E3,3.54E2,1.5727188E3,2.3049414E3,3.6865156E3,5.6601616E3,7.8718613E3,5.9098906E3,5.6013047E3,9.281781E3,7.729375E3,3.795875E3,2.74175E3,1.15225E3,1.9510625E3,0E0,3.443925E4,7.564844E1,1.12125E2,3.299961E2,2.0029688E2,3.2903125E2,8.841914E2,4.0908154E2,3.8819922E2,1.2903619E3,5.502649E2,1.5747461E3,7.708402E2,8.037461E2,1.6564062E3,1.0164155E3,1.9756055E3,3.9121875E3,2.8267734E3,6.5375E2,3.2284844E3,1.75E0,6.0827344E2,0E0,1.055375E3,4.375625E2,0E0,0E0,0E0,0E0,3.0431875E3,0E0,0E0,0E0,0E0,0E0,0E0,0E0,0E0,0E0,0E0,0E0,0E0,0E0,0E0,0E0,0E0,0E0,0E0,0E0,0E0,0E0,0E0,0E0,0E0,0E0,0E0,0E0,0E0,0E0,0E0,0E0,0E0,0E0,0E0,0E0,0E0,0E0,0E0,0E0,0E0,0E0,0E0,0E0,0E0,0E0,0E0,0E0,0E0,0E0,0E0],"parents":[2147483647,0,0,1,1,2,2,3,3,4,4,5,5,6,6,7,7,8,8,9,9,10,10,11,11,12,12,13,13,14,14,15,15,16,16,17,17,18,18,19,19,20,20,21,21,22,22,23,23,24,24,25,25,26,26,27,27,28,28,30,30,31,31,32,32,33,33,34,34,35,35,36,36,37,37,38,38,39,39,40,40,41,41,42,42,43,43,44,44,45,45,46,46,47,47,48,48,49,49,50,50,51,51,52,52,54,54,55,55,60,60],"right_children":[2,4,6,8,10,12,14,16,18,20,22,24,26,28,30,32,34,36,38,40,42,44,46,48,50,52,54,56,58,-1,60,62,64,66,68,70,72,74,76,78,80,82,84,86,88,90,92,94,96,98,100,102,104,-1,106,108,-1,-1,-1,-1,110,-1,-1,-1,-1,-1,-1,-1,-1,-1,-1,-1,-1,-1,-1,-1,-1,-1,-1,-1,-1,-1,-1,-1,-1,-1,-1,-1,-1,-1,-1,-1,-1,-1,-1,-1,-1,-1,-1,-1,-1,-1,-1,-1,-1,-1,-1,-1,-1,-1,-1],"split_conditions":[5.4E1,1.8E1,1.44E2,7E0,3.5E1,9.2E1,2.14E2,3E0,1.2E1,2.6E1,2E0,7.1E1,1.2E2,1.73E2,3.5E1,-1E0,0E0,-3E0,2E0,3E0,3E0,4.6E1,4E1,4E0,4E0,2.7E1,1.2E1,3.7E1,3.2E1,6.8157363E0,-2.5E1,1E0,1E0,5E0,2E0,1E1,3E0,2E0,4E0,-1.2E1,1.1E1,3E1,9E0,8E0,1E1,9E0,1E1,5.9E1,6.2E1,4E0,1E1,-6.2E1,5.7E1,3.462673E0,9E0,1E1,2.7536001E0,5.4357696E0,3.7622662E0,4.9741287E0,1.2E1,-6.218631E-1,-5.7051504E-1,-6.480969E-1,-6.261782E-1,-5.086558E-1,-4.2436E-1,-5.426508E-1,-6.0008067E-1,-2.8256553E-1,-1.7376028E-1,-3.625661E-1,-4.6978673E-1,-2.794335E-1,-1.2563963E-1,-2.4272099E-1,-3.4718814E-1,2.50834E-1,5.438319E-2,-1.0755842E-1,-2.4832669E-1,2.8280437E-1,4.3562308E-1,1.5403864E-1,3.178039E-2,7.4344486E-1,5.80614E-1,1.0778621E0,7.5101686E-1,3.646147E-1,1.6319756E-1,6.78616E-1,4.6568155E-1,1.1528392E0,1.5214504E0,8.731551E-1,1.2025312E0,1.097036E0,1.9990027E0,1.6808176E0,1.200565E0,7.659022E-1,2.618437E0,2.0570228E0,6.614668E-1,3.0531924E0,2.2479327E0,4.3839564E0,3.464938E0,1.1615201E1,3.1016345E0],"split_indices":[5,5,5,5,5,5,5,5,5,5,4,5,5,5,2,4,4,4,4,4,4,5,5,4,4,4,4,4,4,0,4,5,5,5,4,5,4,1,4,4,4,5,4,1,1,4,4,5,5,2,1,4,4,0,1,1,0,0,0,0,1,0,0,0,0,0,0,0,0,0,0,0,0,0,0,0,0,0,0,0,0,0,0,0,0,0,0,0,0,0,0,0,0,0,0,0,0,0,0,0,0,0,0,0,0,0,0,0,0,0,0],"split_type":[0,0,0,0,0,0,0,0,0,0,0,0,0,0,0,0,0,0,0,0,0,0,0,0,0,0,0,0,0,0,0,0,0,0,0,0,0,0,0,0,0,0,0,0,0,0,0,0,0,0,0,0,0,0,0,0,0,0,0,0,0,0,0,0,0,0,0,0,0,0,0,0,0,0,0,0,0,0,0,0,0,0,0,0,0,0,0,0,0,0,0,0,0,0,0,0,0,0,0,0,0,0,0,0,0,0,0,0,0,0,0],"sum_hessian":[1.6941E4,1.486E4,2.081E3,1.0854E4,4.006E3,1.867E3,2.14E2,8.443E3,2.411E3,2.686E3,1.32E3,1.239E3,6.28E2,1.58E2,5.6E1,6.816E3,1.627E3,1.212E3,1.199E3,1.47E3,1.216E3,5.97E2,7.23E2,6.9E2,5.49E2,4.32E2,1.96E2,1.08E2,5E1,3.9E1,1.7E1,8.26E2,5.99E3,5.91E2,1.036E3,3.2E2,8.92E2,7.38E2,4.61E2,9.31E2,5.39E2,6.96E2,5.2E2,3.7E2,2.27E2,2.6E2,4.63E2,3.89E2,3.01E2,2.88E2,2.61E2,3.83E2,4.9E1,1.16E2,8E1,9.8E1,1E1,3.6E1,1.4E1,6E0,1.1E1,4.21E2,4.05E2,3.611E3,2.379E3,3.2E2,2.71E2,4.33E2,6.03E2,2.04E2,1.16E2,5.7E2,3.22E2,4.6E1,6.92E2,1.4E2,3.21E2,9.2E1,8.39E2,4.57E2,8.2E1,3.67E2,3.29E2,2.82E2,2.38E2,1.65E2,2.05E2,1.6E2,6.7E1,1.46E2,1.14E2,2.22E2,2.41E2,1.28E2,2.61E2,1.68E2,1.33E2,6E0,2.82E2,2.03E2,5.8E1,1E0,3.82E2,4.7E1,2E0,5.8E1,2.2E1,6.8E1,3E1,1E1,1E0],"tree_param":{"num_deleted":"0","num_feature":"6","num_nodes":"111","size_leaf_vector":"1"}},{"base_weights":[7.522906E-2,-6.1207085E0,4.3626053E1,-1.0732756E1,4.157752E0,3.7738205E1,1.1655249E2,-1.1818696E1,-6.566537E0,5.5835843E-1,1.0480676E1,2.8554987E1,5.4682117E1,9.020798E1,1.6801338E2,-1.207989E1,-1.0481329E1,-5.128233E0,-7.8230567E0,-1.7666762E0,2.5703652E0,8.360958E0,1.5757952E1,2.3812717E1,3.394704E1,4.836823E1,6.375185E1,4.637988E0,3.2408772E0,6.88347E0,1.9767848E2,-1.2177941E1,-1.1423242E1,-9.20787E0,-1.1150693E1,-6.770863E0,-3.5752182E0,-9.146525E0,-7.012975E0,-5.8379996E-1,-4.7438054E0,4.2156544E0,2.0063235E-1,1.0595976E1,4.6222243E0,1.8782034E1,1.260303E1,2.057985E1,2.717956E1,3.6237858E1,2.6091066E1,5.0873158E1,4.014431E1,6.809648E1,5.6704487E1,2.979782E2,7.780038E0,-6.291861E-1,-6.0200995E-1,-5.407847E-1,-5.944147E-1,-3.9690676E-1,-4.7964653E-1,-5.2649075E-1,-5.800346E-1,-2.6375005E-1,-3.66747E-1,-1.4157371E-1,-2.225226E-1,-4.2467728E-1,-5.396443E-1,-2.9973382E-1,-3.8685244E-1,-7.469313E-2,3.5628356E-2,-3.104147E-1,-2.1153913E-1,1.4282726E-1,3.025828E-1,-7.5184196E-2,7.537517E-2,4.4752103E-1,6.751134E-1,1.5138319E-1,3.7741536E-1,1.1538166E0,8.5494584E-1,6.962283E-1,3.768097E-1,1.1548991E0,8.0969137E-1,1.4673578E0,1.194385E0,1.595365E0,1.93907E0,1.3866849E0,9.9172527E-1,2.7403967E0,2.4162502E0,2.1524246E0,1.4577028E0,3.1670408E0,3.7044342E0,1.2264258E0,2.8834538E0,2.2731595E0,1.6969427E1],"categories":[],"categories_nodes":[],"categories_segments":[],"categories_sizes":[],"default_left":[0,0,0,0,0,0,0,0,0,0,0,0,0,0,0,0,0,0,0,0,0,0,0,0,0,0,0,0,0,0,0,0,0,0,0,0,0,0,0,0,0,0,0,0,0,0,0,0,0,0,0,0,0,0,0,0,0,0,0,0,0,0,0,0,0,0,0,0,0,0,0,0,0,0,0,0,0,0,0,0,0,0,0,0,0,0,0,0,0,0,0,0,0,0,0,0,0,0,0,0,0,0,0,0,0,0,0],"id":11,"left_children":[1,3,5,7,9,11,13,15,17,19,21,23,25,27,29,31,33,35,37,39,41,43,45,47,49,51,53,-1,-1,-1,55,57,59,61,63,65,67,69,71,73,75,77,79,81,83,85,87,89,91,93,95,97,99,101,103,105,-1,-1,-1,-1,-1,-1,-1,-1,-1,-1,-1,-1,-1,-1,-1,-1,-1,-1,-1,-1,-1,-1,-1,-1,-1,-1,-1,-1,-1,-1,-1,-1,-1,-1,-1,-1,-1,-1,-1,-1,-1,-1,-1,-1,-1,-1,-1,-1,-1,-1,-1],"loss_changes":[4.567008E6,7.024406E5,9.0073425E5,4.6196625E4,1.0445654E5,3.02169E5,1.976905E5,2.707E3,3.7858438E3,1.3692327E4,1.8493516E4,3.1615125E4,3.614325E4,8.55375E2,1.9593875E4,2.97375E2,1.0335781E3,2.5013125E3,1.1452031E3,4.7795293E3,6.1165205E3,9.89482E3,4.3046797E3,6.820375E3,9.6905E3,6.362625E3,4.6505E3,0E0,0E0,0E0,5.4923625E4,1.77375E2,1.24859375E2,1.5120312E2,1.20640625E2,3.6632227E2,3.200332E2,3.6522266E2,4.726953E2,1.1489856E3,2.637422E2,2.2933867E3,1.4366621E3,3.4373047E3,2.0627656E3,1.3473281E3,1.4753164E3,3.4915625E3,1.6465312E3,3.7744375E3,8.578906E2,4.495625E2,1.9367344E3,6.61875E1,2.0615312E3,4.731075E4,0E0,0E0,0E0,0E0,0E0,0E0,0E0,0E0,0E0,0E0,0E0,0E0,0E0,0E0,0E0,0E0,0E0,0E0,0E0,0E0,0E0,0E0,0E0,0E0,0E0,0E0,0E0,0E0,0E0,0E0,0E0,0E0,0E0,0E0,0E0,0E0,0E0,0E0,0E0,0E0,0E0,0E0,0E0,0E0,0E0,0E0,0E0,0E0,0E0,0E0,0E0],"parents":[2147483647,0,0,1,1,2,2,3,3,4,4,5,5,6,6,7,7,8,8,9,9,10,10,11,11,12,12,13,13,14,14,15,15,16,16,17,17,18,18,19,19,20,20,21,21,22,22,23,23,24,24,25,25,26,26,30,30,31,31,32,32,33,33,34,34,35,35,36,36,37,37,38,38,39,39,40,40,41,41,42,42,43,43,44,44,45,45,46,46,47,47,48,48,49,49,50,50,51,51,52,52,53,53,54,54,55,55],"right_children":[2,4,6,8,10,12,14,16,18,20,22,24,26,28,30,32,34,36,38,40,42,44,46,48,50,52,54,-1,-1,-1,56,58,60,62,64,66,68,70,72,74,76,78,80,82,84,86,88,90,92,94,96,98,100,102,104,106,-1,-1,-1,-1,-1,-1,-1,-1,-1,-1,-1,-1,-1,-1,-1,-1,-1,-1,-1,-1,-1,-1,-1,-1,-1,-1,-1,-1,-1,-1,-1,-1,-1,-1,-1,-1,-1,-1,-1,-1,-1,-1,-1,-1,-1,-1,-1,-1,-1,-1,-1],"split_conditions":[5.4E1,1.5E1,1.57E2,6E0,3.2E1,9.2E1,2.14E2,3E0,0E0,2.2E1,4.6E1,7.1E1,1.2E2,3.8E1,-1E0,2E0,0E0,1E1,9E0,4E0,3E0,6E0,2E0,6.2E1,1.5E1,1.6E1,1.3E1,4.637988E0,3.2408772E0,6.88347E0,1E1,5E0,1E0,-4E0,2E0,-6E0,9E0,4E0,3E0,1.9E1,1.7E1,2.7E1,2.6E1,3.9E1,4E1,-1.1E1,1.8E1,6E0,4E0,7.8E1,1E1,7E0,1E1,1.35E2,2E0,3E0,7.780038E0,-6.291861E-1,-6.0200995E-1,-5.407847E-1,-5.944147E-1,-3.9690676E-1,-4.7964653E-1,-5.2649075E-1,-5.800346E-1,-2.6375005E-1,-3.66747E-1,-1.4157371E-1,-2.225226E-1,-4.2467728E-1,-5.396443E-1,-2.9973382E-1,-3.8685244E-1,-7.469313E-2,3.5628356E-2,-3.104147E-1,-2.1153913E-1,1.4282726E-1,3.025828E-1,-7.5184196E-2,7.537517E-2,4.4752103E-1,6.751134E-1,1.5138319E-1,3.7741536E-1,1.1538166E0,8.5494584E-1,6.962283E-1,3.768097E-1,1.1548991E0,8.0969137E-1,1.4673578E0,1.194385E0,1.595365E0,1.93907E0,1.3866849E0,9.9172527E-1,2.7403967E0,2.4162502E0,2.1524246E0,1.4577028E0,3.1670408E0,3.7044342E0,1.2264258E0,2.8834538E0,2.2731595E0,1.6969427E1],"split_indices":[5,5,5,5,5,5,5,5,4,5,5,5,5,4,4,5,4,5,5,4,4,4,4,5,4,4,4,0,0,0,4,3,4,4,4,4,1,4,4,5,5,5,5,5,5,4,4,4,4,5,1,1,1,5,1,3,0,0,0,0,0,0,0,0,0,0,0,0,0,0,0,0,0,0,0,0,0,0,0,0,0,0,0,0,0,0,0,0,0,0,0,0,0,0,0,0,0,0,0,0,0,0,0,0,0,0,0],"split_type":[0,0,0,0,0,0,0,0,0,0,0,0,0,0,0,0,0,0,0,0,0,0,0,0,0,0,0,0,0,0,0,0,0,0,0,0,0,0,0,0,0,0,0,0,0,0,0,0,0,0,0,0,0,0,0,0,0,0,0,0,0,0,0,0,0,0,0,0,0,0,0,0,0,0,0,0,0,0,0,0,0,0,0,0,0,0,0,0,0,0,0,0,0,0,0,0,0,0,0,0,0,0,0,0,0,0,0],"sum_hessian":[1.6923E4,1.4816E4,2.107E3,1.0227E4,4.589E3,1.951E3,1.56E2,8.111E3,2.116E3,2.925E3,1.664E3,1.267E3,6.84E2,1.05E2,5.1E1,6.779E3,1.332E3,9.89E2,1.127E3,1.357E3,1.568E3,1.189E3,4.75E2,6.77E2,5.9E2,4.07E2,2.77E2,9.3E1,1.2E1,2.8E1,2.3E1,5.883E3,8.96E2,4.64E2,8.68E2,4.79E2,5.1E2,4.24E2,7.03E2,9.72E2,3.85E2,9.25E2,6.43E2,7.43E2,4.46E2,2.4E2,2.35E2,3.49E2,3.28E2,4.54E2,1.36E2,3.08E2,9.9E1,1.66E2,1.11E2,5E0,1.8E1,1.468E3,4.415E3,3.99E2,4.97E2,1.13E2,3.51E2,3.75E2,4.93E2,1.34E2,3.45E2,2.78E2,2.32E2,3.08E2,1.16E2,2.96E2,4.07E2,5.71E2,4.01E2,9.7E1,2.88E2,5.33E2,3.92E2,2.79E2,3.64E2,4.77E2,2.66E2,2.9E2,1.56E2,6.4E1,1.76E2,1.85E2,5E1,2.19E2,1.3E2,1.93E2,1.35E2,1.73E2,2.81E2,1.05E2,3.1E1,1.13E2,1.95E2,7.6E1,2.3E1,9.9E1,6.7E1,4E0,1.07E2,1E0,4E0],"tree_param":{"num_deleted":"0","num_feature":"6","num_nodes":"107","size_leaf_vector":"1"}},{"base_weights":[8.455333E-2,-6.005297E0,3.9893845E1,-1.0202999E1,3.6205008E0,3.4942856E1,1.0871392E2,-1.1235178E1,-6.258225E0,1.7600825E-1,8.647245E0,2.6336235E1,5.1556038E1,8.531225E1,1.5868118E2,-1.1482837E1,-9.981789E0,-4.8040657E0,-7.564242E0,-1.7383159E0,2.1206543E0,1.1480018E1,5.9770494E0,2.078704E1,3.1112669E1,4.5816853E1,6.0527744E1,4.35474E0,2.8310564E0,3.8665788E0,1.6247021E2,-1.0828865E1,-1.1568588E1,-9.0226E0,-5.411189E-1,-6.7208056E0,-3.7123644E0,-8.425695E0,-6.2248454E0,-4.8255354E-1,-4.1502986E0,3.890049E0,-5.5765235E-1,8.055764E0,1.4062856E1,3.5613723E0,9.330266E0,2.370516E1,1.6160456E1,3.4553905E1,2.713026E1,4.813426E1,3.707831E1,6.3787914E1,5.1231358E1,5.6269536E0,1.7209425E2,-4.7743592E-1,-5.496635E-1,-5.9772325E-1,-5.71845E-1,-3.8551834E-1,-4.6639553E-1,-2.7426913E-1,-3.7814808E-1,-1.4489937E-1,-2.4122362E-1,-3.8916597E-1,-4.8894086E-1,-3.1382158E-1,4.1440707E-1,-7.043668E-2,3.879341E-2,-2.5852987E-1,-1.6952841E-1,1.0684146E-1,2.5778213E-1,2.196628E-2,-1.0859336E-1,3.173401E-1,5.086054E-1,6.13044E-1,7.7469814E-1,1.1621857E-1,2.507907E-1,5.085366E-1,2.874496E-1,1.074252E0,1.3099544E0,8.865719E-1,4.3527856E-1,1.5968543E0,1.9716021E0,1.4634191E0,9.7741234E-1,2.6199784E0,2.3093693E0,2.013559E0,1.2181511E0,2.8752313E0,3.4133725E0,2.9109573E0,2.0591304E0,1.0477657E1,7.0217156E0],"categories":[],"categories_nodes":[],"categories_segments":[],"categories_sizes":[],"default_left":[0,0,0,0,0,0,0,0,0,0,0,0,0,0,0,0,0,0,0,0,0,0,0,0,0,0,0,0,0,0,0,0,0,0,0,0,0,0,0,0,0,0,0,0,0,0,0,0,0,0,0,0,0,0,0,0,0,0,0,0,0,0,0,0,0,0,0,0,0,0,0,0,0,0,0,0,0,0,0,0,0,0,0,0,0,0,0,0,0,0,0,0,0,0,0,0,0,0,0,0,0,0,0,0,0],"id":12,"left_children":[1,3,5,7,9,11,13,15,17,19,21,23,25,27,29,31,33,35,37,39,41,43,45,47,49,51,53,-1,-1,-1,55,57,59,61,-1,63,65,67,69,71,73,75,77,79,81,83,85,87,89,91,93,95,97,99,101,-1,103,-1,-1,-1,-1,-1,-1,-1,-1,-1,-1,-1,-1,-1,-1,-1,-1,-1,-1,-1,-1,-1,-1,-1,-1,-1,-1,-1,-1,-1,-1,-1,-1,-1,-1,-1,-1,-1,-1,-1,-1,-1,-1,-1,-1,-1,-1,-1,-1],"loss_changes":[4.1240185E6,5.961905E5,7.6522225E5,4.1762375E4,7.758514E4,2.99908E5,1.630295E5,2.41275E3,4.0145547E3,9.906023E3,1.3713078E4,3.6195688E4,3.4196875E4,4.38625E2,1.923E3,2.55625E2,9.916406E2,2.09267E3,1.2421523E3,4.0597214E3,6.2576245E3,7.6962266E3,7.581043E3,8.3385E3,9.272375E3,7.166E3,5.1273125E3,0E0,0E0,0E0,1.776375E3,6.403906E1,1.67625E2,1.8328516E2,0E0,3.3930664E2,5.7199023E2,5.149492E2,3.8368164E2,1.0302516E3,3.3826318E2,1.7529795E3,8.4746515E2,1.3170391E3,1.1045938E3,9.7427295E2,1.1244375E3,1.618625E3,2.8086406E3,3.7956875E3,5.1018125E3,4.529375E2,2.9569062E3,1.7316875E3,3.0092031E3,0E0,1.20798125E4,0E0,0E0,0E0,0E0,0E0,0E0,0E0,0E0,0E0,0E0,0E0,0E0,0E0,0E0,0E0,0E0,0E0,0E0,0E0,0E0,0E0,0E0,0E0,0E0,0E0,0E0,0E0,0E0,0E0,0E0,0E0,0E0,0E0,0E0,0E0,0E0,0E0,0E0,0E0,0E0,0E0,0E0,0E0,0E0,0E0,0E0,0E0,0E0],"parents":[2147483647,0,0,1,1,2,2,3,3,4,4,5,5,6,6,7,7,8,8,9,9,10,10,11,11,12,12,13,13,14,14,15,15,16,16,17,17,18,18,19,19,20,20,21,21,22,22,23,23,24,24,25,25,26,26,30,30,31,31,32,32,33,33,35,35,36,36,37,37,38,38,39,39,40,40,41,41,42,42,43,43,44,44,45,45,46,46,47,47,48,48,49,49,50,50,51,51,52,52,53,53,54,54,56,56],"right_children":[2,4,6,8,10,12,14,16,18,20,22,24,26,28,30,32,34,36,38,40,42,44,46,48,50,52,54,-1,-1,-1,56,58,60,62,-1,64,66,68,70,72,74,76,78,80,82,84,86,88,90,92,94,96,98,100,102,-1,104,-1,-1,-1,-1,-1,-1,-1,-1,-1,-1,-1,-1,-1,-1,-1,-1,-1,-1,-1,-1,-1,-1,-1,-1,-1,-1,-1,-1,-1,-1,-1,-1,-1,-1,-1,-1,-1,-1,-1,-1,-1,-1,-1,-1,-1,-1,-1,-1],"split_conditions":[5.1E1,1.5E1,1.57E2,6E0,3E1,9.2E1,2.14E2,3E0,0E0,2.2E1,2E0,6.6E1,1.2E2,4E1,-7.3E1,-1E0,1E0,9E0,1.1E1,3E0,3E0,3.6E1,4E1,6E0,4E0,1.9E1,1E1,4.35474E0,2.8310564E0,3.8665788E0,5E0,-4E0,5E0,-4E0,-5.411189E-1,-4E0,9E0,4E0,1.3E1,1.9E1,7E0,2.5E1,9E0,8E0,4.2E1,3.5E1,1.6E1,5.9E1,2.1E1,8.1E1,1E1,-1.1E1,1E1,1.3E2,2E0,5.6269536E0,8E0,-4.7743592E-1,-5.496635E-1,-5.9772325E-1,-5.71845E-1,-3.8551834E-1,-4.6639553E-1,-2.7426913E-1,-3.7814808E-1,-1.4489937E-1,-2.4122362E-1,-3.8916597E-1,-4.8894086E-1,-3.1382158E-1,4.1440707E-1,-7.043668E-2,3.879341E-2,-2.5852987E-1,-1.6952841E-1,1.0684146E-1,2.5778213E-1,2.196628E-2,-1.0859336E-1,3.173401E-1,5.086054E-1,6.13044E-1,7.7469814E-1,1.1621857E-1,2.507907E-1,5.085366E-1,2.874496E-1,1.074252E0,1.3099544E0,8.865719E-1,4.3527856E-1,1.5968543E0,1.9716021E0,1.4634191E0,9.7741234E-1,2.6199784E0,2.3093693E0,2.013559E0,1.2181511E0,2.8752313E0,3.4133725E0,2.9109573E0,2.0591304E0,1.0477657E1,7.0217156E0],"split_indices":[5,5,5,5,5,5,5,5,4,5,4,5,5,4,4,4,4,5,5,4,4,5,5,4,4,4,1,0,0,0,1,4,3,4,0,4,1,4,4,5,3,5,4,3,5,5,4,5,4,5,1,4,1,5,4,0,1,0,0,0,0,0,0,0,0,0,0,0,0,0,0,0,0,0,0,0,0,0,0,0,0,0,0,0,0,0,0,0,0,0,0,0,0,0,0,0,0,0,0,0,0,0,0,0,0],"split_type":[0,0,0,0,0,0,0,0,0,0,0,0,0,0,0,0,0,0,0,0,0,0,0,0,0,0,0,0,0,0,0,0,0,0,0,0,0,0,0,0,0,0,0,0,0,0,0,0,0,0,0,0,0,0,0,0,0,0,0,0,0,0,0,0,0,0,0,0,0,0,0,0,0,0,0,0,0,0,0,0,0,0,0,0,0,0,0,0,0,0,0,0,0,0,0,0,0,0,0,0,0,0,0,0,0],"sum_hessian":[1.7009E4,1.4753E4,2.256E3,1.0273E4,4.48E3,2.106E3,1.5E2,8.141E3,2.132E3,2.659E3,1.821E3,1.389E3,7.17E2,1.04E2,4.6E1,6.791E3,1.35E3,1.011E3,1.121E3,1.34E3,1.319E3,8.82E2,9.39E2,6.45E2,7.44E2,4.41E2,2.76E2,9.6E1,8E0,3E0,4.3E1,8.02E2,5.989E3,6.36E2,7.14E2,3.65E2,6.46E2,6.79E2,4.42E2,8.82E2,4.58E2,7.94E2,5.25E2,3.81E2,5.01E2,5.47E2,3.92E2,3.93E2,2.52E2,3.95E2,3.49E2,3.45E2,9.6E1,2E2,7.6E1,9E0,3.4E1,9.8E1,7.04E2,1.501E3,4.488E3,1.25E2,5.11E2,1.51E2,2.14E2,3.75E2,2.71E2,4.65E2,2.14E2,4.41E2,1E0,5.08E2,3.74E2,1.93E2,2.65E2,3.34E2,4.6E2,3.25E2,2E2,2.13E2,1.68E2,2.26E2,2.75E2,2.97E2,2.5E2,3.16E2,7.6E1,2.13E2,1.8E2,2.07E2,4.5E1,2.62E2,1.33E2,2.7E2,7.9E1,1E2,2.45E2,7.5E1,2.1E1,8.9E1,1.11E2,4.2E1,3.4E1,1.3E1,2.1E1],"tree_param":{"num_deleted":"0","num_feature":"6","num_nodes":"105","size_leaf_vector":"1"}},{"base_weights":[-5.5757957E-3,-5.5297756E0,3.9260113E1,-9.300997E0,4.766247E0,3.3294903E1,9.287368E1,-1.0575391E1,-4.9031453E0,2.0949807E0,1.0912395E1,2.5902992E1,4.7703888E1,7.5685524E1,1.387896E2,-1.0831308E1,-8.779074E0,-6.1191363E0,-3.200483E0,-5.0015E-2,4.48159E0,1.3892803E1,8.296333E0,1.9857813E1,2.9793158E1,4.2356136E1,5.3529575E1,3.4451203E0,4.3719893E0,1.19676926E2,1.7909145E2,-1.0985521E1,-1.01969595E1,-8.056463E0,-1.0035833E1,-3.9346917E0,-6.8750663E0,-2.0644054E0,-4.990755E0,1.350485E0,-2.3622613E0,6.5366607E0,1.4040889E0,1.2114947E1,1.703649E1,6.440182E0,1.1310921E1,2.2295734E1,1.5907039E1,3.3268906E1,2.5460411E1,4.363658E1,3.138768E1,5.922447E1,4.7635006E1,3.610502E0,6.287548E0,3.019572E0,9.586745E0,-4.5468292E-1,-5.5017775E-1,-4.7701627E-1,-5.353045E-1,-3.278575E-1,-4.2028233E-1,-4.8252472E-1,-5.396816E-1,-2.4432139E-1,-1.371416E-1,-3.0505678E-1,-4.0282726E-1,-1.7236845E-1,-8.292936E-2,-2.0058067E-1,-2.902753E-1,2.0156339E-2,1.226648E-1,-8.7708786E-2,-1.8901645E-1,2.4527052E-1,4.051559E-1,1.331286E-1,7.0163743E-3,6.804512E-1,5.378627E-1,5.2830166E-1,8.864415E-1,3.6580077E-1,1.455858E-1,6.4753455E-1,4.187796E-1,9.9389714E-1,1.2180208E0,8.5408115E-1,5.5822533E-1,1.538596E0,1.8579247E0,1.0326304E0,1.3881814E0,2.4124954E0,2.0987704E0,1.602109E0,1.6291848E-1,2.9940648E0,1.6740208E0,2.2211292E0,2.6459312E0],"categories":[],"categories_nodes":[],"categories_segments":[],"categories_sizes":[],"default_left":[0,0,0,0,0,0,0,0,0,0,0,0,0,0,0,0,0,0,0,0,0,0,0,0,0,0,0,0,0,0,0,0,0,0,0,0,0,0,0,0,0,0,0,0,0,0,0,0,0,0,0,0,0,0,0,0,0,0,0,0,0,0,0,0,0,0,0,0,0,0,0,0,0,0,0,0,0,0,0,0,0,0,0,0,0,0,0,0,0,0,0,0,0,0,0,0,0,0,0,0,0,0,0,0,0,0,0],"id":13,"left_children":[1,3,5,7,9,11,13,15,17,19,21,23,25,27,29,31,33,35,37,39,41,43,45,47,49,51,53,-1,-1,55,57,59,61,63,65,67,69,71,73,75,77,79,81,83,85,87,89,91,93,95,97,99,101,103,105,-1,-1,-1,-1,-1,-1,-1,-1,-1,-1,-1,-1,-1,-1,-1,-1,-1,-1,-1,-1,-1,-1,-1,-1,-1,-1,-1,-1,-1,-1,-1,-1,-1,-1,-1,-1,-1,-1,-1,-1,-1,-1,-1,-1,-1,-1,-1,-1,-1,-1,-1,-1],"loss_changes":[3.6985582E6,5.8045394E5,6.694815E5,6.1267938E4,6.578046E4,2.0049425E5,1.5522962E5,3.80425E3,5.0736562E3,1.4308571E4,9.350219E3,2.8898438E4,1.77025E4,6.3334375E3,2.1702375E4,6.138125E2,8.845078E2,2.3408945E3,2.0785E3,4.773208E3,8.358113E3,2.9569844E3,3.5586562E3,4.403375E3,1.061325E4,3.3914375E3,7.3503125E3,0E0,0E0,2.7404375E3,1.2433344E4,1.03125E2,3.87625E2,3.008828E2,7.96875E0,4.0743604E2,9.237461E2,3.478584E2,2.942168E2,9.580979E2,4.7281104E2,1.9865938E3,8.441405E2,5.940078E2,7.1758203E2,1.2271992E3,1.0755918E3,1.0283438E3,8.7883203E2,2.926E3,3.2247969E3,2.814375E2,6.1360547E2,5.315E2,2.630625E2,0E0,0E0,0E0,0E0,0E0,0E0,0E0,0E0,0E0,0E0,0E0,0E0,0E0,0E0,0E0,0E0,0E0,0E0,0E0,0E0,0E0,0E0,0E0,0E0,0E0,0E0,0E0,0E0,0E0,0E0,0E0,0E0,0E0,0E0,0E0,0E0,0E0,0E0,0E0,0E0,0E0,0E0,0E0,0E0,0E0,0E0,0E0,0E0,0E0,0E0,0E0,0E0],"parents":[2147483647,0,0,1,1,2,2,3,3,4,4,5,5,6,6,7,7,8,8,9,9,10,10,11,11,12,12,13,13,14,14,15,15,16,16,17,17,18,18,19,19,20,20,21,21,22,22,23,23,24,24,25,25,26,26,29,29,30,30,31,31,32,32,33,33,34,34,35,35,36,36,37,37,38,38,39,39,40,40,41,41,42,42,43,43,44,44,45,45,46,46,47,47,48,48,49,49,50,50,51,51,52,52,53,53,54,54],"right_children":[2,4,6,8,10,12,14,16,18,20,22,24,26,28,30,32,34,36,38,40,42,44,46,48,50,52,54,-1,-1,56,58,60,62,64,66,68,70,72,74,76,78,80,82,84,86,88,90,92,94,96,98,100,102,104,106,-1,-1,-1,-1,-1,-1,-1,-1,-1,-1,-1,-1,-1,-1,-1,-1,-1,-1,-1,-1,-1,-1,-1,-1,-1,-1,-1,-1,-1,-1,-1,-1,-1,-1,-1,-1,-1,-1,-1,-1,-1,-1,-1,-1,-1,-1,-1,-1,-1,-1,-1,-1],"split_conditions":[5.4E1,1.8E1,1.44E2,7E0,3.6E1,9.2E1,2.14E2,4E0,1.3E1,2.6E1,2E0,6.6E1,1.12E2,1.73E2,3.5E1,2E0,2E0,-3E0,2E0,3E0,4E0,4.7E1,4.6E1,6E0,4E0,2.7E1,8E0,3.4451203E0,4.3719893E0,5E0,-6E1,-4E0,1E0,-4E0,4E0,1E1,3E0,1.4E1,5E0,2.2E1,9E0,3E1,9E0,-6E0,5E0,1.5E1,1.3E1,5.9E1,2E1,8E1,7.5E1,-1.1E1,5.1E1,4.5E1,1.3E2,3.610502E0,6.287548E0,3.019572E0,9.586745E0,-4.5468292E-1,-5.5017775E-1,-4.7701627E-1,-5.353045E-1,-3.278575E-1,-4.2028233E-1,-4.8252472E-1,-5.396816E-1,-2.4432139E-1,-1.371416E-1,-3.0505678E-1,-4.0282726E-1,-1.7236845E-1,-8.292936E-2,-2.0058067E-1,-2.902753E-1,2.0156339E-2,1.226648E-1,-8.7708786E-2,-1.8901645E-1,2.4527052E-1,4.051559E-1,1.331286E-1,7.0163743E-3,6.804512E-1,5.378627E-1,5.2830166E-1,8.864415E-1,3.6580077E-1,1.455858E-1,6.4753455E-1,4.187796E-1,9.9389714E-1,1.2180208E0,8.5408115E-1,5.5822533E-1,1.538596E0,1.8579247E0,1.0326304E0,1.3881814E0,2.4124954E0,2.0987704E0,1.602109E0,1.6291848E-1,2.9940648E0,1.6740208E0,2.2211292E0,2.6459312E0],"split_indices":[5,5,5,5,5,5,5,5,5,5,4,5,5,5,2,5,4,4,4,4,4,5,5,4,4,4,4,0,0,2,4,4,4,4,4,5,4,5,4,5,4,5,4,4,2,4,4,5,4,5,5,4,4,2,5,0,0,0,0,0,0,0,0,0,0,0,0,0,0,0,0,0,0,0,0,0,0,0,0,0,0,0,0,0,0,0,0,0,0,0,0,0,0,0,0,0,0,0,0,0,0,0,0,0,0,0,0],"split_type":[0,0,0,0,0,0,0,0,0,0,0,0,0,0,0,0,0,0,0,0,0,0,0,0,0,0,0,0,0,0,0,0,0,0,0,0,0,0,0,0,0,0,0,0,0,0,0,0,0,0,0,0,0,0,0,0,0,0,0,0,0,0,0,0,0,0,0,0,0,0,0,0,0,0,0,0,0,0,0,0,0,0,0,0,0,0,0,0,0,0,0,0,0,0,0,0,0,0,0,0,0,0,0,0,0,0,0],"sum_hessian":[1.7049E4,1.4947E4,2.102E3,1.094E4,4.007E3,1.893E3,2.09E2,8.481E3,2.459E3,2.794E3,1.213E3,1.253E3,6.4E2,1.54E2,5.5E1,7.419E3,1.062E3,1.433E3,1.026E3,1.472E3,1.322E3,5.65E2,6.48E2,4.93E2,7.6E2,3.38E2,3.02E2,1.02E2,5.2E1,4E1,1.5E1,5.955E3,1.464E3,6.79E2,3.83E2,3.7E2,1.063E3,6.29E2,3.97E2,9.17E2,5.55E2,7.92E2,5.3E2,3.64E2,2.01E2,4.03E2,2.45E2,3.02E2,1.91E2,4.18E2,3.42E2,3E2,3.8E1,1.49E2,1.53E2,6E0,3.4E1,2E0,1.3E1,6.1E1,5.894E3,6.48E2,8.16E2,1.32E2,5.47E2,2.63E2,1.2E2,2.04E2,1.66E2,6.46E2,4.17E2,1.41E2,4.88E2,1.83E2,2.14E2,4.94E2,4.23E2,3.9E2,1.65E2,3.9E2,4.02E2,2.65E2,2.65E2,1.69E2,1.95E2,2.1E1,1.8E2,3.22E2,8.1E1,1.55E2,9E1,1.44E2,1.58E2,1.51E2,4E1,2.6E2,1.58E2,1.14E2,2.28E2,7.2E1,2.28E2,3.7E1,1E0,1.44E2,5E0,1.01E2,5.2E1],"tree_param":{"num_deleted":"0","num_feature":"6","num_nodes":"107","size_leaf_vector":"1"}},{"base_weights":[-7.500565E-2,-5.4549026E0,3.542707E1,-8.9400625E0,3.7811701E0,2.756104E1,6.91877E1,-1.0032619E1,-4.842041E0,7.5710976E-1,8.080158E0,2.1621698E1,3.8664326E1,6.1488483E1,1.26698235E2,-1.0274765E1,-8.3112335E0,-6.331814E0,-3.7494836E0,-7.0510167E-1,2.6050034E0,1.0245696E1,5.4178658E0,1.7840202E1,2.573187E1,3.3801525E1,4.278191E1,5.5929703E1,7.684325E1,9.368737E0,5.4180827E0,-1.043119E1,-9.631825E0,-7.480028E0,-9.1749735E0,-3.207494E0,-6.759449E0,-2.6693811E0,-5.4727697E0,3.050024E-1,-3.054356E0,3.4630291E0,-1.7745785E0,8.504657E0,1.3705743E1,3.253716E0,8.023074E0,2.0157087E1,1.45368595E1,2.9207115E1,2.1855387E1,3.5887352E1,2.446268E1,4.4126865E1,3.0967196E1,2.9773674E0,2.539306E0,3.366985E0,4.2760324E0,-5.398852E-1,-5.1539046E-1,-4.242966E-1,-4.9522707E-1,-3.2372892E-1,-3.892745E-1,-4.3614444E-1,-4.8489276E-1,-1.1165918E-2,-1.9481078E-1,-3.116919E-1,-3.9771548E-1,-1.6573249E-1,-9.81096E-2,-2.2392142E-1,-3.1961164E-1,-5.2575618E-2,6.577333E-2,-1.8338746E-1,-9.381012E-2,2.616063E-1,1.15348116E-1,4.7782145E-2,-1.4002894E-1,5.4658335E-1,3.5880658E-1,1.2007887E0,6.6925615E-1,2.4112593E-1,9.542551E-2,4.487648E-1,2.8357524E-1,8.6862653E-1,1.0492487E0,7.981717E-1,4.8617753E-1,1.7902073E0,1.4063221E0,9.4048494E-1,1.2016518E0,1.5740712E0,1.8547128E0,9.456889E-1,1.458402E0,5.605365E-1,2.209949E0,6.610252E-1,1.6055306E0],"categories":[],"categories_nodes":[],"categories_segments":[],"categories_sizes":[],"default_left":[0,0,0,0,0,0,0,0,0,0,0,0,0,0,0,0,0,0,0,0,0,0,0,0,0,0,0,0,0,0,0,0,0,0,0,0,0,0,0,0,0,0,0,0,0,0,0,0,0,0,0,0,0,0,0,0,0,0,0,0,0,0,0,0,0,0,0,0,0,0,0,0,0,0,0,0,0,0,0,0,0,0,0,0,0,0,0,0,0,0,0,0,0,0,0,0,0,0,0,0,0,0,0,0,0,0,0],"id":14,"left_children":[1,3,5,7,9,11,13,15,17,19,21,23,25,27,29,31,33,35,37,39,41,43,45,47,49,51,53,55,57,-1,-1,59,61,63,65,67,69,71,73,75,77,79,81,83,85,87,89,91,93,95,97,99,101,103,105,-1,-1,-1,-1,-1,-1,-1,-1,-1,-1,-1,-1,-1,-1,-1,-1,-1,-1,-1,-1,-1,-1,-1,-1,-1,-1,-1,-1,-1,-1,-1,-1,-1,-1,-1,-1,-1,-1,-1,-1,-1,-1,-1,-1,-1,-1,-1,-1,-1,-1,-1,-1],"loss_changes":[3.254027E6,4.7627284E5,5.9348325E5,4.8046875E4,5.2697508E4,1.19186E5,1.7950775E5,3.44925E3,3.6596562E3,6.435326E3,9.595594E3,1.80055E4,1.12285E4,2.7709875E4,3.421325E4,6.468125E2,6.859297E2,1.2556055E3,2.4200059E3,3.15701E3,3.9593442E3,5.437633E3,4.2193535E3,4.467453E3,7.000125E3,4.8684688E3,4.020375E3,2.1673125E3,2.2403125E3,0E0,0E0,1.58375E2,3.7440625E2,1.1574414E2,3.6203125E1,2.3959619E2,4.7795703E2,3.612954E2,4.312461E2,1.2775137E3,2.8218726E2,1.7877012E3,4.872854E2,1.90775E3,6.933672E2,8.623755E2,7.1266797E2,4.7226562E2,1.6300781E3,1.1032188E3,1.3519688E3,1.03125E2,9.365703E2,2.213125E2,3.465703E2,0E0,0E0,0E0,0E0,0E0,0E0,0E0,0E0,0E0,0E0,0E0,0E0,0E0,0E0,0E0,0E0,0E0,0E0,0E0,0E0,0E0,0E0,0E0,0E0,0E0,0E0,0E0,0E0,0E0,0E0,0E0,0E0,0E0,0E0,0E0,0E0,0E0,0E0,0E0,0E0,0E0,0E0,0E0,0E0,0E0,0E0,0E0,0E0,0E0,0E0,0E0,0E0],"parents":[2147483647,0,0,1,1,2,2,3,3,4,4,5,5,6,6,7,7,8,8,9,9,10,10,11,11,12,12,13,13,14,14,15,15,16,16,17,17,18,18,19,19,20,20,21,21,22,22,23,23,24,24,25,25,26,26,27,27,28,28,31,31,32,32,33,33,34,34,35,35,36,36,37,37,38,38,39,39,40,40,41,41,42,42,43,43,44,44,45,45,46,46,47,47,48,48,49,49,50,50,51,51,52,52,53,53,54,54],"right_children":[2,4,6,8,10,12,14,16,18,20,22,24,26,28,30,32,34,36,38,40,42,44,46,48,50,52,54,56,58,-1,-1,60,62,64,66,68,70,72,74,76,78,80,82,84,86,88,90,92,94,96,98,100,102,104,106,-1,-1,-1,-1,-1,-1,-1,-1,-1,-1,-1,-1,-1,-1,-1,-1,-1,-1,-1,-1,-1,-1,-1,-1,-1,-1,-1,-1,-1,-1,-1,-1,-1,-1,-1,-1,-1,-1,-1,-1,-1,-1,-1,-1,-1,-1,-1,-1,-1,-1,-1,-1],"split_conditions":[5.1E1,1.7E1,1.2E2,7E0,3.1E1,8.3E1,2.14E2,4E0,1.1E1,2.4E1,4E0,6.5E1,9.7E1,1.57E2,2.023E3,2E0,1E0,-6E0,2E0,4E0,9E0,4.2E1,4E1,6E0,3E0,1.8E1,2.7E1,1E1,1.73E2,9.368737E0,5.4180827E0,5E0,-1E0,-4E0,3E0,2.023E3,3E0,1.4E1,5E0,2E1,2.2E1,-3E0,2.023E3,-7E0,-3E1,9E0,1.5E1,5.4E1,2E1,-2.2E1,7.3E1,2.023E3,8.9E1,-6.2E1,2.8E1,2.9773674E0,2.539306E0,3.366985E0,4.2760324E0,-5.398852E-1,-5.1539046E-1,-4.242966E-1,-4.9522707E-1,-3.2372892E-1,-3.892745E-1,-4.3614444E-1,-4.8489276E-1,-1.1165918E-2,-1.9481078E-1,-3.116919E-1,-3.9771548E-1,-1.6573249E-1,-9.81096E-2,-2.2392142E-1,-3.1961164E-1,-5.2575618E-2,6.577333E-2,-1.8338746E-1,-9.381012E-2,2.616063E-1,1.15348116E-1,4.7782145E-2,-1.4002894E-1,5.4658335E-1,3.5880658E-1,1.2007887E0,6.6925615E-1,2.4112593E-1,9.542551E-2,4.487648E-1,2.8357524E-1,8.6862653E-1,1.0492487E0,7.981717E-1,4.8617753E-1,1.7902073E0,1.4063221E0,9.4048494E-1,1.2016518E0,1.5740712E0,1.8547128E0,9.456889E-1,1.458402E0,5.605365E-1,2.209949E0,6.610252E-1,1.6055306E0],"split_indices":[5,5,5,5,5,5,5,5,5,5,4,5,5,5,0,5,4,4,4,4,4,5,5,4,4,4,4,4,5,0,0,3,4,4,4,0,4,5,4,5,5,4,0,4,4,4,4,5,4,4,5,0,5,4,4,0,0,0,0,0,0,0,0,0,0,0,0,0,0,0,0,0,0,0,0,0,0,0,0,0,0,0,0,0,0,0,0,0,0,0,0,0,0,0,0,0,0,0,0,0,0,0,0,0,0,0,0],"split_type":[0,0,0,0,0,0,0,0,0,0,0,0,0,0,0,0,0,0,0,0,0,0,0,0,0,0,0,0,0,0,0,0,0,0,0,0,0,0,0,0,0,0,0,0,0,0,0,0,0,0,0,0,0,0,0,0,0,0,0,0,0,0,0,0,0,0,0,0,0,0,0,0,0,0,0,0,0,0,0,0,0,0,0,0,0,0,0,0,0,0,0,0,0,0,0,0,0,0,0,0,0,0,0,0,0,0,0],"sum_hessian":[1.7035E4,1.4794E4,2.241E3,1.0741E4,4.053E3,1.819E3,4.22E2,8.479E3,2.262E3,2.38E3,1.673E3,1.187E3,6.32E2,3.74E2,4.8E1,7.429E3,1.05E3,9.55E2,1.307E3,1.329E3,1.051E3,9.21E2,7.52E2,6.21E2,5.66E2,2.94E2,3.38E2,2.78E2,9.6E1,9E0,3.9E1,5.963E3,1.466E3,5.4E2,5.1E2,1.16E2,8.39E2,8.05E2,5.02E2,9.3E2,3.99E2,8.79E2,1.72E2,6.15E2,3.06E2,4.12E2,3.4E2,3.62E2,2.59E2,2.95E2,2.71E2,2.38E2,5.6E1,3.01E2,3.7E1,1.57E2,1.21E2,5E1,4.6E1,1.48E3,4.483E3,2.88E2,1.178E3,1.31E2,4.09E2,2.83E2,2.27E2,2.2E1,9.4E1,5.87E2,2.52E2,4.19E2,3.86E2,2.44E2,2.58E2,3.97E2,5.33E2,2.61E2,1.38E2,3.46E2,5.33E2,4.7E1,1.25E2,2.15E2,4E2,7E0,2.99E2,1.89E2,2.23E2,2.4E2,1E2,8.8E1,2.74E2,1.98E2,6.1E1,3.7E1,2.58E2,1.17E2,1.54E2,5.7E1,1.81E2,2.8E1,2.8E1,1E0,3E2,3E0,3.4E1],"tree_param":{"num_deleted":"0","num_feature":"6","num_nodes":"107","size_leaf_vector":"1"}},{"base_weights":[1.01241335E-1,-5.138595E0,3.4298393E1,-8.509544E0,3.6967945E0,2.8281353E1,8.0159294E1,-9.540409E0,-4.6531963E0,6.474237E-1,7.55659E0,2.1492458E1,4.0431324E1,6.601772E1,1.3572798E2,-9.839209E0,-8.293379E0,-5.7455487E0,-3.4114769E0,-4.009918E-1,2.6890225E0,5.874366E0,1.0396943E1,1.7371529E1,2.5410707E1,3.508144E1,4.545058E1,6.0798088E1,8.282627E1,2.2016777E2,1.0770346E2,-5.009534E-1,-9.57085E0,-4.360473E-1,-7.627939E0,-6.4546356E0,-5.172633E0,-3.0689182E0,-4.86057E0,-1.1481665E0,3.8235748E-1,4.646709E0,2.2125885E0,8.019758E0,5.3433623E0,9.112978E0,1.2200597E1,4.6266823E0,1.7697166E1,2.2657167E1,2.7745485E1,3.7187164E1,2.895109E1,4.763489E1,4.015782E1,6.456838E1,5.117825E1,4.318359E0,2.5127199E0,5.4574943E0,1.5649701E1,2.912367E0,5.573791E0,-4.8505902E-1,-4.6428114E-1,-4.0076205E-1,-3.520428E-1,-2.795808E-1,-3.3841005E-1,-2.4255176E-1,-2.8219825E-1,-1.7741302E-1,-1.17778294E-1,-2.8795227E-1,-1.5548506E-1,-2.195457E-1,-4.7027487E-2,4.0967807E-2,-3.983028E-2,6.2113877E-2,2.7437323E-1,1.5067905E-1,7.473496E-2,3.6637133E-1,7.3229665E-1,2.0833667E-1,3.359401E-1,5.1563424E-1,4.1483974E-1,6.1822987E-1,1.4072333E-1,-4.5793038E-2,3.2012656E-1,9.9896413E-1,7.868932E-1,1.2037146E0,9.376017E-1,1.6514965E0,1.3141156E0,2.0661838E0,1.750639E0,1.5425695E0,1.0438088E0,1.6811682E0,2.444493E0,2.083045E0,1.2017591E0,3.3617618E0,2.6192482E0,2.5987794E0,1.0547818E0],"categories":[],"categories_nodes":[],"categories_segments":[],"categories_sizes":[],"default_left":[0,0,0,0,0,0,0,0,0,0,0,0,0,0,0,0,0,0,0,0,0,0,0,0,0,0,0,0,0,0,0,0,0,0,0,0,0,0,0,0,0,0,0,0,0,0,0,0,0,0,0,0,0,0,0,0,0,0,0,0,0,0,0,0,0,0,0,0,0,0,0,0,0,0,0,0,0,0,0,0,0,0,0,0,0,0,0,0,0,0,0,0,0,0,0,0,0,0,0,0,0,0,0,0,0,0,0,0,0,0,0],"id":15,"left_children":[1,3,5,7,9,11,13,15,17,19,21,23,25,27,29,31,33,35,37,39,41,43,45,47,49,51,53,55,57,59,61,-1,63,-1,65,67,69,71,73,75,77,79,81,83,85,87,89,91,93,95,97,99,101,103,105,107,109,-1,-1,-1,-1,-1,-1,-1,-1,-1,-1,-1,-1,-1,-1,-1,-1,-1,-1,-1,-1,-1,-1,-1,-1,-1,-1,-1,-1,-1,-1,-1,-1,-1,-1,-1,-1,-1,-1,-1,-1,-1,-1,-1,-1,-1,-1,-1,-1,-1,-1,-1,-1,-1,-1],"loss_changes":[3.041167E6,4.383575E5,6.1999325E5,4.230525E4,4.7839945E4,1.6368825E5,1.9614075E5,3.05025E3,3.0309336E3,4.8641665E3,8.510867E3,2.0258812E4,1.757825E4,1.33885E4,9.933925E4,2.310625E2,3.9752344E2,4.5207422E2,5.0878516E2,8.7955786E2,7.088374E2,1.2433164E3,1.4311484E3,2.5244531E3,3.5823125E3,3.4415E3,2.306875E3,2.6436875E3,1.080375E3,8.950125E4,1.156E3,0E0,1.1796875E1,0E0,9.0453125E1,1.0558203E2,7.357422E1,2.843423E2,2.9671338E2,5.135984E2,3.788134E2,4.2252734E2,3.531604E2,9.111113E2,1.4414961E3,2.9925586E2,3.8698047E2,1.731901E2,2.4220469E3,1.2419844E3,1.838125E3,8.646875E2,7.9835156E2,2.8049375E3,1.7370625E3,1.819375E2,1.26828125E2,0E0,0E0,0E0,0E0,0E0,0E0,0E0,0E0,0E0,0E0,0E0,0E0,0E0,0E0,0E0,0E0,0E0,0E0,0E0,0E0,0E0,0E0,0E0,0E0,0E0,0E0,0E0,0E0,0E0,0E0,0E0,0E0,0E0,0E0,0E0,0E0,0E0,0E0,0E0,0E0,0E0,0E0,0E0,0E0,0E0,0E0,0E0,0E0,0E0,0E0,0E0,0E0,0E0,0E0],"parents":[2147483647,0,0,1,1,2,2,3,3,4,4,5,5,6,6,7,7,8,8,9,9,10,10,11,11,12,12,13,13,14,14,15,15,16,16,17,17,18,18,19,19,20,20,21,21,22,22,23,23,24,24,25,25,26,26,27,27,28,28,29,29,30,30,32,32,34,34,35,35,36,36,37,37,38,38,39,39,40,40,41,41,42,42,43,43,44,44,45,45,46,46,47,47,48,48,49,49,50,50,51,51,52,52,53,53,54,54,55,55,56,56],"right_children":[2,4,6,8,10,12,14,16,18,20,22,24,26,28,30,32,34,36,38,40,42,44,46,48,50,52,54,56,58,60,62,-1,64,-1,66,68,70,72,74,76,78,80,82,84,86,88,90,92,94,96,98,100,102,104,106,108,110,-1,-1,-1,-1,-1,-1,-1,-1,-1,-1,-1,-1,-1,-1,-1,-1,-1,-1,-1,-1,-1,-1,-1,-1,-1,-1,-1,-1,-1,-1,-1,-1,-1,-1,-1,-1,-1,-1,-1,-1,-1,-1,-1,-1,-1,-1,-1,-1,-1,-1,-1,-1,-1,-1],"split_conditions":[5.1E1,1.7E1,1.35E2,7E0,3E1,8.7E1,2.14E2,3E0,1.2E1,2.5E1,4.1E1,6.5E1,1.05E2,1.73E2,2.023E3,1E0,5E0,9E0,4.3E1,2.1E1,1.1E1,1.1E1,4.7E1,3E0,7.5E1,1E1,1E1,1E1,3.5E1,2.8E1,5E0,-5.009534E-1,2E0,-4.360473E-1,3.2E1,2.023E3,3.3E1,2.6E1,1.5E1,2E0,1E1,3E0,7E0,1E1,3.5E1,7E0,4.9E1,2.023E3,7E0,1E1,9E0,9E0,3.6E1,2E0,4.3E1,3.3E1,4.5E1,4.318359E0,2.5127199E0,5.4574943E0,1.5649701E1,2.912367E0,5.573791E0,-4.8505902E-1,-4.6428114E-1,-4.0076205E-1,-3.520428E-1,-2.795808E-1,-3.3841005E-1,-2.4255176E-1,-2.8219825E-1,-1.7741302E-1,-1.17778294E-1,-2.8795227E-1,-1.5548506E-1,-2.195457E-1,-4.7027487E-2,4.0967807E-2,-3.983028E-2,6.2113877E-2,2.7437323E-1,1.5067905E-1,7.473496E-2,3.6637133E-1,7.3229665E-1,2.0833667E-1,3.359401E-1,5.1563424E-1,4.1483974E-1,6.1822987E-1,1.4072333E-1,-4.5793038E-2,3.2012656E-1,9.9896413E-1,7.868932E-1,1.2037146E0,9.376017E-1,1.6514965E0,1.3141156E0,2.0661838E0,1.750639E0,1.5425695E0,1.0438088E0,1.6811682E0,2.444493E0,2.083045E0,1.2017591E0,3.3617618E0,2.6192482E0,2.5987794E0,1.0547818E0],"split_indices":[5,5,5,5,5,5,5,5,5,5,5,5,5,5,0,5,5,5,2,5,2,2,5,2,5,1,1,1,2,2,2,0,5,0,2,0,2,2,5,1,1,2,1,2,5,1,2,0,1,1,2,2,2,1,2,2,2,0,0,0,0,0,0,0,0,0,0,0,0,0,0,0,0,0,0,0,0,0,0,0,0,0,0,0,0,0,0,0,0,0,0,0,0,0,0,0,0,0,0,0,0,0,0,0,0,0,0,0,0,0,0],"split_type":[0,0,0,0,0,0,0,0,0,0,0,0,0,0,0,0,0,0,0,0,0,0,0,0,0,0,0,0,0,0,0,0,0,0,0,0,0,0,0,0,0,0,0,0,0,0,0,0,0,0,0,0,0,0,0,0,0,0,0,0,0,0,0,0,0,0,0,0,0,0,0,0,0,0,0,0,0,0,0,0,0,0,0,0,0,0,0,0,0,0,0,0,0,0,0,0,0,0,0,0,0,0,0,0,0,0,0,0,0,0,0],"sum_hessian":[1.697E4,1.4716E4,2.254E3,1.0652E4,4.064E3,1.994E3,2.6E2,8.404E3,2.248E3,2.271E3,1.793E3,1.281E3,7.13E2,2.09E2,5.1E1,6.774E3,1.63E3,1.194E3,1.054E3,1.501E3,7.7E2,1.128E3,6.65E2,6.27E2,6.54E2,3.49E2,3.64E2,1.63E2,4.6E1,1.1E1,4E1,4.034E3,2.74E3,9.85E2,6.45E2,5.29E2,6.65E2,8.55E2,1.99E2,7.68E2,7.33E2,1.49E2,6.21E2,2.21E2,9.07E2,3.92E2,2.73E2,1.6E1,6.11E2,3.05E2,3.49E2,2.56E2,9.3E1,2.52E2,1.12E2,1.13E2,5E1,4E1,6E0,6E0,5E0,4E0,3.6E1,1.858E3,8.82E2,3.81E2,2.64E2,1.46E2,3.83E2,4.02E2,2.63E2,5.09E2,3.46E2,1.3E2,6.9E1,4.5E1,7.23E2,5.35E2,1.98E2,3E1,1.19E2,2.92E2,3.29E2,2.02E2,1.9E1,4.91E2,4.16E2,1.54E2,2.38E2,2.68E2,5E0,4E0,1.2E1,2.78E2,3.33E2,2.2E2,8.5E1,7.1E1,2.78E2,8.2E1,1.74E2,7.3E1,2E1,2.3E1,2.29E2,1.01E2,1.1E1,8.9E1,2.4E1,4.8E1,2E0],"tree_param":{"num_deleted":"0","num_feature":"6","num_nodes":"111","size_leaf_vector":"1"}},{"base_weights":[-7.010759E-2,-4.4321475E0,3.55352E1,-8.001395E0,4.711049E0,3.1721046E1,1.04971954E2,-8.979796E0,-3.955194E0,1.7705916E0,1.03541355E1,2.4040052E1,4.482935E1,8.228017E1,1.4989731E2,-9.281544E0,-7.3001704E0,-2.541396E0,-5.252715E0,2.2209613E-1,3.873428E0,1.3332293E1,7.7204413E0,2.0161871E1,2.7812979E1,3.9841114E1,5.5645752E1,6.550616E1,4.610665E0,2.627647E2,1.180857E2,-9.424284E0,-8.70199E0,-6.6046567E0,-8.549904E0,-3.795352E0,-1.6110535E0,-6.1012177E0,-4.2810483E0,1.4392023E0,-1.757801E0,7.0973563E0,2.3877158E0,1.0905328E1,1.5972789E1,5.4178762E0,1.0326074E1,2.3474382E1,1.5835256E1,2.9699776E1,2.0493786E1,4.3721157E1,3.581849E1,2.5244734E0,5.9928318E1,3.4763489E0,1.9587668E0,1.5298172E1,1.1692756E0,1.3012692E2,2.074358E0,-3.7788358E-1,-4.7208628E-1,-3.937578E-1,-4.5314255E-1,-2.6526257E-1,-3.4803152E-1,-4.4500294E-1,-3.9840087E-1,-1.0726657E-1,-2.2263403E-1,-1.779334E-1,-6.9497615E-2,-2.5694096E-1,-3.4253561E-1,-1.6860749E-1,-2.7631196E-1,2.3133172E-2,1.1872715E-1,-5.772805E-2,-1.9226514E-1,5.2290726E-1,3.034572E-1,1.6923502E-1,2.5606725E-2,6.2951106E-1,4.7401053E-1,2.4878061E-1,8.099967E-1,3.256976E-1,4.9075242E-2,6.1122024E-1,3.7492958E-1,1.0569843E0,1.2779328E0,4.4301707E-1,8.409007E-1,1.3394489E0,1.6277354E0,1.2820233E0,9.1825974E-1,2.0330741E0,2.3895442E0,1.6138194E0,1.9582773E0,3.1200676E0,1.8813374E0,2.8154228E0,6.940944E0],"categories":[],"categories_nodes":[],"categories_segments":[],"categories_sizes":[],"default_left":[0,0,0,0,0,0,0,0,0,0,0,0,0,0,0,0,0,0,0,0,0,0,0,0,0,0,0,0,0,0,0,0,0,0,0,0,0,0,0,0,0,0,0,0,0,0,0,0,0,0,0,0,0,0,0,0,0,0,0,0,0,0,0,0,0,0,0,0,0,0,0,0,0,0,0,0,0,0,0,0,0,0,0,0,0,0,0,0,0,0,0,0,0,0,0,0,0,0,0,0,0,0,0,0,0,0,0,0,0],"id":16,"left_children":[1,3,5,7,9,11,13,15,17,19,21,23,25,27,29,31,33,35,37,39,41,43,45,47,49,51,53,55,-1,57,59,61,63,65,67,69,71,73,75,77,79,81,83,85,87,89,91,93,95,97,99,101,103,-1,105,-1,-1,-1,-1,107,-1,-1,-1,-1,-1,-1,-1,-1,-1,-1,-1,-1,-1,-1,-1,-1,-1,-1,-1,-1,-1,-1,-1,-1,-1,-1,-1,-1,-1,-1,-1,-1,-1,-1,-1,-1,-1,-1,-1,-1,-1,-1,-1,-1,-1,-1,-1,-1,-1],"loss_changes":[2.635487E6,4.9337097E5,4.8715825E5,4.3008625E4,7.042003E4,1.758255E5,8.5532375E4,4.369375E3,3.8738203E3,9.090545E3,1.1301594E4,1.5680875E4,3.2745625E4,4.9562812E3,8.02765E4,5.316875E2,1.1065312E3,1.1791592E3,8.84084E2,3.87981E3,5.654211E3,4.1899375E3,4.5877734E3,7.525203E3,7.1248438E3,5.41075E3,1.4348125E3,2.4066406E2,0E0,5.4890125E4,1.8582281E4,1.220625E2,3.6992188E2,3.6271875E2,2.5867188E1,4.5899756E2,2.4696643E2,3.8820508E2,5.676113E2,9.095576E2,7.6748987E2,1.2254688E3,1.516646E3,7.402617E2,7.287344E2,2.0018584E3,1.8513711E3,9.681875E2,1.5098125E3,2.8092812E3,8.218203E2,8.335625E2,1.403375E3,0E0,3.4430625E3,0E0,0E0,0E0,0E0,6.2990938E3,0E0,0E0,0E0,0E0,0E0,0E0,0E0,0E0,0E0,0E0,0E0,0E0,0E0,0E0,0E0,0E0,0E0,0E0,0E0,0E0,0E0,0E0,0E0,0E0,0E0,0E0,0E0,0E0,0E0,0E0,0E0,0E0,0E0,0E0,0E0,0E0,0E0,0E0,0E0,0E0,0E0,0E0,0E0,0E0,0E0,0E0,0E0,0E0,0E0],"parents":[2147483647,0,0,1,1,2,2,3,3,4,4,5,5,6,6,7,7,8,8,9,9,10,10,11,11,12,12,13,13,14,14,15,15,16,16,17,17,18,18,19,19,20,20,21,21,22,22,23,23,24,24,25,25,26,26,27,27,29,29,30,30,31,31,32,32,33,33,34,34,35,35,36,36,37,37,38,38,39,39,40,40,41,41,42,42,43,43,44,44,45,45,46,46,47,47,48,48,49,49,50,50,51,51,52,52,54,54,59,59],"right_children":[2,4,6,8,10,12,14,16,18,20,22,24,26,28,30,32,34,36,38,40,42,44,46,48,50,52,54,56,-1,58,60,62,64,66,68,70,72,74,76,78,80,82,84,86,88,90,92,94,96,98,100,102,104,-1,106,-1,-1,-1,-1,108,-1,-1,-1,-1,-1,-1,-1,-1,-1,-1,-1,-1,-1,-1,-1,-1,-1,-1,-1,-1,-1,-1,-1,-1,-1,-1,-1,-1,-1,-1,-1,-1,-1,-1,-1,-1,-1,-1,-1,-1,-1,-1,-1,-1,-1,-1,-1,-1,-1],"split_conditions":[5.9E1,1.8E1,1.73E2,8E0,3.6E1,9.7E1,2.9E1,4E0,0E0,2.7E1,2E0,7.5E1,1.3E2,2.5E1,2.023E3,2E0,2E0,1.2E1,1.3E1,3E0,-3E0,4.7E1,4.6E1,4E0,1.7E1,5E0,1.44E2,3E1,4.610665E0,4.3E1,4.3E1,-4E0,0E0,-4E0,6E0,-6E0,5E0,3E0,5E0,2.2E1,1E1,1.1E1,8E0,-6E0,2E0,1.5E1,1.2E1,6.6E1,6.1E1,8.5E1,2.023E3,1.12E2,1.12E2,2.5244734E0,3.6E1,3.4763489E0,1.9587668E0,1.5298172E1,1.1692756E0,-4.2E1,2.074358E0,-3.7788358E-1,-4.7208628E-1,-3.937578E-1,-4.5314255E-1,-2.6526257E-1,-3.4803152E-1,-4.4500294E-1,-3.9840087E-1,-1.0726657E-1,-2.2263403E-1,-1.779334E-1,-6.9497615E-2,-2.5694096E-1,-3.4253561E-1,-1.6860749E-1,-2.7631196E-1,2.3133172E-2,1.1872715E-1,-5.772805E-2,-1.9226514E-1,5.2290726E-1,3.034572E-1,1.6923502E-1,2.5606725E-2,6.2951106E-1,4.7401053E-1,2.4878061E-1,8.099967E-1,3.256976E-1,4.9075242E-2,6.1122024E-1,3.7492958E-1,1.0569843E0,1.2779328E0,4.4301707E-1,8.409007E-1,1.3394489E0,1.6277354E0,1.2820233E0,9.1825974E-1,2.0330741E0,2.3895442E0,1.6138194E0,1.9582773E0,3.1200676E0,1.8813374E0,2.8154228E0,6.940944E0],"split_indices":[5,5,5,5,5,5,2,5,4,5,4,5,5,2,0,5,4,5,5,4,4,5,5,4,4,4,5,4,0,2,2,4,4,4,5,4,2,4,4,5,4,2,4,4,2,4,4,5,5,5,0,5,5,0,4,0,0,0,0,4,0,0,0,0,0,0,0,0,0,0,0,0,0,0,0,0,0,0,0,0,0,0,0,0,0,0,0,0,0,0,0,0,0,0,0,0,0,0,0,0,0,0,0,0,0,0,0,0,0],"split_type":[0,0,0,0,0,0,0,0,0,0,0,0,0,0,0,0,0,0,0,0,0,0,0,0,0,0,0,0,0,0,0,0,0,0,0,0,0,0,0,0,0,0,0,0,0,0,0,0,0,0,0,0,0,0,0,0,0,0,0,0,0,0,0,0,0,0,0,0,0,0,0,0,0,0,0,0,0,0,0,0,0,0,0,0,0,0,0,0,0,0,0,0,0,0,0,0,0,0,0,0,0,0,0,0,0,0,0,0,0],"sum_hessian":[1.6967E4,1.5116E4,1.851E3,1.0872E4,4.244E3,1.756E3,9.5E1,8.754E3,2.118E3,2.791E3,1.453E3,1.109E3,6.47E2,6.5E1,3E1,7.417E3,1.337E3,1.015E3,1.103E3,1.608E3,1.183E3,6.8E2,7.73E2,5.5E2,5.59E2,4.46E2,2.01E2,2.7E1,3.8E1,5E0,2.5E1,5.939E3,1.478E3,8.63E2,4.74E2,4.31E2,5.84E2,5.86E2,5.17E2,9.96E2,6.12E2,3.72E2,8.11E2,3.57E2,3.23E2,4.12E2,3.61E2,3.09E2,2.41E2,4.42E2,1.17E2,2.22E2,2.24E2,9.7E1,1.04E2,2.2E1,5E0,4E0,1E0,2.1E1,4E0,5.9E1,5.88E3,4.56E2,1.022E3,1.89E2,6.74E2,2.87E2,1.87E2,1.24E2,3.07E2,5.8E1,5.26E2,2.6E2,3.26E2,3.01E2,2.16E2,4.88E2,5.08E2,4.76E2,1.36E2,8.5E1,2.87E2,5.29E2,2.82E2,1.6E2,1.97E2,7E0,3.16E2,3.3E2,8.2E1,2.14E2,1.47E2,1.51E2,1.58E2,3.1E1,2.1E2,2.24E2,2.18E2,3.1E1,8.6E1,1.33E2,8.9E1,1.14E2,1.1E2,9.2E1,1.2E1,3E0,1.8E1],"tree_param":{"num_deleted":"0","num_feature":"6","num_nodes":"109","size_leaf_vector":"1"}},{"base_weights":[6.652622E-2,-4.7323823E0,2.9991034E1,-7.8850036E0,2.7179816E0,2.4487589E1,6.639176E1,-8.682404E0,-4.8455873E0,6.5963596E-1,7.330334E0,1.871468E1,3.487849E1,5.6910152E1,1.1286982E2,-8.947709E0,-7.978004E0,-5.7822375E0,-3.9590282E0,-6.9474167E-1,2.9320364E0,6.1254277E0,9.297911E0,1.4906421E1,2.2795042E1,3.0662996E1,4.0190628E1,5.0408096E1,3.3226922E0,9.709804E1,7.2124457E0,-9.294497E0,-8.829802E0,-8.141588E0,-7.0807204E0,-6.233314E0,-5.252882E0,-4.6470532E0,-3.3694115E0,-1.8424801E0,1.257037E-1,9.5926434E-1,3.1455204E0,4.8443985E0,7.8572426E0,8.344368E0,1.0661939E1,3.7797358E0,1.5168447E1,2.4540218E1,1.9624298E1,3.1756325E1,2.1778658E1,4.336608E1,3.83748E1,2.7555473E0,4.5665016E1,2.5355113E0,1.0118413E2,-4.421334E-1,-4.8329017E-1,-3.240856E-1,-4.4246125E-1,-4.42972E-1,-4.0351015E-1,-3.457707E-1,-4.0403515E-1,-3.306004E-1,-2.8416082E-1,-2.763914E-1,-2.1827093E-1,-2.000097E-1,-3.0685195E-1,-3.730159E-2,-1.8785922E-1,-1.5077159E-1,-6.7846775E-2,-4.4930324E-2,2.6284311E-2,1.1348918E-2,3.0083737E-1,2.2133692E-1,1.3772385E-1,2.0216028E-1,2.859611E-1,4.314456E-1,2.440935E-1,3.1254196E-1,5.1515114E-1,4.7190094E-1,6.19136E-1,4.6880633E-1,6.6826455E-2,7.2120005E-1,9.1657907E-1,8.408591E-2,1.2325016E0,9.9062264E-1,2.0437227E-1,1.4899386E0,1.7413591E0,3.7988043E-1,1.1277612E0,1.3568587E0,2.211109E0,1.5114431E0,1.9966627E0,1.3715475E0,2.4018426E0,2.342221E0,5.252831E0],"categories":[],"categories_nodes":[],"categories_segments":[],"categories_sizes":[],"default_left":[0,0,0,0,0,0,0,0,0,0,0,0,0,0,0,0,0,0,0,0,0,0,0,0,0,0,0,0,0,0,0,0,0,0,0,0,0,0,0,0,0,0,0,0,0,0,0,0,0,0,0,0,0,0,0,0,0,0,0,0,0,0,0,0,0,0,0,0,0,0,0,0,0,0,0,0,0,0,0,0,0,0,0,0,0,0,0,0,0,0,0,0,0,0,0,0,0,0,0,0,0,0,0,0,0,0,0,0,0,0,0],"id":17,"left_children":[1,3,5,7,9,11,13,15,17,19,21,23,25,27,29,31,33,35,37,39,41,43,45,47,49,51,53,55,-1,57,-1,59,61,63,65,67,69,71,73,75,77,79,81,83,85,87,89,91,93,95,97,99,101,103,105,-1,107,-1,109,-1,-1,-1,-1,-1,-1,-1,-1,-1,-1,-1,-1,-1,-1,-1,-1,-1,-1,-1,-1,-1,-1,-1,-1,-1,-1,-1,-1,-1,-1,-1,-1,-1,-1,-1,-1,-1,-1,-1,-1,-1,-1,-1,-1,-1,-1,-1,-1,-1,-1,-1,-1],"loss_changes":[2.4335282E6,3.430427E5,4.675455E5,2.482925E4,4.1226812E4,1.21478375E5,1.28867375E5,1.4475625E3,1.75E3,9.247413E3,3.1198438E3,2.0031906E4,1.5025125E4,1.2598E4,1.12338125E4,1.59E2,2.7010938E2,2.1463281E2,4.3058008E2,1.7733712E3,4.6951758E2,1.8121699E3,5.7046875E2,1.928125E3,3.0100625E3,3.2811875E3,1.694375E2,9.8540625E2,0E0,