{"learner":{"attributes":{"scikit_learn":"{\"_estimator_type\": \"regressor\"}"},"feature_names":["year","month","ward","primary_type","delta_count","count_0"],"feature_types":["int","int","int","int","float","int"],"gradient_booster":{"model":{"gbtree_model_param":{"num_parallel_tree":"1","num_trees":"400"},"iteration_indptr":[0,1,2,3,4,5,6,7,8,9,10,11,12,13,14,15,16,17,18,19,20,21,22,23,24,25,26,27,28,29,30,31,32,33,34,35,36,37,38,39,40,41,42,43,44,45,46,47,48,49,50,51,52,53,54,55,56,57,58,59,60,61,62,63,64,65,66,67,68,69,70,71,72,73,74,75,76,77,78,79,80,81,82,83,84,85,86,87,88,89,90,91,92,93,94,95,96,97,98,99,100,101,102,103,104,105,106,107,108,109,110,111,112,113,114,115,116,117,118,119,120,121,122,123,124,125,126,127,128,129,130,131,132,133,134,135,136,137,138,139,140,141,142,143,144,145,146,147,148,149,150,151,152,153,154,155,156,157,158,159,160,161,162,163,164,165,166,167,168,169,170,171,172,173,174,175,176,177,178,179,180,181,182,183,184,185,186,187,188,189,190,191,192,193,194,195,196,197,198,199,200,201,202,203,204,205,206,207,208,209,210,211,212,213,214,215,216,217,218,219,220,221,222,223,224,225,226,227,228,229,230,231,232,233,234,235,236,237,238,239,240,241,242,243,244,245,246,247,248,249,250,251,252,253,254,255,256,257,258,259,260,261,262,263,264,265,266,267,268,269,270,271,272,273,274,275,276,277,278,279,280,281,282,283,284,285,286,287,288,289,290,291,292,293,294,295,296,297,298,299,300,301,302,303,304,305,306,307,308,309,310,311,312,313,314,315,316,317,318,319,320,321,322,323,324,325,326,327,328,329,330,331,332,333,334,335,336,337,338,339,340,341,342,343,344,345,346,347,348,349,350,351,352,353,354,355,356,357,358,359,360,361,362,363,364,365,366,367,368,369,370,371,372,373,374,375,376,377,378,379,380,381,382,383,384,385,386,387,388,389,390,391,392,393,394,395,396,397,398,399,400],"tree_info":[0,0,0,0,0,0,0,0,0,0,0,0,0,0,0,0,0,0,0,0,0,0,0,0,0,0,0,0,0,0,0,0,0,0,0,0,0,0,0,0,0,0,0,0,0,0,0,0,0,0,0,0,0,0,0,0,0,0,0,0,0,0,0,0,0,0,0,0,0,0,0,0,0,0,0,0,0,0,0,0,0,0,0,0,0,0,0,0,0,0,0,0,0,0,0,0,0,0,0,0,0,0,0,0,0,0,0,0,0,0,0,0,0,0,0,0,0,0,0,0,0,0,0,0,0,0,0,0,0,0,0,0,0,0,0,0,0,0,0,0,0,0,0,0,0,0,0,0,0,0,0,0,0,0,0,0,0,0,0,0,0,0,0,0,0,0,0,0,0,0,0,0,0,0,0,0,0,0,0,0,0,0,0,0,0,0,0,0,0,0,0,0,0,0,0,0,0,0,0,0,0,0,0,0,0,0,0,0,0,0,0,0,0,0,0,0,0,0,0,0,0,0,0,0,0,0,0,0,0,0,0,0,0,0,0,0,0,0,0,0,0,0,0,0,0,0,0,0,0,0,0,0,0,0,0,0,0,0,0,0,0,0,0,0,0,0,0,0,0,0,0,0,0,0,0,0,0,0,0,0,0,0,0,0,0,0,0,0,0,0,0,0,0,0,0,0,0,0,0,0,0,0,0,0,0,0,0,0,0,0,0,0,0,0,0,0,0,0,0,0,0,0,0,0,0,0,0,0,0,0,0,0,0,0,0,0,0,0,0,0,0,0,0,0,0,0,0,0,0,0,0,0,0,0,0,0,0,0,0,0,0,0,0,0,0,0,0,0,0,0,0,0,0,0,0,0,0,0,0,0,0,0,0,0,0,0,0,0,0,0,0,0,0,0,0,0,0,0,0,0],"trees":[{"base_weights":[-6.199094E-2,-1.0644423E1,6.7701515E1,-1.8040209E1,6.652859E0,5.5113506E1,1.4706297E2,-1.9998562E1,-1.0573793E1,1.4122232E0,1.7094036E1,4.221959E1,7.619858E1,1.2282666E2,2.640979E2,-2.0496895E1,-1.7426786E1,-1.25361595E1,-7.740876E0,-2.3754768E0,4.6644363E0,1.3982948E1,2.171332E1,3.3000603E1,4.9905563E1,6.934983E1,4.4637485E0,5.6019015E0,1.3865161E2,1.1075967E1,3.571957E2,-2.0660805E1,-9.697318E-1,-9.2249817E-1,-1.663004E1,-1.34527645E1,-1.0822814E1,-8.8221035E0,-6.6543794E0,-3.9171205E0,-2.4005476E-1,2.8131547E0,6.832703E0,1.1979555E1,1.616293E1,1.9550947E1,2.431766E1,3.1500132E1,1.8983263E0,4.5800087E1,2.7430103E0,6.3020935E1,7.370872E1,7.0058336E0,3.386435E0,2.2959929E1,1.30137205E1,-1.0423928E0,-1.0059621E0,-7.800295E-1,-8.596296E-1,-5.807817E-1,-6.945436E-1,-5.68219E-1,-5.065355E-1,-4.7284245E-1,-4.080957E-1,-3.169169E-1,-4.6881238E-1,-2.667857E-1,-1.7045745E-1,-8.848398E-2,1.677576E-2,1.0061748E-1,2.1818216E-1,2.8416395E-1,3.8562462E-1,6.714804E-1,4.5702597E-1,8.3596116E-1,5.638279E-1,8.554134E-1,1.1334597E0,1.2413241E0,9.097499E-1,1.5960732E0,8.731187E-1,4.9893466E-1,2.303178E0,3.158794E0,7.6595646E-1,3.6911774E0,1.0159565E0],"categories":[],"categories_nodes":[],"categories_segments":[],"categories_sizes":[],"default_left":[0,0,0,0,0,0,0,0,0,0,0,0,0,0,0,0,0,0,0,0,0,0,0,0,0,0,0,0,0,0,0,0,0,0,0,0,0,0,0,0,0,0,0,0,0,0,0,0,0,0,0,0,0,0,0,0,0,0,0,0,0,0,0,0,0,0,0,0,0,0,0,0,0,0,0,0,0,0,0,0,0,0,0,0,0,0,0,0,0,0,0,0,0],"id":0,"left_children":[1,3,5,7,9,11,13,15,17,19,21,23,25,27,29,31,33,35,37,39,41,43,45,47,49,51,-1,-1,53,-1,55,57,-1,-1,59,61,63,65,67,69,71,73,75,77,79,81,83,85,-1,87,-1,89,91,-1,-1,-1,-1,-1,-1,-1,-1,-1,-1,-1,-1,-1,-1,-1,-1,-1,-1,-1,-1,-1,-1,-1,-1,-1,-1,-1,-1,-1,-1,-1,-1,-1,-1,-1,-1,-1,-1,-1,-1],"loss_changes":[1.2200071E7,1.8825659E6,2.287604E6,1.50511E5,2.411746E5,5.364425E5,8.582215E5,1.0107E4,1.1821922E4,3.6177926E4,2.0864875E4,8.57905E4,6.1156E4,2.9197E4,1.309645E5,8.34E2,7.790625E2,1.8410312E3,9.750742E2,4.466385E3,6.3230117E3,3.66275E3,2.8528125E3,3.0065E3,1.1136375E4,9.093E3,0E0,0E0,1.1085E3,0E0,2.8776E4,1.8175E2,0E0,0E0,1.7132812E2,4.98625E2,5.2039062E1,1.06359375E2,3.216504E2,5.496465E2,5.0242523E2,1.0515786E3,6.9134766E2,1.7874219E3,9.53125E2,2.1105E3,3.7073438E2,2.039125E3,0E0,3.0606875E3,0E0,5.843125E2,2.71625E2,0E0,0E0,0E0,0E0,0E0,0E0,0E0,0E0,0E0,0E0,0E0,0E0,0E0,0E0,0E0,0E0,0E0,0E0,0E0,0E0,0E0,0E0,0E0,0E0,0E0,0E0,0E0,0E0,0E0,0E0,0E0,0E0,0E0,0E0,0E0,0E0,0E0,0E0,0E0,0E0],"parents":[2147483647,0,0,1,1,2,2,3,3,4,4,5,5,6,6,7,7,8,8,9,9,10,10,11,11,12,12,13,13,14,14,15,15,16,16,17,17,18,18,19,19,20,20,21,21,22,22,23,23,24,24,25,25,28,28,30,30,31,31,34,34,35,35,36,36,37,37,38,38,39,39,40,40,41,41,42,42,43,43,44,44,45,45,46,46,47,47,49,49,51,51,52,52],"right_children":[2,4,6,8,10,12,14,16,18,20,22,24,26,28,30,32,34,36,38,40,42,44,46,48,50,52,-1,-1,54,-1,56,58,-1,-1,60,62,64,66,68,70,72,74,76,78,80,82,84,86,-1,88,-1,90,92,-1,-1,-1,-1,-1,-1,-1,-1,-1,-1,-1,-1,-1,-1,-1,-1,-1,-1,-1,-1,-1,-1,-1,-1,-1,-1,-1,-1,-1,-1,-1,-1,-1,-1,-1,-1,-1,-1,-1,-1],"split_conditions":[5E1,1.5E1,1.3E2,6E0,3.2E1,8.3E1,2.14E2,3E0,1.1E1,2.2E1,4.1E1,6.2E1,1.09E2,1.57E2,3.5E1,2E0,4E0,9E0,1.3E1,1.9E1,2.7E1,3.6E1,4.6E1,5.9E1,7.3E1,9.2E1,4.4637485E0,5.6019015E0,4.5E1,1.1075967E1,2.023E3,1.2E1,-9.697318E-1,-9.2249817E-1,7E0,6E0,7E0,7E0,1.7E1,1.6E1,4E0,2.5E1,2.9E1,2.024E3,4.3E1,8E0,1.9E1,1.9E1,1.8983263E0,2E0,2.7430103E0,5E1,5E1,7.0058336E0,3.386435E0,2.2959929E1,1.30137205E1,-1.0423928E0,-1.0059621E0,-7.800295E-1,-8.596296E-1,-5.807817E-1,-6.945436E-1,-5.68219E-1,-5.065355E-1,-4.7284245E-1,-4.080957E-1,-3.169169E-1,-4.6881238E-1,-2.667857E-1,-1.7045745E-1,-8.848398E-2,1.677576E-2,1.0061748E-1,2.1818216E-1,2.8416395E-1,3.8562462E-1,6.714804E-1,4.5702597E-1,8.3596116E-1,5.638279E-1,8.554134E-1,1.1334597E0,1.2413241E0,9.097499E-1,1.5960732E0,8.731187E-1,4.9893466E-1,2.303178E0,3.158794E0,7.6595646E-1,3.6911774E0,1.0159565E0],"split_indices":[5,5,5,5,5,5,5,5,5,5,5,5,5,5,2,5,5,5,5,5,5,5,5,5,5,5,0,0,2,0,0,3,0,0,3,3,3,3,3,5,3,5,5,0,2,3,3,3,0,2,0,2,2,0,0,0,0,0,0,0,0,0,0,0,0,0,0,0,0,0,0,0,0,0,0,0,0,0,0,0,0,0,0,0,0,0,0,0,0,0,0,0,0],"split_type":[0,0,0,0,0,0,0,0,0,0,0,0,0,0,0,0,0,0,0,0,0,0,0,0,0,0,0,0,0,0,0,0,0,0,0,0,0,0,0,0,0,0,0,0,0,0,0,0,0,0,0,0,0,0,0,0,0,0,0,0,0,0,0,0,0,0,0,0,0,0,0,0,0,0,0,0,0,0,0,0,0,0,0,0,0,0,0,0,0,0,0,0,0],"sum_hessian":[1.7011E4,1.4714E4,2.297E3,1.0307E4,4.407E3,1.984E3,3.13E2,8.164E3,2.143E3,2.935E3,1.472E3,1.233E3,7.51E2,2.61E2,5.2E1,6.833E3,1.331E3,1.264E3,8.79E2,1.356E3,1.579E3,8.82E2,5.9E2,5.63E2,6.7E2,4.97E2,2.54E2,1.6E2,1.01E2,3.8E1,1.4E1,5.933E3,9E2,5.73E2,7.58E2,8.19E2,4.45E2,4.37E2,4.42E2,7.87E2,5.69E2,8.53E2,7.26E2,4.63E2,4.19E2,3.27E2,2.63E2,4.38E2,1.25E2,3.72E2,2.98E2,2.09E2,2.88E2,9.8E1,3E0,5E0,9E0,4.382E3,1.551E3,2.78E2,4.8E2,1.63E2,6.56E2,2.41E2,2.04E2,2.16E2,2.21E2,3.99E2,4.3E1,2.05E2,5.82E2,1.55E2,4.14E2,5.64E2,2.89E2,3.18E2,4.08E2,3.04E2,1.59E2,3.74E2,4.5E1,1.87E2,1.4E2,2.4E2,2.3E1,4.24E2,1.4E1,3E0,3.69E2,2.08E2,1E0,2.87E2,1E0],"tree_param":{"num_deleted":"0","num_feature":"6","num_nodes":"93","size_leaf_vector":"1"}},{"base_weights":[-5.7097137E-2,-3.3943326E0,4.387401E1,3.0979403E1,-7.573536E0,3.3522446E1,8.5922295E1,5.645628E1,2.1441475E1,-1.0560357E1,9.717623E0,2.8096643E1,5.483316E1,8.1645195E1,1.9687346E1,1.212265E2,5.0299847E1,1.6871096E1,4.242255E1,2.7073593E0,-1.3143117E1,6.371046E0,3.1405554E1,4.5485737E1,2.0412733E1,7.001095E1,5.2267456E0,7.3164215E1,1.180095E2,6.9313446E1,1.5658339E2,4.241607E1,7.1028114E1,3.3339245E1,1.0703206E1,6.01765E1,1.6683743E0,1.755E1,3.210993E-2,-1.4146017E1,2.9659355E0,2.4364103E1,1.6077944E0,6.2863743E1,-4.614872E0,2.6402763E1,5.806658E1,1.5529191E1,3.0424553E1,6.250265E1,9.049587E1,-2.1749182E-1,8.043691E0,6.51911E1,8.763948E1,8.5135826E1,7.9468803E0,4.424659E0,2.4531667E0,8.9910965E0,5.022716E0,3.073298E0,1.6275727E0,3.978337E0,3.8305143E-1,8.4753305E-1,2.3087566E0,-3.2737458E-1,6.296448E-1,3.4619088E0,2.4462514E0,3.1647658E-1,-9.346016E-2,3.2885453E-1,1.7255785E0,-1.6282552E-1,8.905349E-1,-4.630197E-1,-8.384711E-1,2.73977E0,-5.6231755E-1,5.893282E-1,1.9797086E0,-3.6699226E-1,1.596624E-1,2.885864E0,3.7949739E0,-1.3093705E-1,-4.2511255E-1,2.2472486E0,9.620394E-1,2.5660727E0,3.3090947E0,-1.0888865E-1,8.531976E-1,1.6755698E0,7.743265E-1,2.3740957E0,3.4316995E0,5.2315845E0,2.763151E0,1.4123079E-1,-1.6177168E-1,5.219459E-1,-1.8381199E-1,4.118062E0,2.645428E0,4.5880203E0,9.506056E-1,4.4931026E0,9.4737214E-1],"categories":[],"categories_nodes":[],"categories_segments":[],"categories_sizes":[],"default_left":[0,0,0,0,0,0,0,0,0,0,0,0,0,0,0,0,0,0,0,0,0,0,0,0,0,0,0,0,0,0,0,0,0,0,0,0,0,0,0,0,0,0,0,0,0,0,0,0,0,0,0,0,0,0,0,0,0,0,0,0,0,0,0,0,0,0,0,0,0,0,0,0,0,0,0,0,0,0,0,0,0,0,0,0,0,0,0,0,0,0,0,0,0,0,0,0,0,0,0,0,0,0,0,0,0,0,0,0,0,0,0],"id":1,"left_children":[1,3,5,7,9,11,13,15,17,19,21,23,25,27,-1,29,31,33,35,37,39,41,43,45,47,49,51,53,55,57,59,61,63,65,67,69,71,73,75,77,79,81,83,85,87,89,91,93,95,97,99,101,103,105,107,109,-1,-1,-1,-1,-1,-1,-1,-1,-1,-1,-1,-1,-1,-1,-1,-1,-1,-1,-1,-1,-1,-1,-1,-1,-1,-1,-1,-1,-1,-1,-1,-1,-1,-1,-1,-1,-1,-1,-1,-1,-1,-1,-1,-1,-1,-1,-1,-1,-1,-1,-1,-1,-1,-1,-1],"loss_changes":[2.5084728E6,2.2846338E6,5.2292025E5,4.1771562E5,7.323857E5,1.10734E5,2.812025E5,1.8091762E5,1.19724E5,4.1436175E5,1.5142022E5,1.0275775E5,1.4720556E5,6.41495E4,0E0,6.2566E4,6.7256625E4,1.0456881E5,1.6197428E5,7.8263445E4,1.6355438E5,1.551734E5,3.1643547E5,5.536578E4,2.5929844E4,1.741475E4,7.22547E2,1.667675E4,4.4323375E4,2.6492812E3,1.1936375E4,5.7006062E4,6.2695312E4,5.8329062E4,2.4629094E4,1.25178125E4,1.1495864E3,5.5794477E4,9.77564E4,1.21964875E5,4.3816566E5,7.213334E4,2.035207E4,5.6153125E3,9.942578E2,1.1883914E4,4.3764062E3,9.956383E3,7.596625E3,7.148125E3,1.3143469E4,1.6521422E2,9.086044E2,2.2847562E4,1.6920781E4,6.4306875E3,0E0,0E0,0E0,0E0,0E0,0E0,0E0,0E0,0E0,0E0,0E0,0E0,0E0,0E0,0E0,0E0,0E0,0E0,0E0,0E0,0E0,0E0,0E0,0E0,0E0,0E0,0E0,0E0,0E0,0E0,0E0,0E0,0E0,0E0,0E0,0E0,0E0,0E0,0E0,0E0,0E0,0E0,0E0,0E0,0E0,0E0,0E0,0E0,0E0,0E0,0E0,0E0,0E0,0E0,0E0],"parents":[2147483647,0,0,1,1,2,2,3,3,4,4,5,5,6,6,7,7,8,8,9,9,10,10,11,11,12,12,13,13,15,15,16,16,17,17,18,18,19,19,20,20,21,21,22,22,23,23,24,24,25,25,26,26,27,27,28,28,29,29,30,30,31,31,32,32,33,33,34,34,35,35,36,36,37,37,38,38,39,39,40,40,41,41,42,42,43,43,44,44,45,45,46,46,47,47,48,48,49,49,50,50,51,51,52,52,53,53,54,54,55,55],"right_children":[2,4,6,8,10,12,14,16,18,20,22,24,26,28,-1,30,32,34,36,38,40,42,44,46,48,50,52,54,56,58,60,62,64,66,68,70,72,74,76,78,80,82,84,86,88,90,92,94,96,98,100,102,104,106,108,110,-1,-1,-1,-1,-1,-1,-1,-1,-1,-1,-1,-1,-1,-1,-1,-1,-1,-1,-1,-1,-1,-1,-1,-1,-1,-1,-1,-1,-1,-1,-1,-1,-1,-1,-1,-1,-1,-1,-1,-1,-1,-1,-1,-1,-1,-1,-1,-1,-1,-1,-1,-1,-1,-1,-1],"split_conditions":[1.1E1,-7E0,2.6E1,-1.7E1,4E0,1.7E1,1.08E2,-4.1E1,1.7E1,-2E0,1.8E1,3E0,1.9E1,4.6E1,1.9687346E1,1.3E1,1.7E1,3E0,1.9E1,3E0,1.8E1,3E0,1.9E1,2E0,1.7E1,2.1E1,1.3E1,1.7E1,1.5E1,6E0,1.1E1,3E0,1.9E1,2E0,4E0,9E0,9E0,2E0,1.8E1,8E0,1.9E1,2E0,5E0,9E0,8E0,5E0,1.6E1,4E0,1.4E1,2.023E3,7E0,1.2E1,9E0,3E0,1.9E1,1.4E1,7.9468803E0,4.424659E0,2.4531667E0,8.9910965E0,5.022716E0,3.073298E0,1.6275727E0,3.978337E0,3.8305143E-1,8.4753305E-1,2.3087566E0,-3.2737458E-1,6.296448E-1,3.4619088E0,2.4462514E0,3.1647658E-1,-9.346016E-2,3.2885453E-1,1.7255785E0,-1.6282552E-1,8.905349E-1,-4.630197E-1,-8.384711E-1,2.73977E0,-5.6231755E-1,5.893282E-1,1.9797086E0,-3.6699226E-1,1.596624E-1,2.885864E0,3.7949739E0,-1.3093705E-1,-4.2511255E-1,2.2472486E0,9.620394E-1,2.5660727E0,3.3090947E0,-1.0888865E-1,8.531976E-1,1.6755698E0,7.743265E-1,2.3740957E0,3.4316995E0,5.2315845E0,2.763151E0,1.4123079E-1,-1.6177168E-1,5.219459E-1,-1.8381199E-1,4.118062E0,2.645428E0,4.5880203E0,9.506056E-1,4.4931026E0,9.4737214E-1],"split_indices":[4,4,4,4,4,3,4,4,3,4,3,3,3,4,0,3,3,3,3,3,3,3,3,3,4,4,4,3,3,3,1,3,3,3,3,1,1,3,3,3,3,3,3,4,1,1,4,3,3,0,1,4,1,3,3,3,0,0,0,0,0,0,0,0,0,0,0,0,0,0,0,0,0,0,0,0,0,0,0,0,0,0,0,0,0,0,0,0,0,0,0,0,0,0,0,0,0,0,0,0,0,0,0,0,0,0,0,0,0,0,0],"split_type":[0,0,0,0,0,0,0,0,0,0,0,0,0,0,0,0,0,0,0,0,0,0,0,0,0,0,0,0,0,0,0,0,0,0,0,0,0,0,0,0,0,0,0,0,0,0,0,0,0,0,0,0,0,0,0,0,0,0,0,0,0,0,0,0,0,0,0,0,0,0,0,0,0,0,0,0,0,0,0,0,0,0,0,0,0,0,0,0,0,0,0,0,0,0,0,0,0,0,0,0,0,0,0,0,0,0,0,0,0,0,0],"sum_hessian":[1.7108E4,1.5901E4,1.207E3,1.723E3,1.4178E4,9.7E2,2.37E2,4.68E2,1.255E3,1.209E4,2.088E3,7.75E2,1.95E2,2.35E2,2E0,3.9E1,4.29E2,1.032E3,2.23E2,1.97E3,1.012E4,1.81E3,2.78E2,2.36E2,5.39E2,1.49E2,4.6E1,1.93E2,4.2E1,1.7E1,2.2E1,3.13E2,1.16E2,2.8E2,7.52E2,1.55E2,6.8E1,3E2,1.67E3,9.527E3,5.93E2,3.78E2,1.432E3,1.48E2,1.3E2,9.5E1,1.41E2,3.64E2,1.75E2,1.12E2,3.7E1,1.6E1,3E1,1.28E2,6.5E1,2.5E1,1.7E1,7E0,1E1,1.4E1,8E0,1.05E2,2.08E2,1.02E2,1.4E1,1.24E2,1.56E2,7.4E1,6.78E2,8.3E1,7.2E1,2.9E1,3.9E1,1.83E2,1.17E2,1.41E3,2.6E2,3.33E3,6.197E3,1.27E2,4.66E2,2.08E2,1.7E2,2.15E2,1.217E3,1.1E2,3.8E1,8.7E1,4.3E1,2.5E1,7E1,8.1E1,6E1,2.9E1,3.35E2,1.44E2,3.1E1,3.5E1,7.7E1,2.5E1,1.2E1,8E0,8E0,2.5E1,5E0,5.1E1,7.7E1,6.1E1,4E0,2.3E1,2E0],"tree_param":{"num_deleted":"0","num_feature":"6","num_nodes":"111","size_leaf_vector":"1"}},{"base_weights":[2.6511982E-1,-3.3152869E0,3.992932E1,2.9450912E1,-7.437445E0,3.0845736E1,8.46422E1,5.355166E1,2.0268166E1,-9.979652E0,8.929791E0,2.5219963E1,5.438689E1,7.7183586E1,2.8849686E2,1.19714676E2,4.7429047E1,1.6232784E1,3.9862793E1,3.099732E0,-1.2584062E1,5.8888817E0,2.9261957E1,4.2381657E1,1.727456E1,6.856641E1,5.8941407E0,6.426686E1,1.0059912E2,2.053483E0,3.179765E2,3.388395E0,1.551637E2,4.0463196E1,6.593779E1,3.2843834E1,9.993266E0,5.7086967E1,9.633192E-1,4.729303E-1,2.0900621E1,-1.3515198E1,2.637686E0,2.2268208E1,1.70075E0,6.0953514E1,-5.117513E0,5.4279472E1,2.0837559E1,2.3959244E1,6.0073175E0,6.493933E0,6.0659363E1,6.1689806E-1,8.913859E0,6.708236E1,1.239086E1,7.1441925E1,1.24026436E2,3.4435834E2,3.9921386E0,8.839423E0,3.2214375E0,2.536301E0,1.3168744E0,3.7065701E0,2.0933245E-1,7.278034E-1,2.3888686E0,7.6977694E-1,1.1840402E-1,4.7884536E0,2.5173674E0,2.5815955E-1,-1.1888597E-1,7.986883E-1,-1.4606343E-1,3.2074525E0,-4.3168044E-1,-4.3496466E-1,-8.0338305E-1,2.6956472E0,-5.260634E-1,5.2521414E-1,1.948593E0,1.668218E-1,-3.6233878E-1,2.465616E0,3.590599E0,1.9144756E-1,-3.6148152E-1,1.5198082E0,3.609349E0,3.5616565E-1,1.3657652E0,1.4625318E0,5.0514275E-1,1.4597236E-1,6.5791285E-1,2.3426204E0,3.2917345E0,-4.6827894E-1,8.176084E-2,5.3481835E-1,-4.4507854E-2,3.9138222E0,2.9261575E0,9.2017823E-1,1.3704277E-2,5.055895E0,2.495885E0,6.7324805E0,1.8037621E0,7.379165E0,2.0292501E1],"categories":[],"categories_nodes":[],"categories_segments":[],"categories_sizes":[],"default_left":[0,0,0,0,0,0,0,0,0,0,0,0,0,0,0,0,0,0,0,0,0,0,0,0,0,0,0,0,0,0,0,0,0,0,0,0,0,0,0,0,0,0,0,0,0,0,0,0,0,0,0,0,0,0,0,0,0,0,0,0,0,0,0,0,0,0,0,0,0,0,0,0,0,0,0,0,0,0,0,0,0,0,0,0,0,0,0,0,0,0,0,0,0,0,0,0,0,0,0,0,0,0,0,0,0,0,0,0,0,0,0,0,0,0,0],"id":2,"left_children":[1,3,5,7,9,11,13,15,17,19,21,23,25,27,29,31,33,35,37,39,41,43,45,47,49,51,53,55,57,-1,59,-1,61,63,65,67,69,71,73,75,77,79,81,83,85,87,89,91,93,95,97,-1,99,101,103,105,107,109,111,113,-1,-1,-1,-1,-1,-1,-1,-1,-1,-1,-1,-1,-1,-1,-1,-1,-1,-1,-1,-1,-1,-1,-1,-1,-1,-1,-1,-1,-1,-1,-1,-1,-1,-1,-1,-1,-1,-1,-1,-1,-1,-1,-1,-1,-1,-1,-1,-1,-1,-1,-1,-1,-1,-1,-1],"loss_changes":[2.4133758E6,2.1055152E6,5.68847E5,3.8443838E5,5.762061E5,1.5371238E5,3.380845E5,1.8876562E5,9.922053E4,4.08297E5,1.1495191E5,1.283975E5,1.5430675E5,6.309875E4,4.5293312E4,6.3143375E4,5.4189625E4,1.0839534E5,1.4399747E5,9.308809E4,1.4169988E5,1.11160734E5,2.6398034E5,7.551094E4,4.8737406E4,7.6476625E4,8.23162E2,2.12235E4,4.5785312E4,0E0,1.6482312E4,0E0,3.3738562E4,4.5489188E4,5.98995E4,7.741144E4,3.143525E4,3.4023E4,9.5241614E2,9.1382695E4,3.2754497E5,1.15642625E5,3.8988572E5,6.4435797E4,1.8933035E4,1.2385875E4,2.2385117E3,7.992231E4,9.399859E3,2.9545531E4,5.3273096E3,0E0,8.0625E3,2.1862161E2,5.8622095E2,9.120125E3,6.5064734E2,1.9225031E4,3.5318312E4,1.27035E4,0E0,0E0,0E0,0E0,0E0,0E0,0E0,0E0,0E0,0E0,0E0,0E0,0E0,0E0,0E0,0E0,0E0,0E0,0E0,0E0,0E0,0E0,0E0,0E0,0E0,0E0,0E0,0E0,0E0,0E0,0E0,0E0,0E0,0E0,0E0,0E0,0E0,0E0,0E0,0E0,0E0,0E0,0E0,0E0,0E0,0E0,0E0,0E0,0E0,0E0,0E0,0E0,0E0,0E0,0E0],"parents":[2147483647,0,0,1,1,2,2,3,3,4,4,5,5,6,6,7,7,8,8,9,9,10,10,11,11,12,12,13,13,14,14,15,15,16,16,17,17,18,18,19,19,20,20,21,21,22,22,23,23,24,24,25,25,26,26,27,27,28,28,30,30,32,32,33,33,34,34,35,35,36,36,37,37,38,38,39,39,40,40,41,41,42,42,43,43,44,44,45,45,46,46,47,47,48,48,49,49,50,50,52,52,53,53,54,54,55,55,56,56,57,57,58,58,59,59],"right_children":[2,4,6,8,10,12,14,16,18,20,22,24,26,28,30,32,34,36,38,40,42,44,46,48,50,52,54,56,58,-1,60,-1,62,64,66,68,70,72,74,76,78,80,82,84,86,88,90,92,94,96,98,-1,100,102,104,106,108,110,112,114,-1,-1,-1,-1,-1,-1,-1,-1,-1,-1,-1,-1,-1,-1,-1,-1,-1,-1,-1,-1,-1,-1,-1,-1,-1,-1,-1,-1,-1,-1,-1,-1,-1,-1,-1,-1,-1,-1,-1,-1,-1,-1,-1,-1,-1,-1,-1,-1,-1,-1,-1,-1,-1,-1,-1],"split_conditions":[1E1,-7E0,2.6E1,-1.7E1,4E0,1.7E1,6.4E1,-4.1E1,1.7E1,-2E0,1.8E1,3E0,1.9E1,1.7E1,8E0,2.5E1,1.7E1,3E0,1.9E1,1.8E1,1.8E1,3E0,1.9E1,3E1,2.9E1,5E0,1.3E1,1.4E1,2.7E1,2.053483E0,4.3E1,3.388395E0,4.3E1,6E0,1.9E1,2E0,2.9E1,7E0,9E0,3E0,1.9E1,8E0,1.9E1,2E0,1.5E1,2.7E1,1E1,2E0,2E0,1.4E1,1.6E1,6.493933E0,2E1,3E0,9E0,3E0,1.5E1,9E0,4.7E1,3.5E1,3.9921386E0,8.839423E0,3.2214375E0,2.536301E0,1.3168744E0,3.7065701E0,2.0933245E-1,7.278034E-1,2.3888686E0,7.6977694E-1,1.1840402E-1,4.7884536E0,2.5173674E0,2.5815955E-1,-1.1888597E-1,7.986883E-1,-1.4606343E-1,3.2074525E0,-4.3168044E-1,-4.3496466E-1,-8.0338305E-1,2.6956472E0,-5.260634E-1,5.2521414E-1,1.948593E0,1.668218E-1,-3.6233878E-1,2.465616E0,3.590599E0,1.9144756E-1,-3.6148152E-1,1.5198082E0,3.609349E0,3.5616565E-1,1.3657652E0,1.4625318E0,5.0514275E-1,1.4597236E-1,6.5791285E-1,2.3426204E0,3.2917345E0,-4.6827894E-1,8.176084E-2,5.3481835E-1,-4.4507854E-2,3.9138222E0,2.9261575E0,9.2017823E-1,1.3704277E-2,5.055895E0,2.495885E0,6.7324805E0,1.8037621E0,7.379165E0,2.0292501E1],"split_indices":[4,4,4,4,4,3,4,4,3,4,3,3,3,3,2,2,3,3,3,3,3,3,3,2,2,2,4,3,2,0,2,0,2,3,3,3,2,2,1,3,3,3,3,3,3,2,2,3,3,3,4,0,2,2,1,3,3,2,2,2,0,0,0,0,0,0,0,0,0,0,0,0,0,0,0,0,0,0,0,0,0,0,0,0,0,0,0,0,0,0,0,0,0,0,0,0,0,0,0,0,0,0,0,0,0,0,0,0,0,0,0,0,0,0,0],"split_type":[0,0,0,0,0,0,0,0,0,0,0,0,0,0,0,0,0,0,0,0,0,0,0,0,0,0,0,0,0,0,0,0,0,0,0,0,0,0,0,0,0,0,0,0,0,0,0,0,0,0,0,0,0,0,0,0,0,0,0,0,0,0,0,0,0,0,0,0,0,0,0,0,0,0,0,0,0,0,0,0,0,0,0,0,0,0,0,0,0,0,0,0,0,0,0,0,0,0,0,0,0,0,0,0,0,0,0,0,0,0,0,0,0,0,0],"sum_hessian":[1.6992E4,1.5586E4,1.406E3,1.741E3,1.3845E4,1.17E3,2.36E2,4.79E2,1.262E3,1.1984E4,1.861E3,9.46E2,2.24E2,2.29E2,7E0,3.9E1,4.4E2,1.048E3,2.14E2,1.99E3,9.994E3,1.62E3,2.41E2,2.98E2,6.48E2,1.73E2,5.1E1,1.5E2,7.9E1,1E0,6E0,1.7E1,2.2E1,3.22E2,1.18E2,2.85E2,7.63E2,1.48E2,6.6E1,1.735E3,2.55E2,9.418E3,5.76E2,3.29E2,1.291E3,1.25E2,1.16E2,1.91E2,1.07E2,4.06E2,2.42E2,1.8E1,1.55E2,1.9E1,3.2E1,1.42E2,8E0,3.7E1,4.2E1,5E0,1E0,1.7E1,5E0,1.85E2,1.37E2,1.04E2,1.4E1,1.29E2,1.56E2,4.46E2,3.17E2,2E1,1.28E2,2.9E1,3.7E1,3.11E2,1.424E3,1.03E2,1.52E2,3.264E3,6.154E3,1.17E2,4.59E2,1.94E2,1.35E2,1.092E3,1.99E2,6.3E1,6.2E1,2.2E1,9.4E1,8.3E1,1.08E2,3.5E1,7.2E1,2.93E2,1.13E2,1.7E2,7.2E1,4.5E1,1.1E2,1E0,1.8E1,2.7E1,5E0,5.8E1,8.4E1,5E0,3E0,1.4E1,2.3E1,3.7E1,5E0,2E0,3E0],"tree_param":{"num_deleted":"0","num_feature":"6","num_nodes":"115","size_leaf_vector":"1"}},{"base_weights":[1.5398892E-2,-8.51041E0,6.6536934E1,-1.5750655E1,8.021707E0,5.9976555E1,1.8779518E2,-1.7675795E1,-9.183574E0,1.5970803E0,1.7203743E1,4.654165E1,8.358922E1,6.853176E0,2.3477095E2,-1.8106386E1,-1.5482038E1,-1.1856368E1,-6.9903035E0,-8.5282636E-1,4.8587384E0,1.3327078E1,2.4393187E1,3.8546993E1,5.5252666E1,7.4420746E1,1.0384407E2,1.6415947E1,1.0595344E1,-9.467532E-1,-1.7848366E1,-8.1101525E-1,-7.4437714E-1,-1.2627548E1,-1.0907967E1,-8.331572E0,-5.6506376E0,-3.0085711E0,4.2643124E-1,3.8107214E0,6.8635683E0,1.0392314E1,1.523294E1,2.6622156E1,2.0220333E1,4.4080364E1,3.4381943E1,6.078792E1,5.0849144E1,8.1224236E1,3.4662976E0,5.7395797E0,4.8180823E0,-9.001387E-1,-8.4545183E-1,-5.298308E-1,-6.553127E-1,-5.187245E-1,-5.7365775E-1,-4.5657763E-1,-3.741753E-1,-3.4704927E-1,-2.3864388E-1,-1.0973126E-1,-1.9997302E-1,-6.7086846E-2,5.2314635E-2,2.36895E-1,1.0967856E-1,4.0674612E-1,2.3536818E-1,6.187524E-1,3.5898197E-1,6.689249E-1,8.752554E-1,1.122142E0,1.4819964E0,8.265343E-1,1.0413163E0,1.8801905E0,2.306164E0,1.5021399E0,1.9373964E0,2.7890193E0,3.26486E0,2.3750012E0,2.8737857E0,3.593992E0,4.362851E0],"categories":[],"categories_nodes":[],"categories_segments":[],"categories_sizes":[],"default_left":[0,0,0,0,0,0,0,0,0,0,0,0,0,0,0,0,0,0,0,0,0,0,0,0,0,0,0,0,0,0,0,0,0,0,0,0,0,0,0,0,0,0,0,0,0,0,0,0,0,0,0,0,0,0,0,0,0,0,0,0,0,0,0,0,0,0,0,0,0,0,0,0,0,0,0,0,0,0,0,0,0,0,0,0,0,0,0,0,0],"id":3,"left_children":[1,3,5,7,9,11,13,15,17,19,21,23,25,-1,27,29,31,33,35,37,39,41,43,45,47,49,51,-1,-1,-1,53,-1,-1,55,57,59,61,63,65,67,69,71,73,75,77,79,81,83,85,87,-1,-1,-1,-1,-1,-1,-1,-1,-1,-1,-1,-1,-1,-1,-1,-1,-1,-1,-1,-1,-1,-1,-1,-1,-1,-1,-1,-1,-1,-1,-1,-1,-1,-1,-1,-1,-1,-1,-1],"loss_changes":[9.675009E6,1.8100582E6,1.530417E6,1.327865E5,2.716858E5,5.7982E5,2.03754E5,7.4005E3,1.3904234E4,2.166709E4,5.2518438E4,7.969925E4,1.15952E5,0E0,3.73715E4,1.114E3,3.4709375E2,6.4778125E2,2.3121914E3,4.273043E3,2.417418E3,6.74375E3,5.628375E3,1.26811875E4,1.0558875E4,1.0383E4,5.73075E3,0E0,0E0,0E0,4.4925E2,0E0,0E0,4.3082812E2,2.8414062E1,3.7535938E2,7.143965E2,4.5659033E2,1.0678307E3,1.1381367E3,1.0527422E3,3.0260234E3,2.9091562E3,4.7454375E3,1.8115625E2,1.7189062E3,5.5801875E3,1.84475E3,4.3273125E3,4.551625E3,0E0,0E0,0E0,0E0,0E0,0E0,0E0,0E0,0E0,0E0,0E0,0E0,0E0,0E0,0E0,0E0,0E0,0E0,0E0,0E0,0E0,0E0,0E0,0E0,0E0,0E0,0E0,0E0,0E0,0E0,0E0,0E0,0E0,0E0,0E0,0E0,0E0,0E0,0E0],"parents":[2147483647,0,0,1,1,2,2,3,3,4,4,5,5,6,6,7,7,8,8,9,9,10,10,11,11,12,12,14,14,15,15,16,16,17,17,18,18,19,19,20,20,21,21,22,22,23,23,24,24,25,25,26,26,30,30,33,33,34,34,35,35,36,36,37,37,38,38,39,39,40,40,41,41,42,42,43,43,44,44,45,45,46,46,47,47,48,48,49,49],"right_children":[2,4,6,8,10,12,14,16,18,20,22,24,26,-1,28,30,32,34,36,38,40,42,44,46,48,50,52,-1,-1,-1,54,-1,-1,56,58,60,62,64,66,68,70,72,74,76,78,80,82,84,86,88,-1,-1,-1,-1,-1,-1,-1,-1,-1,-1,-1,-1,-1,-1,-1,-1,-1,-1,-1,-1,-1,-1,-1,-1,-1,-1,-1,-1,-1,-1,-1,-1,-1,-1,-1,-1,-1,-1,-1],"split_conditions":[5.8E1,1.6E1,1.73E2,6E0,3.2E1,9.7E1,2.14E2,3E0,1E1,2.4E1,4.6E1,7.5E1,1.3E2,6.853176E0,2.023E3,5E0,4E0,8E0,1.3E1,1.9E1,2.9E1,3.6E1,9E0,7E0,7E0,7E0,7E0,1.6415947E1,1.0595344E1,-9.467532E-1,2E0,-8.1101525E-1,-7.4437714E-1,4E0,8E0,7E0,7E0,8E0,4E0,9E0,9E0,9E0,8E0,5E1,4.8E1,6.2E1,6.6E1,8.3E1,8.9E1,1.09E2,3.4662976E0,5.7395797E0,4.8180823E0,-9.001387E-1,-8.4545183E-1,-5.298308E-1,-6.553127E-1,-5.187245E-1,-5.7365775E-1,-4.5657763E-1,-3.741753E-1,-3.4704927E-1,-2.3864388E-1,-1.0973126E-1,-1.9997302E-1,-6.7086846E-2,5.2314635E-2,2.36895E-1,1.0967856E-1,4.0674612E-1,2.3536818E-1,6.187524E-1,3.5898197E-1,6.689249E-1,8.752554E-1,1.122142E0,1.4819964E0,8.265343E-1,1.0413163E0,1.8801905E0,2.306164E0,1.5021399E0,1.9373964E0,2.7890193E0,3.26486E0,2.3750012E0,2.8737857E0,3.593992E0,4.362851E0],"split_indices":[5,5,5,5,5,5,5,5,5,5,5,5,5,0,0,3,5,5,5,5,5,5,1,1,1,1,1,0,0,0,5,0,0,3,1,3,3,1,3,1,1,1,3,5,5,5,5,5,5,5,0,0,0,0,0,0,0,0,0,0,0,0,0,0,0,0,0,0,0,0,0,0,0,0,0,0,0,0,0,0,0,0,0,0,0,0,0,0,0],"split_type":[0,0,0,0,0,0,0,0,0,0,0,0,0,0,0,0,0,0,0,0,0,0,0,0,0,0,0,0,0,0,0,0,0,0,0,0,0,0,0,0,0,0,0,0,0,0,0,0,0,0,0,0,0,0,0,0,0,0,0,0,0,0,0,0,0,0,0,0,0,0,0,0,0,0,0,0,0,0,0,0,0,0,0,0,0,0,0,0,0],"sum_hessian":[1.7057E4,1.512E4,1.937E3,1.0515E4,4.605E3,1.839E3,9.8E1,8.13E3,2.385E3,2.71E3,1.895E3,1.174E3,6.65E2,4.9E1,4.9E1,6.79E3,1.34E3,1.073E3,1.312E3,1.548E3,1.162E3,1.233E3,6.62E2,6.15E2,5.59E2,4.61E2,2.04E2,7E0,4.2E1,1.595E3,5.195E3,5.86E2,7.54E2,5.85E2,4.88E2,6.53E2,6.59E2,5.76E2,9.72E2,7.65E2,3.97E2,4.88E2,7.45E2,4.28E2,2.34E2,2.6E2,3.55E2,2.42E2,3.17E2,1.91E2,2.7E2,7.7E1,1.27E2,4.446E3,7.49E2,1.16E2,4.69E2,2.61E2,2.27E2,3.31E2,3.22E2,2.64E2,3.95E2,3.18E2,2.58E2,2.52E2,7.2E2,4.85E2,2.8E2,2.48E2,1.49E2,3E2,1.88E2,4.14E2,3.31E2,1.83E2,2.45E2,3.7E1,1.97E2,6.7E1,1.93E2,1.82E2,1.73E2,1.21E2,1.21E2,2.16E2,1.01E2,8E1,1.11E2],"tree_param":{"num_deleted":"0","num_feature":"6","num_nodes":"89","size_leaf_vector":"1"}},{"base_weights":[2.709479E-2,-8.5590725E0,6.0333138E1,-1.5181504E1,6.278658E0,4.941293E1,1.23792755E2,-1.6801523E1,-9.090222E0,1.1111664E0,1.52871065E1,3.794428E1,6.605013E1,1.04397964E2,2.2024084E2,-1.7210386E1,-1.4709979E1,-1.11750555E1,-7.1460633E0,-1.5855988E0,4.093356E0,1.2112108E1,2.0336464E1,3.0949593E1,4.42367E1,5.99865E1,7.599686E1,5.9730234E0,9.529453E1,2.9679428E2,9.954807E0,-8.992201E-1,-1.6965815E1,-7.7128154E-1,-1.413043E1,-1.2000478E1,-1.0118694E1,-8.123473E0,-5.692196E0,-3.3240743E0,1.16788216E-1,2.5932832E0,5.503533E0,9.7645035E0,1.3992836E1,2.3446346E1,1.678118E1,3.4068287E1,2.4872122E1,4.8176754E1,3.7798363E1,6.3762867E1,5.382636E1,4.2109327E0,6.908826E1,4.1492753E0,5.116247E0,2.1669323E1,9.792781E0,-6.99624E-1,-8.507264E-1,-8.560401E-1,-7.0081943E-1,-5.1729655E-1,-6.1963314E-1,-5.294925E-1,-4.7750735E-1,-4.479157E-1,-3.6153892E-1,-3.3619905E-1,-2.519518E-1,-1.19856E-1,-2.1875916E-1,-9.3879E-2,4.4045504E-2,2.5226188E-1,9.698884E-2,3.3262572E-1,1.8136632E-1,5.6688064E-1,3.5276988E-1,6.3414866E-1,7.8067446E-1,1.0279633E0,1.3114737E0,6.924321E-1,9.4176257E-1,1.5309457E0,1.8938235E0,1.2490209E0,1.4530507E-1,1.9580649E0,2.4582555E0,1.7599837E0,2.128952E0,2.857849E0,3.3632133E0,2.4352643E0,3.008855E0,3.6690816E-1,3.472079E0],"categories":[],"categories_nodes":[],"categories_segments":[],"categories_sizes":[],"default_left":[0,0,0,0,0,0,0,0,0,0,0,0,0,0,0,0,0,0,0,0,0,0,0,0,0,0,0,0,0,0,0,0,0,0,0,0,0,0,0,0,0,0,0,0,0,0,0,0,0,0,0,0,0,0,0,0,0,0,0,0,0,0,0,0,0,0,0,0,0,0,0,0,0,0,0,0,0,0,0,0,0,0,0,0,0,0,0,0,0,0,0,0,0,0,0,0,0,0,0,0,0],"id":4,"left_children":[1,3,5,7,9,11,13,15,17,19,21,23,25,27,29,31,33,35,37,39,41,43,45,47,49,51,53,-1,55,57,-1,-1,59,-1,61,63,65,67,69,71,73,75,77,79,81,83,85,87,89,91,93,95,97,-1,99,-1,-1,-1,-1,-1,-1,-1,-1,-1,-1,-1,-1,-1,-1,-1,-1,-1,-1,-1,-1,-1,-1,-1,-1,-1,-1,-1,-1,-1,-1,-1,-1,-1,-1,-1,-1,-1,-1,-1,-1,-1,-1,-1,-1,-1,-1],"loss_changes":[8.791169E6,1.4604629E6,1.460255E6,1.0125075E5,2.1351281E5,3.422805E5,5.568895E5,6.68725E3,8.679203E3,2.345774E4,2.6558688E4,4.5813375E4,3.9832E4,2.42675E4,2.346325E4,9.78875E2,3.3534375E2,7.862656E2,1.5467266E3,4.5344307E3,2.9155137E3,4.4066094E3,6.7269375E3,8.8380625E3,1.24355E4,7.315375E3,9.80175E3,0E0,5.96025E3,3.9205688E4,0E0,0E0,5.11125E2,0E0,1.5453125E1,2.4749219E2,2.2890625E1,4.330547E2,2.7207715E2,7.280547E2,1.1827078E3,1.0686064E3,1.5129004E3,1.8846641E3,1.0098672E3,2.2007031E3,1.5703438E3,3.2407812E3,3.4845312E2,1.1488125E3,1.2095625E3,2.655E3,2.9881875E3,0E0,2.872125E3,0E0,0E0,0E0,0E0,0E0,0E0,0E0,0E0,0E0,0E0,0E0,0E0,0E0,0E0,0E0,0E0,0E0,0E0,0E0,0E0,0E0,0E0,0E0,0E0,0E0,0E0,0E0,0E0,0E0,0E0,0E0,0E0,0E0,0E0,0E0,0E0,0E0,0E0,0E0,0E0,0E0,0E0,0E0,0E0,0E0,0E0],"parents":[2147483647,0,0,1,1,2,2,3,3,4,4,5,5,6,6,7,7,8,8,9,9,10,10,11,11,12,12,13,13,14,14,15,15,16,16,17,17,18,18,19,19,20,20,21,21,22,22,23,23,24,24,25,25,26,26,28,28,29,29,32,32,34,34,35,35,36,36,37,37,38,38,39,39,40,40,41,41,42,42,43,43,44,44,45,45,46,46,47,47,48,48,49,49,50,50,51,51,52,52,54,54],"right_children":[2,4,6,8,10,12,14,16,18,20,22,24,26,28,30,32,34,36,38,40,42,44,46,48,50,52,54,-1,56,58,-1,-1,60,-1,62,64,66,68,70,72,74,76,78,80,82,84,86,88,90,92,94,96,98,-1,100,-1,-1,-1,-1,-1,-1,-1,-1,-1,-1,-1,-1,-1,-1,-1,-1,-1,-1,-1,-1,-1,-1,-1,-1,-1,-1,-1,-1,-1,-1,-1,-1,-1,-1,-1,-1,-1,-1,-1,-1,-1,-1,-1,-1,-1,-1],"split_conditions":[5.4E1,1.5E1,1.3E2,6E0,3.2E1,8.5E1,2.14E2,3E0,1E1,2.3E1,4.3E1,6.6E1,1.09E2,7E0,2.023E3,5E0,4E0,8E0,1.3E1,1.9E1,2.7E1,3.6E1,8E0,9E0,9E0,9E0,7E0,5.9730234E0,1.44E2,7E0,9.954807E0,-8.992201E-1,7E0,-7.7128154E-1,1E0,6E0,9E0,7E0,7E0,8E0,4E0,4E0,9E0,9E0,8E0,4.8E1,6E0,6E1,1.9E1,6.8E1,7.8E1,9.2E1,9.7E1,4.2109327E0,2E0,4.1492753E0,5.116247E0,2.1669323E1,9.792781E0,-6.99624E-1,-8.507264E-1,-8.560401E-1,-7.0081943E-1,-5.1729655E-1,-6.1963314E-1,-5.294925E-1,-4.7750735E-1,-4.479157E-1,-3.6153892E-1,-3.3619905E-1,-2.519518E-1,-1.19856E-1,-2.1875916E-1,-9.3879E-2,4.4045504E-2,2.5226188E-1,9.698884E-2,3.3262572E-1,1.8136632E-1,5.6688064E-1,3.5276988E-1,6.3414866E-1,7.8067446E-1,1.0279633E0,1.3114737E0,6.924321E-1,9.4176257E-1,1.5309457E0,1.8938235E0,1.2490209E0,1.4530507E-1,1.9580649E0,2.4582555E0,1.7599837E0,2.128952E0,2.857849E0,3.3632133E0,2.4352643E0,3.008855E0,3.6690816E-1,3.472079E0],"split_indices":[5,5,5,5,5,5,5,5,5,5,5,5,5,1,0,3,5,5,5,5,5,5,1,1,1,1,1,0,5,1,0,0,3,0,3,3,5,3,3,1,3,1,1,1,3,5,3,5,3,5,5,5,5,0,3,0,0,0,0,0,0,0,0,0,0,0,0,0,0,0,0,0,0,0,0,0,0,0,0,0,0,0,0,0,0,0,0,0,0,0,0,0,0,0,0,0,0,0,0,0,0],"split_type":[0,0,0,0,0,0,0,0,0,0,0,0,0,0,0,0,0,0,0,0,0,0,0,0,0,0,0,0,0,0,0,0,0,0,0,0,0,0,0,0,0,0,0,0,0,0,0,0,0,0,0,0,0,0,0,0,0,0,0,0,0,0,0,0,0,0,0,0,0,0,0,0,0,0,0,0,0,0,0,0,0,0,0,0,0,0,0,0,0,0,0,0,0,0,0,0,0,0,0,0,0],"sum_hessian":[1.6976E4,1.4861E4,2.115E3,1.0275E4,4.586E3,1.806E3,3.09E2,8.115E3,2.16E3,2.915E3,1.671E3,1.071E3,7.35E2,2.59E2,5E1,6.782E3,1.333E3,1.04E3,1.12E3,1.531E3,1.384E3,1.028E3,6.43E2,5.1E2,5.61E2,4.61E2,2.74E2,9.3E1,1.66E2,8E0,4.2E1,1.611E3,5.171E3,5.85E2,7.48E2,5.78E2,4.62E2,6.67E2,4.53E2,7.57E2,7.74E2,6.72E2,7.12E2,4.6E2,5.68E2,3.4E2,3.03E2,3.34E2,1.76E2,3.44E2,2.17E2,2.8E2,1.81E2,1.2E2,1.54E2,6.5E1,1.01E2,2E0,6E0,8.8E1,5.083E3,2.2E1,7.26E2,1.16E2,4.62E2,2.43E2,2.19E2,3.4E2,3.27E2,1.72E2,2.81E2,4.04E2,3.53E2,2.14E2,5.6E2,1.4E2,5.32E2,4.4E2,2.72E2,2.89E2,1.71E2,3.19E2,2.49E2,1.71E2,1.69E2,1.28E2,1.75E2,1.8E2,1.54E2,1.75E2,1E0,3.8E1,3.06E2,1.46E2,7.1E1,1.03E2,1.77E2,1.05E2,7.6E1,1E0,1.53E2],"tree_param":{"num_deleted":"0","num_feature":"6","num_nodes":"101","size_leaf_vector":"1"}},{"base_weights":[7.11174E-2,-8.469463E0,5.5117393E1,-1.4442585E1,5.529846E0,4.5142582E1,1.17208206E2,-1.5963122E1,-8.63123E0,1.170245E0,1.3700517E1,3.517376E1,6.405233E1,9.908686E1,2.0800035E2,-1.635809E1,-1.3978688E1,-1.0644138E1,-6.6908603E0,-2.3500175E0,3.4516387E0,1.6837524E1,9.7935E0,2.8070713E1,4.2409897E1,5.7692173E1,7.073976E1,9.402561E1,6.0679407E0,1.9559618E2,2.1015331E1,-1.7092705E1,-1.6122147E1,-1.286018E1,-1.4918329E1,-9.938052E0,-7.189209E-1,-5.0547295E0,-8.665094E0,-1.0227135E0,-4.936642E0,5.3459444E0,1.855092E-1,1.449237E1,2.1040445E1,7.211893E0,1.5096768E1,3.1363903E1,2.3012125E1,3.8092365E1,4.57836E1,6.0066586E1,4.634905E1,2.034076E0,7.107806E1,4.722561E0,3.1472536E1,5.4250293E0,1.013522E1,-5.3404516E-1,-8.556742E-1,-8.1356734E-1,-7.6211065E-1,-5.518426E-1,-6.6232204E-1,-7.607662E-1,-6.9682914E-1,-3.9341927E-1,-5.2716523E-1,-1.4037904E-1,-2.8024682E-1,-4.8411354E-1,-3.5820225E-1,-1.00986205E-1,1.4276035E-3,-3.24635E-1,-1.7054084E-1,1.5104572E-1,3.3037993E-1,-8.592214E-2,1.2354578E-1,7.8824514E-1,5.8762974E-1,9.329524E-1,1.1712245E0,2.659773E-1,4.6075827E-1,8.225468E-1,3.7652126E-1,1.3908666E0,1.742951E0,9.9865025E-1,1.4061267E0,2.0207565E0,1.5478429E0,2.3798296E0,1.891786E0,2.7076495E0,3.1532922E0,2.336359E0,5.4426205E-1,3.8327363E0,3.3947144E0,1.8783554E0,4.8208484E-1],"categories":[],"categories_nodes":[],"categories_segments":[],"categories_sizes":[],"default_left":[0,0,0,0,0,0,0,0,0,0,0,0,0,0,0,0,0,0,0,0,0,0,0,0,0,0,0,0,0,0,0,0,0,0,0,0,0,0,0,0,0,0,0,0,0,0,0,0,0,0,0,0,0,0,0,0,0,0,0,0,0,0,0,0,0,0,0,0,0,0,0,0,0,0,0,0,0,0,0,0,0,0,0,0,0,0,0,0,0,0,0,0,0,0,0,0,0,0,0,0,0,0,0,0,0],"id":5,"left_children":[1,3,5,7,9,11,13,15,17,19,21,23,25,27,29,31,33,35,37,39,41,43,45,47,49,51,53,55,-1,57,-1,59,61,63,65,67,-1,69,71,73,75,77,79,81,83,85,87,89,91,93,95,97,99,-1,101,-1,103,-1,-1,-1,-1,-1,-1,-1,-1,-1,-1,-1,-1,-1,-1,-1,-1,-1,-1,-1,-1,-1,-1,-1,-1,-1,-1,-1,-1,-1,-1,-1,-1,-1,-1,-1,-1,-1,-1,-1,-1,-1,-1,-1,-1,-1,-1,-1,-1],"loss_changes":[8.0575065E6,1.2407438E6,1.420438E6,9.176075E4,1.5806936E5,3.71935E5,5.02588E5,6.23125E3,8.361375E3,2.325816E4,1.8758906E4,6.57305E4,2.50115E4,1.86865E4,5.473075E4,9.1475E2,1.25325E3,2.6467656E3,3.5157773E3,3.9054077E3,1.0869652E4,8.122375E3,9.337883E3,1.02730625E4,7.622E3,6.80425E3,4.53875E2,2.93775E3,0E0,9.58E3,0E0,3.74375E1,4.36875E2,3.0102344E2,4E0,1.0356641E3,0E0,7.322832E2,6.91E2,7.9034247E2,8.943242E2,3.241959E3,2.8151882E3,1.7392578E3,1.2888438E3,1.7175312E3,2.1814883E3,3.9514375E3,3.5385469E3,3.5222188E3,3.328875E3,1.746E3,3.7642188E2,0E0,5.48125E2,0E0,3.693799E1,0E0,0E0,0E0,0E0,0E0,0E0,0E0,0E0,0E0,0E0,0E0,0E0,0E0,0E0,0E0,0E0,0E0,0E0,0E0,0E0,0E0,0E0,0E0,0E0,0E0,0E0,0E0,0E0,0E0,0E0,0E0,0E0,0E0,0E0,0E0,0E0,0E0,0E0,0E0,0E0,0E0,0E0,0E0,0E0,0E0,0E0,0E0,0E0],"parents":[2147483647,0,0,1,1,2,2,3,3,4,4,5,5,6,6,7,7,8,8,9,9,10,10,11,11,12,12,13,13,14,14,15,15,16,16,17,17,18,18,19,19,20,20,21,21,22,22,23,23,24,24,25,25,26,26,27,27,29,29,31,31,32,32,33,33,34,34,35,35,37,37,38,38,39,39,40,40,41,41,42,42,43,43,44,44,45,45,46,46,47,47,48,48,49,49,50,50,51,51,52,52,54,54,56,56],"right_children":[2,4,6,8,10,12,14,16,18,20,22,24,26,28,30,32,34,36,38,40,42,44,46,48,50,52,54,56,-1,58,-1,60,62,64,66,68,-1,70,72,74,76,78,80,82,84,86,88,90,92,94,96,98,100,-1,102,-1,104,-1,-1,-1,-1,-1,-1,-1,-1,-1,-1,-1,-1,-1,-1,-1,-1,-1,-1,-1,-1,-1,-1,-1,-1,-1,-1,-1,-1,-1,-1,-1,-1,-1,-1,-1,-1,-1,-1,-1,-1,-1,-1,-1,-1,-1,-1,-1,-1],"split_conditions":[5.1E1,1.5E1,1.3E2,6E0,3.2E1,8.7E1,2.14E2,3E0,1E1,2.1E1,4E0,6.6E1,1.05E2,1.73E2,1.88E2,5E0,1E0,4E0,1E0,3E0,4E0,4.2E1,4.3E1,6E0,7.5E1,2.1E1,2E0,7.7E1,6.0679407E0,5E0,2.1015331E1,-5E0,2E0,-4E0,5E0,-4E0,-7.189209E-1,-8E0,1.3E1,1.8E1,1.8E1,2.4E1,2.7E1,3.1E1,4.7E1,3.7E1,4E1,5.8E1,6E1,9E0,1.8E1,9.2E1,4.9E1,2.034076E0,3E0,4.722561E0,3E0,5.4250293E0,1.013522E1,-5.3404516E-1,-8.556742E-1,-8.1356734E-1,-7.6211065E-1,-5.518426E-1,-6.6232204E-1,-7.607662E-1,-6.9682914E-1,-3.9341927E-1,-5.2716523E-1,-1.4037904E-1,-2.8024682E-1,-4.8411354E-1,-3.5820225E-1,-1.00986205E-1,1.4276035E-3,-3.24635E-1,-1.7054084E-1,1.5104572E-1,3.3037993E-1,-8.592214E-2,1.2354578E-1,7.8824514E-1,5.8762974E-1,9.329524E-1,1.1712245E0,2.659773E-1,4.6075827E-1,8.225468E-1,3.7652126E-1,1.3908666E0,1.742951E0,9.9865025E-1,1.4061267E0,2.0207565E0,1.5478429E0,2.3798296E0,1.891786E0,2.7076495E0,3.1532922E0,2.336359E0,5.4426205E-1,3.8327363E0,3.3947144E0,1.8783554E0,4.8208484E-1],"split_indices":[5,5,5,5,5,5,5,5,5,5,4,5,5,5,4,3,4,4,4,4,4,5,5,4,5,4,3,4,0,2,0,4,5,4,5,4,0,4,5,5,5,5,5,2,5,5,2,5,5,4,4,5,4,0,3,0,3,0,0,0,0,0,0,0,0,0,0,0,0,0,0,0,0,0,0,0,0,0,0,0,0,0,0,0,0,0,0,0,0,0,0,0,0,0,0,0,0,0,0,0,0,0,0,0,0],"split_type":[0,0,0,0,0,0,0,0,0,0,0,0,0,0,0,0,0,0,0,0,0,0,0,0,0,0,0,0,0,0,0,0,0,0,0,0,0,0,0,0,0,0,0,0,0,0,0,0,0,0,0,0,0,0,0,0,0,0,0,0,0,0,0,0,0,0,0,0,0,0,0,0,0,0,0,0,0,0,0,0,0,0,0,0,0,0,0,0,0,0,0,0,0,0,0,0,0,0,0,0,0,0,0,0,0],"sum_hessian":[1.7137E4,1.4836E4,2.301E3,1.0399E4,4.437E3,1.984E3,3.17E2,8.241E3,2.158E3,2.894E3,1.543E3,1.301E3,6.83E2,2.66E2,5.1E1,6.867E3,1.374E3,1.057E3,1.101E3,1.138E3,1.756E3,8.54E2,6.89E2,6.59E2,6.42E2,3.55E2,3.28E2,2.21E2,4.5E1,5E1,1E0,1.652E3,5.215E3,6.34E2,7.4E2,8.92E2,1.65E2,6.04E2,4.97E2,7.53E2,3.85E2,1.111E3,6.45E2,5.51E2,3.03E2,4.65E2,2.24E2,3.96E2,2.63E2,2.87E2,3.55E2,2.9E2,6.5E1,5E0,3.23E2,2.19E2,2E0,5E0,4.5E1,7E0,1.645E3,4.444E3,7.71E2,1.16E2,5.18E2,5.57E2,1.83E2,2.05E2,6.87E2,1.2E2,4.84E2,2.93E2,2.04E2,3.86E2,3.67E2,1.89E2,1.96E2,3.92E2,7.19E2,3.52E2,2.93E2,3.73E2,1.78E2,1.56E2,1.47E2,2.41E2,2.24E2,1.89E2,3.5E1,2.01E2,1.95E2,1.68E2,9.5E1,2.13E2,7.4E1,2.85E2,7E1,1.04E2,1.86E2,6.4E1,1E0,1.09E2,2.14E2,1E0,1E0],"tree_param":{"num_deleted":"0","num_feature":"6","num_nodes":"105","size_leaf_vector":"1"}},{"base_weights":[1.8022152E-2,-7.720609E0,5.468889E1,-1.3209054E1,7.0530663E0,4.4854786E1,1.1207387E2,-1.5029028E1,-6.7596207E0,2.8707888E0,1.5431084E1,3.5300312E1,6.0835476E1,9.5498856E1,9.31406E0,-1.5537742E1,-1.2885127E1,-8.604378E0,-4.2029862E0,4.417747E-1,5.798006E0,1.8903137E1,1.144075E1,2.8936445E1,4.146827E1,5.407657E1,6.8485405E1,8.868032E1,5.94921E0,-7.922105E-1,-1.5090407E1,-1.1620877E1,-1.404849E1,-7.7706676E0,-1.189627E1,-3.0988348E0,-7.154942E0,2.259251E0,-2.546742E0,7.9819174E0,2.8806062E0,1.6376778E1,2.3993671E1,8.537602E0,1.4527114E1,3.1820816E1,2.3853342E1,4.5498043E1,3.4396294E1,5.7052258E1,4.216706E1,3.808891E0,6.2072002E1,8.903147E1,4.700327E-1,-7.137127E-1,-7.684417E-1,-6.2721485E-1,-5.168213E-1,-6.7703265E-1,-7.3957914E-1,-4.494012E-1,-3.0495235E-1,-6.61945E-1,-5.396381E-1,-1.04595006E-1,-2.2184376E-1,-4.0089652E-1,-2.9154938E-1,3.8878825E-2,2.0353492E-1,-7.9550646E-2,-2.0876877E-1,3.404379E-1,5.459482E-1,1.8569554E-1,-5.469436E-4,9.546259E-1,7.036101E-1,1.4069613E0,1.0956742E0,5.0563633E-1,2.2796194E-1,8.540015E-1,5.412791E-1,1.7621129E0,1.3505198E0,1.3955187E0,9.361256E-1,2.3818798E0,1.90637E0,1.898856E0,1.4530519E0,3.212483E0,2.514224E0,2.5575159E0,1.9459511E0,3.2227287E0,2.4705334E0,4.7284675E0,3.971122E0],"categories":[],"categories_nodes":[],"categories_segments":[],"categories_sizes":[],"default_left":[0,0,0,0,0,0,0,0,0,0,0,0,0,0,0,0,0,0,0,0,0,0,0,0,0,0,0,0,0,0,0,0,0,0,0,0,0,0,0,0,0,0,0,0,0,0,0,0,0,0,0,0,0,0,0,0,0,0,0,0,0,0,0,0,0,0,0,0,0,0,0,0,0,0,0,0,0,0,0,0,0,0,0,0,0,0,0,0,0,0,0,0,0,0,0,0,0,0,0,0,0],"id":6,"left_children":[1,3,5,7,9,11,13,15,17,19,21,23,25,27,-1,29,31,33,35,37,39,41,43,45,47,49,51,53,-1,-1,55,57,59,61,63,65,67,69,71,73,75,77,79,81,83,85,87,89,91,93,95,-1,97,99,-1,-1,-1,-1,-1,-1,-1,-1,-1,-1,-1,-1,-1,-1,-1,-1,-1,-1,-1,-1,-1,-1,-1,-1,-1,-1,-1,-1,-1,-1,-1,-1,-1,-1,-1,-1,-1,-1,-1,-1,-1,-1,-1,-1,-1,-1,-1],"loss_changes":[7.175396E6,1.2047655E6,1.1817585E6,1.27054125E5,1.4098847E5,2.722315E5,3.5981675E5,9.013375E3,1.1217094E4,1.9095572E4,1.8348969E4,4.3037125E4,3.099075E4,2.99625E4,0E0,6.96375E2,2.2282188E3,3.708664E3,3.243754E3,7.984713E3,7.7373047E3,8.802297E3,5.485039E3,7.422125E3,1.46791875E4,1.0387875E4,1.06145E4,4.730875E3,0E0,0E0,4.158125E2,8.014219E2,1.1746875E2,2.1999219E3,2.69E2,9.756089E2,2.6402148E2,2.4499878E3,8.587886E2,2.3238125E3,1.260229E3,2.7417266E3,1.4099062E3,1.9904766E3,2.6689102E3,4.858E3,3.7655312E3,3.8608125E3,2.9274062E3,1.07004375E4,2.268125E2,0E0,2.0944375E3,3.078625E3,0E0,0E0,0E0,0E0,0E0,0E0,0E0,0E0,0E0,0E0,0E0,0E0,0E0,0E0,0E0,0E0,0E0,0E0,0E0,0E0,0E0,0E0,0E0,0E0,0E0,0E0,0E0,0E0,0E0,0E0,0E0,0E0,0E0,0E0,0E0,0E0,0E0,0E0,0E0,0E0,0E0,0E0,0E0,0E0,0E0,0E0,0E0],"parents":[2147483647,0,0,1,1,2,2,3,3,4,4,5,5,6,6,7,7,8,8,9,9,10,10,11,11,12,12,13,13,15,15,16,16,17,17,18,18,19,19,20,20,21,21,22,22,23,23,24,24,25,25,26,26,27,27,30,30,31,31,32,32,33,33,34,34,35,35,36,36,37,37,38,38,39,39,40,40,41,41,42,42,43,43,44,44,45,45,46,46,47,47,48,48,49,49,50,50,52,52,53,53],"right_children":[2,4,6,8,10,12,14,16,18,20,22,24,26,28,-1,30,32,34,36,38,40,42,44,46,48,50,52,54,-1,-1,56,58,60,62,64,66,68,70,72,74,76,78,80,82,84,86,88,90,92,94,96,-1,98,100,-1,-1,-1,-1,-1,-1,-1,-1,-1,-1,-1,-1,-1,-1,-1,-1,-1,-1,-1,-1,-1,-1,-1,-1,-1,-1,-1,-1,-1,-1,-1,-1,-1,-1,-1,-1,-1,-1,-1,-1,-1,-1,-1,-1,-1,-1,-1],"split_conditions":[5.4E1,1.8E1,1.3E2,7E0,3.5E1,8.7E1,2.14E2,3E0,1.3E1,2.6E1,4E0,6.8E1,1.05E2,1.73E2,9.31406E0,1E0,1E0,4E0,4E0,3E0,3E0,4.7E1,4.3E1,6E0,9E0,1.9E1,7E0,6.4E1,5.94921E0,-7.922105E-1,0E0,5E0,3E0,1E1,1E1,9E0,1.6E1,2.2E1,9E0,3.2E1,1E1,8E0,6E0,1.3E1,8E0,9E0,7E0,1.7E1,4E0,8E0,2.023E3,3.808891E0,1.7E1,9E0,4.700327E-1,-7.137127E-1,-7.684417E-1,-6.2721485E-1,-5.168213E-1,-6.7703265E-1,-7.3957914E-1,-4.494012E-1,-3.0495235E-1,-6.61945E-1,-5.396381E-1,-1.04595006E-1,-2.2184376E-1,-4.0089652E-1,-2.9154938E-1,3.8878825E-2,2.0353492E-1,-7.9550646E-2,-2.0876877E-1,3.404379E-1,5.459482E-1,1.8569554E-1,-5.469436E-4,9.546259E-1,7.036101E-1,1.4069613E0,1.0956742E0,5.0563633E-1,2.2796194E-1,8.540015E-1,5.412791E-1,1.7621129E0,1.3505198E0,1.3955187E0,9.361256E-1,2.3818798E0,1.90637E0,1.898856E0,1.4530519E0,3.212483E0,2.514224E0,2.5575159E0,1.9459511E0,3.2227287E0,2.4705334E0,4.7284675E0,3.971122E0],"split_indices":[5,5,5,5,5,5,5,5,5,5,4,5,5,5,0,5,4,4,4,4,4,5,5,4,1,4,1,4,0,0,4,5,4,5,5,1,5,5,1,5,1,1,1,4,1,1,1,4,4,1,0,0,4,1,0,0,0,0,0,0,0,0,0,0,0,0,0,0,0,0,0,0,0,0,0,0,0,0,0,0,0,0,0,0,0,0,0,0,0,0,0,0,0,0,0,0,0,0,0,0,0],"split_type":[0,0,0,0,0,0,0,0,0,0,0,0,0,0,0,0,0,0,0,0,0,0,0,0,0,0,0,0,0,0,0,0,0,0,0,0,0,0,0,0,0,0,0,0,0,0,0,0,0,0,0,0,0,0,0,0,0,0,0,0,0,0,0,0,0,0,0,0,0,0,0,0,0,0,0,0,0,0,0,0,0,0,0,0,0,0,0,0,0,0,0,0,0,0,0,0,0,0,0,0,0],"sum_hessian":[1.6958E4,1.4856E4,2.102E3,1.0832E4,4.024E3,1.796E3,3.06E2,8.447E3,2.385E3,2.685E3,1.339E3,1.126E3,6.7E2,2.52E2,5.4E1,6.822E3,1.625E3,1.384E3,1.001E3,1.468E3,1.217E3,7.14E2,6.25E2,5.57E2,5.69E2,3.6E2,3.1E2,1.99E2,5.3E1,4.028E3,2.794E3,7.84E2,8.41E2,1.107E3,2.77E2,7.3E2,2.71E2,9.13E2,5.55E2,6.95E2,5.22E2,4.8E2,2.34E2,3.24E2,3.01E2,3.52E2,2.05E2,3.59E2,2.1E2,2.85E2,7.5E1,1.36E2,1.74E2,1.98E2,1E0,7.24E2,2.07E3,4.51E2,3.33E2,5.11E2,3.3E2,6.38E2,4.69E2,1.2E2,1.57E2,4.18E2,3.12E2,1.61E2,1.1E2,5.03E2,4.1E2,3.51E2,2.04E2,4.99E2,1.96E2,4.05E2,1.17E2,2.17E2,2.63E2,7.4E1,1.6E2,2.31E2,9.3E1,1.76E2,1.25E2,2.02E2,1.5E2,1.12E2,9.3E1,2.74E2,8.5E1,1.22E2,8.8E1,1.34E2,1.51E2,1.6E1,5.9E1,1.43E2,3.1E1,1.2E2,7.8E1],"tree_param":{"num_deleted":"0","num_feature":"6","num_nodes":"101","size_leaf_vector":"1"}},{"base_weights":[-2.7430996E-3,-6.8965516E0,5.6055096E1,-1.2669714E1,7.2289696E0,5.0042583E1,1.565887E2,-1.4407424E1,-7.1799374E0,2.8155606E0,1.6367313E1,3.879163E1,6.9904884E1,5.6934667E0,1.9482608E2,-1.4751191E1,-1.2642792E1,-9.175868E0,-5.149016E0,3.826564E-1,6.44422E0,1.20334635E1,1.9768677E1,3.178559E1,4.51156E1,6.298641E1,8.899888E1,1.577775E2,2.661802E2,-7.7211684E-1,-1.4539929E1,-6.6385996E-1,-1.2147582E1,-9.891746E0,-7.821156E0,-6.3753524E0,-3.7777698E0,-1.3000392E0,1.6352481E0,4.893168E0,8.693709E0,1.0173875E1,1.4378212E1,2.2002499E1,1.6049181E1,3.4703217E1,2.6746265E1,4.0442936E1,4.9604893E1,6.923987E1,5.827762E1,4.842975E0,3.8215375E0,4.747192E0,8.221033E0,2.7660992E2,2.4826152E0,-7.4149936E-1,-7.0777273E-1,-7.3982495E-1,-6.01539E-1,-4.24017E-1,-5.1207286E-1,-3.2064402E-1,-4.1140887E-1,-3.573389E-1,-2.8519964E-1,-2.511711E-1,-1.4651033E-1,-1.4820747E-1,-3.2601643E-2,1.21936575E-1,1.2415456E-2,3.0141637E-1,1.5452212E-1,5.0852406E-1,3.1697634E-1,5.953297E-1,4.539648E-1,8.3612776E-1,5.4294795E-1,9.5258105E-1,1.2268143E0,8.467375E-1,6.152592E-1,2.8789696E-1,1.747262E0,1.1561141E0,1.4783516E0,2.193895E0,1.8163265E0,2.7877936E0,2.273423E0,3.1126018E0,3.6993656E0,2.7673783E0,3.3927255E0,6.5086374E0,1.5019492E1],"categories":[],"categories_nodes":[],"categories_segments":[],"categories_sizes":[],"default_left":[0,0,0,0,0,0,0,0,0,0,0,0,0,0,0,0,0,0,0,0,0,0,0,0,0,0,0,0,0,0,0,0,0,0,0,0,0,0,0,0,0,0,0,0,0,0,0,0,0,0,0,0,0,0,0,0,0,0,0,0,0,0,0,0,0,0,0,0,0,0,0,0,0,0,0,0,0,0,0,0,0,0,0,0,0,0,0,0,0,0,0,0,0,0,0,0,0,0,0],"id":7,"left_children":[1,3,5,7,9,11,13,15,17,19,21,23,25,-1,27,29,31,33,35,37,39,41,43,45,47,49,51,53,55,-1,57,-1,59,61,63,65,67,69,71,73,75,77,79,81,83,85,87,89,91,93,95,-1,-1,-1,-1,97,-1,-1,-1,-1,-1,-1,-1,-1,-1,-1,-1,-1,-1,-1,-1,-1,-1,-1,-1,-1,-1,-1,-1,-1,-1,-1,-1,-1,-1,-1,-1,-1,-1,-1,-1,-1,-1,-1,-1,-1,-1,-1,-1],"loss_changes":[6.595577E6,1.2394722E6,1.1218985E6,1.02819625E5,1.7781472E5,3.917125E5,1.4933025E5,4.78425E3,1.0475844E4,2.626137E4,2.0930219E4,4.8587375E4,7.854275E4,0E0,1.00755375E5,7.76E2,2.6064062E2,1.1911406E3,2.1435078E3,3.7581018E3,4.123418E3,2.618125E3,6.3187812E3,6.996625E3,1.039125E4,9.834E3,9.095375E3,2.510625E2,2.465725E4,0E0,3.7725E2,0E0,5.8992188E1,3.336875E2,2.0918555E2,3.1089258E2,6.3035547E2,8.1869446E2,1.1382935E3,1.4322539E3,1.6251484E3,5.689844E2,2.1120078E3,3.2635156E3,8.028594E2,2.1666562E3,1.38125E3,2.5772812E3,5.0214375E3,1.9294375E3,3.9611875E3,0E0,0E0,0E0,0E0,1.6613625E4,0E0,0E0,0E0,0E0,0E0,0E0,0E0,0E0,0E0,0E0,0E0,0E0,0E0,0E0,0E0,0E0,0E0,0E0,0E0,0E0,0E0,0E0,0E0,0E0,0E0,0E0,0E0,0E0,0E0,0E0,0E0,0E0,0E0,0E0,0E0,0E0,0E0,0E0,0E0,0E0,0E0,0E0,0E0],"parents":[2147483647,0,0,1,1,2,2,3,3,4,4,5,5,6,6,7,7,8,8,9,9,10,10,11,11,12,12,14,14,15,15,16,16,17,17,18,18,19,19,20,20,21,21,22,22,23,23,24,24,25,25,26,26,27,27,28,28,30,30,32,32,33,33,34,34,35,35,36,36,37,37,38,38,39,39,40,40,41,41,42,42,43,43,44,44,45,45,46,46,47,47,48,48,49,49,50,50,55,55],"right_children":[2,4,6,8,10,12,14,16,18,20,22,24,26,-1,28,30,32,34,36,38,40,42,44,46,48,50,52,54,56,-1,58,-1,60,62,64,66,68,70,72,74,76,78,80,82,84,86,88,90,92,94,96,-1,-1,-1,-1,98,-1,-1,-1,-1,-1,-1,-1,-1,-1,-1,-1,-1,-1,-1,-1,-1,-1,-1,-1,-1,-1,-1,-1,-1,-1,-1,-1,-1,-1,-1,-1,-1,-1,-1,-1,-1,-1,-1,-1,-1,-1,-1,-1],"split_conditions":[5.9E1,1.7E1,1.73E2,6E0,3.6E1,9.9E1,2.14E2,3E0,1.1E1,2.7E1,4.4E1,7.5E1,1.35E2,5.6934667E0,3.5E1,5E0,4E0,9E0,1.4E1,2.1E1,3.2E1,8E0,9E0,9E0,8.5E1,7E0,9E0,5E0,1.2E1,-7.7211684E-1,1E0,-6.6385996E-1,1E0,6E0,4E0,7E0,7E0,4E0,9E0,9E0,9E0,7E0,1.5E1,5E1,1.5E1,2E0,6.6E1,8E0,7E0,1.12E2,1.25E2,4.842975E0,3.8215375E0,4.747192E0,8.221033E0,5E0,2.4826152E0,-7.4149936E-1,-7.0777273E-1,-7.3982495E-1,-6.01539E-1,-4.24017E-1,-5.1207286E-1,-3.2064402E-1,-4.1140887E-1,-3.573389E-1,-2.8519964E-1,-2.511711E-1,-1.4651033E-1,-1.4820747E-1,-3.2601643E-2,1.21936575E-1,1.2415456E-2,3.0141637E-1,1.5452212E-1,5.0852406E-1,3.1697634E-1,5.953297E-1,4.539648E-1,8.3612776E-1,5.4294795E-1,9.5258105E-1,1.2268143E0,8.467375E-1,6.152592E-1,2.8789696E-1,1.747262E0,1.1561141E0,1.4783516E0,2.193895E0,1.8163265E0,2.7877936E0,2.273423E0,3.1126018E0,3.6993656E0,2.7673783E0,3.3927255E0,6.5086374E0,1.5019492E1],"split_indices":[5,5,5,5,5,5,5,5,5,5,5,5,5,0,2,3,5,5,5,5,5,3,1,1,5,1,1,2,1,0,5,0,3,3,1,3,3,3,1,1,1,1,3,5,3,2,5,1,1,5,5,0,0,0,0,1,0,0,0,0,0,0,0,0,0,0,0,0,0,0,0,0,0,0,0,0,0,0,0,0,0,0,0,0,0,0,0,0,0,0,0,0,0,0,0,0,0,0,0],"split_type":[0,0,0,0,0,0,0,0,0,0,0,0,0,0,0,0,0,0,0,0,0,0,0,0,0,0,0,0,0,0,0,0,0,0,0,0,0,0,0,0,0,0,0,0,0,0,0,0,0,0,0,0,0,0,0,0,0,0,0,0,0,0,0,0,0,0,0,0,0,0,0,0,0,0,0,0,0,0,0,0,0,0,0,0,0,0,0,0,0,0,0,0,0,0,0,0,0,0,0],"sum_hessian":[1.7065E4,1.5197E4,1.868E3,1.0788E4,4.409E3,1.764E3,1.04E2,8.193E3,2.595E3,2.974E3,1.435E3,1.128E3,6.36E2,5.1E1,5.3E1,6.851E3,1.342E3,1.307E3,1.288E3,1.781E3,1.193E3,6.33E2,8.02E2,5.38E2,5.9E2,4.7E2,1.66E2,3.7E1,1.6E1,1.587E3,5.264E3,5.77E2,7.65E2,8.51E2,4.56E2,6.78E2,6.1E2,7.6E2,1.021E3,7.08E2,4.85E2,3.56E2,2.77E2,4.98E2,3.04E2,3.37E2,2.01E2,2.94E2,2.96E2,1.96E2,2.74E2,9.8E1,6.8E1,5E0,3.2E1,1.5E1,1E0,2.979E3,2.285E3,2.7E1,7.38E2,1.74E2,6.77E2,1.06E2,3.5E2,3.11E2,3.67E2,2.45E2,3.65E2,2.12E2,5.48E2,6.46E2,3.75E2,4.33E2,2.75E2,2.96E2,1.89E2,1.34E2,2.22E2,1.64E2,1.13E2,2.34E2,2.64E2,2.43E2,6.1E1,3E0,3.34E2,9.2E1,1.09E2,1.55E2,1.39E2,1.14E2,1.82E2,8.5E1,1.11E2,2.15E2,5.9E1,3E0,1.2E1],"tree_param":{"num_deleted":"0","num_feature":"6","num_nodes":"99","size_leaf_vector":"1"}},{"base_weights":[2.9931936E-2,-6.575516E0,5.2261692E1,-1.2031686E1,6.6795034E0,4.8218216E1,1.8783394E2,-1.3558378E1,-6.278981E0,1.668723E0,1.3420102E1,3.865912E1,7.2787415E1,7.5140076E0,2.5667896E2,-1.4014737E1,-1.1663797E1,-7.6704116E0,-4.021733E0,-1.0154263E-1,4.283475E0,1.0597049E1,1.8679369E1,3.2981907E1,4.811952E1,6.475818E1,9.122537E1,2.6608228E2,2.42055E0,-1.4254851E1,-1.34311285E1,-1.2308267E1,-1.0626901E1,-8.638623E0,-6.603308E0,-5.3442845E0,-3.1407778E0,-1.6712333E0,8.397142E-1,3.303772E0,5.7533374E0,8.731873E0,1.2212161E1,2.0469713E1,1.5370803E1,3.7607834E1,2.922453E1,5.173557E1,4.173686E1,3.8803303E0,6.08204E1,4.9765673E0,3.893007E0,3.1821487E0,1.3737853E1,-7.343246E-1,-7.0173615E-1,-6.254201E-1,-6.7947525E-1,-7.108867E-1,-6.0852736E-1,-5.5669457E-1,-4.9098858E-1,-3.7233064E-1,-4.505023E-1,-3.7291336E-1,-2.8402355E-1,-1.6110104E-1,-3.0561948E-1,1.6010227E-2,-2.2630182E-1,-1.5510708E-1,-5.5718787E-2,9.368979E-2,-4.1399557E-2,2.0171969E-1,1.0443069E-1,3.884188E-1,2.3623331E-1,5.092937E-1,3.069201E-1,6.7163795E-1,4.9594456E-1,8.6423653E-1,1.131732E0,8.9778614E-1,6.6880566E-1,1.6533092E0,2.072746E0,1.3293347E0,1.7701815E0,2.8323944E0,2.4392502E0,1.6851345E0,2.2512789E0,2.8257618E0,3.3116586E0],"categories":[],"categories_nodes":[],"categories_segments":[],"categories_sizes":[],"default_left":[0,0,0,0,0,0,0,0,0,0,0,0,0,0,0,0,0,0,0,0,0,0,0,0,0,0,0,0,0,0,0,0,0,0,0,0,0,0,0,0,0,0,0,0,0,0,0,0,0,0,0,0,0,0,0,0,0,0,0,0,0,0,0,0,0,0,0,0,0,0,0,0,0,0,0,0,0,0,0,0,0,0,0,0,0,0,0,0,0,0,0,0,0,0,0,0,0],"id":8,"left_children":[1,3,5,7,9,11,13,15,17,19,21,23,25,-1,27,29,31,33,35,37,39,41,43,45,47,49,51,53,-1,55,57,59,61,63,65,67,69,71,73,75,77,79,81,83,85,87,89,91,93,-1,95,-1,-1,-1,-1,-1,-1,-1,-1,-1,-1,-1,-1,-1,-1,-1,-1,-1,-1,-1,-1,-1,-1,-1,-1,-1,-1,-1,-1,-1,-1,-1,-1,-1,-1,-1,-1,-1,-1,-1,-1,-1,-1,-1,-1,-1,-1],"loss_changes":[5.8728305E6,1.0929328E6,1.038521E6,9.393275E4,1.488269E5,4.333195E5,1.03622875E5,7.150125E3,7.026539E3,1.1706685E4,2.7699938E4,7.0329E4,7.09265E4,0E0,2.2370125E4,7.63125E2,9.704531E2,1.3780469E3,9.8404297E2,2.2309238E3,1.4512617E3,3.5836406E3,3.5652344E3,1.35013125E4,9.38075E3,1.3746875E4,9.45725E3,1.2367625E4,0E0,2.51E2,1.2278125E2,9.25625E1,1.5215625E2,2.5388672E2,4.823125E2,5.378076E2,2.4849248E3,4.475387E2,1.6295205E3,5.375835E2,8.0693164E2,2.0944336E3,1.6974141E3,2.5185469E3,9.6635156E2,5.1463125E3,6.686875E3,1.802E3,3.3970312E3,0E0,2.874875E3,0E0,0E0,0E0,0E0,0E0,0E0,0E0,0E0,0E0,0E0,0E0,0E0,0E0,0E0,0E0,0E0,0E0,0E0,0E0,0E0,0E0,0E0,0E0,0E0,0E0,0E0,0E0,0E0,0E0,0E0,0E0,0E0,0E0,0E0,0E0,0E0,0E0,0E0,0E0,0E0,0E0,0E0,0E0,0E0,0E0,0E0],"parents":[2147483647,0,0,1,1,2,2,3,3,4,4,5,5,6,6,7,7,8,8,9,9,10,10,11,11,12,12,14,14,15,15,16,16,17,17,18,18,19,19,20,20,21,21,22,22,23,23,24,24,25,25,26,26,27,27,29,29,30,30,31,31,32,32,33,33,34,34,35,35,36,36,37,37,38,38,39,39,40,40,41,41,42,42,43,43,44,44,45,45,46,46,47,47,48,48,50,50],"right_children":[2,4,6,8,10,12,14,16,18,20,22,24,26,-1,28,30,32,34,36,38,40,42,44,46,48,50,52,54,-1,56,58,60,62,64,66,68,70,72,74,76,78,80,82,84,86,88,90,92,94,-1,96,-1,-1,-1,-1,-1,-1,-1,-1,-1,-1,-1,-1,-1,-1,-1,-1,-1,-1,-1,-1,-1,-1,-1,-1,-1,-1,-1,-1,-1,-1,-1,-1,-1,-1,-1,-1,-1,-1,-1,-1,-1,-1,-1,-1,-1,-1],"split_conditions":[5.8E1,1.7E1,2.14E2,7E0,3.2E1,1.09E2,3.5E1,3E0,1.3E1,2.5E1,4.6E1,8.3E1,1.44E2,7.5140076E0,1.2E1,1.2E1,5E0,1E1,7E0,2E1,2.9E1,3.7E1,9E0,7E0,9E0,5E0,9E0,2E0,2.42055E0,5E0,1.5E1,1E0,3.2E1,4E0,7E0,3E0,1.3E1,4E0,9E0,9E0,6E0,9E0,3E1,5E1,1.8E1,6.8E1,7.5E1,5E0,8.9E1,3.8803303E0,1.25E2,4.9765673E0,3.893007E0,3.1821487E0,1.3737853E1,-7.343246E-1,-7.0173615E-1,-6.254201E-1,-6.7947525E-1,-7.108867E-1,-6.0852736E-1,-5.5669457E-1,-4.9098858E-1,-3.7233064E-1,-4.505023E-1,-3.7291336E-1,-2.8402355E-1,-1.6110104E-1,-3.0561948E-1,1.6010227E-2,-2.2630182E-1,-1.5510708E-1,-5.5718787E-2,9.368979E-2,-4.1399557E-2,2.0171969E-1,1.0443069E-1,3.884188E-1,2.3623331E-1,5.092937E-1,3.069201E-1,6.7163795E-1,4.9594456E-1,8.6423653E-1,1.131732E0,8.9778614E-1,6.6880566E-1,1.6533092E0,2.072746E0,1.3293347E0,1.7701815E0,2.8323944E0,2.4392502E0,1.6851345E0,2.2512789E0,2.8257618E0,3.3116586E0],"split_indices":[5,5,5,5,5,5,2,5,5,5,5,5,5,0,1,3,5,5,3,5,5,5,1,1,1,1,1,1,0,3,3,3,2,3,3,3,3,3,1,1,1,1,2,5,2,5,5,1,5,0,5,0,0,0,0,0,0,0,0,0,0,0,0,0,0,0,0,0,0,0,0,0,0,0,0,0,0,0,0,0,0,0,0,0,0,0,0,0,0,0,0,0,0,0,0,0,0],"split_type":[0,0,0,0,0,0,0,0,0,0,0,0,0,0,0,0,0,0,0,0,0,0,0,0,0,0,0,0,0,0,0,0,0,0,0,0,0,0,0,0,0,0,0,0,0,0,0,0,0,0,0,0,0,0,0,0,0,0,0,0,0,0,0,0,0,0,0,0,0,0,0,0,0,0,0,0,0,0,0,0,0,0,0,0,0,0,0,0,0,0,0,0,0,0,0,0,0],"sum_hessian":[1.702E4,1.511E4,1.91E3,1.0704E4,4.406E3,1.856E3,5.4E1,8.458E3,2.246E3,2.528E3,1.878E3,1.338E3,5.18E2,3.7E1,1.7E1,6.811E3,1.647E3,1.388E3,8.58E2,1.508E3,1.02E3,1.224E3,6.54E2,8.39E2,4.99E2,3.64E2,1.54E2,1.6E1,1E0,4.809E3,2.002E3,1.009E3,6.38E2,7.24E2,6.64E2,3.41E2,5.17E2,5.65E2,9.43E2,6.14E2,4.06E2,5.71E2,6.53E2,4.21E2,2.33E2,3.72E2,4.67E2,3.14E2,1.85E2,8.1E1,2.83E2,9.1E1,6.3E1,1E0,1.5E1,1.602E3,3.207E3,3.05E2,1.697E3,6.1E1,9.48E2,3.84E2,2.54E2,1.77E2,5.47E2,3.41E2,3.23E2,9.2E1,2.49E2,1.48E2,3.69E2,1.57E2,4.08E2,5.82E2,3.61E2,3.82E2,2.32E2,1.35E2,2.71E2,3.64E2,2.07E2,4.23E2,2.3E2,1.74E2,2.47E2,9.8E1,1.35E2,1.75E2,1.97E2,3.31E2,1.36E2,1.11E2,2.03E2,5.7E1,1.28E2,1.64E2,1.19E2],"tree_param":{"num_deleted":"0","num_feature":"6","num_nodes":"97","size_leaf_vector":"1"}},{"base_weights":[-1.6024314E-2,-2.5252824E0,2.2275532E1,1.0151834E1,-5.0882325E0,4.9603992E1,-5.4305754E0,-6.910961E-1,2.2174791E1,-1.0017129E0,-7.1227064E0,8.277782E1,4.6898228E1,-1.1627743E0,-1.1129461E1,3.2424625E1,8.408042E0,-9.726973E0,4.9206343E0,-1.3334235E1,-3.018374E0,3.7078621E0,4.9645977E0,3.4835285E1,5.733344E1,-5.775498E-1,-4.842289E-1,-1.0021578E1,-6.475469E-1,1.779423E1,4.6811684E1,2.0440164E-1,1.6260178E1,-5.415408E0,-7.0542496E-1,1.9093977E1,-2.0848908E0,-1.3062604E1,-6.7970175E-1,1.4802936E1,-6.5118785E0,2.744184E0,2.9037157E1,7.608589E0,5.232381E1,3.797229E0,-2.0535088E0,-1.0592785E1,-3.437145E0,-9.109048E-2,9.633643E-1,6.5418714E-1,2.471711E0,1.7776877E-1,-8.6826615E-2,9.593796E-1,5.3739464E-1,-9.4532266E-2,-3.0652526E-1,1.3394225E0,3.642281E-1,-4.618561E-1,2.6512572E-1,-6.378136E-1,-6.7243713E-1,1.1614002E0,1.3778244E-1,-7.446014E-2,-4.9191305E-1,9.804581E-1,1.7060648E0,2.1551623E0,3.334943E0,-7.885032E-2,3.915597E-1,-3.4286582E-1,-3.1449474E-4,-4.8123607E-1,-6.348086E-1,-3.3713716E-1,-1.09466195E-1],"categories":[],"categories_nodes":[],"categories_segments":[],"categories_sizes":[],"default_left":[0,0,0,0,0,0,0,0,0,0,0,0,0,0,0,0,0,0,0,0,0,0,0,0,0,0,0,0,0,0,0,0,0,0,0,0,0,0,0,0,0,0,0,0,0,0,0,0,0,0,0,0,0,0,0,0,0,0,0,0,0,0,0,0,0,0,0,0,0,0,0,0,0,0,0,0,0,0,0,0,0],"id":9,"left_children":[1,3,5,7,9,11,13,-1,15,17,19,21,23,25,27,29,31,33,35,37,39,-1,-1,41,43,-1,45,47,-1,49,51,53,55,57,-1,59,61,63,-1,65,67,-1,69,-1,71,73,75,77,79,-1,-1,-1,-1,-1,-1,-1,-1,-1,-1,-1,-1,-1,-1,-1,-1,-1,-1,-1,-1,-1,-1,-1,-1,-1,-1,-1,-1,-1,-1,-1,-1],"loss_changes":[9.508998E5,4.965113E5,1.3025936E6,7.410716E5,1.0567109E5,7.38505E4,2.0782121E4,0E0,2.4130238E5,2.1842228E5,2.1630334E5,1.7479062E3,9.9084E4,3.448358E3,6.0879297E2,2.0565612E5,4.7149266E4,3.2208719E4,2.5005634E5,6.06875E1,3.1830128E5,0E0,0E0,4.199753E4,1.9585788E5,0E0,3.105167E3,8.361582E2,0E0,1.4136125E4,4.3048875E4,2.3411167E3,5.8288984E3,2.1636445E3,0E0,7.549725E4,8.913119E4,2.66875E1,0E0,8.49923E4,7.1392516E4,0E0,1.3375344E4,0E0,5.133625E4,2.700605E3,3.323999E3,3.1151953E2,6.7733826E1,0E0,0E0,0E0,0E0,0E0,0E0,0E0,0E0,0E0,0E0,0E0,0E0,0E0,0E0,0E0,0E0,0E0,0E0,0E0,0E0,0E0,0E0,0E0,0E0,0E0,0E0,0E0,0E0,0E0,0E0,0E0,0E0],"parents":[2147483647,0,0,1,1,2,2,3,3,4,4,5,5,6,6,8,8,9,9,10,10,11,11,12,12,13,13,14,14,15,15,16,16,17,17,18,18,19,19,20,20,23,23,24,24,26,26,27,27,29,29,30,30,31,31,32,32,33,33,35,35,36,36,37,37,39,39,40,40,42,42,44,44,45,45,46,46,47,47,48,48],"right_children":[2,4,6,8,10,12,14,-1,16,18,20,22,24,26,28,30,32,34,36,38,40,-1,-1,42,44,-1,46,48,-1,50,52,54,56,58,-1,60,62,64,-1,66,68,-1,70,-1,72,74,76,78,80,-1,-1,-1,-1,-1,-1,-1,-1,-1,-1,-1,-1,-1,-1,-1,-1,-1,-1,-1,-1,-1,-1,-1,-1,-1,-1,-1,-1,-1,-1,-1,-1],"split_conditions":[1.8E1,3E0,1.9E1,1E0,8E0,5E0,3E1,-6.910961E-1,3E1,5E0,1.2E1,4E0,2.7E1,3E0,4.3E1,2E0,2E0,4E0,6E0,1E1,1.3E1,3.7078621E0,4.9645977E0,1E1,2.8E1,-5.775498E-1,1E1,4.2E1,-6.475469E-1,3E0,3E0,3.8E1,4.3E1,1E1,-7.0542496E-1,3E1,7E0,2.9E1,-6.7970175E-1,3E1,1.5E1,2.744184E0,1.6E1,7.608589E0,4.2E1,6E0,1.6E1,3.8E1,4E0,-9.109048E-2,9.633643E-1,6.5418714E-1,2.471711E0,1.7776877E-1,-8.6826615E-2,9.593796E-1,5.3739464E-1,-9.4532266E-2,-3.0652526E-1,1.3394225E0,3.642281E-1,-4.618561E-1,2.6512572E-1,-6.378136E-1,-6.7243713E-1,1.1614002E0,1.3778244E-1,-7.446014E-2,-4.9191305E-1,9.804581E-1,1.7060648E0,2.1551623E0,3.334943E0,-7.885032E-2,3.915597E-1,-3.4286582E-1,-3.1449474E-4,-4.8123607E-1,-6.348086E-1,-3.3713716E-1,-1.09466195E-1],"split_indices":[3,3,3,3,3,2,2,0,2,3,3,2,2,2,2,3,3,3,3,3,3,0,0,2,2,0,2,2,0,2,2,2,2,2,0,2,3,2,0,2,3,0,2,0,2,2,2,2,1,0,0,0,0,0,0,0,0,0,0,0,0,0,0,0,0,0,0,0,0,0,0,0,0,0,0,0,0,0,0,0,0],"split_type":[0,0,0,0,0,0,0,0,0,0,0,0,0,0,0,0,0,0,0,0,0,0,0,0,0,0,0,0,0,0,0,0,0,0,0,0,0,0,0,0,0,0,0,0,0,0,0,0,0,0,0,0,0,0,0,0,0,0,0,0,0,0,0,0,0,0,0,0,0,0,0,0,0,0,0,0,0,0,0,0,0],"sum_hessian":[1.6998E4,1.5279E4,1.719E3,2.569E3,1.271E4,8.65E2,8.54E2,8.58E2,1.711E3,4.225E3,8.485E3,6.3E1,8.02E2,4.89E2,3.65E2,9.8E2,7.31E2,1.708E3,2.517E3,3.375E3,5.11E3,4.5E1,1.8E1,3.74E2,4.28E2,2.9E1,4.6E2,2.31E2,1.34E2,4.87E2,4.93E2,3.58E2,3.73E2,8.62E2,8.46E2,8.32E2,1.685E3,1.675E3,1.7E3,8.37E2,4.273E3,8.2E1,2.92E2,2E1,4.08E2,1.23E2,3.37E2,2.12E2,1.9E1,3.4E1,4.53E2,3.6E1,4.57E2,1.31E2,2.27E2,2.42E2,1.31E2,1.46E2,7.16E2,5.03E2,3.29E2,8.56E2,8.29E2,9.53E2,7.22E2,4.92E2,3.45E2,1.703E3,2.57E3,1.04E2,1.88E2,2.51E2,1.57E2,5.3E1,7E1,1E2,2.37E2,1.49E2,6.3E1,4E0,1.5E1],"tree_param":{"num_deleted":"0","num_feature":"6","num_nodes":"81","size_leaf_vector":"1"}},{"base_weights":[-1.7622052E-2,-6.0516157E0,4.789771E1,-1.0949035E1,5.933081E0,4.268858E1,1.3454477E2,-1.231029E1,-5.8127003E0,2.2706637E0,1.3756184E1,3.2727833E1,6.017698E1,1.2847264E2,1.9454788E1,-1.2699498E1,-1.0672983E1,-7.0499735E0,-3.6573713E0,5.0484776E-1,5.5653467E0,1.0687409E1,1.7114326E1,2.6235058E1,3.7797676E1,5.2917328E1,7.198018E1,9.764979E1,1.5424928E2,-1.2816968E1,-1.1916954E1,-9.640847E0,-1.1629748E1,-5.938683E0,-8.977903E0,-2.550384E0,-6.8760886E0,1.9619089E0,-1.9791602E0,7.8492794E0,2.3177178E0,1.4184996E1,7.5508275E0,1.9164516E1,1.3348314E1,3.0453304E1,2.2751698E1,4.0855465E1,3.268013E1,5.8588722E1,4.8649887E1,7.291883E1,3.5175106E1,1.2678822E0,9.858848E1,4.26868E0,1.5932782E2,-5.300495E-1,-6.420466E-1,-5.6217825E-1,-6.2253183E-1,-5.032109E-1,-3.9500222E-1,-5.7017344E-1,-6.465285E-1,-2.3335738E-1,-3.4292457E-1,-3.9588463E-1,-4.9288663E-1,-8.149184E-2,-1.9060168E-1,-3.009071E-1,-4.1199216E-1,1.726507E-2,1.765513E-1,7.279276E-2,-1.2217259E-1,4.8037815E-1,2.6078418E-1,2.0368014E-1,5.936378E-2,8.045414E-1,6.340599E-1,5.0662595E-1,2.6859602E-1,1.0892601E0,7.5568753E-1,7.7385736E-1,4.5286322E-1,1.7279059E0,1.3352251E0,1.2799714E0,8.9540905E-1,2.1505182E0,1.6633713E0,1.8107046E0,1.3170227E0,2.6935282E0,3.2171185E0,2.6363266E0,2.1464753E0,3.9508405E0,3.2180345E0,1.9399174E0,2.4531041E-1,5.276498E0,3.767819E0,8.143746E0,3.846526E0],"categories":[],"categories_nodes":[],"categories_segments":[],"categories_sizes":[],"default_left":[0,0,0,0,0,0,0,0,0,0,0,0,0,0,0,0,0,0,0,0,0,0,0,0,0,0,0,0,0,0,0,0,0,0,0,0,0,0,0,0,0,0,0,0,0,0,0,0,0,0,0,0,0,0,0,0,0,0,0,0,0,0,0,0,0,0,0,0,0,0,0,0,0,0,0,0,0,0,0,0,0,0,0,0,0,0,0,0,0,0,0,0,0,0,0,0,0,0,0,0,0,0,0,0,0,0,0,0,0],"id":10,"left_children":[1,3,5,7,9,11,13,15,17,19,21,23,25,27,-1,29,31,33,35,37,39,41,43,45,47,49,51,53,55,57,59,61,63,65,67,69,71,73,75,77,79,81,83,85,87,89,91,93,95,97,99,101,103,-1,105,-1,107,-1,-1,-1,-1,-1,-1,-1,-1,-1,-1,-1,-1,-1,-1,-1,-1,-1,-1,-1,-1,-1,-1,-1,-1,-1,-1,-1,-1,-1,-1,-1,-1,-1,-1,-1,-1,-1,-1,-1,-1,-1,-1,-1,-1,-1,-1,-1,-1,-1,-1,-1,-1],"loss_changes":[4.898574E6,8.832935E5,8.495755E5,7.4622625E4,1.2506109E5,3.0966975E5,1.15398375E5,5.245375E3,5.9476875E3,1.7305158E4,1.4162156E4,3.66E4,5.17165E4,6.9155625E4,0E0,4.73875E2,1.4955469E3,2.9933047E3,2.900626E3,7.0181865E3,7.681033E3,7.901328E3,4.8632344E3,6.7127812E3,8.6641875E3,6.951625E3,5.864625E3,9.6090625E2,5.98575E3,1.779375E2,1.8489062E2,5.019922E2,9.9796875E1,1.0264492E3,4.0514453E2,7.034072E2,1.9494727E2,3.098562E3,1.1470635E3,2.7699297E3,8.486821E2,7.8185156E2,2.1225469E3,4.2036875E3,2.0247969E3,2.5394688E3,3.4036094E3,5.0443125E3,4.5127188E3,1.121625E3,3.2633125E3,7.282875E3,6.8701855E2,0E0,1.1090625E2,0E0,2.375875E3,0E0,0E0,0E0,0E0,0E0,0E0,0E0,0E0,0E0,0E0,0E0,0E0,0E0,0E0,0E0,0E0,0E0,0E0,0E0,0E0,0E0,0E0,0E0,0E0,0E0,0E0,0E0,0E0,0E0,0E0,0E0,0E0,0E0,0E0,0E0,0E0,0E0,0E0,0E0,0E0,0E0,0E0,0E0,0E0,0E0,0E0,0E0,0E0,0E0,0E0,0E0,0E0],"parents":[2147483647,0,0,1,1,2,2,3,3,4,4,5,5,6,6,7,7,8,8,9,9,10,10,11,11,12,12,13,13,15,15,16,16,17,17,18,18,19,19,20,20,21,21,22,22,23,23,24,24,25,25,26,26,27,27,28,28,29,29,30,30,31,31,32,32,33,33,34,34,35,35,36,36,37,37,38,38,39,39,40,40,41,41,42,42,43,43,44,44,45,45,46,46,47,47,48,48,49,49,50,50,51,51,52,52,54,54,56,56],"right_children":[2,4,6,8,10,12,14,16,18,20,22,24,26,28,-1,30,32,34,36,38,40,42,44,46,48,50,52,54,56,58,60,62,64,66,68,70,72,74,76,78,80,82,84,86,88,90,92,94,96,98,100,102,104,-1,106,-1,108,-1,-1,-1,-1,-1,-1,-1,-1,-1,-1,-1,-1,-1,-1,-1,-1,-1,-1,-1,-1,-1,-1,-1,-1,-1,-1,-1,-1,-1,-1,-1,-1,-1,-1,-1,-1,-1,-1,-1,-1,-1,-1,-1,-1,-1,-1,-1,-1,-1,-1,-1,-1],"split_conditions":[5.8E1,1.7E1,1.73E2,7E0,3.6E1,9.7E1,1.18E2,3E0,1.3E1,2.8E1,4.6E1,7.1E1,1.25E2,2.14E2,1.9454788E1,2E0,1E0,2E0,4E0,3E0,4E0,3E0,8E0,7E0,9E0,7E0,5.8E1,-7.3E1,5E0,-4E0,1E0,6E0,4E0,-3E0,4E0,9E0,8E0,2.2E1,9E0,9E0,6E0,8E0,7E0,9E0,8E0,3E0,4E0,1.9E1,4E0,1.12E2,5E0,9E0,2.2E1,1.2678822E0,3.2E1,4.26868E0,1.2E1,-5.300495E-1,-6.420466E-1,-5.6217825E-1,-6.2253183E-1,-5.032109E-1,-3.9500222E-1,-5.7017344E-1,-6.465285E-1,-2.3335738E-1,-3.4292457E-1,-3.9588463E-1,-4.9288663E-1,-8.149184E-2,-1.9060168E-1,-3.009071E-1,-4.1199216E-1,1.726507E-2,1.765513E-1,7.279276E-2,-1.2217259E-1,4.8037815E-1,2.6078418E-1,2.0368014E-1,5.936378E-2,8.045414E-1,6.340599E-1,5.0662595E-1,2.6859602E-1,1.0892601E0,7.5568753E-1,7.7385736E-1,4.5286322E-1,1.7279059E0,1.3352251E0,1.2799714E0,8.9540905E-1,2.1505182E0,1.6633713E0,1.8107046E0,1.3170227E0,2.6935282E0,3.2171185E0,2.6363266E0,2.1464753E0,3.9508405E0,3.2180345E0,1.9399174E0,2.4531041E-1,5.276498E0,3.767819E0,8.143746E0,3.846526E0],"split_indices":[5,5,5,5,5,5,4,5,5,5,5,5,5,5,0,5,4,4,4,4,4,4,4,1,1,1,4,4,2,4,4,5,4,4,4,1,1,5,2,1,1,1,1,1,1,4,4,4,4,5,4,1,2,0,4,0,1,0,0,0,0,0,0,0,0,0,0,0,0,0,0,0,0,0,0,0,0,0,0,0,0,0,0,0,0,0,0,0,0,0,0,0,0,0,0,0,0,0,0,0,0,0,0,0,0,0,0,0,0],"split_type":[0,0,0,0,0,0,0,0,0,0,0,0,0,0,0,0,0,0,0,0,0,0,0,0,0,0,0,0,0,0,0,0,0,0,0,0,0,0,0,0,0,0,0,0,0,0,0,0,0,0,0,0,0,0,0,0,0,0,0,0,0,0,0,0,0,0,0,0,0,0,0,0,0,0,0,0,0,0,0,0,0,0,0,0,0,0,0,0,0,0,0,0,0,0,0,0,0,0,0,0,0,0,0,0,0,0,0,0,0],"sum_hessian":[1.6941E4,1.5047E4,1.894E3,1.0682E4,4.365E3,1.788E3,1.06E2,8.443E3,2.239E3,2.974E3,1.391E3,1.141E3,6.47E2,1.05E2,1E0,6.816E3,1.627E3,1.421E3,8.18E2,1.937E3,1.037E3,7.29E2,6.62E2,5.03E2,6.38E2,4.04E2,2.43E2,5E1,5.5E1,5.913E3,9.03E2,7.88E2,8.39E2,9.04E2,5.17E2,6.1E2,2.08E2,1.221E3,7.16E2,6.08E2,4.29E2,3.43E2,3.86E2,4.26E2,2.36E2,2.24E2,2.79E2,3.95E2,2.43E2,1.68E2,2.36E2,2.36E2,7E0,1E0,4.9E1,5E0,5E1,6.8E1,5.845E3,4.09E2,4.94E2,6.3E2,1.58E2,7.23E2,1.16E2,3.82E2,5.22E2,2.39E2,2.78E2,3.54E2,2.56E2,1.31E2,7.7E1,6.02E2,6.19E2,8.5E1,6.31E2,3.63E2,2.45E2,1.67E2,2.62E2,1.47E2,1.96E2,1.75E2,2.11E2,2.56E2,1.7E2,1.56E2,8E1,1.03E2,1.21E2,1.73E2,1.06E2,3.04E2,9.1E1,1.53E2,9E1,9.8E1,7E1,1.33E2,1.03E2,1.33E2,1.03E2,6E0,1E0,3.5E1,1.4E1,4.7E1,3E0],"tree_param":{"num_deleted":"0","num_feature":"6","num_nodes":"109","size_leaf_vector":"1"}},{"base_weights":[5.9057724E-2,-5.573647E0,4.709678E1,-1.0564252E1,5.5423994E0,4.1937027E1,1.3220125E2,-1.1814853E1,-6.1887946E0,1.7974294E0,1.3513957E1,3.3351818E1,5.9337936E1,1.2605875E2,1.896842E1,-1.2199853E1,-1.0793248E1,-7.6519685E0,-4.4590244E0,-4.3298554E-1,4.417626E0,9.852915E0,1.6921038E1,2.7649456E1,3.7614628E1,5.3414467E1,7.3302345E1,9.643218E1,1.5379448E2,-1.2689187E1,-1.2034311E1,-9.973399E0,-1.1487957E1,-7.0788074E0,-1.0607577E1,-3.3451035E0,-6.8073683E0,9.3876195E-1,-2.8872247E0,6.4296985E0,1.2886058E0,1.2665066E1,6.077727E0,1.9214294E1,1.3173234E1,3.071365E1,2.188836E1,4.2312195E1,3.4171295E1,5.7002903E1,4.346846E1,3.9494972E0,6.465974E1,1.2361851E0,4.8676724E0,7.889877E0,4.270345E0,-1.393429E-1,-6.3470167E-1,-4.439555E-1,-6.0269344E-1,-2.747006E-1,-5.032857E-1,-5.821735E-1,-5.252025E-1,-2.6640025E-1,-3.8108072E-1,-5.559084E-1,-4.3931934E-1,-2.0613737E-1,-1.08221054E-1,-2.9149303E-1,-3.9287508E-1,-4.8503067E-2,9.79691E-2,-1.06379926E-1,-2.1258934E-1,2.5835678E-1,4.6144357E-1,-1.6043775E-2,1.1361625E-1,7.675584E-1,5.4907054E-1,4.3734208E-1,1.9062398E-1,1.0685879E0,8.080336E-1,7.583657E-1,4.352758E-1,1.6603698E0,1.2925797E0,1.2276776E0,8.252498E-1,2.3079941E0,1.5274721E0,1.5265037E0,1.9002446E0,3.3578396E0,2.6733432E0,2.4661036E0,1.5032989E0,3.387694E0,2.4295678E0],"categories":[],"categories_nodes":[],"categories_segments":[],"categories_sizes":[],"default_left":[0,0,0,0,0,0,0,0,0,0,0,0,0,0,0,0,0,0,0,0,0,0,0,0,0,0,0,0,0,0,0,0,0,0,0,0,0,0,0,0,0,0,0,0,0,0,0,0,0,0,0,0,0,0,0,0,0,0,0,0,0,0,0,0,0,0,0,0,0,0,0,0,0,0,0,0,0,0,0,0,0,0,0,0,0,0,0,0,0,0,0,0,0,0,0,0,0,0,0,0,0,0,0],"id":11,"left_children":[1,3,5,7,9,11,13,15,17,19,21,23,25,27,-1,29,31,33,35,37,39,41,43,45,47,49,51,53,55,57,59,61,63,65,67,69,71,73,75,77,79,81,83,85,87,89,91,93,95,97,99,-1,101,-1,-1,-1,-1,-1,-1,-1,-1,-1,-1,-1,-1,-1,-1,-1,-1,-1,-1,-1,-1,-1,-1,-1,-1,-1,-1,-1,-1,-1,-1,-1,-1,-1,-1,-1,-1,-1,-1,-1,-1,-1,-1,-1,-1,-1,-1,-1,-1,-1,-1],"loss_changes":[4.4842695E6,8.385752E5,7.892595E5,5.701025E4,1.3980828E5,2.531795E5,1.085545E5,3.058875E3,5.8402266E3,1.8632984E4,1.8506062E4,2.6817125E4,4.265475E4,6.8984125E4,0E0,3.24E2,1.1549531E3,2.0526328E3,2.765746E3,5.803356E3,9.221379E3,7.609297E3,6.399172E3,8.048375E3,9.1165625E3,1.176275E4,3.0033125E3,1.028375E3,4.8475E2,3.5109375E1,1.655E2,3.7060938E2,6.1296875E1,9.620078E2,9.0146484E1,6.5673584E2,3.052588E2,2.1565913E3,6.315459E2,3.1047578E3,9.1111383E2,1.7037188E3,1.8470225E3,2.8037188E3,2.5139297E3,3.0214375E3,2.105586E3,1.0900406E4,4.1720312E3,6.821625E3,7.1468906E3,0E0,2.376875E2,0E0,0E0,0E0,0E0,0E0,0E0,0E0,0E0,0E0,0E0,0E0,0E0,0E0,0E0,0E0,0E0,0E0,0E0,0E0,0E0,0E0,0E0,0E0,0E0,0E0,0E0,0E0,0E0,0E0,0E0,0E0,0E0,0E0,0E0,0E0,0E0,0E0,0E0,0E0,0E0,0E0,0E0,0E0,0E0,0E0,0E0,0E0,0E0,0E0,0E0],"parents":[2147483647,0,0,1,1,2,2,3,3,4,4,5,5,6,6,7,7,8,8,9,9,10,10,11,11,12,12,13,13,15,15,16,16,17,17,18,18,19,19,20,20,21,21,22,22,23,23,24,24,25,25,26,26,27,27,28,28,29,29,30,30,31,31,32,32,33,33,34,34,35,35,36,36,37,37,38,38,39,39,40,40,41,41,42,42,43,43,44,44,45,45,46,46,47,47,48,48,49,49,50,50,52,52],"right_children":[2,4,6,8,10,12,14,16,18,20,22,24,26,28,-1,30,32,34,36,38,40,42,44,46,48,50,52,54,56,58,60,62,64,66,68,70,72,74,76,78,80,82,84,86,88,90,92,94,96,98,100,-1,102,-1,-1,-1,-1,-1,-1,-1,-1,-1,-1,-1,-1,-1,-1,-1,-1,-1,-1,-1,-1,-1,-1,-1,-1,-1,-1,-1,-1,-1,-1,-1,-1,-1,-1,-1,-1,-1,-1,-1,-1,-1,-1,-1,-1,-1,-1,-1,-1,-1,-1],"split_conditions":[6.1E1,1.6E1,1.73E2,6E0,3.6E1,1.02E2,9.4E1,2E0,1.1E1,2.5E1,4.6E1,7.5E1,1.35E2,2.14E2,1.896842E1,5E0,1E0,4E0,3E0,3E0,4E0,5E0,6E0,9E0,7E0,1.7E1,9E0,-7.3E1,1.2E1,-6E0,7E0,-9E0,5E0,-4E0,1E1,1.4E1,6E0,1.9E1,9E0,3.2E1,2.9E1,-6E0,7E0,9E0,9E0,8E0,4E0,1.9E1,8.7E1,5E0,9E0,3.9494972E0,2.6E1,1.2361851E0,4.8676724E0,7.889877E0,4.270345E0,-1.393429E-1,-6.3470167E-1,-4.439555E-1,-6.0269344E-1,-2.747006E-1,-5.032857E-1,-5.821735E-1,-5.252025E-1,-2.6640025E-1,-3.8108072E-1,-5.559084E-1,-4.3931934E-1,-2.0613737E-1,-1.08221054E-1,-2.9149303E-1,-3.9287508E-1,-4.8503067E-2,9.79691E-2,-1.06379926E-1,-2.1258934E-1,2.5835678E-1,4.6144357E-1,-1.6043775E-2,1.1361625E-1,7.675584E-1,5.4907054E-1,4.3734208E-1,1.9062398E-1,1.0685879E0,8.080336E-1,7.583657E-1,4.352758E-1,1.6603698E0,1.2925797E0,1.2276776E0,8.252498E-1,2.3079941E0,1.5274721E0,1.5265037E0,1.9002446E0,3.3578396E0,2.6733432E0,2.4661036E0,1.5032989E0,3.387694E0,2.4295678E0],"split_indices":[5,5,5,5,5,5,4,5,5,5,5,5,5,5,0,3,4,4,4,4,4,4,4,1,1,4,1,4,1,4,3,4,5,4,5,5,4,5,1,5,5,4,1,1,1,4,4,4,5,1,1,0,4,0,0,0,0,0,0,0,0,0,0,0,0,0,0,0,0,0,0,0,0,0,0,0,0,0,0,0,0,0,0,0,0,0,0,0,0,0,0,0,0,0,0,0,0,0,0,0,0,0,0],"split_type":[0,0,0,0,0,0,0,0,0,0,0,0,0,0,0,0,0,0,0,0,0,0,0,0,0,0,0,0,0,0,0,0,0,0,0,0,0,0,0,0,0,0,0,0,0,0,0,0,0,0,0,0,0,0,0,0,0,0,0,0,0,0,0,0,0,0,0,0,0,0,0,0,0,0,0,0,0,0,0,0,0,0,0,0,0,0,0,0,0,0,0,0,0,0,0,0,0,0,0,0,0,0,0],"sum_hessian":[1.6923E4,1.5114E4,1.809E3,1.0431E4,4.683E3,1.707E3,1.02E2,8.111E3,2.32E3,3.187E3,1.496E3,1.145E3,5.62E2,1.01E2,1E0,5.883E3,2.228E3,1.255E3,1.065E3,1.722E3,1.465E3,7.23E2,7.73E2,4.93E2,6.52E2,3.98E2,1.64E2,5.1E1,5E1,1.468E3,4.415E3,1.029E3,1.199E3,1.054E3,2.01E2,7.24E2,3.41E2,1.105E3,6.17E2,8.91E2,5.74E2,4.13E2,3.1E2,4.77E2,2.96E2,3.19E2,1.74E2,2.71E2,3.81E2,2.89E2,1.09E2,9.4E1,7E1,1E0,5E1,4.6E1,4E0,1E0,1.467E3,3E1,4.385E3,2.2E1,1.007E3,1.026E3,1.73E2,2.52E2,8.02E2,1.53E2,4.8E1,4.35E2,2.89E2,1.8E2,1.61E2,3.85E2,7.2E2,3.98E2,2.19E2,6.16E2,2.75E2,2.18E2,3.56E2,1.56E2,2.57E2,1.41E2,1.69E2,2.76E2,2.01E2,2.03E2,9.3E1,2.07E2,1.12E2,1.14E2,6E1,2.02E2,6.9E1,2E2,1.81E2,7E1,2.19E2,7.4E1,3.5E1,5.6E1,1.4E1],"tree_param":{"num_deleted":"0","num_feature":"6","num_nodes":"103","size_leaf_vector":"1"}},{"base_weights":[5.71073E-2,-5.587222E0,4.2205524E1,-9.656991E0,5.786694E0,3.594089E1,9.715897E1,-1.1134249E1,-4.8929954E0,2.563648E0,1.21508255E1,2.7226366E1,4.740952E1,7.7779854E1,1.6065092E2,-1.1420838E1,-9.132218E0,-6.436215E0,-3.123322E0,4.3215404E0,-8.737826E-2,1.5359756E1,9.340026E0,2.4191116E1,3.3191246E1,4.3097214E1,5.794867E1,4.5277658E0,6.995479E1,7.403071E0,1.8494207E1,-1.1596559E1,-1.0704891E1,-8.102782E0,-1.0191662E1,-5.725217E0,-9.142307E0,-2.3188095E0,-5.1759253E0,1.5466163E0,6.1282673E0,-1.5196202E0,2.2842004E0,1.3998759E1,2.101959E1,6.5975466E0,1.1492522E1,2.6978144E1,1.958848E1,3.7483814E1,2.9209898E1,4.8269634E1,3.9566853E1,3.575892E0,5.391873E1,3.5995548E0,5.0319496E1,-6.024136E-1,-5.7219756E-1,-5.05278E-1,-5.5862653E-1,-4.3070593E-1,-3.423511E-1,-4.8878065E-1,-5.7999915E-1,-3.3289146E-1,-2.242354E-1,-3.3260328E-1,-4.8303112E-1,-7.6210134E-2,-1.7064582E-1,-2.2272551E-1,-3.5197598E-1,1.5982515E-1,1.7576426E-2,2.3769216E-1,3.9696172E-1,-3.9089646E-2,-1.4567311E-1,1.5131257E-1,-9.9650435E-2,7.872267E-1,6.256102E-1,1.3633149E0,8.733293E-1,4.0069738E-1,1.2033923E-1,7.023451E-1,4.478562E-1,1.5353231E0,1.1304201E0,1.0308911E0,5.6265706E-1,2.024964E0,1.2470155E0,1.5300915E0,1.1821336E0,2.5220845E0,1.6664944E0,2.0424201E0,1.5185885E0,2.958668E0,2.12478E0,2.6162384E0,6.564056E-1],"categories":[],"categories_nodes":[],"categories_segments":[],"categories_sizes":[],"default_left":[0,0,0,0,0,0,0,0,0,0,0,0,0,0,0,0,0,0,0,0,0,0,0,0,0,0,0,0,0,0,0,0,0,0,0,0,0,0,0,0,0,0,0,0,0,0,0,0,0,0,0,0,0,0,0,0,0,0,0,0,0,0,0,0,0,0,0,0,0,0,0,0,0,0,0,0,0,0,0,0,0,0,0,0,0,0,0,0,0,0,0,0,0,0,0,0,0,0,0,0,0,0,0,0,0],"id":12,"left_children":[1,3,5,7,9,11,13,15,17,19,21,23,25,27,29,31,33,35,37,39,41,43,45,47,49,51,53,-1,55,-1,-1,57,59,61,63,65,67,69,71,73,75,77,79,81,83,85,87,89,91,93,95,97,99,-1,101,-1,103,-1,-1,-1,-1,-1,-1,-1,-1,-1,-1,-1,-1,-1,-1,-1,-1,-1,-1,-1,-1,-1,-1,-1,-1,-1,-1,-1,-1,-1,-1,-1,-1,-1,-1,-1,-1,-1,-1,-1,-1,-1,-1,-1,-1,-1,-1,-1,-1],"loss_changes":[4.046907E6,6.944866E5,6.8813275E5,7.770456E4,8.107286E4,1.791075E5,2.3974038E5,4.7341875E3,7.126914E3,1.2238113E4,1.1843656E4,1.7808938E4,3.2861125E4,9.56025E3,6.9039125E4,8.035E2,1.0745703E3,2.6355234E3,2.004291E3,7.9068887E3,3.563186E3,4.473922E3,4.121336E3,8.258469E3,4.784125E3,8.2430625E3,8.338125E3,0E0,4.9575E2,0E0,0E0,2.6925E2,2.9796875E2,2.896875E2,1.9069922E2,1.2531562E3,3.087578E2,7.589873E2,4.2978027E2,1.2292539E3,2.3417734E3,6.703054E2,1.2597246E3,1.1057812E3,2.142711E3,1.8504883E3,2.4452969E3,6.2135E3,2.0159219E3,5.1175312E3,6.9459375E2,5.4901875E3,2.71875E3,0E0,8.0497188E3,0E0,2.8259766E2,0E0,0E0,0E0,0E0,0E0,0E0,0E0,0E0,0E0,0E0,0E0,0E0,0E0,0E0,0E0,0E0,0E0,0E0,0E0,0E0,0E0,0E0,0E0,0E0,0E0,0E0,0E0,0E0,0E0,0E0,0E0,0E0,0E0,0E0,0E0,0E0,0E0,0E0,0E0,0E0,0E0,0E0,0E0,0E0,0E0,0E0,0E0,0E0],"parents":[2147483647,0,0,1,1,2,2,3,3,4,4,5,5,6,6,7,7,8,8,9,9,10,10,11,11,12,12,13,13,14,14,15,15,16,16,17,17,18,18,19,19,20,20,21,21,22,22,23,23,24,24,25,25,26,26,28,28,31,31,32,32,33,33,34,34,35,35,36,36,37,37,38,38,39,39,40,40,41,41,42,42,43,43,44,44,45,45,46,46,47,47,48,48,49,49,50,50,51,51,52,52,54,54,56,56],"right_children":[2,4,6,8,10,12,14,16,18,20,22,24,26,28,30,32,34,36,38,40,42,44,46,48,50,52,54,-1,56,-1,-1,58,60,62,64,66,68,70,72,74,76,78,80,82,84,86,88,90,92,94,96,98,100,-1,102,-1,104,-1,-1,-1,-1,-1,-1,-1,-1,-1,-1,-1,-1,-1,-1,-1,-1,-1,-1,-1,-1,-1,-1,-1,-1,-1,-1,-1,-1,-1,-1,-1,-1,-1,-1,-1,-1,-1,-1,-1,-1,-1,-1,-1,-1,-1,-1,-1,-1],"split_conditions":[5.6E1,1.9E1,1.44E2,7E0,3.6E1,8.7E1,2.14E2,4E0,1.3E1,3E0,2E0,7.5E1,1.2E2,7E0,1.18E2,2E0,1E0,4E0,4E0,2.4E1,2.9E1,5.1E1,4.3E1,9E0,7E0,7E0,5E0,4.5277658E0,3.2E1,7.403071E0,1.8494207E1,5E0,1E0,6E0,4E0,1E1,4E0,9E0,8E0,7E0,3E1,9E0,1.5E1,8E0,6E0,1.4E1,7E0,4E0,1.3E1,2.2E1,1.3E1,2.5E1,2.1E1,3.575892E0,1.7E1,3.5995548E0,1.1E1,-6.024136E-1,-5.7219756E-1,-5.05278E-1,-5.5862653E-1,-4.3070593E-1,-3.423511E-1,-4.8878065E-1,-5.7999915E-1,-3.3289146E-1,-2.242354E-1,-3.3260328E-1,-4.8303112E-1,-7.6210134E-2,-1.7064582E-1,-2.2272551E-1,-3.5197598E-1,1.5982515E-1,1.7576426E-2,2.3769216E-1,3.9696172E-1,-3.9089646E-2,-1.4567311E-1,1.5131257E-1,-9.9650435E-2,7.872267E-1,6.256102E-1,1.3633149E0,8.733293E-1,4.0069738E-1,1.2033923E-1,7.023451E-1,4.478562E-1,1.5353231E0,1.1304201E0,1.0308911E0,5.6265706E-1,2.024964E0,1.2470155E0,1.5300915E0,1.1821336E0,2.5220845E0,1.6664944E0,2.0424201E0,1.5185885E0,2.958668E0,2.12478E0,2.6162384E0,6.564056E-1],"split_indices":[5,5,5,5,5,5,5,5,5,4,4,5,5,1,4,5,4,4,4,5,5,5,5,1,1,1,1,0,4,0,0,3,4,5,4,5,3,1,4,1,5,4,4,1,1,4,1,4,4,4,4,4,4,0,4,0,1,0,0,0,0,0,0,0,0,0,0,0,0,0,0,0,0,0,0,0,0,0,0,0,0,0,0,0,0,0,0,0,0,0,0,0,0,0,0,0,0,0,0,0,0,0,0,0,0],"split_type":[0,0,0,0,0,0,0,0,0,0,0,0,0,0,0,0,0,0,0,0,0,0,0,0,0,0,0,0,0,0,0,0,0,0,0,0,0,0,0,0,0,0,0,0,0,0,0,0,0,0,0,0,0,0,0,0,0,0,0,0,0,0,0,0,0,0,0,0,0,0,0,0,0,0,0,0,0,0,0,0,0,0,0,0,0,0,0,0,0,0,0,0,0,0,0,0,0,0,0,0,0,0,0,0,0],"sum_hessian":[1.7009E4,1.5001E4,2.008E3,1.1048E4,3.953E3,1.804E3,2.04E2,8.432E3,2.616E3,2.625E3,1.328E3,1.027E3,7.77E2,1.58E2,4.6E1,7.372E3,1.06E3,1.396E3,1.22E3,1.578E3,1.047E3,6.18E2,7.1E2,6.84E2,3.43E2,5.55E2,2.22E2,5.6E1,1.02E2,4.5E1,1E0,5.907E3,1.465E3,5.42E2,5.18E2,1.108E3,2.88E2,8.78E2,3.42E2,6.23E2,9.55E2,6.53E2,3.94E2,5.01E2,1.17E2,3.14E2,3.96E2,4.23E2,2.61E2,1.61E2,1.82E2,2.2E2,3.35E2,4.7E1,1.75E2,9E1,1.2E1,1.472E3,4.435E3,6.52E2,8.13E2,3.81E2,1.61E2,4.06E2,1.12E2,6.3E2,4.78E2,5.2E1,2.36E2,5.1E2,3.68E2,2.49E2,9.3E1,2.61E2,3.62E2,5.45E2,4.1E2,4.28E2,2.25E2,3.36E2,5.8E1,2.26E2,2.75E2,4E1,7.7E1,2.34E2,8E1,1.95E2,2.01E2,2.25E2,1.98E2,2.31E2,3E1,1.28E2,3.3E1,1.42E2,4E1,1.9E2,3E1,2.91E2,4.4E1,1.17E2,5.8E1,1.1E1,1E0],"tree_param":{"num_deleted":"0","num_feature":"6","num_nodes":"105","size_leaf_vector":"1"}},{"base_weights":[-3.1165186E-2,-5.4830256E0,3.8720352E1,-9.628649E0,3.87133E0,3.1502691E1,8.116577E1,-1.0652559E1,-5.778216E0,4.949875E-1,9.704906E0,2.4680008E1,4.3296005E1,6.777291E1,1.3950592E2,-1.0909912E1,-9.349213E0,-4.793347E0,-7.438898E0,-1.1082997E0,2.9029393E0,1.1819235E1,6.3096156E0,1.9731503E1,2.8408638E1,3.966923E1,4.8730038E1,6.3328957E1,8.309614E1,1.2892831E2,1.8031853E1,-1.111537E1,-1.0598335E1,-8.222123E0,-9.935889E0,-6.1793523E0,-3.3860877E0,-8.947361E0,-6.5510764E0,1.06629044E-1,-3.3673272E0,6.2607703E0,1.5595465E0,1.0070441E1,1.5826606E1,3.4106772E0,8.845754E0,2.1799734E1,1.6364807E1,2.9953167E1,2.2362343E1,4.0780617E1,2.8647219E1,5.1678154E1,4.0195896E1,6.598175E1,4.627391E1,1.1152916E0,4.191811E0,1.1181987E2,1.670962E2,-4.004577E-1,-5.561652E-1,-4.9833304E-1,-5.411304E-1,-3.4013265E-1,-4.3446812E-1,-4.6661302E-1,-5.1901215E-1,-2.497338E-1,-3.3371386E-1,-1.1896384E-1,-2.0101011E-1,-4.001542E-1,-5.074169E-1,-3.0996165E-1,-4.6285334E-1,-4.7400434E-2,7.455801E-2,-2.1024744E-1,-9.4033085E-2,2.511367E-1,4.2920923E-1,1.4049257E-1,-1.2449313E-2,6.115201E-1,4.5328292E-1,9.982463E-1,7.1600187E-1,2.5572604E-1,9.817093E-2,4.890767E-1,1.2752682E-1,9.4664717E-1,1.2138499E0,7.259044E-1,1.0140842E0,1.3316907E0,1.637057E0,1.1500827E0,5.392609E-1,1.9244395E-1,2.0436258E0,1.8967526E0,1.1093519E0,2.6355498E0,1.5086516E0,1.4736959E0,2.093854E0,3.5515747E0,2.973801E0,2.3775718E0,9.462863E-1,3.5040548E0,5.8486385E0,2.5083263E0,9.061321E0],"categories":[],"categories_nodes":[],"categories_segments":[],"categories_sizes":[],"default_left":[0,0,0,0,0,0,0,0,0,0,0,0,0,0,0,0,0,0,0,0,0,0,0,0,0,0,0,0,0,0,0,0,0,0,0,0,0,0,0,0,0,0,0,0,0,0,0,0,0,0,0,0,0,0,0,0,0,0,0,0,0,0,0,0,0,0,0,0,0,0,0,0,0,0,0,0,0,0,0,0,0,0,0,0,0,0,0,0,0,0,0,0,0,0,0,0,0,0,0,0,0,0,0,0,0,0,0,0,0,0,0,0,0,0,0,0,0],"id":13,"left_children":[1,3,5,7,9,11,13,15,17,19,21,23,25,27,29,31,33,35,37,39,41,43,45,47,49,51,53,55,57,59,-1,61,63,65,67,69,71,73,75,77,79,81,83,85,87,89,91,93,95,97,99,101,103,105,107,109,111,-1,-1,113,115,-1,-1,-1,-1,-1,-1,-1,-1,-1,-1,-1,-1,-1,-1,-1,-1,-1,-1,-1,-1,-1,-1,-1,-1,-1,-1,-1,-1,-1,-1,-1,-1,-1,-1,-1,-1,-1,-1,-1,-1,-1,-1,-1,-1,-1,-1,-1,-1,-1,-1,-1,-1,-1,-1,-1,-1],"loss_changes":[3.6023295E6,5.7971525E5,6.4171125E5,4.0774875E4,9.0420234E4,1.4368262E5,2.2885438E5,2.6420625E3,3.5265703E3,1.1233814E4,1.2007281E4,2.0510688E4,1.103475E4,1.17615E4,8.4489625E4,3.191875E2,8.149453E2,2.6512207E3,1.0248359E3,4.7951016E3,5.2363975E3,7.1009688E3,4.733998E3,3.0830156E3,5.3909375E3,3.731625E3,4.439125E3,5.9050625E3,5.1446875E2,1.7229938E4,0E0,1.18125E1,2.794375E2,2.5260938E2,1.4104688E2,3.7063867E2,4.2584668E2,2.5559766E2,4.310332E2,1.6616368E3,7.5294727E2,9.118721E2,1.8820323E3,1.4604141E3,1.6655469E3,7.395923E2,2.0074277E3,1.6922188E3,1.0943555E3,3.8847188E3,7.585156E2,1.067875E3,1.5583789E3,2.6075E3,4.5539062E1,1.327375E3,1.481914E2,0E0,0E0,6.205625E2,1.5692125E4,0E0,0E0,0E0,0E0,0E0,0E0,0E0,0E0,0E0,0E0,0E0,0E0,0E0,0E0,0E0,0E0,0E0,0E0,0E0,0E0,0E0,0E0,0E0,0E0,0E0,0E0,0E0,0E0,0E0,0E0,0E0,0E0,0E0,0E0,0E0,0E0,0E0,0E0,0E0,0E0,0E0,0E0,0E0,0E0,0E0,0E0,0E0,0E0,0E0,0E0,0E0,0E0,0E0,0E0,0E0,0E0],"parents":[2147483647,0,0,1,1,2,2,3,3,4,4,5,5,6,6,7,7,8,8,9,9,10,10,11,11,12,12,13,13,14,14,15,15,16,16,17,17,18,18,19,19,20,20,21,21,22,22,23,23,24,24,25,25,26,26,27,27,28,28,29,29,31,31,32,32,33,33,34,34,35,35,36,36,37,37,38,38,39,39,40,40,41,41,42,42,43,43,44,44,45,45,46,46,47,47,48,48,49,49,50,50,51,51,52,52,53,53,54,54,55,55,56,56,59,59,60,60],"right_children":[2,4,6,8,10,12,14,16,18,20,22,24,26,28,30,32,34,36,38,40,42,44,46,48,50,52,54,56,58,60,-1,62,64,66,68,70,72,74,76,78,80,82,84,86,88,90,92,94,96,98,100,102,104,106,108,110,112,-1,-1,114,116,-1,-1,-1,-1,-1,-1,-1,-1,-1,-1,-1,-1,-1,-1,-1,-1,-1,-1,-1,-1,-1,-1,-1,-1,-1,-1,-1,-1,-1,-1,-1,-1,-1,-1,-1,-1,-1,-1,-1,-1,-1,-1,-1,-1,-1,-1,-1,-1,-1,-1,-1,-1,-1,-1,-1,-1],"split_conditions":[5.4E1,1.5E1,1.3E2,6E0,3.2E1,8.7E1,2.14E2,3E0,2E0,2.4E1,6E0,6.6E1,1.09E2,1.73E2,1.88E2,1E0,0E0,1E1,9E0,3E0,-4E0,4.5E1,4E1,6E0,1.5E1,2.7E1,1.7E1,3.8E1,-7.3E1,3.5E1,1.8031853E1,-6E0,0E0,-4E0,2E0,-4E0,-4E0,4E0,8E0,2E1,2.1E1,2.9E1,6E0,-7E0,1.1E1,1E1,4E1,5.9E1,6.2E1,7.5E1,4E1,-6.2E1,2.023E3,4.5E1,6E0,1E1,5.5E1,1.1152916E0,4.191811E0,5E0,-6E1,-4.004577E-1,-5.561652E-1,-4.9833304E-1,-5.411304E-1,-3.4013265E-1,-4.3446812E-1,-4.6661302E-1,-5.1901215E-1,-2.497338E-1,-3.3371386E-1,-1.1896384E-1,-2.0101011E-1,-4.001542E-1,-5.074169E-1,-3.0996165E-1,-4.6285334E-1,-4.7400434E-2,7.455801E-2,-2.1024744E-1,-9.4033085E-2,2.511367E-1,4.2920923E-1,1.4049257E-1,-1.2449313E-2,6.115201E-1,4.5328292E-1,9.982463E-1,7.1600187E-1,2.5572604E-1,9.817093E-2,4.890767E-1,1.2752682E-1,9.4664717E-1,1.2138499E0,7.259044E-1,1.0140842E0,1.3316907E0,1.637057E0,1.1500827E0,5.392609E-1,1.9244395E-1,2.0436258E0,1.8967526E0,1.1093519E0,2.6355498E0,1.5086516E0,1.4736959E0,2.093854E0,3.5515747E0,2.973801E0,2.3775718E0,9.462863E-1,3.5040548E0,5.8486385E0,2.5083263E0,9.061321E0],"split_indices":[5,5,5,5,5,5,5,5,4,5,4,5,5,5,4,5,4,5,5,4,4,5,5,4,4,4,4,2,4,2,0,4,4,4,4,4,4,4,4,5,5,5,4,4,2,4,2,5,5,5,4,4,0,2,2,4,4,0,0,2,4,0,0,0,0,0,0,0,0,0,0,0,0,0,0,0,0,0,0,0,0,0,0,0,0,0,0,0,0,0,0,0,0,0,0,0,0,0,0,0,0,0,0,0,0,0,0,0,0,0,0,0,0,0,0,0,0],"split_type":[0,0,0,0,0,0,0,0,0,0,0,0,0,0,0,0,0,0,0,0,0,0,0,0,0,0,0,0,0,0,0,0,0,0,0,0,0,0,0,0,0,0,0,0,0,0,0,0,0,0,0,0,0,0,0,0,0,0,0,0,0,0,0,0,0,0,0,0,0,0,0,0,0,0,0,0,0,0,0,0,0,0,0,0,0,0,0,0,0,0,0,0,0,0,0,0,0,0,0,0,0,0,0,0,0,0,0,0,0,0,0,0,0,0,0,0,0],"sum_hessian":[1.7049E4,1.4947E4,2.102E3,1.0357E4,4.59E3,1.798E3,3.04E2,8.18E3,2.177E3,2.908E3,1.682E3,1.141E3,6.57E2,2.49E2,5.5E1,6.825E3,1.355E3,1.369E3,8.08E2,1.746E3,1.162E3,1.035E3,6.47E2,4.93E2,6.48E2,3.99E2,2.58E2,1.97E2,5.2E1,5.4E1,1E0,4.092E3,2.733E3,4.69E2,8.86E2,6.88E2,6.81E2,2.96E2,5.12E2,1.136E3,6.1E2,3.31E2,8.31E2,7.23E2,3.12E2,3.03E2,3.44E2,3.02E2,1.91E2,5.13E2,1.35E2,3.6E2,3.9E1,1.88E2,7E1,1.68E2,2.9E1,1E0,5.1E1,4E1,1.4E1,1.3E1,4.079E3,7.28E2,2.005E3,1.2E2,3.49E2,3.85E2,5.01E2,2.06E2,4.82E2,2.65E2,4.16E2,1.7E2,1.26E2,4.56E2,5.6E1,6.45E2,4.91E2,3.89E2,2.21E2,2.18E2,1.13E2,4.91E2,3.4E2,2.26E2,4.97E2,8E1,2.32E2,1.38E2,1.65E2,2.99E2,4.5E1,1.44E2,1.58E2,1.33E2,5.8E1,2.39E2,2.74E2,1.27E2,8E0,1E0,3.59E2,1.4E1,2.5E1,1.78E2,1E1,1.2E1,5.8E1,8.9E1,7.9E1,2.7E1,2E0,6E0,3.4E1,2E0,1.2E1],"tree_param":{"num_deleted":"0","num_feature":"6","num_nodes":"117","size_leaf_vector":"1"}},{"base_weights":[-5.4028615E-2,-4.7977643E0,4.015167E1,-8.781532E0,5.2734265E0,3.6184143E1,1.1089393E2,-1.0025406E1,-4.4567366E0,1.9885244E0,1.1292648E1,2.9508005E1,5.3345463E1,1.04592354E2,1.7581059E1,-1.0274739E1,-8.253214E0,-5.6975284E0,-2.7571504E0,7.571018E-1,4.7137694E0,8.864737E0,1.4709198E1,2.5076773E1,3.6230904E1,2.332483E0,5.8822342E1,8.248401E1,1.24061104E2,-1.0439383E1,-9.598391E0,-7.3542776E0,-9.188773E0,-4.2542677E0,-6.940437E0,-1.9313658E0,-5.012084E0,1.9602885E0,-1.6768606E0,6.5046487E0,1.1829829E0,1.0810713E1,5.7071757E0,1.6549906E1,1.1442214E1,2.1598106E1,2.7058807E1,3.7838234E1,2.8424421E1,6.260288E1,4.9463875E1,1.0874093E0,8.3331566E1,8.4356E0,5.545656E0,-5.439938E-1,-5.145783E-1,-4.4971535E-1,-5.0372994E-1,-3.0422363E-1,-3.8725778E-1,-4.3993208E-1,-5.2500314E-1,-9.845084E-2,-2.3815833E-1,-3.107497E-1,-4.0455934E-1,-1.7079006E-1,-6.445672E-2,-2.193865E-1,-2.9369354E-1,2.9950399E-2,1.6839306E-1,-1.5475427E-1,-4.8935797E-2,4.518722E-1,2.7166873E-1,2.0685153E-1,3.91501E-3,4.84266E-1,6.189646E-1,2.0711784E-1,3.9076972E-1,9.1713184E-1,5.8721185E-1,4.6152368E-1,6.777658E-1,1.1779271E0,8.937462E-1,1.426175E0,1.0814981E0,1.6692177E0,2.0427577E0,1.3229141E0,1.9801676E0,2.6835477E0,3.2425675E0,2.5017931E0,9.1474336E-1,4.41151E0,2.986203E0],"categories":[],"categories_nodes":[],"categories_segments":[],"categories_sizes":[],"default_left":[0,0,0,0,0,0,0,0,0,0,0,0,0,0,0,0,0,0,0,0,0,0,0,0,0,0,0,0,0,0,0,0,0,0,0,0,0,0,0,0,0,0,0,0,0,0,0,0,0,0,0,0,0,0,0,0,0,0,0,0,0,0,0,0,0,0,0,0,0,0,0,0,0,0,0,0,0,0,0,0,0,0,0,0,0,0,0,0,0,0,0,0,0,0,0,0,0,0,0,0,0],"id":14,"left_children":[1,3,5,7,9,11,13,15,17,19,21,23,25,27,-1,29,31,33,35,37,39,41,43,45,47,-1,49,51,53,55,57,59,61,63,65,67,69,71,73,75,77,79,81,83,85,87,89,91,93,95,97,-1,99,-1,-1,-1,-1,-1,-1,-1,-1,-1,-1,-1,-1,-1,-1,-1,-1,-1,-1,-1,-1,-1,-1,-1,-1,-1,-1,-1,-1,-1,-1,-1,-1,-1,-1,-1,-1,-1,-1,-1,-1,-1,-1,-1,-1,-1,-1,-1,-1],"loss_changes":[3.2493872E6,6.114546E5,5.006355E5,5.8699438E4,8.5394984E4,1.9365525E5,1.07334375E5,3.66225E3,5.131953E3,9.379605E3,1.2519594E4,3.570425E4,1.4711875E4,3.0226625E4,0E0,7.271875E2,8.163203E2,2.499789E3,1.9119956E3,5.6465283E3,5.4935E3,5.4315234E3,3.6112031E3,4.5453438E3,5.0225625E3,0E0,6.0314375E3,6.07125E2,9.4669375E3,2.763125E2,3.3139062E2,2.2139648E2,1.6902734E2,7.523613E2,5.808242E2,7.172832E2,1.22731445E2,2.469753E3,6.2867114E2,1.5164824E3,9.59082E2,8.5453125E2,1.0991758E3,3.2479219E3,9.544883E2,1.5861328E3,3.12025E3,4.010875E3,8.643672E2,1.34375E2,4.9304688E2,0E0,5.01875E1,0E0,0E0,0E0,0E0,0E0,0E0,0E0,0E0,0E0,0E0,0E0,0E0,0E0,0E0,0E0,0E0,0E0,0E0,0E0,0E0,0E0,0E0,0E0,0E0,0E0,0E0,0E0,0E0,0E0,0E0,0E0,0E0,0E0,0E0,0E0,0E0,0E0,0E0,0E0,0E0,0E0,0E0,0E0,0E0,0E0,0E0,0E0,0E0],"parents":[2147483647,0,0,1,1,2,2,3,3,4,4,5,5,6,6,7,7,8,8,9,9,10,10,11,11,12,12,13,13,15,15,16,16,17,17,18,18,19,19,20,20,21,21,22,22,23,23,24,24,26,26,27,27,28,28,29,29,30,30,31,31,32,32,33,33,34,34,35,35,36,36,37,37,38,38,39,39,40,40,41,41,42,42,43,43,44,44,45,45,46,46,47,47,48,48,49,49,50,50,52,52],"right_children":[2,4,6,8,10,12,14,16,18,20,22,24,26,28,-1,30,32,34,36,38,40,42,44,46,48,-1,50,52,54,56,58,60,62,64,66,68,70,72,74,76,78,80,82,84,86,88,90,92,94,96,98,-1,100,-1,-1,-1,-1,-1,-1,-1,-1,-1,-1,-1,-1,-1,-1,-1,-1,-1,-1,-1,-1,-1,-1,-1,-1,-1,-1,-1,-1,-1,-1,-1,-1,-1,-1,-1,-1,-1,-1,-1,-1,-1,-1,-1,-1,-1,-1,-1,-1],"split_conditions":[6.1E1,1.8E1,1.73E2,7E0,3.6E1,1.09E2,8.8E1,4E0,1.3E1,2.9E1,4.8E1,8.3E1,1.25E2,2.14E2,1.7581059E1,2E0,1E0,0E0,4E0,4E0,6E0,6E0,8E0,6.8E1,2E1,2.332483E0,2E1,-7.3E1,2.023E3,5E0,1E0,-4E0,4E0,-8E0,4E0,4E0,7E0,2.3E1,2.2E1,-7E0,2.023E3,4.2E1,8E0,1.5E1,8E0,1.3E1,1.5E1,9.2E1,4.3E1,2.023E3,7.7E1,1.0874093E0,2.8E1,8.4356E0,5.545656E0,-5.439938E-1,-5.145783E-1,-4.4971535E-1,-5.0372994E-1,-3.0422363E-1,-3.8725778E-1,-4.3993208E-1,-5.2500314E-1,-9.845084E-2,-2.3815833E-1,-3.107497E-1,-4.0455934E-1,-1.7079006E-1,-6.445672E-2,-2.193865E-1,-2.9369354E-1,2.9950399E-2,1.6839306E-1,-1.5475427E-1,-4.8935797E-2,4.518722E-1,2.7166873E-1,2.0685153E-1,3.91501E-3,4.84266E-1,6.189646E-1,2.0711784E-1,3.9076972E-1,9.1713184E-1,5.8721185E-1,4.6152368E-1,6.777658E-1,1.1779271E0,8.937462E-1,1.426175E0,1.0814981E0,1.6692177E0,2.0427577E0,1.3229141E0,1.9801676E0,2.6835477E0,3.2425675E0,2.5017931E0,9.1474336E-1,4.41151E0,2.986203E0],"split_indices":[5,5,5,5,5,5,4,5,5,5,5,5,5,5,0,5,4,4,4,4,4,4,4,5,4,0,4,4,0,3,4,4,4,4,4,3,4,5,5,4,0,5,3,3,3,3,4,5,4,0,4,0,4,0,0,0,0,0,0,0,0,0,0,0,0,0,0,0,0,0,0,0,0,0,0,0,0,0,0,0,0,0,0,0,0,0,0,0,0,0,0,0,0,0,0,0,0,0,0,0,0],"split_type":[0,0,0,0,0,0,0,0,0,0,0,0,0,0,0,0,0,0,0,0,0,0,0,0,0,0,0,0,0,0,0,0,0,0,0,0,0,0,0,0,0,0,0,0,0,0,0,0,0,0,0,0,0,0,0,0,0,0,0,0,0,0,0,0,0,0,0,0,0,0,0,0,0,0,0,0,0,0,0,0,0,0,0,0,0,0,0,0,0,0,0,0,0,0,0,0,0,0,0,0,0],"sum_hessian":[1.7035E4,1.5238E4,1.797E3,1.0919E4,4.319E3,1.703E3,9.4E1,8.479E3,2.44E3,2.795E3,1.524E3,1.228E3,4.75E2,9.3E1,1E0,7.429E3,1.05E3,1.409E3,1.031E3,1.926E3,8.69E2,8.93E2,6.31E2,7.43E2,4.85E2,2.18E2,2.57E2,4.6E1,4.7E1,5.963E3,1.466E3,5.4E2,5.1E2,6.54E2,7.55E2,7.56E2,2.75E2,1.289E3,6.37E2,5.76E2,2.93E2,5.51E2,3.42E2,4.01E2,2.3E2,2.74E2,4.69E2,3.99E2,8.6E1,1.79E2,7.8E1,1E0,4.5E1,8E0,3.9E1,1.48E3,4.483E3,6.55E2,8.11E2,1.31E2,4.09E2,3.99E2,1.11E2,1.2E2,5.34E2,4.67E2,2.88E2,2.27E2,5.29E2,1.63E2,1.12E2,6.56E2,6.33E2,2.09E2,4.28E2,1.69E2,4.07E2,7.9E1,2.14E2,3.25E2,2.26E2,1.98E2,1.44E2,2.9E2,1.11E2,1.15E2,1.15E2,1.76E2,9.8E1,3.66E2,1.03E2,1.66E2,2.33E2,7.6E1,1E1,4.1E1,1.38E2,7.6E1,2E0,3.5E1,1E1],"tree_param":{"num_deleted":"0","num_feature":"6","num_nodes":"101","size_leaf_vector":"1"}},{"base_weights":[7.6943435E-2,-4.5272403E0,3.8057026E1,-8.265694E0,5.451522E0,3.3918644E1,1.1106163E2,-9.540718E0,-4.153404E0,2.3154027E0,1.0992339E1,2.601299E1,4.6390423E1,3.9050558E0,1.3871707E2,-9.786972E0,-7.8306704E0,-5.492012E0,-2.5974913E0,1.4921181E0,6.0291185E0,8.669808E0,1.43604555E1,2.1313225E1,3.0317986E1,4.147746E1,5.7174328E1,2.1308246E2,1.1356825E2,-9.940566E0,-4.5782143E-1,-8.128323E0,-7.01691E0,-6.185117E0,-4.6629596E0,-3.5094364E0,-2.0299997E0,1.2720782E-1,2.641469E0,7.7348065E0,3.1622868E0,9.776553E0,6.694792E0,1.6770836E1,1.161449E1,2.3788143E1,1.6642172E1,3.4832565E1,2.678206E1,4.7093117E1,3.7262897E1,3.3693893E0,5.1031166E1,9.930258E1,1.5515596E1,3.0045662E0,1.1772545E2,-5.020875E-1,-4.8578E-1,-4.1467428E-1,-3.7587446E-1,-3.0939734E-1,-3.771759E-1,-2.7124786E-1,-3.2289916E-1,-2.747991E-1,-2.167027E-1,-1.5416838E-1,-2.4224134E-1,-5.4624315E-2,-1.5338562E-1,5.0656416E-2,-6.256097E-2,1.6964354E-1,6.5883495E-2,4.4721302E-1,2.8177956E-1,2.373759E-1,-2.1632304E-2,2.8643993E-1,5.327955E-1,3.5576478E-1,1.5840808E-1,4.3382064E-1,8.515034E-1,6.393482E-1,4.574279E-1,-1.017499E-2,1.2003433E0,-1.3797717E-1,8.4923357E-1,1.6709727E0,2.134196E0,1.5587217E0,1.247098E0,2.114638E0,2.5977437E0,2.0167606E0,1.6784146E0,2.229525E0,2.7679846E0,2.1672153E0,5.6508517E0,6.1666484E0,3.4098892E0],"categories":[],"categories_nodes":[],"categories_segments":[],"categories_sizes":[],"default_left":[0,0,0,0,0,0,0,0,0,0,0,0,0,0,0,0,0,0,0,0,0,0,0,0,0,0,0,0,0,0,0,0,0,0,0,0,0,0,0,0,0,0,0,0,0,0,0,0,0,0,0,0,0,0,0,0,0,0,0,0,0,0,0,0,0,0,0,0,0,0,0,0,0,0,0,0,0,0,0,0,0,0,0,0,0,0,0,0,0,0,0,0,0,0,0,0,0,0,0,0,0,0,0,0,0],"id":15,"left_children":[1,3,5,7,9,11,13,15,17,19,21,23,25,-1,27,29,31,33,35,37,39,41,43,45,47,49,51,53,55,57,-1,59,61,63,65,67,69,71,73,75,77,79,81,83,85,87,89,91,93,95,97,-1,99,101,-1,-1,103,-1,-1,-1,-1,-1,-1,-1,-1,-1,-1,-1,-1,-1,-1,-1,-1,-1,-1,-1,-1,-1,-1,-1,-1,-1,-1,-1,-1,-1,-1,-1,-1,-1,-1,-1,-1,-1,-1,-1,-1,-1,-1,-1,-1,-1,-1,-1,-1],"loss_changes":[2.9678448E6,5.647329E5,5.50625E5,5.7699312E4,7.167064E4,1.7015575E5,7.849675E4,3.4626875E3,5.4175664E3,8.0504307E3,1.15389375E4,2.0921688E4,3.328475E4,0E0,7.3051125E4,6.201875E2,2.004375E2,7.762031E2,6.180415E2,3.3866187E3,2.3129238E3,1.8690156E3,3.822836E3,5.534625E3,7.91075E3,9.2743125E3,9.6116875E3,1.0193825E5,2.040625E3,3.65625E1,0E0,1.55390625E1,8.079199E1,1.2260547E2,1.520791E2,2.479248E2,7.233821E2,1.2077904E3,1.1613237E3,7.0872656E2,1.0278381E3,1.9500234E3,4.534873E2,5.258125E2,7.128047E2,1.7523125E3,1.249625E3,1.2362812E3,1.7684062E3,2.3769688E3,1.722125E3,0E0,1.2672188E3,4.7340625E2,0E0,0E0,1.8648438E3,0E0,0E0,0E0,0E0,0E0,0E0,0E0,0E0,0E0,0E0,0E0,0E0,0E0,0E0,0E0,0E0,0E0,0E0,0E0,0E0,0E0,0E0,0E0,0E0,0E0,0E0,0E0,0E0,0E0,0E0,0E0,0E0,0E0,0E0,0E0,0E0,0E0,0E0,0E0,0E0,0E0,0E0,0E0,0E0,0E0,0E0,0E0,0E0],"parents":[2147483647,0,0,1,1,2,2,3,3,4,4,5,5,6,6,7,7,8,8,9,9,10,10,11,11,12,12,14,14,15,15,16,16,17,17,18,18,19,19,20,20,21,21,22,22,23,23,24,24,25,25,26,26,27,27,28,28,29,29,31,31,32,32,33,33,34,34,35,35,36,36,37,37,38,38,39,39,40,40,41,41,42,42,43,43,44,44,45,45,46,46,47,47,48,48,49,49,50,50,52,52,53,53,56,56],"right_children":[2,4,6,8,10,12,14,16,18,20,22,24,26,-1,28,30,32,34,36,38,40,42,44,46,48,50,52,54,56,58,-1,60,62,64,66,68,70,72,74,76,78,80,82,84,86,88,90,92,94,96,98,-1,100,102,-1,-1,104,-1,-1,-1,-1,-1,-1,-1,-1,-1,-1,-1,-1,-1,-1,-1,-1,-1,-1,-1,-1,-1,-1,-1,-1,-1,-1,-1,-1,-1,-1,-1,-1,-1,-1,-1,-1,-1,-1,-1,-1,-1,-1,-1,-1,-1,-1,-1,-1],"split_conditions":[6E1,1.9E1,1.73E2,7E0,3.6E1,9.7E1,2.14E2,4E0,1.3E1,3.2E1,4.8E1,7.5E1,1.3E2,3.9050558E0,2.023E3,2E0,6E0,1E1,1.5E1,2.4E1,9E0,9E0,8E0,9E0,7E0,7E0,7E0,2.8E1,5E0,1E0,-4.5782143E-1,4E1,6E0,2.023E3,1.5E1,4.2E1,8E0,9E0,9E0,2.024E3,2.024E3,3E0,4.2E1,3E0,3E1,2E0,2E0,9.2E1,1E1,1.12E2,1E1,3.3693893E0,1.44E2,5E0,1.5515596E1,3.0045662E0,1.1E1,-5.020875E-1,-4.8578E-1,-4.1467428E-1,-3.7587446E-1,-3.0939734E-1,-3.771759E-1,-2.7124786E-1,-3.2289916E-1,-2.747991E-1,-2.167027E-1,-1.5416838E-1,-2.4224134E-1,-5.4624315E-2,-1.5338562E-1,5.0656416E-2,-6.256097E-2,1.6964354E-1,6.5883495E-2,4.4721302E-1,2.8177956E-1,2.373759E-1,-2.1632304E-2,2.8643993E-1,5.327955E-1,3.5576478E-1,1.5840808E-1,4.3382064E-1,8.515034E-1,6.393482E-1,4.574279E-1,-1.017499E-2,1.2003433E0,-1.3797717E-1,8.4923357E-1,1.6709727E0,2.134196E0,1.5587217E0,1.247098E0,2.114638E0,2.5977437E0,2.0167606E0,1.6784146E0,2.229525E0,2.7679846E0,2.1672153E0,5.6508517E0,6.1666484E0,3.4098892E0],"split_indices":[5,5,5,5,5,5,5,5,5,5,5,5,5,0,0,5,5,5,5,5,1,1,1,1,1,1,1,2,2,5,0,2,1,0,2,2,1,1,1,0,0,1,2,2,2,2,2,5,2,5,1,0,5,2,0,0,1,0,0,0,0,0,0,0,0,0,0,0,0,0,0,0,0,0,0,0,0,0,0,0,0,0,0,0,0,0,0,0,0,0,0,0,0,0,0,0,0,0,0,0,0,0,0,0,0],"split_type":[0,0,0,0,0,0,0,0,0,0,0,0,0,0,0,0,0,0,0,0,0,0,0,0,0,0,0,0,0,0,0,0,0,0,0,0,0,0,0,0,0,0,0,0,0,0,0,0,0,0,0,0,0,0,0,0,0,0,0,0,0,0,0,0,0,0,0,0,0,0,0,0,0,0,0,0,0,0,0,0,0,0,0,0,0,0,0,0,0,0,0,0,0,0,0,0,0,0,0,0,0,0,0,0,0],"sum_hessian":[1.697E4,1.5136E4,1.834E3,1.1011E4,4.125E3,1.737E3,9.7E1,8.404E3,2.607E3,2.635E3,1.49E3,1.065E3,6.72E2,4.6E1,5.1E1,7.342E3,1.062E3,1.4E3,1.207E3,2.158E3,4.77E2,8.84E2,6.06E2,5.12E2,5.53E2,4.65E2,2.07E2,1.1E1,4E1,5.892E3,1.45E3,7.71E2,2.91E2,7.59E2,6.41E2,4.61E2,7.46E2,9.87E2,1.171E3,2.98E2,1.79E2,5.64E2,3.2E2,3.2E2,2.86E2,3.32E2,1.8E2,2.39E2,3.14E2,1.95E2,2.7E2,7.4E1,1.33E2,6E0,5E0,4E0,3.6E1,4.034E3,1.858E3,5.97E2,1.74E2,1.18E2,1.73E2,2.06E2,5.53E2,1.77E2,4.64E2,3.52E2,1.09E2,3.93E2,3.53E2,6.01E2,3.86E2,7.46E2,4.25E2,1.87E2,1.11E2,1.24E2,5.5E1,1.02E2,4.62E2,2.85E2,3.5E1,1.1E1,3.09E2,1.91E2,9.5E1,3E0,3.29E2,3E0,1.77E2,2.07E2,3.2E1,8.8E1,2.26E2,1.03E2,9.2E1,1.42E2,1.28E2,5.8E1,7.5E1,2E0,4E0,3.1E1,5E0],"tree_param":{"num_deleted":"0","num_feature":"6","num_nodes":"105","size_leaf_vector":"1"}},{"base_weights":[-3.5631698E-2,-4.388985E0,3.5498753E1,-7.8600097E0,5.0850654E0,3.2935745E1,1.3540869E2,-9.061053E0,-3.8909888E0,2.1705658E0,1.0295196E1,2.6697477E1,5.1632847E1,9.8195305E1,1.9904657E2,-9.290528E0,-7.4706125E0,-5.746143E0,-2.8063262E0,3.5359647E0,2.0737053E-1,1.2761641E1,7.3415003E0,2.2444412E1,3.35428E1,4.526458E1,6.350216E1,2.4399157E0,5.087252E0,2.766338E0,2.2795677E2,-9.432075E0,-8.715768E0,-6.2747564E0,-8.226687E0,-5.2103953E0,-8.294312E0,-1.9564128E0,-5.1123686E0,2.3023055E0,6.1597157E0,-1.3044279E0,1.7734867E0,1.0680793E1,1.56512165E1,4.731611E0,9.208903E0,1.9170055E1,2.4525524E1,3.517517E1,2.4563805E1,4.836519E1,3.876869E1,6.7014404E1,5.1729103E1,1.4586452E1,8.3599615E0,-3.8013548E-1,-4.724567E-1,-4.1033325E-1,-4.5591202E-1,-2.589861E-1,-3.403843E-1,-3.8596758E-1,-4.5341426E-1,-7.685971E-2,-2.7641702E-1,-4.1908747E-1,-1.9274585E-1,-1.2576659E-1,-4.0681124E-2,-2.836102E-1,-1.747754E-1,6.875722E-2,1.802213E-1,4.3090162E-1,2.4014798E-1,1.021797E-1,-9.262452E-2,1.13891505E-1,-1.12428926E-1,6.304683E-1,4.7160187E-1,9.463693E-1,7.2434765E-1,2.9996347E-1,9.325312E-2,5.2905136E-1,3.2127422E-1,1.0800698E0,7.9313415E-1,1.3528264E0,1.0954304E0,1.5479584E0,1.8672549E0,9.669949E-1,1.4980775E0,2.488646E0,1.2305857E0,1.9581177E0,-1.4942932E-2,2.510014E0,3.4795232E0,2.026229E0,2.8755133E0],"categories":[],"categories_nodes":[],"categories_segments":[],"categories_sizes":[],"default_left":[0,0,0,0,0,0,0,0,0,0,0,0,0,0,0,0,0,0,0,0,0,0,0,0,0,0,0,0,0,0,0,0,0,0,0,0,0,0,0,0,0,0,0,0,0,0,0,0,0,0,0,0,0,0,0,0,0,0,0,0,0,0,0,0,0,0,0,0,0,0,0,0,0,0,0,0,0,0,0,0,0,0,0,0,0,0,0,0,0,0,0,0,0,0,0,0,0,0,0,0,0,0,0,0,0],"id":16,"left_children":[1,3,5,7,9,11,13,15,17,19,21,23,25,27,29,31,33,35,37,39,41,43,45,47,49,51,53,-1,-1,-1,55,57,59,61,63,65,67,69,71,73,75,77,79,81,83,85,87,89,91,93,95,97,99,101,103,-1,-1,-1,-1,-1,-1,-1,-1,-1,-1,-1,-1,-1,-1,-1,-1,-1,-1,-1,-1,-1,-1,-1,-1,-1,-1,-1,-1,-1,-1,-1,-1,-1,-1,-1,-1,-1,-1,-1,-1,-1,-1,-1,-1,-1,-1,-1,-1,-1,-1],"loss_changes":[2.6249992E6,4.9715734E5,4.6978175E5,5.27065E4,6.153733E4,2.093855E5,8.939094E4,3.03025E3,5.159293E3,6.9713623E3,1.0498875E4,3.8754312E4,3.1215375E4,4.7075E2,5.3867312E4,5.213125E2,9.212539E2,1.2509707E3,3.1748945E3,4.9510938E3,2.5309656E3,4.5889297E3,3.1925781E3,5.253875E3,6.7283125E3,4.106875E3,2.942625E3,0E0,0E0,0E0,1.593625E3,1.135625E2,2.2821094E2,2.1042383E2,2.1008984E2,9.094531E2,3.0960938E1,7.573999E2,3.7573438E2,1.256647E3,1.5929219E3,1.00198505E3,1.0700853E3,9.961172E2,9.8071875E2,1.00264307E3,1.4062227E3,2.3190312E3,2.7851562E3,2.8325E3,1.7609219E3,5.3623438E3,1.5650312E3,1.531E3,2.604297E2,0E0,0E0,0E0,0E0,0E0,0E0,0E0,0E0,0E0,0E0,0E0,0E0,0E0,0E0,0E0,0E0,0E0,0E0,0E0,0E0,0E0,0E0,0E0,0E0,0E0,0E0,0E0,0E0,0E0,0E0,0E0,0E0,0E0,0E0,0E0,0E0,0E0,0E0,0E0,0E0,0E0,0E0,0E0,0E0,0E0,0E0,0E0,0E0,0E0,0E0],"parents":[2147483647,0,0,1,1,2,2,3,3,4,4,5,5,6,6,7,7,8,8,9,9,10,10,11,11,12,12,13,13,14,14,15,15,16,16,17,17,18,18,19,19,20,20,21,21,22,22,23,23,24,24,25,25,26,26,30,30,31,31,32,32,33,33,34,34,35,35,36,36,37,37,38,38,39,39,40,40,41,41,42,42,43,43,44,44,45,45,46,46,47,47,48,48,49,49,50,50,51,51,52,52,53,53,54,54],"right_children":[2,4,6,8,10,12,14,16,18,20,22,24,26,28,30,32,34,36,38,40,42,44,46,48,50,52,54,-1,-1,-1,56,58,60,62,64,66,68,70,72,74,76,78,80,82,84,86,88,90,92,94,96,98,100,102,104,-1,-1,-1,-1,-1,-1,-1,-1,-1,-1,-1,-1,-1,-1,-1,-1,-1,-1,-1,-1,-1,-1,-1,-1,-1,-1,-1,-1,-1,-1,-1,-1,-1,-1,-1,-1,-1,-1,-1,-1,-1,-1,-1,-1,-1,-1,-1,-1,-1,-1],"split_conditions":[5.9E1,1.9E1,2.14E2,7E0,3.6E1,1.12E2,3.5E1,4E0,1.1E1,3E0,4E0,8.5E1,1.44E2,5E0,-4.2E1,2E0,0E0,4E0,4E0,2.9E1,2.7E1,4.8E1,4.3E1,6.8E1,2.1E1,1.7E1,2.7E1,2.4399157E0,5.087252E0,2.766338E0,2.023E3,-4E0,1E0,-4E0,3E0,-9E0,5E1,1.6E1,1.7E1,2.4E1,-7E0,9E0,1.5E1,-6E0,1.1E1,1.3E1,3E1,4E0,3E0,9.2E1,9.9E1,4.5E1,6.4E1,2.023E3,1.7E1,1.4586452E1,8.3599615E0,-3.8013548E-1,-4.724567E-1,-4.1033325E-1,-4.5591202E-1,-2.589861E-1,-3.403843E-1,-3.8596758E-1,-4.5341426E-1,-7.685971E-2,-2.7641702E-1,-4.1908747E-1,-1.9274585E-1,-1.2576659E-1,-4.0681124E-2,-2.836102E-1,-1.747754E-1,6.875722E-2,1.802213E-1,4.3090162E-1,2.4014798E-1,1.021797E-1,-9.262452E-2,1.13891505E-1,-1.12428926E-1,6.304683E-1,4.7160187E-1,9.463693E-1,7.2434765E-1,2.9996347E-1,9.325312E-2,5.2905136E-1,3.2127422E-1,1.0800698E0,7.9313415E-1,1.3528264E0,1.0954304E0,1.5479584E0,1.8672549E0,9.669949E-1,1.4980775E0,2.488646E0,1.2305857E0,1.9581177E0,-1.4942932E-2,2.510014E0,3.4795232E0,2.026229E0,2.8755133E0],"split_indices":[5,5,5,5,5,5,2,5,5,4,4,5,5,2,4,5,4,4,4,5,5,5,5,5,4,4,4,0,0,0,0,4,4,4,4,4,2,5,5,5,4,2,4,4,2,4,2,4,4,5,5,2,4,0,2,0,0,0,0,0,0,0,0,0,0,0,0,0,0,0,0,0,0,0,0,0,0,0,0,0,0,0,0,0,0,0,0,0,0,0,0,0,0,0,0,0,0,0,0,0,0,0,0,0,0],"split_type":[0,0,0,0,0,0,0,0,0,0,0,0,0,0,0,0,0,0,0,0,0,0,0,0,0,0,0,0,0,0,0,0,0,0,0,0,0,0,0,0,0,0,0,0,0,0,0,0,0,0,0,0,0,0,0,0,0,0,0,0,0,0,0,0,0,0,0,0,0,0,0,0,0,0,0,0,0,0,0,0,0,0,0,0,0,0,0,0,0,0,0,0,0,0,0,0,0,0,0,0,0,0,0,0,0],"sum_hessian":[1.6967E4,1.5116E4,1.851E3,1.1063E4,4.053E3,1.806E3,4.5E1,8.492E3,2.571E3,2.6E3,1.453E3,1.356E3,4.5E2,3E1,1.5E1,7.417E3,1.075E3,9.47E2,1.624E3,1.533E3,1.067E3,7.9E2,6.63E2,8.39E2,5.17E2,2.96E2,1.54E2,3E0,2.7E1,3E0,1.2E1,5.939E3,1.478E3,4.2E2,6.55E2,7.85E2,1.62E2,1.188E3,4.36E2,1.044E3,4.89E2,5.43E2,5.24E2,4.62E2,3.28E2,2.78E2,3.85E2,3.3E2,5.09E2,4.35E2,8.2E1,1.96E2,1E2,1.15E2,3.9E1,4E0,8E0,5.9E1,5.88E3,6.62E2,8.16E2,1.41E2,2.79E2,4.15E2,2.4E2,6.3E1,7.22E2,1.58E2,4E0,7.97E2,3.91E2,3.22E2,1.14E2,6.11E2,4.33E2,1.72E2,3.17E2,7.6E1,4.67E2,4.66E2,5.8E1,1.78E2,2.84E2,8.2E1,2.46E2,1.92E2,8.6E1,2.56E2,1.29E2,1.87E2,1.43E2,2.54E2,2.55E2,1.53E2,2.82E2,4.4E1,3.8E1,1.84E2,1.2E1,9.9E1,1E0,1.8E1,9.7E1,1.6E1,2.3E1],"tree_param":{"num_deleted":"0","num_feature":"6","num_nodes":"105","size_leaf_vector":"1"}},{"base_weights":[4.648041E-2,-4.1013627E0,3.426616E1,-7.5546207E0,4.6587853E0,3.072029E1,9.806732E1,-8.623254E0,-3.8658984E0,1.2603763E0,9.110938E0,2.4803162E1,4.418548E1,7.023658E1,1.21246666E2,-8.833452E0,-7.1552353E0,-4.9677997E0,-2.3834565E0,-1.3903787E-2,2.7402344E0,6.810804E0,1.2250545E1,1.9609295E1,2.8315521E1,3.9806587E1,5.343908E1,3.6491475E0,2.2254622E0,9.576757E1,1.7601198E2,-8.966426E0,-8.287792E0,-7.582107E0,-6.528867E0,-5.634948E0,-4.167591E0,-3.3443604E0,-1.7737106E0,-9.5992213E-1,7.2664595E-1,2.090512E0,3.49379E0,5.101051E0,8.999203E0,1.0102287E1,1.3365862E1,-7.9151335E0,1.9851622E1,2.5587646E1,3.0920303E1,1.8611788E0,4.2816185E1,2.8063107E0,3.929696E1,2.5515487E0,4.9821897E0,1.5113677E1,5.962857E0,-4.683139E-1,-4.4153905E-1,-4.6319565E-1,-4.0883285E-1,-4.9205205E-1,-3.7276277E-1,-2.0598657E-1,-3.4293205E-1,-2.52929E-1,-2.9634312E-1,-2.4272501E-1,-1.7137621E-1,-2.3968755E-1,-1.3673332E-1,1.6337244E-2,-1.3416924E-1,-1.6454136E-2,-9.530608E-2,1.3055077E-1,2.3752516E-2,1.8815716E-1,8.658667E-2,2.0688377E-1,1.1512555E-1,4.1363892E-1,2.4059168E-1,5.3184235E-1,3.2948446E-1,6.3875115E-1,4.5630407E-1,7.194697E-1,5.0100845E-1,-5.3203493E-1,7.467814E-2,9.987693E-1,-4.3420317E-3,1.4036983E0,1.1548694E0,1.7576655E0,1.4099365E0,1.8393339E0,2.2489672E0,1.1119593E0,2.1317384E0],"categories":[],"categories_nodes":[],"categories_segments":[],"categories_sizes":[],"default_left":[0,0,0,0,0,0,0,0,0,0,0,0,0,0,0,0,0,0,0,0,0,0,0,0,0,0,0,0,0,0,0,0,0,0,0,0,0,0,0,0,0,0,0,0,0,0,0,0,0,0,0,0,0,0,0,0,0,0,0,0,0,0,0,0,0,0,0,0,0,0,0,0,0,0,0,0,0,0,0,0,0,0,0,0,0,0,0,0,0,0,0,0,0,0,0,0,0,0,0,0,0,0,0],"id":17,"left_children":[1,3,5,7,9,11,13,15,17,19,21,23,25,27,29,31,33,35,37,39,41,43,45,47,49,51,53,-1,-1,55,57,59,61,63,65,67,69,71,73,75,77,79,81,83,85,87,89,91,93,95,97,-1,99,-1,101,-1,-1,-1,-1,-1,-1,-1,-1,-1,-1,-1,-1,-1,-1,-1,-1,-1,-1,-1,-1,-1,-1,-1,-1,-1,-1,-1,-1,-1,-1,-1,-1,-1,-1,-1,-1,-1,-1,-1,-1,-1,-1,-1,-1,-1,-1,-1,-1],"loss_changes":[2.4052775E6,4.572495E5,4.11442E5,4.2700688E4,6.4655156E4,1.3729975E5,5.3413562E4,2.530375E3,3.9690117E3,4.572991E3,1.3276359E4,2.150025E4,1.9308188E4,1.8125E0,5.4307688E4,4.58875E2,2.3338281E2,7.223203E2,6.0399805E2,9.142456E2,5.420293E2,3.957629E3,1.7362422E3,3.4320469E3,4.317625E3,1.2280625E3,4.1407188E3,0E0,0E0,1.3312188E3,7.144103E4,2.3709375E2,8.1875E1,1.0515234E2,3.1813477E2,9.771875E1,3.0820117E2,3.4301514E2,1.2218331E3,3.4139636E2,3.4580023E2,3.5654663E2,3.8780322E2,5.133369E2,1.7766016E3,5.904922E2,1.6056953E3,1.4411261E2,1.2034844E3,1.5619531E3,3.190625E3,0E0,4.4525E2,0E0,7.5991016E2,0E0,0E0,0E0,0E0,0E0,0E0,0E0,0E0,0E0,0E0,0E0,0E0,0E0,0E0,0E0,0E0,0E0,0E0,0E0,0E0,0E0,0E0,0E0,0E0,0E0,0E0,0E0,0E0,0E0,0E0,0E0,0E0,0E0,0E0,0E0,0E0,0E0,0E0,0E0,0E0,0E0,0E0,0E0,0E0,0E0,0E0,0E0,0E0],"parents":[2147483647,0,0,1,1,2,2,3,3,4,4,5,5,6,6,7,7,8,8,9,9,10,10,11,11,12,12,13,13,14,14,15,15,16,16,17,17,18,18,19,19,20,20,21,21,22,22,23,23,24,24,25,25,26,26,29,29,30,30,31,31,32,32,33,33,34,34,35,35,36,36,37,37,38,38,39,39,40,40,41,41,42,42,43,43,44,44,45,45,46,46,47,47,48,48,49,49,50,50,52,52,54,54],"right_children":[2,4,6,8,10,12,14,16,18,20,22,24,26,28,30,32,34,36,38,40,42,44,46,48,50,52,54,-1,-1,56,58,60,62,64,66,68,70,72,74,76,78,80,82,84,86,88,90,92,94,96,98,-1,100,-1,102,-1,-1,-1,-1,-1,-1,-1,-1,-1,-1,-1,-1,-1,-1,-1,-1,-1,-1,-1,-1,-1,-1,-1,-1,-1,-1,-1,-1,-1,-1,-1,-1,-1,-1,-1,-1,-1,-1,-1,-1,-1,-1,-1,-1,-1,-1,-1,-1],"split_conditions":[6.1E1,1.8E1,1.73E2,7E0,3.3E1,1.05E2,2.14E2,4E0,1.3E1,2.5E1,4.6E1,7.5E1,1.35E2,4.3E1,3.5E1,2E0,3.2E1,1E1,7E0,2.1E1,2.9E1,8E0,5E1,2E0,8.7E1,1.2E2,3.3E1,3.6491475E0,2.2254622E0,5E0,2.023E3,5E0,1E0,1E0,4E0,