{"learner":{"attributes":{"scikit_learn":"{\"_estimator_type\": \"regressor\"}"},"feature_names":["year","month","ward","primary_type","delta_count","count_0"],"feature_types":["int","int","int","int","float","int"],"gradient_booster":{"model":{"gbtree_model_param":{"num_parallel_tree":"1","num_trees":"400"},"iteration_indptr":[0,1,2,3,4,5,6,7,8,9,10,11,12,13,14,15,16,17,18,19,20,21,22,23,24,25,26,27,28,29,30,31,32,33,34,35,36,37,38,39,40,41,42,43,44,45,46,47,48,49,50,51,52,53,54,55,56,57,58,59,60,61,62,63,64,65,66,67,68,69,70,71,72,73,74,75,76,77,78,79,80,81,82,83,84,85,86,87,88,89,90,91,92,93,94,95,96,97,98,99,100,101,102,103,104,105,106,107,108,109,110,111,112,113,114,115,116,117,118,119,120,121,122,123,124,125,126,127,128,129,130,131,132,133,134,135,136,137,138,139,140,141,142,143,144,145,146,147,148,149,150,151,152,153,154,155,156,157,158,159,160,161,162,163,164,165,166,167,168,169,170,171,172,173,174,175,176,177,178,179,180,181,182,183,184,185,186,187,188,189,190,191,192,193,194,195,196,197,198,199,200,201,202,203,204,205,206,207,208,209,210,211,212,213,214,215,216,217,218,219,220,221,222,223,224,225,226,227,228,229,230,231,232,233,234,235,236,237,238,239,240,241,242,243,244,245,246,247,248,249,250,251,252,253,254,255,256,257,258,259,260,261,262,263,264,265,266,267,268,269,270,271,272,273,274,275,276,277,278,279,280,281,282,283,284,285,286,287,288,289,290,291,292,293,294,295,296,297,298,299,300,301,302,303,304,305,306,307,308,309,310,311,312,313,314,315,316,317,318,319,320,321,322,323,324,325,326,327,328,329,330,331,332,333,334,335,336,337,338,339,340,341,342,343,344,345,346,347,348,349,350,351,352,353,354,355,356,357,358,359,360,361,362,363,364,365,366,367,368,369,370,371,372,373,374,375,376,377,378,379,380,381,382,383,384,385,386,387,388,389,390,391,392,393,394,395,396,397,398,399,400],"tree_info":[0,0,0,0,0,0,0,0,0,0,0,0,0,0,0,0,0,0,0,0,0,0,0,0,0,0,0,0,0,0,0,0,0,0,0,0,0,0,0,0,0,0,0,0,0,0,0,0,0,0,0,0,0,0,0,0,0,0,0,0,0,0,0,0,0,0,0,0,0,0,0,0,0,0,0,0,0,0,0,0,0,0,0,0,0,0,0,0,0,0,0,0,0,0,0,0,0,0,0,0,0,0,0,0,0,0,0,0,0,0,0,0,0,0,0,0,0,0,0,0,0,0,0,0,0,0,0,0,0,0,0,0,0,0,0,0,0,0,0,0,0,0,0,0,0,0,0,0,0,0,0,0,0,0,0,0,0,0,0,0,0,0,0,0,0,0,0,0,0,0,0,0,0,0,0,0,0,0,0,0,0,0,0,0,0,0,0,0,0,0,0,0,0,0,0,0,0,0,0,0,0,0,0,0,0,0,0,0,0,0,0,0,0,0,0,0,0,0,0,0,0,0,0,0,0,0,0,0,0,0,0,0,0,0,0,0,0,0,0,0,0,0,0,0,0,0,0,0,0,0,0,0,0,0,0,0,0,0,0,0,0,0,0,0,0,0,0,0,0,0,0,0,0,0,0,0,0,0,0,0,0,0,0,0,0,0,0,0,0,0,0,0,0,0,0,0,0,0,0,0,0,0,0,0,0,0,0,0,0,0,0,0,0,0,0,0,0,0,0,0,0,0,0,0,0,0,0,0,0,0,0,0,0,0,0,0,0,0,0,0,0,0,0,0,0,0,0,0,0,0,0,0,0,0,0,0,0,0,0,0,0,0,0,0,0,0,0,0,0,0,0,0,0,0,0,0,0,0,0,0,0,0,0,0,0,0,0,0,0,0,0,0,0,0,0,0,0,0,0,0],"trees":[{"base_weights":[-6.265068E-2,-1.0492542E1,6.672408E1,-1.8090828E1,6.1088805E0,5.497692E1,1.4077313E2,-1.9826572E1,-1.0742072E1,7.23605E-1,1.6295967E1,4.2373196E1,7.558599E1,1.18894165E2,2.462734E2,-2.0334146E1,-1.7207508E1,-1.2775253E1,-8.319542E0,-3.2582645E0,4.05025E0,1.2835168E1,2.2171078E1,3.3025253E1,4.9000717E1,6.3840916E1,8.3283165E1,1.0916609E2,1.3308362E2,1.0830834E1,1.5348132E1,-2.049831E1,-9.6151966E-1,-1.76857E1,-1.5743159E1,-1.0619609E1,-1.3398961E1,-1.0067353E1,-7.7358203E0,-4.204666E0,-7.3676246E-1,1.5521989E0,6.17087E0,1.4143029E1,1.0451984E1,2.0648367E1,2.5001204E1,3.3452766E1,1.853377E1,4.5225147E1,2.7082784E0,6.404108E1,1.1272377E0,3.858162E0,4.384226E0,4.705945E0,5.7183275E0,6.725797E0,3.2181423E0,-1.0339419E0,-9.98764E-1,-8.249654E-1,-9.07018E-1,-6.4265186E-1,-8.0555326E-1,-5.3746647E-1,1.6057096E-1,-7.4154377E-1,-6.382648E-1,-2.4146092E-1,-5.121953E-1,-4.4081303E-1,-3.4005752E-1,-2.628066E-1,-1.739181E-1,-1.2231555E-1,-6.7894584E-3,1.2232709E-1,-2.1816663E-2,4.320345E-1,2.7171153E-1,5.368259E-1,7.609772E-1,4.504786E-1,6.233507E-1,8.908988E-1,1.2011945E0,1.2858251E0,7.5392795E-1,1.041428E0,1.690049E0,1.0307953E0,3.3064234E-1,1.8064235E-1,2.2757232E0,2.606285E0,3.2634652E0],"categories":[],"categories_nodes":[],"categories_segments":[],"categories_sizes":[],"default_left":[0,0,0,0,0,0,0,0,0,0,0,0,0,0,0,0,0,0,0,0,0,0,0,0,0,0,0,0,0,0,0,0,0,0,0,0,0,0,0,0,0,0,0,0,0,0,0,0,0,0,0,0,0,0,0,0,0,0,0,0,0,0,0,0,0,0,0,0,0,0,0,0,0,0,0,0,0,0,0,0,0,0,0,0,0,0,0,0,0,0,0,0,0,0,0,0,0],"id":0,"left_children":[1,3,5,7,9,11,13,15,17,19,21,23,25,27,29,31,33,35,37,39,41,43,45,47,49,51,53,55,57,-1,-1,59,-1,61,63,65,67,69,71,73,75,77,79,81,83,85,87,89,91,93,-1,95,-1,-1,-1,-1,-1,-1,-1,-1,-1,-1,-1,-1,-1,-1,-1,-1,-1,-1,-1,-1,-1,-1,-1,-1,-1,-1,-1,-1,-1,-1,-1,-1,-1,-1,-1,-1,-1,-1,-1,-1,-1,-1,-1,-1,-1],"loss_changes":[1.1850892E7,1.8562949E6,1.991214E6,1.285545E5,2.5349752E5,5.124035E5,6.95506E5,1.05045E4,9.404734E3,4.0069906E4,3.2206875E4,7.48325E4,6.2667E4,2.163725E4,2.88985E4,8.44E2,6.5425E2,1.2667344E3,8.240078E2,3.2829102E3,8.7205625E3,2.994E3,2.0306562E3,2.570625E3,1.1590625E4,1.0525E3,5.38225E3,1.834625E3,1.382E3,0E0,0E0,1.4725E2,0E0,2.379375E2,1.5125781E2,4.651211E2,5.447344E2,1.5213672E2,6.136133E2,7.46166E2,3.86995E2,1.3491172E3,1.5741016E3,2.212914E3,9.369219E2,3.2980156E3,1.0459688E3,1.4895E3,2.8562695E2,4.916E3,0E0,9.8825E2,0E0,0E0,0E0,0E0,0E0,0E0,0E0,0E0,0E0,0E0,0E0,0E0,0E0,0E0,0E0,0E0,0E0,0E0,0E0,0E0,0E0,0E0,0E0,0E0,0E0,0E0,0E0,0E0,0E0,0E0,0E0,0E0,0E0,0E0,0E0,0E0,0E0,0E0,0E0,0E0,0E0,0E0,0E0,0E0,0E0],"parents":[2147483647,0,0,1,1,2,2,3,3,4,4,5,5,6,6,7,7,8,8,9,9,10,10,11,11,12,12,13,13,14,14,15,15,16,16,17,17,18,18,19,19,20,20,21,21,22,22,23,23,24,24,25,25,26,26,27,27,28,28,31,31,33,33,34,34,35,35,36,36,37,37,38,38,39,39,40,40,41,41,42,42,43,43,44,44,45,45,46,46,47,47,48,48,49,49,51,51],"right_children":[2,4,6,8,10,12,14,16,18,20,22,24,26,28,30,32,34,36,38,40,42,44,46,48,50,52,54,56,58,-1,-1,60,-1,62,64,66,68,70,72,74,76,78,80,82,84,86,88,90,92,94,-1,96,-1,-1,-1,-1,-1,-1,-1,-1,-1,-1,-1,-1,-1,-1,-1,-1,-1,-1,-1,-1,-1,-1,-1,-1,-1,-1,-1,-1,-1,-1,-1,-1,-1,-1,-1,-1,-1,-1,-1,-1,-1,-1,-1,-1,-1],"split_conditions":[5E1,1.4E1,1.3E2,6E0,3.1E1,8.3E1,2.14E2,3E0,1E1,2.1E1,4.1E1,6.1E1,9.7E1,1.57E2,3.5E1,2E0,5E0,6E0,1.1E1,1.9E1,2.5E1,3.1E1,4.7E1,1.9E1,7.3E1,5E1,1.09E2,2.023E3,4.5E1,1.0830834E1,1.5348132E1,1.2E1,-9.6151966E-1,7E0,4E0,5E0,7E0,2E0,7E0,7E0,4E0,1.3E1,2.023E3,3.3E1,3.6E1,8E0,1.9E1,3E0,2.024E3,2E0,2.7082784E0,2E0,1.1272377E0,3.858162E0,4.384226E0,4.705945E0,5.7183275E0,6.725797E0,3.2181423E0,-1.0339419E0,-9.98764E-1,-8.249654E-1,-9.07018E-1,-6.4265186E-1,-8.0555326E-1,-5.3746647E-1,1.6057096E-1,-7.4154377E-1,-6.382648E-1,-2.4146092E-1,-5.121953E-1,-4.4081303E-1,-3.4005752E-1,-2.628066E-1,-1.739181E-1,-1.2231555E-1,-6.7894584E-3,1.2232709E-1,-2.1816663E-2,4.320345E-1,2.7171153E-1,5.368259E-1,7.609772E-1,4.504786E-1,6.233507E-1,8.908988E-1,1.2011945E0,1.2858251E0,7.5392795E-1,1.041428E0,1.690049E0,1.0307953E0,3.3064234E-1,1.8064235E-1,2.2757232E0,2.606285E0,3.2634652E0],"split_indices":[5,5,5,5,5,5,5,5,5,5,5,5,5,5,2,5,5,3,5,5,5,2,5,3,5,2,5,0,2,0,0,3,0,3,3,3,5,3,3,3,3,3,0,5,5,3,3,2,0,2,0,3,0,0,0,0,0,0,0,0,0,0,0,0,0,0,0,0,0,0,0,0,0,0,0,0,0,0,0,0,0,0,0,0,0,0,0,0,0,0,0,0,0,0,0,0,0],"split_type":[0,0,0,0,0,0,0,0,0,0,0,0,0,0,0,0,0,0,0,0,0,0,0,0,0,0,0,0,0,0,0,0,0,0,0,0,0,0,0,0,0,0,0,0,0,0,0,0,0,0,0,0,0,0,0,0,0,0,0,0,0,0,0,0,0,0,0,0,0,0,0,0,0,0,0,0,0,0,0,0,0,0,0,0,0,0,0,0,0,0,0,0,0,0,0,0,0],"sum_hessian":[1.7011E4,1.4714E4,2.297E3,1.0094E4,4.62E3,1.984E3,3.13E2,8.164E3,1.93E3,3.023E3,1.597E3,1.233E3,7.51E2,2.61E2,5.2E1,6.833E3,1.331E3,1.047E3,8.83E2,1.376E3,1.647E3,1.007E3,5.9E2,5.14E2,7.19E2,3.01E2,4.5E2,1.6E2,1.01E2,3.8E1,1.4E1,5.933E3,9E2,9.95E2,3.36E2,2.39E2,8.08E2,2.17E2,6.66E2,1E3,3.76E2,7.57E2,8.9E2,6.47E2,3.6E2,3.89E2,2.01E2,4.98E2,1.6E1,4.21E2,2.98E2,2.99E2,2E0,1.96E2,2.54E2,4.6E1,1.14E2,9.8E1,3E0,4.382E3,1.551E3,2.86E2,7.09E2,4.2E1,2.94E2,2.37E2,2E0,2.41E2,5.67E2,8E0,2.09E2,3.05E2,3.61E2,4.06E2,5.94E2,9.7E1,2.79E2,5.22E2,2.35E2,2.02E2,6.88E2,1.58E2,4.89E2,2.13E2,1.47E2,2.15E2,1.74E2,1.86E2,1.5E1,1.5E1,4.83E2,1.3E1,3E0,3E0,4.18E2,3.2E1,2.67E2],"tree_param":{"num_deleted":"0","num_feature":"6","num_nodes":"97","size_leaf_vector":"1"}},{"base_weights":[-4.930563E-2,-4.154203E0,3.3954773E1,3.0533009E1,-8.569191E0,2.4131054E1,6.9905685E1,5.6486107E1,2.0817616E1,-1.01580925E1,1.0464746E1,1.9485386E1,4.7221287E1,5.689535E1,9.6912575E1,1.1767628E2,5.0662636E1,1.6013962E1,4.2877243E1,-3.9640195E0,-1.4289149E1,5.8681374E1,-9.792593E0,3.6099937E1,1.3094814E1,6.336259E1,3.2177715E0,6.1259747E1,1.3748888E1,8.3390175E1,1.650879E2,7.1644775E1,1.4858456E2,4.305496E1,7.0646805E1,3.2807438E1,9.725806E0,6.1199055E1,8.326029E-1,-9.676676E-1,-7.468812E-1,-1.9482248E1,-9.932609E0,6.1726486E1,4.3496193E1,-1.013389E1,1.2282064E0,2.143919E1,4.744936E1,-5.6536255E0,1.5043078E1,7.046503E1,5.065016E1,8.974277E0,3.3197424E-1,4.719542E1,7.323004E1,9.646161E0,1.7731556E1,8.9767456E1,1.1916049E1,1.2840463E2,1.0743524E1,5.106448E0,2.394597E0,8.549277E0,4.7370105E0,2.783055E0,1.4177523E0,3.9600532E0,3.598874E-1,8.2574064E-1,2.2785156E0,-2.8632954E-1,5.7091504E-1,3.4774578E0,2.537619E0,8.114576E-1,-7.263341E-2,1.0843221E0,-3.4713924E-1,-9.565709E-1,-9.907943E-1,5.2661127E-1,-6.1544365E-1,2.9062185E0,3.3688073E0,2.397768E0,1.664744E0,-3.264874E-1,-5.429147E-1,-1.2164491E-1,6.0034096E-1,1.7094096E0,7.8583246E-1,1.8249676E0,2.7041423E0,-3.7690789E-1,-1.8172418E-1,1.3155149E0,5.733965E-1,3.6683846E0,2.4322476E0,1.9401032E0,2.9335513E0,8.490678E-2,6.94049E-1,-2.0367486E-2,5.409147E-1,2.884014E0,1.9815573E0,4.228641E0,3.1149743E0,6.60361E-1,1.8448173E-1,-1.7359619E-1,9.9873877E-1,3.6267815E0,4.761098E0,8.12863E-1,-1.8162632E-1,3.352577E0,7.3120356E0],"categories":[],"categories_nodes":[],"categories_segments":[],"categories_sizes":[],"default_left":[0,0,0,0,0,0,0,0,0,0,0,0,0,0,0,0,0,0,0,0,0,0,0,0,0,0,0,0,0,0,0,0,0,0,0,0,0,0,0,0,0,0,0,0,0,0,0,0,0,0,0,0,0,0,0,0,0,0,0,0,0,0,0,0,0,0,0,0,0,0,0,0,0,0,0,0,0,0,0,0,0,0,0,0,0,0,0,0,0,0,0,0,0,0,0,0,0,0,0,0,0,0,0,0,0,0,0,0,0,0,0,0,0,0,0,0,0,0,0,0,0,0,0],"id":1,"left_children":[1,3,5,7,9,11,13,15,17,19,21,23,25,27,29,31,33,35,37,39,41,43,45,47,49,51,53,55,57,59,61,63,65,67,69,71,73,75,77,-1,79,81,83,85,87,89,91,93,95,97,99,101,103,105,107,109,111,113,115,117,119,121,-1,-1,-1,-1,-1,-1,-1,-1,-1,-1,-1,-1,-1,-1,-1,-1,-1,-1,-1,-1,-1,-1,-1,-1,-1,-1,-1,-1,-1,-1,-1,-1,-1,-1,-1,-1,-1,-1,-1,-1,-1,-1,-1,-1,-1,-1,-1,-1,-1,-1,-1,-1,-1,-1,-1,-1,-1,-1,-1,-1,-1],"loss_changes":[2.3882708E6,2.3383055E6,6.492085E5,4.3352125E5,4.097182E5,1.545135E5,1.3327662E5,1.6116138E5,1.3240769E5,3.1981988E5,1.0202919E6,1.2778853E5,1.7168244E5,4.9812688E4,1.03313875E5,4.6264875E4,6.2332375E4,1.0876569E5,1.7250388E5,2.4768214E5,1.6946338E5,1.16035E4,2.7808125E3,5.4723656E4,3.2009594E4,1.2412125E4,1.0934199E3,3.7622312E4,2.5379297E2,4.8157875E4,8.933375E3,8.1423906E3,1.1542656E4,5.6608812E4,6.2932875E4,5.767878E4,1.9758672E4,1.007825E4,2.45136E3,0E0,5.754496E5,2.125E1,1.9853944E5,1.2731875E3,9.052422E2,1.79325E3,9.3682874E2,1.0260266E4,1.1681719E4,2.884292E2,3.1601594E4,3.461375E3,4.0905781E3,7.6186914E2,3.5328226E2,6.8347344E3,1.08489375E4,2.6944324E2,6.401194E2,2.3980625E3,7.3405115E2,5.5145312E3,0E0,0E0,0E0,0E0,0E0,0E0,0E0,0E0,0E0,0E0,0E0,0E0,0E0,0E0,0E0,0E0,0E0,0E0,0E0,0E0,0E0,0E0,0E0,0E0,0E0,0E0,0E0,0E0,0E0,0E0,0E0,0E0,0E0,0E0,0E0,0E0,0E0,0E0,0E0,0E0,0E0,0E0,0E0,0E0,0E0,0E0,0E0,0E0,0E0,0E0,0E0,0E0,0E0,0E0,0E0,0E0,0E0,0E0,0E0,0E0,0E0],"parents":[2147483647,0,0,1,1,2,2,3,3,4,4,5,5,6,6,7,7,8,8,9,9,10,10,11,11,12,12,13,13,14,14,15,15,16,16,17,17,18,18,19,19,20,20,21,21,22,22,23,23,24,24,25,25,26,26,27,27,28,28,29,29,30,30,31,31,32,32,33,33,34,34,35,35,36,36,37,37,38,38,40,40,41,41,42,42,43,43,44,44,45,45,46,46,47,47,48,48,49,49,50,50,51,51,52,52,53,53,54,54,55,55,56,56,57,57,58,58,59,59,60,60,61,61],"right_children":[2,4,6,8,10,12,14,16,18,20,22,24,26,28,30,32,34,36,38,40,42,44,46,48,50,52,54,56,58,60,62,64,66,68,70,72,74,76,78,-1,80,82,84,86,88,90,92,94,96,98,100,102,104,106,108,110,112,114,116,118,120,122,-1,-1,-1,-1,-1,-1,-1,-1,-1,-1,-1,-1,-1,-1,-1,-1,-1,-1,-1,-1,-1,-1,-1,-1,-1,-1,-1,-1,-1,-1,-1,-1,-1,-1,-1,-1,-1,-1,-1,-1,-1,-1,-1,-1,-1,-1,-1,-1,-1,-1,-1,-1,-1,-1,-1,-1,-1,-1,-1,-1,-1],"split_conditions":[8E0,-7E0,2.1E1,-1.7E1,1.8E1,1.7E1,1.7E1,-4.1E1,1.7E1,8E0,1.9E1,3E0,1.9E1,1.4E1,4.5E1,1.3E1,1.7E1,3E0,1.9E1,1E0,1.2E1,1.1E1,7E0,2E0,4E0,8E0,5E0,2.7E1,2.6E1,1.9E1,6.3E1,3E0,1.1E1,6E0,1.9E1,2E0,4E0,9E0,4E0,-9.676676E-1,3E0,1E1,1.3E1,2.024E3,2.024E3,-3E0,1E1,5E0,1.1E1,1E1,6E0,1.8E1,2.023E3,1.1E1,1.2E1,3E0,3E0,6E0,2E0,2.023E3,2.024E3,2.023E3,1.0743524E1,5.106448E0,2.394597E0,8.549277E0,4.7370105E0,2.783055E0,1.4177523E0,3.9600532E0,3.598874E-1,8.2574064E-1,2.2785156E0,-2.8632954E-1,5.7091504E-1,3.4774578E0,2.537619E0,8.114576E-1,-7.263341E-2,1.0843221E0,-3.4713924E-1,-9.565709E-1,-9.907943E-1,5.2661127E-1,-6.1544365E-1,2.9062185E0,3.3688073E0,2.397768E0,1.664744E0,-3.264874E-1,-5.429147E-1,-1.2164491E-1,6.0034096E-1,1.7094096E0,7.8583246E-1,1.8249676E0,2.7041423E0,-3.7690789E-1,-1.8172418E-1,1.3155149E0,5.733965E-1,3.6683846E0,2.4322476E0,1.9401032E0,2.9335513E0,8.490678E-2,6.94049E-1,-2.0367486E-2,5.409147E-1,2.884014E0,1.9815573E0,4.228641E0,3.1149743E0,6.60361E-1,1.8448173E-1,-1.7359619E-1,9.9873877E-1,3.6267815E0,4.761098E0,8.12863E-1,-1.8162632E-1,3.352577E0,7.3120356E0],"split_indices":[4,4,4,4,3,3,3,4,3,3,3,3,3,3,4,3,3,3,3,3,3,1,4,3,3,1,1,4,4,3,4,3,1,3,3,3,3,1,1,0,3,3,3,0,0,4,1,1,4,4,3,4,0,4,1,3,3,1,1,0,0,0,0,0,0,0,0,0,0,0,0,0,0,0,0,0,0,0,0,0,0,0,0,0,0,0,0,0,0,0,0,0,0,0,0,0,0,0,0,0,0,0,0,0,0,0,0,0,0,0,0,0,0,0,0,0,0,0,0,0,0,0,0],"split_type":[0,0,0,0,0,0,0,0,0,0,0,0,0,0,0,0,0,0,0,0,0,0,0,0,0,0,0,0,0,0,0,0,0,0,0,0,0,0,0,0,0,0,0,0,0,0,0,0,0,0,0,0,0,0,0,0,0,0,0,0,0,0,0,0,0,0,0,0,0,0,0,0,0,0,0,0,0,0,0,0,0,0,0,0,0,0,0,0,0,0,0,0,0,0,0,0,0,0,0,0,0,0,0,0,0,0,0,0,0,0,0,0,0,0,0,0,0,0,0,0,0,0,0],"sum_hessian":[1.7108E4,1.5266E4,1.842E3,1.723E3,1.3543E4,1.448E3,3.94E2,4.68E2,1.255E3,1.25E4,1.043E3,1.207E3,2.41E2,2.68E2,1.26E2,3.9E1,4.29E2,1.032E3,2.23E2,5.002E3,7.498E3,3.08E2,7.35E2,3.34E2,8.73E2,1.76E2,6.5E1,2.43E2,2.5E1,1.07E2,1.9E1,1.7E1,2.2E1,3.13E2,1.16E2,2.8E2,7.52E2,1.55E2,6.8E1,8.64E2,4.138E3,3.419E3,4.079E3,2.54E2,5.4E1,7.13E2,2.2E1,1.47E2,1.87E2,8.2E1,7.91E2,1.1E2,6.6E1,2.1E1,4.4E1,1.14E2,1.29E2,1.4E1,1.1E1,9.8E1,9E0,1.3E1,6E0,6E0,1.1E1,1.4E1,8E0,1.67E2,1.46E2,1.02E2,1.4E1,1.24E2,1.56E2,7.4E1,6.78E2,8.3E1,7.2E1,8E0,6E1,8.95E2,3.243E3,1.695E3,1.724E3,4.24E2,3.655E3,1.62E2,9.2E1,3.5E1,1.9E1,1.21E2,5.92E2,1.7E1,5E0,4.4E1,1.03E2,7.3E1,1.14E2,4.1E1,4.1E1,1.89E2,6.02E2,9.5E1,1.5E1,2.9E1,3.7E1,9E0,1.2E1,4.2E1,2E0,4.5E1,6.9E1,6E1,6.9E1,8E0,6E0,1E0,1E1,2.7E1,7.1E1,7E0,2E0,4E0,9E0],"tree_param":{"num_deleted":"0","num_feature":"6","num_nodes":"123","size_leaf_vector":"1"}},{"base_weights":[2.020977E-1,-3.8623145E0,3.3881084E1,2.3671942E1,-8.870583E0,2.4253206E1,6.92526E1,5.2607826E1,1.6171728E1,-1.0845294E1,6.7699723E0,1.9472973E1,4.8435265E1,6.596818E1,2.1824826E2,9.446192E1,4.4000854E1,1.228183E1,3.67004E1,1.2133296E0,-1.2532055E1,4.182197E0,2.3862759E1,3.5898754E1,1.2753265E1,6.266564E1,4.440812E0,5.4299232E1,9.08825E1,2.4744089E0,2.3528711E2,5.893022E1,1.312158E2,4.557393E1,5.869778E-1,2.8459734E1,6.664761E0,5.7089043E1,-2.4377987E0,-1.2615097E0,1.8417818E1,-1.3423663E1,2.0443518E0,1.8318058E1,8.9455426E-1,6.021854E1,-5.1726036E0,4.8386105E1,1.6911304E1,1.9521982E1,2.4233236E0,5.773455E0,5.7834835E1,1.2623503E1,2.3844656E-1,5.8500336E1,9.850691E0,8.037422E1,1.345164E2,1.2838849E1,2.6586952E0,4.4154325E0,1.9125048E0,7.513772E0,3.0457656E0,1.9451542E0,3.3540668E0,-3.519701E-1,1.1508798E-1,6.075626E-1,2.1656244E0,5.779349E-1,-1.09394295E-2,4.7334466E0,2.5354803E0,2.427824E-2,-3.1511796E-1,7.2931826E-1,-2.1394633E-1,3.527951E0,-3.9044347E-1,-4.2962638E-1,-7.99211E-1,2.6017892E0,-5.391991E-1,3.0227855E-1,1.8730726E0,1.2968953E-1,-4.1062856E-1,4.4482665E0,2.82249E0,-4.9009062E-2,-5.109014E-1,1.4291807E0,3.3590589E0,2.9109666E-1,1.1698979E0,-8.311668E-2,1.0797235E0,-4.3686756E-1,1.825733E-1,2.3382318E0,3.3916957E0,8.2442015E-1,-3.4790984E-1,-1.9239885E-1,1.8783961E-1,3.0283833E0,4.8841116E-1,7.230032E-1,1.544349E-1,4.2477584E0,3.688316E-1,3.7486992E0,7.86523E0],"categories":[],"categories_nodes":[],"categories_segments":[],"categories_sizes":[],"default_left":[0,0,0,0,0,0,0,0,0,0,0,0,0,0,0,0,0,0,0,0,0,0,0,0,0,0,0,0,0,0,0,0,0,0,0,0,0,0,0,0,0,0,0,0,0,0,0,0,0,0,0,0,0,0,0,0,0,0,0,0,0,0,0,0,0,0,0,0,0,0,0,0,0,0,0,0,0,0,0,0,0,0,0,0,0,0,0,0,0,0,0,0,0,0,0,0,0,0,0,0,0,0,0,0,0,0,0,0,0,0,0,0,0,0,0],"id":2,"left_children":[1,3,5,7,9,11,13,15,17,19,21,23,25,27,29,31,33,35,37,39,41,43,45,47,49,51,53,55,57,-1,59,61,63,65,67,69,71,73,75,77,79,81,83,85,87,89,91,93,95,97,99,-1,101,103,105,107,109,111,113,-1,-1,-1,-1,-1,-1,-1,-1,-1,-1,-1,-1,-1,-1,-1,-1,-1,-1,-1,-1,-1,-1,-1,-1,-1,-1,-1,-1,-1,-1,-1,-1,-1,-1,-1,-1,-1,-1,-1,-1,-1,-1,-1,-1,-1,-1,-1,-1,-1,-1,-1,-1,-1,-1,-1,-1],"loss_changes":[2.3262225E6,2.0913095E6,6.2153175E5,5.0568638E5,3.9636638E5,1.6551494E5,1.76944E5,1.687575E5,1.4767925E5,2.31749E5,6.3550453E4,1.3243544E5,1.4809738E5,1.06703125E5,1.1359875E4,9.804756E4,2.7290562E4,1.4166214E5,2.3554175E5,5.9590336E4,1.29926875E5,5.812216E4,1.998205E5,8.193069E4,5.980461E4,3.8981812E4,2.0258027E3,4.8721188E4,4.4669E4,0E0,1.37413125E4,2.2746812E4,4.3102062E4,5.277075E4,2.1236665E2,9.684847E4,3.908021E4,4.1708688E4,1.1554066E3,5.8593652E4,2.4122942E5,1.16379375E5,3.705952E5,5.521868E4,1.57440625E4,4.0784375E3,2.2321545E3,7.623944E4,9.934383E3,2.273436E4,4.692248E3,0E0,1.5202625E4,1.6283555E3,5.895541E2,2.3688E4,7.0338257E2,3.2813125E4,1.805725E4,0E0,0E0,0E0,0E0,0E0,0E0,0E0,0E0,0E0,0E0,0E0,0E0,0E0,0E0,0E0,0E0,0E0,0E0,0E0,0E0,0E0,0E0,0E0,0E0,0E0,0E0,0E0,0E0,0E0,0E0,0E0,0E0,0E0,0E0,0E0,0E0,0E0,0E0,0E0,0E0,0E0,0E0,0E0,0E0,0E0,0E0,0E0,0E0,0E0,0E0,0E0,0E0,0E0,0E0,0E0,0E0],"parents":[2147483647,0,0,1,1,2,2,3,3,4,4,5,5,6,6,7,7,8,8,9,9,10,10,11,11,12,12,13,13,14,14,15,15,16,16,17,17,18,18,19,19,20,20,21,21,22,22,23,23,24,24,25,25,26,26,27,27,28,28,30,30,31,31,32,32,33,33,34,34,35,35,36,36,37,37,38,38,39,39,40,40,41,41,42,42,43,43,44,44,45,45,46,46,47,47,48,48,49,49,50,50,52,52,53,53,54,54,55,55,56,56,57,57,58,58],"right_children":[2,4,6,8,10,12,14,16,18,20,22,24,26,28,30,32,34,36,38,40,42,44,46,48,50,52,54,56,58,-1,60,62,64,66,68,70,72,74,76,78,80,82,84,86,88,90,92,94,96,98,100,-1,102,104,106,108,110,112,114,-1,-1,-1,-1,-1,-1,-1,-1,-1,-1,-1,-1,-1,-1,-1,-1,-1,-1,-1,-1,-1,-1,-1,-1,-1,-1,-1,-1,-1,-1,-1,-1,-1,-1,-1,-1,-1,-1,-1,-1,-1,-1,-1,-1,-1,-1,-1,-1,-1,-1,-1,-1,-1,-1,-1,-1],"split_conditions":[8E0,-5E0,2.1E1,-1.7E1,4E0,1.7E1,6.4E1,-3.3E1,1.8E1,-2E0,1.8E1,3E0,1.9E1,1.7E1,8E0,1.7E1,1.9E1,3E0,1.9E1,1.8E1,1.8E1,3E0,1.9E1,3E1,2.9E1,5E0,5E0,1.4E1,4E1,2.4744089E0,4.3E1,3E0,4.3E1,1.7E1,-2.9E1,2E0,3E1,7E0,-8E0,3E0,1.9E1,8E0,1.9E1,2E0,1.5E1,7E0,2.3E1,2E0,2E0,4E0,4E0,5.773455E0,2.7E1,2.9E1,1.5E1,4.3E1,1.5E1,1.9E1,2.5E1,1.2838849E1,2.6586952E0,4.4154325E0,1.9125048E0,7.513772E0,3.0457656E0,1.9451542E0,3.3540668E0,-3.519701E-1,1.1508798E-1,6.075626E-1,2.1656244E0,5.779349E-1,-1.09394295E-2,4.7334466E0,2.5354803E0,2.427824E-2,-3.1511796E-1,7.2931826E-1,-2.1394633E-1,3.527951E0,-3.9044347E-1,-4.2962638E-1,-7.99211E-1,2.6017892E0,-5.391991E-1,3.0227855E-1,1.8730726E0,1.2968953E-1,-4.1062856E-1,4.4482665E0,2.82249E0,-4.9009062E-2,-5.109014E-1,1.4291807E0,3.3590589E0,2.9109666E-1,1.1698979E0,-8.311668E-2,1.0797235E0,-4.3686756E-1,1.825733E-1,2.3382318E0,3.3916957E0,8.2442015E-1,-3.4790984E-1,-1.9239885E-1,1.8783961E-1,3.0283833E0,4.8841116E-1,7.230032E-1,1.544349E-1,4.2477584E0,3.688316E-1,3.7486992E0,7.86523E0],"split_indices":[4,4,4,4,4,3,4,4,3,4,3,3,3,3,2,3,3,3,3,3,3,3,3,2,2,2,1,3,4,0,2,3,2,3,4,3,2,2,4,3,3,3,3,3,3,2,2,3,3,3,3,0,2,2,2,2,3,3,2,0,0,0,0,0,0,0,0,0,0,0,0,0,0,0,0,0,0,0,0,0,0,0,0,0,0,0,0,0,0,0,0,0,0,0,0,0,0,0,0,0,0,0,0,0,0,0,0,0,0,0,0,0,0,0,0],"split_type":[0,0,0,0,0,0,0,0,0,0,0,0,0,0,0,0,0,0,0,0,0,0,0,0,0,0,0,0,0,0,0,0,0,0,0,0,0,0,0,0,0,0,0,0,0,0,0,0,0,0,0,0,0,0,0,0,0,0,0,0,0,0,0,0,0,0,0,0,0,0,0,0,0,0,0,0,0,0,0,0,0,0,0,0,0,0,0,0,0,0,0,0,0,0,0,0,0,0,0,0,0,0,0,0,0,0,0,0,0,0,0,0,0,0,0],"sum_hessian":[1.6992E4,1.5163E4,1.829E3,2.333E3,1.283E4,1.439E3,3.9E2,4.79E2,1.854E3,1.1392E4,1.438E3,1.203E3,2.36E2,3.83E2,7E0,8E1,3.99E2,1.56E3,2.94E2,1.398E3,9.994E3,1.25E3,1.88E2,3.48E2,8.55E2,1.78E2,5.8E1,2.63E2,1.2E2,1E0,6E0,4.2E1,3.8E1,3.85E2,1.4E1,4.01E2,1.159E3,1.93E2,1.01E2,1.223E3,1.75E2,9.418E3,5.76E2,2.35E2,1.015E3,8.3E1,1.05E2,2.09E2,1.39E2,5.16E2,3.39E2,1.3E1,1.65E2,1.9E1,3.9E1,2.4E2,2.3E1,9.9E1,2.1E1,5E0,1E0,1.6E1,2.6E1,2.9E1,9E0,2.96E2,8.9E1,2E0,1.2E1,1.92E2,2.09E2,6.77E2,4.82E2,2.6E1,1.67E2,5.8E1,4.3E1,1.95E2,1.028E3,5.8E1,1.17E2,3.264E3,6.154E3,1.17E2,4.59E2,1.44E2,9.1E1,8.56E2,1.59E2,7E0,7.6E1,5.8E1,4.7E1,1.03E2,1.06E2,5.2E1,8.7E1,4.6E1,4.7E2,3.3E1,3.06E2,8.1E1,8.4E1,1.6E1,3E0,1.8E1,2.1E1,2.3E2,1E1,1.3E1,1E1,9.3E1,6E0,7E0,1.4E1],"tree_param":{"num_deleted":"0","num_feature":"6","num_nodes":"115","size_leaf_vector":"1"}},{"base_weights":[1.2700057E-2,-9.231111E0,5.8476128E1,-1.5885419E1,5.260794E0,4.8338398E1,1.26102196E2,-1.7432901E1,-9.473989E0,4.2597806E-1,1.4151503E1,3.80173E1,6.913928E1,1.08186905E2,1.0729491E1,-1.7861395E1,-1.5249949E1,-1.130123E1,-7.2633038E0,-2.974199E0,3.4075038E0,1.1200734E1,1.9348877E1,3.0290855E1,4.608314E1,4.3163147E0,6.406804E1,1.22922455E2,9.8142E1,-1.8189499E1,-1.7377079E1,-1.5643648E1,-1.4054194E1,-9.490443E0,-1.1836255E1,-8.50935E0,-6.131468E0,-3.916511E0,-6.562596E-1,1.8973621E0,5.9781723E0,1.385512E1,9.228817E0,2.255847E1,1.5927958E1,3.8020317E1,2.7355503E1,5.6632126E1,4.246702E1,2.673364E0,6.899172E1,5.2399225E0,6.696369E0,4.145386E0,5.2480974E0,-9.4109565E-1,-8.9735967E-1,-8.8062966E-1,-8.4258616E-1,-7.366892E-1,-7.987648E-1,-5.8813053E-1,-7.1636295E-1,-4.34868E-1,-5.7224E-1,-6.28358E-1,-5.419025E-1,-3.783518E-1,-5.1968855E-1,-1.18120566E-1,-3.5387367E-1,-2.6437587E-1,-1.4972214E-1,-1.7497794E-1,2.0429863E-2,1.7409949E-1,3.1398784E-2,3.658405E-1,2.1882021E-1,4.9401584E-1,7.250129E-1,3.8550267E-1,5.7052016E-1,1.2338068E0,1.0288032E0,7.13577E-1,1.0550723E0,1.716432E0,2.2347116E0,1.2401425E0,1.589578E0,2.1737585E0,3.0034406E0,1.8627195E0,2.2854714E0,3.1543875E0,3.5736854E0],"categories":[],"categories_nodes":[],"categories_segments":[],"categories_sizes":[],"default_left":[0,0,0,0,0,0,0,0,0,0,0,0,0,0,0,0,0,0,0,0,0,0,0,0,0,0,0,0,0,0,0,0,0,0,0,0,0,0,0,0,0,0,0,0,0,0,0,0,0,0,0,0,0,0,0,0,0,0,0,0,0,0,0,0,0,0,0,0,0,0,0,0,0,0,0,0,0,0,0,0,0,0,0,0,0,0,0,0,0,0,0,0,0,0,0,0,0],"id":3,"left_children":[1,3,5,7,9,11,13,15,17,19,21,23,25,27,-1,29,31,33,35,37,39,41,43,45,47,-1,49,51,53,55,57,59,61,63,65,67,69,71,73,75,77,79,81,83,85,87,89,91,93,-1,95,-1,-1,-1,-1,-1,-1,-1,-1,-1,-1,-1,-1,-1,-1,-1,-1,-1,-1,-1,-1,-1,-1,-1,-1,-1,-1,-1,-1,-1,-1,-1,-1,-1,-1,-1,-1,-1,-1,-1,-1,-1,-1,-1,-1,-1,-1],"loss_changes":[9.219107E6,1.4205505E6,1.5906075E6,9.999325E4,1.9927216E5,4.32544E5,4.571245E5,7.333E3,7.855453E3,3.0463834E4,2.4827375E4,8.3172625E4,5.29535E4,2.55325E4,0E0,7.6325E2,4.114375E2,9.281719E2,1.205832E3,3.0640771E3,6.2038574E3,5.336664E3,6.1187344E3,1.47513125E4,2.2848E4,0E0,2.355675E4,5.7105E3,7.505875E3,2.7925E2,4.525E1,6.6359375E1,4.5484375E1,2.8795117E2,4.6570312E2,6.707031E2,1.6626543E3,1.2457998E3,1.2337064E3,2.0294331E3,1.2373379E3,9.9271094E2,1.9066367E3,7.6009375E2,2.1754297E3,3.12225E3,4.9639375E3,4.8944375E3,6.6970625E3,0E0,6.63625E2,0E0,0E0,0E0,0E0,0E0,0E0,0E0,0E0,0E0,0E0,0E0,0E0,0E0,0E0,0E0,0E0,0E0,0E0,0E0,0E0,0E0,0E0,0E0,0E0,0E0,0E0,0E0,0E0,0E0,0E0,0E0,0E0,0E0,0E0,0E0,0E0,0E0,0E0,0E0,0E0,0E0,0E0,0E0,0E0,0E0,0E0],"parents":[2147483647,0,0,1,1,2,2,3,3,4,4,5,5,6,6,7,7,8,8,9,9,10,10,11,11,12,12,13,13,15,15,16,16,17,17,18,18,19,19,20,20,21,21,22,22,23,23,24,24,26,26,27,27,28,28,29,29,30,30,31,31,32,32,33,33,34,34,35,35,36,36,37,37,38,38,39,39,40,40,41,41,42,42,43,43,44,44,45,45,46,46,47,47,48,48,50,50],"right_children":[2,4,6,8,10,12,14,16,18,20,22,24,26,28,-1,30,32,34,36,38,40,42,44,46,48,-1,50,52,54,56,58,60,62,64,66,68,70,72,74,76,78,80,82,84,86,88,90,92,94,-1,96,-1,-1,-1,-1,-1,-1,-1,-1,-1,-1,-1,-1,-1,-1,-1,-1,-1,-1,-1,-1,-1,-1,-1,-1,-1,-1,-1,-1,-1,-1,-1,-1,-1,-1,-1,-1,-1,-1,-1,-1,-1,-1,-1,-1,-1,-1],"split_conditions":[5E1,1.4E1,1.3E2,6E0,3.1E1,8.7E1,2.14E2,3E0,1E1,2.1E1,4.1E1,6.5E1,5E0,7E0,1.0729491E1,1E0,5E0,4E0,7E0,1.9E1,2.7E1,7E0,8E0,5E0,5E0,4.3163147E0,9.7E1,1.44E2,1.44E2,5E0,2E0,7E0,4E0,1E1,8E0,6E0,1.3E1,7E0,4E0,7E0,8E0,2E0,3.6E1,5E0,1.2E1,6E1,5.9E1,2E0,7.3E1,2.673364E0,1.05E2,5.2399225E0,6.696369E0,4.145386E0,5.2480974E0,-9.4109565E-1,-8.9735967E-1,-8.8062966E-1,-8.4258616E-1,-7.366892E-1,-7.987648E-1,-5.8813053E-1,-7.1636295E-1,-4.34868E-1,-5.7224E-1,-6.28358E-1,-5.419025E-1,-3.783518E-1,-5.1968855E-1,-1.18120566E-1,-3.5387367E-1,-2.6437587E-1,-1.4972214E-1,-1.7497794E-1,2.0429863E-2,1.7409949E-1,3.1398784E-2,3.658405E-1,2.1882021E-1,4.9401584E-1,7.250129E-1,3.8550267E-1,5.7052016E-1,1.2338068E0,1.0288032E0,7.13577E-1,1.0550723E0,1.716432E0,2.2347116E0,1.2401425E0,1.589578E0,2.1737585E0,3.0034406E0,1.8627195E0,2.2854714E0,3.1543875E0,3.5736854E0],"split_indices":[5,5,5,5,5,5,5,5,5,5,5,5,1,1,0,5,5,3,3,5,5,1,1,1,1,0,5,5,5,3,5,3,3,1,5,3,3,3,3,1,1,1,5,1,1,5,5,1,5,0,5,0,0,0,0,0,0,0,0,0,0,0,0,0,0,0,0,0,0,0,0,0,0,0,0,0,0,0,0,0,0,0,0,0,0,0,0,0,0,0,0,0,0,0,0,0,0],"split_type":[0,0,0,0,0,0,0,0,0,0,0,0,0,0,0,0,0,0,0,0,0,0,0,0,0,0,0,0,0,0,0,0,0,0,0,0,0,0,0,0,0,0,0,0,0,0,0,0,0,0,0,0,0,0,0,0,0,0,0,0,0,0,0,0,0,0,0,0,0,0,0,0,0,0,0,0,0,0,0,0,0,0,0,0,0,0,0,0,0,0,0,0,0,0,0,0,0],"sum_hessian":[1.7057E4,1.4729E4,2.328E3,1.0094E4,4.635E3,2.026E3,3.02E2,8.13E3,1.964E3,3.003E3,1.632E3,1.356E3,6.7E2,2.53E2,4.9E1,6.79E3,1.34E3,1.073E3,8.91E2,1.403E3,1.6E3,1.043E3,5.89E2,6.95E2,6.61E2,1.49E2,5.21E2,9.8E1,1.55E2,4.026E3,2.764E3,9.99E2,3.41E2,2.49E2,8.24E2,4.21E2,4.7E2,9.97E2,4.06E2,1.009E3,5.91E2,4.42E2,6.01E2,3.01E2,2.88E2,1.88E2,5.07E2,1.65E2,4.96E2,1.69E2,3.52E2,4.1E1,5.7E1,5.2E1,1.03E2,1.094E3,2.932E3,1.886E3,8.78E2,2.79E2,7.2E2,4.1E1,3E2,1.81E2,6.8E1,4.69E2,3.55E2,2.84E2,1.37E2,9.5E1,3.75E2,3.99E2,5.98E2,1.1E2,2.96E2,4.48E2,5.61E2,3.2E2,2.71E2,6.4E1,3.78E2,3.57E2,2.44E2,1.4E2,1.61E2,2.21E2,6.7E1,1.25E2,6.3E1,3.26E2,1.81E2,3.7E1,1.28E2,1.95E2,3.01E2,1.12E2,2.4E2],"tree_param":{"num_deleted":"0","num_feature":"6","num_nodes":"97","size_leaf_vector":"1"}},{"base_weights":[2.194518E-2,-8.829578E0,5.583529E1,-1.4919944E1,5.4644203E0,4.5445293E1,1.12766266E2,-1.6563644E1,-8.739843E0,1.1037651E0,1.41462555E1,3.611499E1,6.509693E1,9.7479225E1,1.0143845E1,-1.6961014E1,-1.4530724E1,-1.0789435E1,-6.8287234E0,-2.1106987E0,3.7969806E0,1.1309572E1,1.8281954E1,2.8952282E1,4.3652473E1,8.053387E1,6.0335354E1,8.593025E1,1.0776141E2,-1.76287E1,-1.6749632E1,-7.6120293E-1,-1.3968876E1,-9.34356E0,-1.1210992E1,-8.224154E0,-5.642049E0,-3.439506E0,-3.49186E-1,1.4529347E0,5.1383142E0,1.3483638E1,8.809386E0,2.1110697E1,1.5077422E1,3.3454475E1,2.328901E1,5.4688595E1,3.9715294E1,6.568749E1,4.1675186E0,5.0396183E1,6.5318245E1,5.5091047E0,3.973056E0,5.955952E0,4.7963243E0,-8.5412884E-1,-9.0619564E-1,-7.0056325E-1,-8.3971375E-1,-6.169662E-1,-7.064621E-1,-4.7130227E-1,1.7116038E-2,-5.942341E-1,-5.128904E-1,-3.77856E-1,-4.8866114E-1,-1.3964798E-1,-3.2276663E-1,-1.3215265E-1,-2.3834848E-1,5.0241288E-2,-8.998498E-2,1.6458379E-1,1.9485587E-2,3.1007472E-1,1.6773304E-1,7.396944E-1,5.758129E-1,3.7706077E-1,6.109472E-1,8.8617E-1,1.1098825E0,7.091574E-1,1.0591604E0,1.5028021E0,1.9272139E0,1.0790311E0,1.5295693E0,2.5228965E0,3.2107022E0,2.203104E0,1.8465685E0,1.8545239E0,3.5900376E0,2.772479E0,2.3522139E0,3.5101037E0,3.1046798E0],"categories":[],"categories_nodes":[],"categories_segments":[],"categories_sizes":[],"default_left":[0,0,0,0,0,0,0,0,0,0,0,0,0,0,0,0,0,0,0,0,0,0,0,0,0,0,0,0,0,0,0,0,0,0,0,0,0,0,0,0,0,0,0,0,0,0,0,0,0,0,0,0,0,0,0,0,0,0,0,0,0,0,0,0,0,0,0,0,0,0,0,0,0,0,0,0,0,0,0,0,0,0,0,0,0,0,0,0,0,0,0,0,0,0,0,0,0,0,0,0,0],"id":4,"left_children":[1,3,5,7,9,11,13,15,17,19,21,23,25,27,-1,29,31,33,35,37,39,41,43,45,47,49,51,53,55,57,59,-1,61,63,65,67,69,71,73,75,77,79,81,83,85,87,89,91,93,95,-1,97,99,-1,-1,-1,-1,-1,-1,-1,-1,-1,-1,-1,-1,-1,-1,-1,-1,-1,-1,-1,-1,-1,-1,-1,-1,-1,-1,-1,-1,-1,-1,-1,-1,-1,-1,-1,-1,-1,-1,-1,-1,-1,-1,-1,-1,-1,-1,-1,-1],"loss_changes":[8.387694E6,1.2757955E6,1.3695515E6,1.0424125E5,1.6576672E5,3.5831E5,4.73377E5,6.31E3,8.390984E3,2.525254E4,1.6968406E4,7.086525E4,4.15955E4,2.73145E4,0E0,6.61875E2,3.0696875E2,5.297656E2,1.8098867E3,3.1119443E3,4.982295E3,4.6156016E3,5.0661875E3,1.6762938E4,2.6027875E4,6.29875E2,2.082725E4,1.4778125E4,9.9455E3,1.26375E2,3.97125E2,0E0,2.1390625E1,1.9577344E2,3.9245312E2,4.5621875E2,1.3930957E3,7.8880566E2,1.1271876E3,1.1306573E3,1.8926074E3,1.0257109E3,1.6720078E3,7.59E2,1.2393438E3,5.4317812E3,3.1822031E3,3.5301562E3,4.2054375E3,2.2318594E3,0E0,2.20125E2,6.9625E2,0E0,0E0,0E0,0E0,0E0,0E0,0E0,0E0,0E0,0E0,0E0,0E0,0E0,0E0,0E0,0E0,0E0,0E0,0E0,0E0,0E0,0E0,0E0,0E0,0E0,0E0,0E0,0E0,0E0,0E0,0E0,0E0,0E0,0E0,0E0,0E0,0E0,0E0,0E0,0E0,0E0,0E0,0E0,0E0,0E0,0E0,0E0,0E0],"parents":[2147483647,0,0,1,1,2,2,3,3,4,4,5,5,6,6,7,7,8,8,9,9,10,10,11,11,12,12,13,13,15,15,16,16,17,17,18,18,19,19,20,20,21,21,22,22,23,23,24,24,25,25,26,26,27,27,28,28,29,29,30,30,32,32,33,33,34,34,35,35,36,36,37,37,38,38,39,39,40,40,41,41,42,42,43,43,44,44,45,45,46,46,47,47,48,48,49,49,51,51,52,52],"right_children":[2,4,6,8,10,12,14,16,18,20,22,24,26,28,-1,30,32,34,36,38,40,42,44,46,48,50,52,54,56,58,60,-1,62,64,66,68,70,72,74,76,78,80,82,84,86,88,90,92,94,96,-1,98,100,-1,-1,-1,-1,-1,-1,-1,-1,-1,-1,-1,-1,-1,-1,-1,-1,-1,-1,-1,-1,-1,-1,-1,-1,-1,-1,-1,-1,-1,-1,-1,-1,-1,-1,-1,-1,-1,-1,-1,-1,-1,-1,-1,-1,-1,-1,-1,-1],"split_conditions":[5E1,1.5E1,1.25E2,6E0,3.2E1,8.7E1,2.14E2,3E0,1E1,2.2E1,4.1E1,6.5E1,5E0,1.44E2,1.0143845E1,5E0,4E0,6E0,7E0,1.9E1,2.5E1,8E0,8E0,8E0,5E0,9.2E1,9.7E1,5E0,8E0,4E0,7E0,-7.6120293E-1,4E0,5E0,8E0,6E0,1.3E1,9E0,8E0,6E0,9E0,2.024E3,1.3E1,4.3E1,4.9E1,5.9E1,1.2E1,8.1E1,8E0,2E0,4.1675186E0,8E0,8E0,5.5091047E0,3.973056E0,5.955952E0,4.7963243E0,-8.5412884E-1,-9.0619564E-1,-7.0056325E-1,-8.3971375E-1,-6.169662E-1,-7.064621E-1,-4.7130227E-1,1.7116038E-2,-5.942341E-1,-5.128904E-1,-3.77856E-1,-4.8866114E-1,-1.3964798E-1,-3.2276663E-1,-1.3215265E-1,-2.3834848E-1,5.0241288E-2,-8.998498E-2,1.6458379E-1,1.9485587E-2,3.1007472E-1,1.6773304E-1,7.396944E-1,5.758129E-1,3.7706077E-1,6.109472E-1,8.8617E-1,1.1098825E0,7.091574E-1,1.0591604E0,1.5028021E0,1.9272139E0,1.0790311E0,1.5295693E0,2.5228965E0,3.2107022E0,2.203104E0,1.8465685E0,1.8545239E0,3.5900376E0,2.772479E0,2.3522139E0,3.5101037E0,3.1046798E0],"split_indices":[5,5,5,5,5,5,5,5,5,5,5,5,1,5,0,3,5,3,3,5,5,1,1,1,1,5,5,1,1,3,3,0,3,3,5,3,3,1,1,1,1,0,3,5,5,5,1,5,1,1,0,1,1,0,0,0,0,0,0,0,0,0,0,0,0,0,0,0,0,0,0,0,0,0,0,0,0,0,0,0,0,0,0,0,0,0,0,0,0,0,0,0,0,0,0,0,0,0,0,0,0],"split_type":[0,0,0,0,0,0,0,0,0,0,0,0,0,0,0,0,0,0,0,0,0,0,0,0,0,0,0,0,0,0,0,0,0,0,0,0,0,0,0,0,0,0,0,0,0,0,0,0,0,0,0,0,0,0,0,0,0,0,0,0,0,0,0,0,0,0,0,0,0,0,0,0,0,0,0,0,0,0,0,0,0,0,0,0,0,0,0,0,0,0,0,0,0,0,0,0,0,0,0,0,0],"sum_hessian":[1.6976E4,1.4653E4,2.323E3,1.0275E4,4.378E3,1.966E3,3.57E2,8.115E3,2.16E3,2.915E3,1.463E3,1.335E3,6.31E2,3.07E2,5E1,6.782E3,1.333E3,1.04E3,1.12E3,1.329E3,1.586E3,8.7E2,5.93E2,6.87E2,6.48E2,1.45E2,4.86E2,1.49E2,1.58E2,1.611E3,5.171E3,5.85E2,7.48E2,2.4E2,8E2,5.12E2,6.08E2,7.57E2,5.72E2,5.78E2,1.008E3,4.63E2,4.07E2,3.12E2,2.81E2,3.8E2,3.07E2,1.67E2,4.81E2,2.7E1,1.18E2,1.66E2,3.2E2,2.8E1,1.21E2,7.6E1,8.2E1,7.83E2,8.28E2,8.8E1,5.083E3,7.4E1,6.74E2,2.38E2,2E0,4.62E2,3.38E2,3.62E2,1.5E2,1.36E2,4.72E2,4.75E2,2.82E2,2.96E2,2.76E2,2.11E2,3.67E2,6.3E2,3.78E2,2.74E2,1.89E2,2.99E2,1.08E2,8E1,2.32E2,2.48E2,3.3E1,2.32E2,1.48E2,2.52E2,5.5E1,1.2E2,4.7E1,1.82E2,2.99E2,6E0,2.1E1,6E1,1.06E2,1.19E2,2.01E2],"tree_param":{"num_deleted":"0","num_feature":"6","num_nodes":"101","size_leaf_vector":"1"}},{"base_weights":[4.897843E-2,-8.448332E0,5.3001183E1,-1.4389442E1,4.7342567E0,4.3812313E1,1.12157616E2,-1.5746163E1,-8.618058E0,-1.0317198E-1,1.167977E1,3.42592E1,6.288242E1,9.596923E1,1.931219E2,-1.613023E1,-1.3816336E1,-1.0219463E1,-6.6895137E0,-3.0474904E0,2.124718E0,8.231721E0,1.5369118E1,2.7744986E1,4.158127E1,5.332622E1,6.706163E1,9.1536964E1,5.7636714E0,4.3947453E0,1.0122309E1,-1.6434933E1,-1.5681132E1,-1.257328E1,-7.431463E-1,-7.5869555E0,-1.1058963E1,-4.765641E0,-8.432338E0,-1.6044565E0,-5.1285086E0,3.4362154E0,-3.7631547E-1,1.031121E1,4.7071104E0,1.9157858E1,1.2017398E1,3.139634E1,2.379865E1,3.659764E1,4.4419556E1,2.8468812E0,4.163826E1,7.191543E1,6.3098606E1,9.51985E1,3.7040412E0,-8.488696E-1,-8.1064683E-1,-7.399392E-1,-7.99416E-1,-5.7508886E-1,-6.587018E-1,-4.5425225E-2,-3.8980976E-1,-5.017858E-1,-6.116448E-1,-1.5150838E-1,-2.772566E-1,-3.7902725E-1,-5.04335E-1,1.6348718E-1,-8.774176E-2,-3.372357E-1,-2.0032115E-1,9.058442E-2,2.6219377E-1,-1.2726283E-1,2.342294E-2,3.952083E-1,6.048674E-1,2.8353915E-1,4.5907382E-2,8.758686E-1,1.2090496E0,4.785842E-1,7.4121803E-1,1.3682765E0,1.8180304E0,1.0601416E0,1.3830614E0,1.9820356E0,1.3828677E0,2.3045146E0,1.8743126E0,2.1053395E0,4.201586E-1,6.8482E-1,3.6066837E0,1.7308664E0,3.180936E0,4.865251E0,3.6113622E0],"categories":[],"categories_nodes":[],"categories_segments":[],"categories_sizes":[],"default_left":[0,0,0,0,0,0,0,0,0,0,0,0,0,0,0,0,0,0,0,0,0,0,0,0,0,0,0,0,0,0,0,0,0,0,0,0,0,0,0,0,0,0,0,0,0,0,0,0,0,0,0,0,0,0,0,0,0,0,0,0,0,0,0,0,0,0,0,0,0,0,0,0,0,0,0,0,0,0,0,0,0,0,0,0,0,0,0,0,0,0,0,0,0,0,0,0,0,0,0,0,0,0,0],"id":5,"left_children":[1,3,5,7,9,11,13,15,17,19,21,23,25,27,29,31,33,35,37,39,41,43,45,47,49,51,53,55,-1,-1,-1,57,59,61,-1,63,65,67,69,71,73,75,77,79,81,83,85,87,89,91,93,-1,95,97,99,101,-1,-1,-1,-1,-1,-1,-1,-1,-1,-1,-1,-1,-1,-1,-1,-1,-1,-1,-1,-1,-1,-1,-1,-1,-1,-1,-1,-1,-1,-1,-1,-1,-1,-1,-1,-1,-1,-1,-1,-1,-1,-1,-1,-1,-1,-1,-1],"loss_changes":[7.711713E6,1.1567646E6,1.2833725E6,7.9583E4,1.5418438E5,3.71859E5,3.98263E5,5.885875E3,5.9230938E3,1.7756797E4,2.3839953E4,6.4191875E4,2.374125E4,1.2293E4,3.32265E4,6.82125E2,1.6019688E3,2.2542656E3,2.9204883E3,3.493246E3,5.055926E3,7.104953E3,1.1312969E4,9.7429375E3,7.469625E3,6.619875E3,4.5415E3,7.137125E3,0E0,0E0,0E0,2.15E2,5.2175E2,2.5723438E2,0E0,3.5484277E2,8.3821875E2,5.5407324E2,5.745742E2,5.1149133E2,8.3802734E2,2.9593936E3,9.741255E2,2.5398516E3,1.3238745E3,3.0785781E3,3.1876406E3,6.5087188E3,2.9629062E3,5.405875E3,2.9636875E3,0E0,4.8703906E2,1.61675E3,1.767625E3,1.682E3,0E0,0E0,0E0,0E0,0E0,0E0,0E0,0E0,0E0,0E0,0E0,0E0,0E0,0E0,0E0,0E0,0E0,0E0,0E0,0E0,0E0,0E0,0E0,0E0,0E0,0E0,0E0,0E0,0E0,0E0,0E0,0E0,0E0,0E0,0E0,0E0,0E0,0E0,0E0,0E0,0E0,0E0,0E0,0E0,0E0,0E0,0E0],"parents":[2147483647,0,0,1,1,2,2,3,3,4,4,5,5,6,6,7,7,8,8,9,9,10,10,11,11,12,12,13,13,14,14,15,15,16,16,17,17,18,18,19,19,20,20,21,21,22,22,23,23,24,24,25,25,26,26,27,27,31,31,32,32,33,33,35,35,36,36,37,37,38,38,39,39,40,40,41,41,42,42,43,43,44,44,45,45,46,46,47,47,48,48,49,49,50,50,52,52,53,53,54,54,55,55],"right_children":[2,4,6,8,10,12,14,16,18,20,22,24,26,28,30,32,34,36,38,40,42,44,46,48,50,52,54,56,-1,-1,-1,58,60,62,-1,64,66,68,70,72,74,76,78,80,82,84,86,88,90,92,94,-1,96,98,100,102,-1,-1,-1,-1,-1,-1,-1,-1,-1,-1,-1,-1,-1,-1,-1,-1,-1,-1,-1,-1,-1,-1,-1,-1,-1,-1,-1,-1,-1,-1,-1,-1,-1,-1,-1,-1,-1,-1,-1,-1,-1,-1,-1,-1,-1,-1,-1],"split_conditions":[5E1,1.4E1,1.3E2,6E0,2.9E1,8.7E1,2.14E2,3E0,1E1,2E1,3.7E1,6.6E1,9.7E1,1.73E2,5E0,1E0,1E0,-3E0,0E0,2E0,4E0,5E0,2E0,3E0,7.3E1,1.4E1,0E0,3.5E1,5.7636714E0,4.3947453E0,1.0122309E1,5E0,0E0,-2E0,-7.431463E-1,-1.6E1,2E0,-6E0,5E0,2E0,7E0,2.4E1,4E0,3.2E1,1.4E1,4.7E1,4.3E1,5.8E1,5.9E1,9E0,1.7E1,2.8468812E0,4.6E1,-6.2E1,2E0,3.7E1,3.7040412E0,-8.488696E-1,-8.1064683E-1,-7.399392E-1,-7.99416E-1,-5.7508886E-1,-6.587018E-1,-4.5425225E-2,-3.8980976E-1,-5.017858E-1,-6.116448E-1,-1.5150838E-1,-2.772566E-1,-3.7902725E-1,-5.04335E-1,1.6348718E-1,-8.774176E-2,-3.372357E-1,-2.0032115E-1,9.058442E-2,2.6219377E-1,-1.2726283E-1,2.342294E-2,3.952083E-1,6.048674E-1,2.8353915E-1,4.5907382E-2,8.758686E-1,1.2090496E0,4.785842E-1,7.4121803E-1,1.3682765E0,1.8180304E0,1.0601416E0,1.3830614E0,1.9820356E0,1.3828677E0,2.3045146E0,1.8743126E0,2.1053395E0,4.201586E-1,6.8482E-1,3.6066837E0,1.7308664E0,3.180936E0,4.865251E0,3.6113622E0],"split_indices":[5,5,5,5,5,5,5,5,5,5,5,5,5,5,2,5,4,4,4,4,4,4,4,4,5,4,4,2,0,0,0,3,4,4,0,4,4,4,4,2,3,5,3,5,4,5,5,5,5,4,4,0,4,4,3,4,0,0,0,0,0,0,0,0,0,0,0,0,0,0,0,0,0,0,0,0,0,0,0,0,0,0,0,0,0,0,0,0,0,0,0,0,0,0,0,0,0,0,0,0,0,0,0],"split_type":[0,0,0,0,0,0,0,0,0,0,0,0,0,0,0,0,0,0,0,0,0,0,0,0,0,0,0,0,0,0,0,0,0,0,0,0,0,0,0,0,0,0,0,0,0,0,0,0,0,0,0,0,0,0,0,0,0,0,0,0,0,0,0,0,0,0,0,0,0,0,0,0,0,0,0,0,0,0,0,0,0,0,0,0,0,0,0,0,0,0,0,0,0,0,0,0,0,0,0,0,0,0,0],"sum_hessian":[1.7137E4,1.4768E4,2.369E3,1.018E4,4.588E3,2.052E3,3.17E2,8.241E3,1.939E3,2.705E3,1.883E3,1.369E3,6.83E2,2.66E2,5.1E1,6.867E3,1.374E3,1.057E3,8.82E2,1.165E3,1.54E3,9.75E2,9.08E2,7.27E2,6.42E2,2.12E2,4.71E2,2.21E2,4.5E1,5E0,4.6E1,4.07E3,2.797E3,6.34E2,7.4E2,2.58E2,7.99E2,4.21E2,4.61E2,6.89E2,4.76E2,1.01E3,5.3E2,6.12E2,3.63E2,4.24E2,4.84E2,3.74E2,3.53E2,2.38E2,4.04E2,1.59E2,5.3E1,2.04E2,2.67E2,1.79E2,4.2E1,1.16E3,2.91E3,7.35E2,2.062E3,2.35E2,3.99E2,8E0,2.5E2,4.32E2,3.67E2,1.32E2,2.89E2,3.08E2,1.53E2,2E1,6.69E2,1.93E2,2.83E2,5.33E2,4.77E2,1.48E2,3.82E2,2.63E2,3.49E2,2.89E2,7.4E1,3.23E2,1.01E2,2.61E2,2.23E2,2.1E2,1.64E2,2.15E2,1.38E2,1.75E2,6.3E1,3.21E2,8.3E1,5.2E1,1E0,1E0,2.03E2,6E0,2.61E2,1.61E2,1.8E1],"tree_param":{"num_deleted":"0","num_feature":"6","num_nodes":"103","size_leaf_vector":"1"}},{"base_weights":[4.1077886E-2,-7.555162E0,5.3705982E1,-1.3155124E1,6.643065E0,4.426162E1,1.08812874E2,-1.49615755E1,-7.3085337E0,1.6543036E0,1.4038303E1,3.6402035E1,6.344094E1,9.306196E1,8.964435E0,-1.5321001E1,-1.3088135E1,-9.561184E0,-5.0139613E0,-3.6826056E-1,4.6704564E0,1.0698125E1,1.9097265E1,3.0407173E1,4.3999027E1,8.014761E1,5.8186802E1,5.86205E0,8.797087E1,-1.5458344E1,-1.4398776E1,-1.1857498E1,-7.074682E-1,-8.481959E0,-1.1473287E1,-3.5680475E0,-6.775126E0,1.0102035E0,-2.6871586E0,6.2896476E0,6.592892E-1,1.3657547E1,8.010361E0,2.2204588E1,1.4667712E1,3.607193E1,2.5929104E1,4.9964905E1,3.6950264E1,8.3415276E1,3.2437057E0,5.4296597E1,3.2024229E0,7.898759E1,4.9799705E0,-7.3709124E-1,-7.7715415E-1,-6.846015E-1,-7.4882394E-1,-5.4136556E-1,-6.234404E-1,-2.8145164E-1,-4.4808277E-1,-6.092331E-1,-5.086762E-1,5.109362E-1,-1.8014951E-1,-4.290878E-1,-2.899699E-1,1.3053724E-1,-3.469438E-2,-2.4237588E-1,-7.430836E-2,2.3722671E-1,3.7921217E-1,2.3113683E-1,-4.0690854E-2,8.006523E-1,5.7261485E-1,5.1940924E-1,2.4960642E-1,1.4057486E0,9.63851E-1,8.6606133E-1,5.383436E-1,2.0741973E0,1.465506E0,1.4353474E0,9.9937916E-1,2.6960957E0,1.9369605E0,2.016613E0,1.5358666E0,3.8940418E0,5.1018305E0,2.8149366E0,2.2289512E0,3.9722233E0,5.5837196E-1],"categories":[],"categories_nodes":[],"categories_segments":[],"categories_sizes":[],"default_left":[0,0,0,0,0,0,0,0,0,0,0,0,0,0,0,0,0,0,0,0,0,0,0,0,0,0,0,0,0,0,0,0,0,0,0,0,0,0,0,0,0,0,0,0,0,0,0,0,0,0,0,0,0,0,0,0,0,0,0,0,0,0,0,0,0,0,0,0,0,0,0,0,0,0,0,0,0,0,0,0,0,0,0,0,0,0,0,0,0,0,0,0,0,0,0,0,0,0,0],"id":6,"left_children":[1,3,5,7,9,11,13,15,17,19,21,23,25,27,-1,29,31,33,35,37,39,41,43,45,47,49,51,-1,53,55,57,59,-1,61,63,65,67,69,71,73,75,77,79,81,83,85,87,89,91,93,-1,95,-1,97,-1,-1,-1,-1,-1,-1,-1,-1,-1,-1,-1,-1,-1,-1,-1,-1,-1,-1,-1,-1,-1,-1,-1,-1,-1,-1,-1,-1,-1,-1,-1,-1,-1,-1,-1,-1,-1,-1,-1,-1,-1,-1,-1,-1,-1],"loss_changes":[6.9137675E6,1.1813605E6,1.0896895E6,1.12424375E5,1.550384E5,2.68573E5,3.2410275E5,5.28E3,1.2962109E4,1.5319729E4,2.8403719E4,5.68205E4,4.10695E4,2.083E4,0E0,6.41625E2,1.5521875E3,2.521375E3,3.1563926E3,4.8102773E3,6.542658E3,8.0198203E3,8.92375E3,1.7252875E4,2.1745E4,6.77375E2,5.643625E3,0E0,1.4383375E4,1.30625E2,1.62E2,2.529375E2,0E0,1.0649141E3,2.967422E2,3.682578E2,9.4091406E2,2.5765413E3,1.4483513E3,1.4002305E3,1.7027885E3,2.3359219E3,3.8092734E3,6.258125E3,2.7117656E3,1.02749375E4,6.0940938E3,1.12815625E4,4.2629375E3,2.05E3,0E0,2.295875E3,0E0,2.986E3,0E0,0E0,0E0,0E0,0E0,0E0,0E0,0E0,0E0,0E0,0E0,0E0,0E0,0E0,0E0,0E0,0E0,0E0,0E0,0E0,0E0,0E0,0E0,0E0,0E0,0E0,0E0,0E0,0E0,0E0,0E0,0E0,0E0,0E0,0E0,0E0,0E0,0E0,0E0,0E0,0E0,0E0,0E0,0E0,0E0],"parents":[2147483647,0,0,1,1,2,2,3,3,4,4,5,5,6,6,7,7,8,8,9,9,10,10,11,11,12,12,13,13,15,15,16,16,17,17,18,18,19,19,20,20,21,21,22,22,23,23,24,24,25,25,26,26,28,28,29,29,30,30,31,31,33,33,34,34,35,35,36,36,37,37,38,38,39,39,40,40,41,41,42,42,43,43,44,44,45,45,46,46,47,47,48,48,49,49,51,51,53,53],"right_children":[2,4,6,8,10,12,14,16,18,20,22,24,26,28,-1,30,32,34,36,38,40,42,44,46,48,50,52,-1,54,56,58,60,-1,62,64,66,68,70,72,74,76,78,80,82,84,86,88,90,92,94,-1,96,-1,98,-1,-1,-1,-1,-1,-1,-1,-1,-1,-1,-1,-1,-1,-1,-1,-1,-1,-1,-1,-1,-1,-1,-1,-1,-1,-1,-1,-1,-1,-1,-1,-1,-1,-1,-1,-1,-1,-1,-1,-1,-1,-1,-1,-1,-1],"split_conditions":[5.4E1,1.7E1,1.3E2,6E0,3.2E1,9.4E1,2.14E2,3E0,1.1E1,2.5E1,4.3E1,7.3E1,5E0,5E0,8.964435E0,2E0,1E0,2E0,1E0,3E0,6E0,2E0,5E0,7E0,8E0,1.7E1,1.12E2,5.86205E0,1.57E2,-1E0,1E0,-2E0,-7.074682E-1,-7E0,9E0,-2.4E1,1.3E1,8E0,2E1,2.8E1,2.023E3,8E0,8E0,6E0,8E0,6E0,5E0,1.7E1,5E0,1.2E2,3.2437057E0,2.1E1,3.2024229E0,6.4E1,4.9799705E0,-7.3709124E-1,-7.7715415E-1,-6.846015E-1,-7.4882394E-1,-5.4136556E-1,-6.234404E-1,-2.8145164E-1,-4.4808277E-1,-6.092331E-1,-5.086762E-1,5.109362E-1,-1.8014951E-1,-4.290878E-1,-2.899699E-1,1.3053724E-1,-3.469438E-2,-2.4237588E-1,-7.430836E-2,2.3722671E-1,3.7921217E-1,2.3113683E-1,-4.0690854E-2,8.006523E-1,5.7261485E-1,5.1940924E-1,2.4960642E-1,1.4057486E0,9.63851E-1,8.6606133E-1,5.383436E-1,2.0741973E0,1.465506E0,1.4353474E0,9.9937916E-1,2.6960957E0,1.9369605E0,2.016613E0,1.5358666E0,3.8940418E0,5.1018305E0,2.8149366E0,2.2289512E0,3.9722233E0,5.5837196E-1],"split_indices":[5,5,5,5,5,5,5,5,5,5,5,5,1,1,0,5,4,4,4,4,4,4,4,1,1,4,5,0,5,4,4,4,0,4,5,4,5,1,5,5,0,1,1,1,1,4,4,4,4,5,0,4,0,4,0,0,0,0,0,0,0,0,0,0,0,0,0,0,0,0,0,0,0,0,0,0,0,0,0,0,0,0,0,0,0,0,0,0,0,0,0,0,0,0,0,0,0,0,0],"split_type":[0,0,0,0,0,0,0,0,0,0,0,0,0,0,0,0,0,0,0,0,0,0,0,0,0,0,0,0,0,0,0,0,0,0,0,0,0,0,0,0,0,0,0,0,0,0,0,0,0,0,0,0,0,0,0,0,0,0,0,0,0,0,0,0,0,0,0,0,0,0,0,0,0,0,0,0,0,0,0,0,0,0,0,0,0,0,0,0,0,0,0,0,0,0,0,0,0,0,0],"sum_hessian":[1.6958E4,1.4856E4,2.102E3,1.0654E4,4.202E3,1.796E3,3.06E2,8.138E3,2.516E3,2.51E3,1.692E3,1.276E3,5.2E2,2.52E2,5.4E1,6.822E3,1.316E3,1.268E3,1.248E3,1.503E3,1.007E3,1.021E3,6.71E2,7.16E2,5.6E2,1.21E2,3.99E2,4E1,2.12E2,5.924E3,8.98E2,6.15E2,7.01E2,8.14E2,4.54E2,6.87E2,5.61E2,9.43E2,5.6E2,7.17E2,2.9E2,4.84E2,5.37E2,3.92E2,2.79E2,3.13E2,4.03E2,3E2,2.6E2,9.6E1,2.5E1,2.46E2,1.53E2,1.24E2,8.8E1,6.45E2,5.279E3,4.15E2,4.83E2,2.36E2,3.79E2,1.19E2,6.95E2,2.88E2,1.66E2,1E0,6.86E2,1.94E2,3.67E2,4.86E2,4.57E2,1.99E2,3.61E2,3.29E2,3.88E2,7.8E1,2.12E2,2.31E2,2.53E2,2.99E2,2.38E2,1.27E2,2.65E2,1.64E2,1.15E2,1.71E2,1.42E2,2.72E2,1.31E2,2.19E2,8.1E1,1.65E2,9.5E1,7.8E1,1.8E1,2E2,4.6E1,1.23E2,1E0],"tree_param":{"num_deleted":"0","num_feature":"6","num_nodes":"99","size_leaf_vector":"1"}},{"base_weights":[-7.040197E-2,-7.6118503E0,4.8276108E1,-1.2810664E1,4.7003074E0,4.0088425E1,1.09520706E2,-1.4210968E1,-7.5607085E0,7.485062E-1,1.1462141E1,3.0699299E1,5.7021664E1,9.2027695E1,1.7811246E2,-1.4548797E1,-1.2476782E1,-9.334067E0,-5.811021E0,-2.1772442E0,2.8856647E0,9.513529E0,1.6993032E1,2.4412472E1,3.7242676E1,7.246921E1,5.2858593E1,5.2568507E0,7.868194E1,1.503444E2,1.1485251E1,-1.4834725E1,-1.4123623E1,-6.57646E-1,-1.19503E1,-7.6240053E0,-9.821144E0,-7.09857E0,-4.7412224E0,-2.97002E0,-5.4886127E-1,1.6812665E0,5.006579E0,1.20382185E1,7.7852545E0,2.0487171E1,1.3084061E1,2.8323168E1,1.9876036E1,4.355757E1,3.239612E1,6.7094574E1,4.482721E0,4.278428E1,5.6956802E1,8.252393E1,2.9606795E0,4.0845046E0,7.913556E0,-7.6839185E-1,-7.31666E-1,-7.161272E-1,-6.842281E-1,-6.118104E-1,-5.486297E-1,-4.256154E-1,-3.2282153E-1,-5.3531915E-1,-4.6312103E-1,-2.3235917E-1,-3.777762E-1,-6.512045E-2,-2.8954053E-1,-1.01450816E-1,-2.0475614E-1,4.784682E-2,-1.00661695E-1,1.6159913E-1,2.1310808E-2,3.1947097E-1,1.7056803E-1,6.51323E-1,3.975481E-1,3.1451908E-1,4.660975E-1,1.0552925E0,7.745515E-1,5.731905E-1,7.6478E-1,1.445307E0,5.966981E-1,9.192562E-1,1.2706321E0,2.0930414E0,2.6998188E0,1.5207539E0,2.1300929E0,2.738829E0,3.5141397E0,2.14723E0,3.9228278E-1,3.075548E0,2.6912851E0,3.820598E0,5.0831714E0],"categories":[],"categories_nodes":[],"categories_segments":[],"categories_sizes":[],"default_left":[0,0,0,0,0,0,0,0,0,0,0,0,0,0,0,0,0,0,0,0,0,0,0,0,0,0,0,0,0,0,0,0,0,0,0,0,0,0,0,0,0,0,0,0,0,0,0,0,0,0,0,0,0,0,0,0,0,0,0,0,0,0,0,0,0,0,0,0,0,0,0,0,0,0,0,0,0,0,0,0,0,0,0,0,0,0,0,0,0,0,0,0,0,0,0,0,0,0,0,0,0,0,0,0,0],"id":7,"left_children":[1,3,5,7,9,11,13,15,17,19,21,23,25,27,29,31,33,35,37,39,41,43,45,47,49,51,53,-1,55,57,-1,59,61,-1,63,65,67,69,71,73,75,77,79,81,83,85,87,89,91,93,95,97,-1,99,101,103,-1,-1,-1,-1,-1,-1,-1,-1,-1,-1,-1,-1,-1,-1,-1,-1,-1,-1,-1,-1,-1,-1,-1,-1,-1,-1,-1,-1,-1,-1,-1,-1,-1,-1,-1,-1,-1,-1,-1,-1,-1,-1,-1,-1,-1,-1,-1,-1,-1],"loss_changes":[6.2226775E6,9.450835E5,1.150452E6,7.620875E4,1.1713814E5,3.2147225E5,3.0877475E5,4.619E3,6.734742E3,1.7314012E4,1.726564E4,5.29805E4,4.272925E4,2.986775E4,4.2826875E4,6.235E2,3.2090625E2,8.2885156E2,1.4870117E3,1.5074819E3,4.078663E3,5.133578E3,5.4685156E3,1.1341E4,1.8176438E4,7.9316875E3,2.126175E4,0E0,3.49075E3,7.7505E3,0E0,2.12875E2,4.64375E1,0E0,7.9859375E1,1.9914453E2,3.1679688E2,5.238535E2,2.1797178E3,8.238491E2,8.486653E2,1.9876663E3,1.2554395E3,1.8554297E3,1.5815391E3,3.530625E2,5.448867E2,3.0755E3,2.1247266E3,2.6104688E3,6.1040625E3,8.235625E2,0E0,6.1525E2,2.46425E3,2.876875E3,0E0,0E0,0E0,0E0,0E0,0E0,0E0,0E0,0E0,0E0,0E0,0E0,0E0,0E0,0E0,0E0,0E0,0E0,0E0,0E0,0E0,0E0,0E0,0E0,0E0,0E0,0E0,0E0,0E0,0E0,0E0,0E0,0E0,0E0,0E0,0E0,0E0,0E0,0E0,0E0,0E0,0E0,0E0,0E0,0E0,0E0,0E0,0E0,0E0],"parents":[2147483647,0,0,1,1,2,2,3,3,4,4,5,5,6,6,7,7,8,8,9,9,10,10,11,11,12,12,13,13,14,14,15,15,16,16,17,17,18,18,19,19,20,20,21,21,22,22,23,23,24,24,25,25,26,26,28,28,29,29,31,31,32,32,34,34,35,35,36,36,37,37,38,38,39,39,40,40,41,41,42,42,43,43,44,44,45,45,46,46,47,47,48,48,49,49,50,50,51,51,53,53,54,54,55,55],"right_children":[2,4,6,8,10,12,14,16,18,20,22,24,26,28,30,32,34,36,38,40,42,44,46,48,50,52,54,-1,56,58,-1,60,62,-1,64,66,68,70,72,74,76,78,80,82,84,86,88,90,92,94,96,98,-1,100,102,104,-1,-1,-1,-1,-1,-1,-1,-1,-1,-1,-1,-1,-1,-1,-1,-1,-1,-1,-1,-1,-1,-1,-1,-1,-1,-1,-1,-1,-1,-1,-1,-1,-1,-1,-1,-1,-1,-1,-1,-1,-1,-1,-1,-1,-1,-1,-1,-1,-1],"split_conditions":[5E1,1.5E1,1.35E2,6E0,3.1E1,8.7E1,2.14E2,3E0,1E1,2.1E1,4.3E1,6.5E1,5E0,8E0,3.5E1,1E0,4E0,6E0,7E0,1.9E1,2.7E1,7E0,8E0,8E0,7E0,1.2E2,9.7E1,5.2568507E0,3.5E1,5E0,1.1485251E1,5E0,2E0,-6.57646E-1,4E1,3.3E1,1.2E1,3E0,1.3E1,8E0,8E0,7E0,8E0,3.8E1,3.6E1,3.8E1,1.3E1,1.9E1,1.2E1,8.3E1,1.2E1,2E0,4.482721E0,4.9E1,8E0,2.8E1,2.9606795E0,4.0845046E0,7.913556E0,-7.6839185E-1,-7.31666E-1,-7.161272E-1,-6.842281E-1,-6.118104E-1,-5.486297E-1,-4.256154E-1,-3.2282153E-1,-5.3531915E-1,-4.6312103E-1,-2.3235917E-1,-3.777762E-1,-6.512045E-2,-2.8954053E-1,-1.01450816E-1,-2.0475614E-1,4.784682E-2,-1.00661695E-1,1.6159913E-1,2.1310808E-2,3.1947097E-1,1.7056803E-1,6.51323E-1,3.975481E-1,3.1451908E-1,4.660975E-1,1.0552925E0,7.745515E-1,5.731905E-1,7.6478E-1,1.445307E0,5.966981E-1,9.192562E-1,1.2706321E0,2.0930414E0,2.6998188E0,1.5207539E0,2.1300929E0,2.738829E0,3.5141397E0,2.14723E0,3.9228278E-1,3.075548E0,2.6912851E0,3.820598E0,5.0831714E0],"split_indices":[5,5,5,5,5,5,5,5,5,5,5,5,1,1,2,5,5,3,3,5,5,1,1,1,1,5,5,0,2,2,0,3,5,0,2,2,3,3,3,1,1,1,1,2,5,2,3,3,1,5,1,1,0,2,1,2,0,0,0,0,0,0,0,0,0,0,0,0,0,0,0,0,0,0,0,0,0,0,0,0,0,0,0,0,0,0,0,0,0,0,0,0,0,0,0,0,0,0,0,0,0,0,0,0,0],"split_type":[0,0,0,0,0,0,0,0,0,0,0,0,0,0,0,0,0,0,0,0,0,0,0,0,0,0,0,0,0,0,0,0,0,0,0,0,0,0,0,0,0,0,0,0,0,0,0,0,0,0,0,0,0,0,0,0,0,0,0,0,0,0,0,0,0,0,0,0,0,0,0,0,0,0,0,0,0,0,0,0,0,0,0,0,0,0,0,0,0,0,0,0,0,0,0,0,0,0,0,0,0,0,0,0,0],"sum_hessian":[1.7065E4,1.4763E4,2.302E3,1.038E4,4.383E3,2.032E3,2.7E2,8.193E3,2.187E3,2.767E3,1.616E3,1.309E3,7.23E2,2.17E2,5.3E1,6.851E3,1.342E3,1.084E3,1.103E3,1.168E3,1.599E3,1.197E3,4.19E2,6.7E2,6.39E2,1.5E2,5.73E2,1.06E2,1.11E2,3.7E1,1.6E1,4.076E3,2.775E3,5.77E2,7.65E2,2.44E2,8.4E2,4.98E2,6.05E2,7.85E2,3.83E2,1.021E3,5.78E2,4.84E2,7.13E2,2.19E2,2E2,3.57E2,3.13E2,2.74E2,3.65E2,1.18E2,3.2E1,1.69E2,4.04E2,9E1,2.1E1,5E0,3.2E1,1.097E3,2.979E3,1.888E3,8.87E2,5.83E2,1.82E2,1.35E2,1.09E2,3.18E2,5.22E2,8E1,4.18E2,1.42E2,4.63E2,4.29E2,3.56E2,1.89E2,1.94E2,4.56E2,5.65E2,3.08E2,2.7E2,3.88E2,9.6E1,3.64E2,3.49E2,1.92E2,2.7E1,1.19E2,8.1E1,3.44E2,1.3E1,2.5E2,6.3E1,2.4E2,3.4E1,3.09E2,5.6E1,2.8E1,9E1,1.68E2,1E0,1.57E2,2.47E2,7.2E1,1.8E1],"tree_param":{"num_deleted":"0","num_feature":"6","num_nodes":"105","size_leaf_vector":"1"}},{"base_weights":[1.5007432E-2,-6.7566886E0,4.8448193E1,-1.1812239E1,6.039157E0,4.3753323E1,1.385022E2,-1.3501652E1,-6.4013524E0,1.6841226E0,1.2506749E1,3.3152794E1,6.2025734E1,9.9703545E1,1.7055003E2,-1.3830709E1,-1.1826284E1,-8.433975E0,-4.4663997E0,-1.19796135E-1,4.3485975E0,9.7718935E0,1.6896053E1,2.7336653E1,3.939481E1,5.537753E1,7.414033E1,1.03343124E2,3.1551383E0,1.4271384E2,2.1984032E2,-1.4431781E1,-1.3643119E1,-1.2139399E1,-1.0852778E1,-9.071067E0,-7.2885747E0,-5.9330945E0,-3.3184612E0,-1.5411396E0,7.325346E-1,2.9631822E0,5.413783E0,1.26204815E1,8.479316E0,2.0574392E1,1.3873973E1,3.2530697E1,2.306891E1,4.546217E1,3.2603294E1,3.4288125E0,5.120051E1,8.196181E1,6.658078E1,4.5235095E0,6.3045325E0,4.1384177E0,7.5683556E0,1.12591505E1,3.2253704E0,-6.976755E-1,-7.4318427E-1,-5.5558455E-1,-6.8407154E-1,-5.731881E-1,-6.191422E-1,-5.7217026E-1,-4.872974E-1,-3.6093304E-1,-4.7581467E-1,-3.2467285E-1,-4.058105E-1,-2.6604244E-1,-3.868452E-1,-4.584643E-2,-2.100296E-1,-1.5317117E-1,-4.7465052E-2,9.608928E-2,-2.998412E-2,2.8131783E-1,1.2304168E-1,3.7857115E-1,2.1273933E-1,6.820523E-1,4.0717512E-1,3.3474356E-1,5.495455E-1,7.490567E-1,1.0701382E0,5.5491865E-1,7.8115004E-1,1.337468E0,1.8221139E0,1.169536E0,1.1376222E-3,1.6461554E0,2.3377273E0,1.5269698E0,2.0509768E0,2.4114625E0,2.8247862E0,3.619397E0,4.3735986E0,3.3877876E0,1.9729332E0],"categories":[],"categories_nodes":[],"categories_segments":[],"categories_sizes":[],"default_left":[0,0,0,0,0,0,0,0,0,0,0,0,0,0,0,0,0,0,0,0,0,0,0,0,0,0,0,0,0,0,0,0,0,0,0,0,0,0,0,0,0,0,0,0,0,0,0,0,0,0,0,0,0,0,0,0,0,0,0,0,0,0,0,0,0,0,0,0,0,0,0,0,0,0,0,0,0,0,0,0,0,0,0,0,0,0,0,0,0,0,0,0,0,0,0,0,0,0,0,0,0,0,0,0,0,0,0],"id":8,"left_children":[1,3,5,7,9,11,13,15,17,19,21,23,25,27,29,31,33,35,37,39,41,43,45,47,49,51,53,55,-1,57,59,61,63,65,67,69,71,73,75,77,79,81,83,85,87,89,91,93,95,97,99,-1,101,103,105,-1,-1,-1,-1,-1,-1,-1,-1,-1,-1,-1,-1,-1,-1,-1,-1,-1,-1,-1,-1,-1,-1,-1,-1,-1,-1,-1,-1,-1,-1,-1,-1,-1,-1,-1,-1,-1,-1,-1,-1,-1,-1,-1,-1,-1,-1,-1,-1,-1,-1,-1,-1],"loss_changes":[5.582786E6,9.661525E5,8.767295E5,9.7770125E4,1.1912359E5,3.8262625E5,1.11067E5,4.333375E3,9.987617E3,1.215615E4,2.0265906E4,4.46305E4,5.452775E4,6.15625E0,4.4088875E4,5.7125E2,2.785625E2,8.402031E2,2.1825566E3,1.8292142E3,1.4906719E3,3.762789E3,6.962328E3,1.37688125E4,2.3447688E4,2.2621125E4,9.62025E3,1.184125E3,0E0,7.1830625E3,4.12125E2,1.2371875E2,3.533125E2,2.415625E1,1.0877734E2,5.8615234E2,2.4277148E2,5.916406E2,1.5553394E3,5.0702722E2,1.49677E3,5.828323E2,1.4081895E3,1.3784297E3,3.1802031E3,1.0322812E3,1.5791172E3,5.6511562E3,2.6916562E3,3.5978125E3,3.7673438E3,0E0,3.00225E3,5.11875E1,1.6285625E3,0E0,0E0,0E0,0E0,0E0,0E0,0E0,0E0,0E0,0E0,0E0,0E0,0E0,0E0,0E0,0E0,0E0,0E0,0E0,0E0,0E0,0E0,0E0,0E0,0E0,0E0,0E0,0E0,0E0,0E0,0E0,0E0,0E0,0E0,0E0,0E0,0E0,0E0,0E0,0E0,0E0,0E0,0E0,0E0,0E0,0E0,0E0,0E0,0E0,0E0,0E0,0E0],"parents":[2147483647,0,0,1,1,2,2,3,3,4,4,5,5,6,6,7,7,8,8,9,9,10,10,11,11,12,12,13,13,14,14,15,15,16,16,17,17,18,18,19,19,20,20,21,21,22,22,23,23,24,24,25,25,26,26,27,27,29,29,30,30,31,31,32,32,33,33,34,34,35,35,36,36,37,37,38,38,39,39,40,40,41,41,42,42,43,43,44,44,45,45,46,46,47,47,48,48,49,49,50,50,52,52,53,53,54,54],"right_children":[2,4,6,8,10,12,14,16,18,20,22,24,26,28,30,32,34,36,38,40,42,44,46,48,50,52,54,56,-1,58,60,62,64,66,68,70,72,74,76,78,80,82,84,86,88,90,92,94,96,98,100,-1,102,104,106,-1,-1,-1,-1,-1,-1,-1,-1,-1,-1,-1,-1,-1,-1,-1,-1,-1,-1,-1,-1,-1,-1,-1,-1,-1,-1,-1,-1,-1,-1,-1,-1,-1,-1,-1,-1,-1,-1,-1,-1,-1,-1,-1,-1,-1,-1,-1,-1,-1,-1,-1,-1],"split_conditions":[5.4E1,1.7E1,1.73E2,6E0,3.2E1,9.4E1,2.14E2,3E0,1.1E1,2.5E1,4.3E1,7.1E1,1.25E2,4.3E1,3.5E1,5E0,5E0,9E0,7E0,2E1,2.8E1,6E0,7E0,7E0,8E0,5E0,8E0,2.8E1,3.1551383E0,5E0,1.2E1,4E0,7E0,7E0,3.2E1,4E0,8E0,6E0,1.3E1,4E0,8E0,9E0,6E0,3.9E1,8E0,2E0,4.7E1,6E1,1.9E1,2E0,1.2E1,3.4288125E0,1.12E2,1.35E2,4.5E1,4.5235095E0,6.3045325E0,4.1384177E0,7.5683556E0,1.12591505E1,3.2253704E0,-6.976755E-1,-7.4318427E-1,-5.5558455E-1,-6.8407154E-1,-5.731881E-1,-6.191422E-1,-5.7217026E-1,-4.872974E-1,-3.6093304E-1,-4.7581467E-1,-3.2467285E-1,-4.058105E-1,-2.6604244E-1,-3.868452E-1,-4.584643E-2,-2.100296E-1,-1.5317117E-1,-4.7465052E-2,9.608928E-2,-2.998412E-2,2.8131783E-1,1.2304168E-1,3.7857115E-1,2.1273933E-1,6.820523E-1,4.0717512E-1,3.3474356E-1,5.495455E-1,7.490567E-1,1.0701382E0,5.5491865E-1,7.8115004E-1,1.337468E0,1.8221139E0,1.169536E0,1.1376222E-3,1.6461554E0,2.3377273E0,1.5269698E0,2.0509768E0,2.4114625E0,2.8247862E0,3.619397E0,4.3735986E0,3.3877876E0,1.9729332E0],"split_indices":[5,5,5,5,5,5,5,5,5,5,5,5,5,2,2,3,5,5,3,5,5,1,1,1,1,1,1,2,0,2,1,3,3,3,2,3,1,3,3,3,1,2,1,2,3,1,5,5,3,1,1,0,5,5,2,0,0,0,0,0,0,0,0,0,0,0,0,0,0,0,0,0,0,0,0,0,0,0,0,0,0,0,0,0,0,0,0,0,0,0,0,0,0,0,0,0,0,0,0,0,0,0,0,0,0,0,0],"split_type":[0,0,0,0,0,0,0,0,0,0,0,0,0,0,0,0,0,0,0,0,0,0,0,0,0,0,0,0,0,0,0,0,0,0,0,0,0,0,0,0,0,0,0,0,0,0,0,0,0,0,0,0,0,0,0,0,0,0,0,0,0,0,0,0,0,0,0,0,0,0,0,0,0,0,0,0,0,0,0,0,0,0,0,0,0,0,0,0,0,0,0,0,0,0,0,0,0,0,0,0,0,0,0,0,0,0,0],"sum_hessian":[1.702E4,1.4933E4,2.087E3,1.0704E4,4.229E3,1.985E3,1.02E2,8.156E3,2.548E3,2.528E3,1.701E3,1.258E3,7.27E2,4.8E1,5.4E1,6.811E3,1.345E3,1.241E3,1.307E3,1.508E3,1.02E3,1.05E3,6.51E2,6.54E2,6.04E2,4.73E2,2.54E2,4.2E1,6E0,3.7E1,1.7E1,1.602E3,5.209E3,1.009E3,3.36E2,7.93E2,4.48E2,5.72E2,7.35E2,5.65E2,9.43E2,4.45E2,5.75E2,3.25E2,7.25E2,2.91E2,3.6E2,2.92E2,3.62E2,3.16E2,2.88E2,1.1E2,3.63E2,1.2E2,1.34E2,3E1,1.2E1,6E0,3.1E1,1.6E1,1E0,7.76E2,8.26E2,8.2E1,5.127E3,2.8E2,7.29E2,2.13E2,1.23E2,1.57E2,6.36E2,2.33E2,2.15E2,4.3E2,1.42E2,1.98E2,5.37E2,1.57E2,4.08E2,4.98E2,4.45E2,6.9E1,3.76E2,1.99E2,3.76E2,2.63E2,6.2E1,4.26E2,2.99E2,4E1,2.51E2,1.42E2,2.18E2,1.21E2,1.71E2,3.57E2,5E0,3.2E1,2.84E2,2.35E2,5.3E1,2.39E2,1.24E2,4.9E1,7.1E1,1.27E2,7E0],"tree_param":{"num_deleted":"0","num_feature":"6","num_nodes":"107","size_leaf_vector":"1"}},{"base_weights":[-2.0678418E-2,-2.4830027E0,2.1853935E1,1.0114035E1,-5.0297656E0,4.8703007E1,-5.366123E0,-1.9100136E0,3.373441E1,-1.0257362E0,-7.023166E0,7.4713715E1,4.540115E1,-1.3193598E0,-1.076926E1,-6.634666E-1,9.626114E0,4.6851837E1,1.6317976E1,-9.804859E0,4.933178E0,-1.3082505E1,-3.0193794E0,8.070938E1,3.0410843E0,3.155524E1,5.6365593E1,-5.604538E-1,-6.7291546E-1,-9.597382E0,-6.3516915E-1,1.7030315E1,-4.6546412E-1,4.3483265E1,7.796394E1,1.9985472E1,1.2254203E1,-5.5572815E0,-7.060549E-1,1.910791E1,-2.0730405E0,-1.2835294E1,-6.6591966E-1,1.4089654E1,-6.3732285E0,3.628104E0,4.8093295E0,2.4497042E0,2.8412113E1,7.473012E0,5.144786E1,2.316036E0,-2.758312E0,-1.0281164E1,-1.8352281E0,7.701711E-1,1.6163893E0,6.5340064E-2,-1.7615618E-1,5.8405125E-1,2.3116875E0,4.892089E0,2.3118396E0,1.1962585E0,8.4261274E-1,7.713886E-1,3.5824057E-1,-1.0866771E-1,-3.1216535E-1,1.3465135E0,3.5515645E-1,-4.509906E-1,2.551104E-1,-6.259097E-1,-6.6302997E-1,1.1064044E0,1.2976623E-1,-6.589231E-2,-4.8606706E-1,9.8334265E-1,1.6560131E0,2.1466672E0,3.2351177E0,3.2215345E-1,4.953989E-2,7.8584425E-2,-2.2536707E-1,-4.6405384E-1,-6.2322384E-1,1.0982874E-2,-1.6117284E-1],"categories":[],"categories_nodes":[],"categories_segments":[],"categories_sizes":[],"default_left":[0,0,0,0,0,0,0,0,0,0,0,0,0,0,0,0,0,0,0,0,0,0,0,0,0,0,0,0,0,0,0,0,0,0,0,0,0,0,0,0,0,0,0,0,0,0,0,0,0,0,0,0,0,0,0,0,0,0,0,0,0,0,0,0,0,0,0,0,0,0,0,0,0,0,0,0,0,0,0,0,0,0,0,0,0,0,0,0,0,0,0],"id":9,"left_children":[1,3,5,7,9,11,13,15,17,19,21,23,25,27,29,-1,31,33,35,37,39,41,43,45,-1,47,49,-1,51,53,-1,55,57,59,61,63,65,67,-1,69,71,73,-1,75,77,-1,-1,-1,79,-1,81,83,85,87,89,-1,-1,-1,-1,-1,-1,-1,-1,-1,-1,-1,-1,-1,-1,-1,-1,-1,-1,-1,-1,-1,-1,-1,-1,-1,-1,-1,-1,-1,-1,-1,-1,-1,-1,-1,-1],"loss_changes":[9.1566106E5,4.902587E5,1.2572945E6,7.299765E5,1.0144734E5,7.098325E4,1.868055E4,2.2342422E5,1.9730925E5,2.2112748E5,2.058334E5,3.0871875E3,1.15268875E5,3.1251008E3,7.0764453E2,0E0,6.322111E4,4.8382875E4,5.3291406E3,3.1253562E4,2.501054E5,2.5875E1,2.9336466E5,1.09075E3,0E0,1.7408656E4,1.8871325E5,0E0,2.87987E3,1.2125E3,0E0,1.1647078E4,1.9500193E3,3.8647188E4,2.5117438E4,2.003875E3,2.7967422E3,1.9898496E3,0E0,7.803216E4,8.4084375E4,6.003125E1,0E0,7.737078E4,7.232889E4,0E0,0E0,0E0,1.1412609E4,0E0,4.3379875E4,1.0327834E3,2.0670215E3,3.4940625E2,5.776107E1,0E0,0E0,0E0,0E0,0E0,0E0,0E0,0E0,0E0,0E0,0E0,0E0,0E0,0E0,0E0,0E0,0E0,0E0,0E0,0E0,0E0,0E0,0E0,0E0,0E0,0E0,0E0,0E0,0E0,0E0,0E0,0E0,0E0,0E0,0E0,0E0],"parents":[2147483647,0,0,1,1,2,2,3,3,4,4,5,5,6,6,7,7,8,8,9,9,10,10,11,11,12,12,13,13,14,14,16,16,17,17,18,18,19,19,20,20,21,21,22,22,23,23,25,25,26,26,28,28,29,29,31,31,32,32,33,33,34,34,35,35,36,36,37,37,39,39,40,40,41,41,43,43,44,44,48,48,50,50,51,51,52,52,53,53,54,54],"right_children":[2,4,6,8,10,12,14,16,18,20,22,24,26,28,30,-1,32,34,36,38,40,42,44,46,-1,48,50,-1,52,54,-1,56,58,60,62,64,66,68,-1,70,72,74,-1,76,78,-1,-1,-1,80,-1,82,84,86,88,90,-1,-1,-1,-1,-1,-1,-1,-1,-1,-1,-1,-1,-1,-1,-1,-1,-1,-1,-1,-1,-1,-1,-1,-1,-1,-1,-1,-1,-1,-1,-1,-1,-1,-1,-1,-1],"split_conditions":[1.8E1,3E0,1.9E1,2E0,8E0,7E0,3E1,1E0,3E1,5E0,1.2E1,5E0,2.7E1,3E0,4.3E1,-6.634666E-1,3E1,2.7E1,8E0,4E0,6E0,1E1,1.3E1,4E0,3.0410843E0,1E1,2.8E1,-5.604538E-1,7E0,4.2E1,-6.3516915E-1,2.7E1,4.3E1,3E0,2.9E1,3.8E1,4.3E1,1E1,-7.060549E-1,3E1,7E0,3E1,-6.6591966E-1,3E1,1.5E1,3.628104E0,4.8093295E0,2.4497042E0,1.6E1,7.473012E0,4.2E1,1E1,1E1,3.8E1,7E0,7.701711E-1,1.6163893E0,6.5340064E-2,-1.7615618E-1,5.8405125E-1,2.3116875E0,4.892089E0,2.3118396E0,1.1962585E0,8.4261274E-1,7.713886E-1,3.5824057E-1,-1.0866771E-1,-3.1216535E-1,1.3465135E0,3.5515645E-1,-4.509906E-1,2.551104E-1,-6.259097E-1,-6.6302997E-1,1.1064044E0,1.2976623E-1,-6.589231E-2,-4.8606706E-1,9.8334265E-1,1.6560131E0,2.1466672E0,3.2351177E0,3.2215345E-1,4.953989E-2,7.8584425E-2,-2.2536707E-1,-4.6405384E-1,-6.2322384E-1,1.0982874E-2,-1.6117284E-1],"split_indices":[3,3,3,3,3,2,2,3,2,3,3,2,2,2,2,0,2,2,1,3,3,3,3,2,0,2,2,0,1,2,0,2,2,2,2,2,2,2,0,2,3,2,0,2,3,0,0,0,2,0,2,2,2,2,1,0,0,0,0,0,0,0,0,0,0,0,0,0,0,0,0,0,0,0,0,0,0,0,0,0,0,0,0,0,0,0,0,0,0,0,0],"split_type":[0,0,0,0,0,0,0,0,0,0,0,0,0,0,0,0,0,0,0,0,0,0,0,0,0,0,0,0,0,0,0,0,0,0,0,0,0,0,0,0,0,0,0,0,0,0,0,0,0,0,0,0,0,0,0,0,0,0,0,0,0,0,0,0,0,0,0,0,0,0,0,0,0,0,0,0,0,0,0,0,0,0,0,0,0,0,0,0,0,0,0],"sum_hessian":[1.6998E4,1.5279E4,1.719E3,2.569E3,1.271E4,8.65E2,8.54E2,1.703E3,8.66E2,4.225E3,8.485E3,9.5E1,7.7E2,4.89E2,3.65E2,8.58E2,8.45E2,4.93E2,3.73E2,1.708E3,2.517E3,3.375E3,5.11E3,6.3E1,3.2E1,3.42E2,4.28E2,2.9E1,4.6E2,2.31E2,1.34E2,4.87E2,3.58E2,4.47E2,4.6E1,1.94E2,1.79E2,8.62E2,8.46E2,8.32E2,1.685E3,1.675E3,1.7E3,8.37E2,4.273E3,4.5E1,1.8E1,5E1,2.92E2,2E1,4.08E2,1.89E2,2.71E2,2.12E2,1.9E1,4.42E2,4.5E1,2.27E2,1.31E2,3.6E1,4.11E2,2.7E1,1.9E1,8.3E1,1.11E2,1.09E2,7E1,1.46E2,7.16E2,5.03E2,3.29E2,8.56E2,8.29E2,9.77E2,6.98E2,4.92E2,3.45E2,1.703E3,2.57E3,1.04E2,1.88E2,2.51E2,1.57E2,4.5E1,1.44E2,7.8E1,1.93E2,1.49E2,6.3E1,8E0,1.1E1],"tree_param":{"num_deleted":"0","num_feature":"6","num_nodes":"91","size_leaf_vector":"1"}},{"base_weights":[-1.4380088E-2,-6.537843E0,4.1706177E1,-1.1212754E1,3.7485929E0,3.4934383E1,9.4931465E1,-1.2256268E1,-6.768984E0,2.882869E-1,1.0184884E1,2.6847721E1,5.0407864E1,7.8933426E1,1.499608E2,-1.2534588E1,-1.0832278E1,-4.0082927E0,-7.554538E0,-2.106977E0,2.263873E0,8.058971E0,1.3923439E1,2.2406916E1,3.33283E1,6.347903E1,4.691932E1,1.0085771E2,7.163472E1,6.5474467E0,1.8387823E2,-5.061327E-1,-1.2568989E1,-9.737778E0,-5.8941966E-1,-5.2087502E0,-2.8335013E0,-8.36335E0,-5.8579664E0,-1.2549276E0,-4.430705E0,3.5588481E0,-1.1230122E-1,1.06920185E1,5.1954765E0,1.7983578E1,1.1782521E1,2.6111124E1,1.750313E1,3.776782E1,2.8183558E1,6.690883E1,4.8818497E1,4.1478745E1,5.2210148E1,4.230379E0,1.17721794E2,6.306962E1,7.8490616E1,4.984534E0,2.0858955E2,-6.391539E-1,-6.124649E-1,-5.105134E-1,-4.280664E-1,-2.7165413E-2,-2.683476E-1,3.9291784E-1,-1.4844407E-1,-3.9309523E-1,-5.1749396E-1,-2.2159116E-1,-3.5959268E-1,-9.215927E-2,1.6914448E-2,-1.7039292E-1,-3.111005E-1,1.3161428E-1,3.2164237E-1,5.6529295E-2,-9.436912E-2,6.762828E-1,4.479013E-1,3.7722886E-1,1.6180255E-1,5.302967E-1,9.644786E-1,7.0004E-1,3.4988427E-1,1.6601629E0,1.1360775E0,1.0716835E0,7.08157E-1,2.0421598E0,1.4161122E0,1.5526263E0,1.1928908E0,3.1609914E0,3.9377885E0,1.423381E0,2.7924936E0,2.1614783E0,1.6615177E0,2.6424243E0,1.8221807E0,6.0571847E0,1.2320976E0,3.1886032E0,2.9477236E-1,4.005211E0,2.2350452E0,1.0787958E1,3.0638583E0],"categories":[],"categories_nodes":[],"categories_segments":[],"categories_sizes":[],"default_left":[0,0,0,0,0,0,0,0,0,0,0,0,0,0,0,0,0,0,0,0,0,0,0,0,0,0,0,0,0,0,0,0,0,0,0,0,0,0,0,0,0,0,0,0,0,0,0,0,0,0,0,0,0,0,0,0,0,0,0,0,0,0,0,0,0,0,0,0,0,0,0,0,0,0,0,0,0,0,0,0,0,0,0,0,0,0,0,0,0,0,0,0,0,0,0,0,0,0,0,0,0,0,0,0,0,0,0,0,0,0,0,0,0],"id":10,"left_children":[1,3,5,7,9,11,13,15,17,19,21,23,25,27,29,31,33,35,37,39,41,43,45,47,49,51,53,55,57,-1,59,-1,61,63,-1,65,67,69,71,73,75,77,79,81,83,85,87,89,91,93,95,97,99,101,103,-1,105,107,109,-1,111,-1,-1,-1,-1,-1,-1,-1,-1,-1,-1,-1,-1,-1,-1,-1,-1,-1,-1,-1,-1,-1,-1,-1,-1,-1,-1,-1,-1,-1,-1,-1,-1,-1,-1,-1,-1,-1,-1,-1,-1,-1,-1,-1,-1,-1,-1,-1,-1,-1,-1,-1,-1],"loss_changes":[4.6112495E6,7.046299E5,8.224305E5,4.66315E4,1.0197843E5,2.5315875E5,2.1529625E5,3.097125E3,4.1292344E3,1.4101546E4,1.2612281E4,3.7759438E4,2.8804375E4,2.5098875E4,1.2677E4,4.3825E2,1.2885312E3,5.874336E2,1.9983438E3,2.6614067E3,5.025283E3,7.657586E3,4.8210312E3,1.40201875E4,1.1315E4,3.9743125E3,1.3781375E4,3.1939062E3,4.1514375E3,0E0,1.66525E4,0E0,3.0325E2,2.6333203E2,0E0,1.5208008E2,3.388777E2,9.227422E2,8.9075E2,9.2566187E2,6.4023193E2,2.797795E3,1.275126E3,2.4928203E3,2.240206E3,1.7031758E3,3.9566133E3,1.0111344E4,4.238703E3,7.20925E3,2.4238125E3,3.25E0,2.8460312E3,2.5782188E3,8.61875E2,0E0,3.7034688E3,2.596E3,8.9021875E2,0E0,5.09125E2,0E0,0E0,0E0,0E0,0E0,0E0,0E0,0E0,0E0,0E0,0E0,0E0,0E0,0E0,0E0,0E0,0E0,0E0,0E0,0E0,0E0,0E0,0E0,0E0,0E0,0E0,0E0,0E0,0E0,0E0,0E0,0E0,0E0,0E0,0E0,0E0,0E0,0E0,0E0,0E0,0E0,0E0,0E0,0E0,0E0,0E0,0E0,0E0,0E0,0E0,0E0,0E0],"parents":[2147483647,0,0,1,1,2,2,3,3,4,4,5,5,6,6,7,7,8,8,9,9,10,10,11,11,12,12,13,13,14,14,15,15,16,16,17,17,18,18,19,19,20,20,21,21,22,22,23,23,24,24,25,25,26,26,27,27,28,28,30,30,32,32,33,33,35,35,36,36,37,37,38,38,39,39,40,40,41,41,42,42,43,43,44,44,45,45,46,46,47,47,48,48,49,49,50,50,51,51,52,52,53,53,54,54,56,56,57,57,58,58,60,60],"right_children":[2,4,6,8,10,12,14,16,18,20,22,24,26,28,30,32,34,36,38,40,42,44,46,48,50,52,54,56,58,-1,60,-1,62,64,-1,66,68,70,72,74,76,78,80,82,84,86,88,90,92,94,96,98,100,102,104,-1,106,108,110,-1,112,-1,-1,-1,-1,-1,-1,-1,-1,-1,-1,-1,-1,-1,-1,-1,-1,-1,-1,-1,-1,-1,-1,-1,-1,-1,-1,-1,-1,-1,-1,-1,-1,-1,-1,-1,-1,-1,-1,-1,-1,-1,-1,-1,-1,-1,-1,-1,-1,-1,-1,-1,-1],"split_conditions":[5E1,1.4E1,1.35E2,6E0,3.1E1,8.7E1,2.14E2,3E0,-4E0,2.1E1,4.1E1,6.8E1,5E0,6E0,3.5E1,-4E0,1E0,1E1,1.1E1,4E0,4E0,3E0,6E0,8E0,8E0,1.7E1,1.05E2,2.1E1,1.57E2,6.5474467E0,-4.1E1,-5.061327E-1,1E0,5E0,-5.8941966E-1,-1.6E1,-2.1E1,4E0,2E0,1.9E1,8E0,2.8E1,8E0,7E0,7E0,2E0,8E0,-2E0,-2E0,1.7E1,3E0,1.2E2,9.9E1,2E1,4.5E1,4.230379E0,4.7E1,5.8E1,4.5E1,4.984534E0,1.2E1,-6.391539E-1,-6.124649E-1,-5.105134E-1,-4.280664E-1,-2.7165413E-2,-2.683476E-1,3.9291784E-1,-1.4844407E-1,-3.9309523E-1,-5.1749396E-1,-2.2159116E-1,-3.5959268E-1,-9.215927E-2,1.6914448E-2,-1.7039292E-1,-3.111005E-1,1.3161428E-1,3.2164237E-1,5.6529295E-2,-9.436912E-2,6.762828E-1,4.479013E-1,3.7722886E-1,1.6180255E-1,5.302967E-1,9.644786E-1,7.0004E-1,3.4988427E-1,1.6601629E0,1.1360775E0,1.0716835E0,7.08157E-1,2.0421598E0,1.4161122E0,1.5526263E0,1.1928908E0,3.1609914E0,3.9377885E0,1.423381E0,2.7924936E0,2.1614783E0,1.6615177E0,2.6424243E0,1.8221807E0,6.0571847E0,1.2320976E0,3.1886032E0,2.9477236E-1,4.005211E0,2.2350452E0,1.0787958E1,3.0638583E0],"split_indices":[5,5,5,5,5,5,5,5,4,5,5,5,1,1,2,4,4,5,5,4,4,4,1,1,1,4,5,2,5,0,4,0,5,5,0,4,4,4,4,5,1,5,1,1,1,1,4,4,4,4,4,5,5,4,2,0,2,4,2,0,1,0,0,0,0,0,0,0,0,0,0,0,0,0,0,0,0,0,0,0,0,0,0,0,0,0,0,0,0,0,0,0,0,0,0,0,0,0,0,0,0,0,0,0,0,0,0,0,0,0,0,0,0],"split_type":[0,0,0,0,0,0,0,0,0,0,0,0,0,0,0,0,0,0,0,0,0,0,0,0,0,0,0,0,0,0,0,0,0,0,0,0,0,0,0,0,0,0,0,0,0,0,0,0,0,0,0,0,0,0,0,0,0,0,0,0,0,0,0,0,0,0,0,0,0,0,0,0,0,0,0,0,0,0,0,0,0,0,0,0,0,0,0,0,0,0,0,0,0,0,0,0,0,0,0,0,0,0,0,0,0,0,0,0,0,0,0,0,0],"sum_hessian":[1.6941E4,1.4651E4,2.29E3,1.0073E4,4.578E3,2.033E3,2.57E2,8.156E3,1.917E3,2.978E3,1.6E3,1.337E3,6.96E2,2.01E2,5.6E1,6.816E3,1.34E3,4.26E2,1.491E3,1.346E3,1.632E3,1.022E3,5.78E2,7.96E2,5.41E2,1.43E2,5.53E2,4.7E1,1.54E2,3.9E1,1.7E1,1E2,6.716E3,6.3E2,7.1E2,2.09E2,2.17E2,1.007E3,4.84E2,9.86E2,3.6E2,1.056E3,5.76E2,5.31E2,4.91E2,1.97E2,3.81E2,4.51E2,3.45E2,2.87E2,2.54E2,1.13E2,3E1,2.77E2,2.76E2,2.7E1,2E1,7.3E1,8.1E1,5E0,1.2E1,3.999E3,2.717E3,4.44E2,1.86E2,7E0,2.02E2,2E0,2.15E2,8.08E2,1.99E2,2.36E2,2.48E2,7.2E2,2.66E2,2.31E2,1.29E2,8E2,2.56E2,3.39E2,2.37E2,1.99E2,3.32E2,2.22E2,2.69E2,3.1E1,1.66E2,2.59E2,1.22E2,1.43E2,3.08E2,1.56E2,1.89E2,2.14E2,7.3E1,1.49E2,1.05E2,9.1E1,2.2E1,9E0,2.1E1,2.25E2,5.2E1,2.63E2,1.3E1,1.9E1,1E0,7.2E1,1E0,7.6E1,5E0,1.1E1,1E0],"tree_param":{"num_deleted":"0","num_feature":"6","num_nodes":"113","size_leaf_vector":"1"}},{"base_weights":[5.4226067E-2,-5.557656E0,4.5044926E1,-1.0364488E1,5.304467E0,3.7502567E1,9.038462E1,-1.1652973E1,-5.856705E0,1.7205652E0,1.3290604E1,3.0896032E1,5.0511986E1,7.525035E1,7.5755935E0,-1.1924083E1,-1.0265295E1,-7.5649986E0,-4.487916E0,-4.7737858E-1,4.30265E0,1.0315207E1,1.6855272E1,2.6019615E1,3.5332558E1,6.580259E1,4.5902782E1,8.5361534E1,6.434879E1,-4.7946212E-1,-1.1952999E1,-9.2635565E0,-5.574917E-1,-5.4489303E0,-8.275187E0,-3.0794477E0,-6.1354294E0,7.7859014E-1,-2.228094E0,5.8504024E0,8.397085E-1,1.4428055E1,8.068458E0,1.9753202E1,1.3923415E1,3.0684679E1,2.1885666E1,4.4158154E1,3.243919E1,6.0952538E1,7.7690155E1,3.993199E1,4.8819458E1,4.5344534E0,3.0085666E0,6.740526E1,2.423826E0,-6.201947E-1,-5.9048647E-1,-4.046937E-1,-4.751547E-1,-2.1987422E-1,-3.328248E-1,-3.8069287E-1,-4.782823E-1,-9.670504E-2,-1.8795425E-1,-3.5733435E-1,-2.5106975E-1,1.0433217E-1,-3.0163962E-2,-1.7923863E-1,-5.850054E-2,2.3602295E-1,4.1987973E-1,1.6934705E-1,-4.1531216E-2,9.0067595E-1,6.154441E-1,5.364729E-1,2.5953844E-1,1.3106458E0,8.6167127E-1,8.0532074E-1,4.7451878E-1,1.7594248E0,1.1418691E0,1.221097E0,8.09487E-1,2.371875E0,1.146501E0,1.7006874E0,1.3390248E0,3.1493819E0,2.2557504E0,4.6287704E0,3.2065122E0,2.0913167E0,1.411497E0,2.5485494E0,2.117253E0,2.7244937E0,3.597126E0],"categories":[],"categories_nodes":[],"categories_segments":[],"categories_sizes":[],"default_left":[0,0,0,0,0,0,0,0,0,0,0,0,0,0,0,0,0,0,0,0,0,0,0,0,0,0,0,0,0,0,0,0,0,0,0,0,0,0,0,0,0,0,0,0,0,0,0,0,0,0,0,0,0,0,0,0,0,0,0,0,0,0,0,0,0,0,0,0,0,0,0,0,0,0,0,0,0,0,0,0,0,0,0,0,0,0,0,0,0,0,0,0,0,0,0,0,0,0,0,0,0,0,0],"id":11,"left_children":[1,3,5,7,9,11,13,15,17,19,21,23,25,27,-1,29,31,33,35,37,39,41,43,45,47,49,51,53,55,-1,57,59,-1,61,63,65,67,69,71,73,75,77,79,81,83,85,87,89,91,93,95,97,99,-1,-1,101,-1,-1,-1,-1,-1,-1,-1,-1,-1,-1,-1,-1,-1,-1,-1,-1,-1,-1,-1,-1,-1,-1,-1,-1,-1,-1,-1,-1,-1,-1,-1,-1,-1,-1,-1,-1,-1,-1,-1,-1,-1,-1,-1,-1,-1,-1,-1],"loss_changes":[4.273264E6,7.8574706E5,6.384845E5,6.0523E4,1.3212275E5,1.3690025E5,2.356045E5,2.9295E3,5.3932266E3,1.8094838E4,1.4993156E4,2.2251E4,3.5107875E4,1.831625E4,0E0,3.4325E2,1.0778594E3,1.5043008E3,2.976836E3,3.790343E3,7.8525156E3,7.1096875E3,5.239078E3,9.241E3,1.28164375E4,2.3561875E3,5.347375E3,9.1710625E3,1.971875E3,0E0,2.858125E2,9.987891E1,0E0,3.0338672E2,5.843008E2,5.360664E2,6.332969E2,1.8160476E3,1.0293501E3,2.8759648E3,1.934459E3,1.8677852E3,3.834332E3,4.8220156E3,3.0019492E3,7.6433125E3,3.5918438E3,8.310219E3,2.8669062E3,1.235625E2,5.220781E2,1.9892344E3,1.7001875E3,0E0,0E0,1.2366562E3,0E0,0E0,0E0,0E0,0E0,0E0,0E0,0E0,0E0,0E0,0E0,0E0,0E0,0E0,0E0,0E0,0E0,0E0,0E0,0E0,0E0,0E0,0E0,0E0,0E0,0E0,0E0,0E0,0E0,0E0,0E0,0E0,0E0,0E0,0E0,0E0,0E0,0E0,0E0,0E0,0E0,0E0,0E0,0E0,0E0,0E0,0E0],"parents":[2147483647,0,0,1,1,2,2,3,3,4,4,5,5,6,6,7,7,8,8,9,9,10,10,11,11,12,12,13,13,15,15,16,16,17,17,18,18,19,19,20,20,21,21,22,22,23,23,24,24,25,25,26,26,27,27,28,28,30,30,31,31,33,33,34,34,35,35,36,36,37,37,38,38,39,39,40,40,41,41,42,42,43,43,44,44,45,45,46,46,47,47,48,48,49,49,50,50,51,51,52,52,55,55],"right_children":[2,4,6,8,10,12,14,16,18,20,22,24,26,28,-1,30,32,34,36,38,40,42,44,46,48,50,52,54,56,-1,58,60,-1,62,64,66,68,70,72,74,76,78,80,82,84,86,88,90,92,94,96,98,100,-1,-1,102,-1,-1,-1,-1,-1,-1,-1,-1,-1,-1,-1,-1,-1,-1,-1,-1,-1,-1,-1,-1,-1,-1,-1,-1,-1,-1,-1,-1,-1,-1,-1,-1,-1,-1,-1,-1,-1,-1,-1,-1,-1,-1,-1,-1,-1,-1,-1],"split_conditions":[5.9E1,1.6E1,1.35E2,6E0,3.6E1,9.4E1,2.14E2,3E0,1E1,2.5E1,4.7E1,7.3E1,5E0,8E0,7.5755935E0,-4E0,1E0,-3E0,1E0,2E0,6E0,-1E0,2E0,7E0,5E0,1.2E2,1.05E2,3.4E1,2.6E1,-4.7946212E-1,5E0,-4E0,-5.574917E-1,8E0,3E0,7E0,1.3E1,8E0,2E1,3.2E1,6E0,7E0,8E0,6E0,9E0,8E0,5E0,2.1E1,1.6E1,2.5E1,0E0,2.3E1,1.7E1,4.5344534E0,3.0085666E0,1.44E2,2.423826E0,-6.201947E-1,-5.9048647E-1,-4.046937E-1,-4.751547E-1,-2.1987422E-1,-3.328248E-1,-3.8069287E-1,-4.782823E-1,-9.670504E-2,-1.8795425E-1,-3.5733435E-1,-2.5106975E-1,1.0433217E-1,-3.0163962E-2,-1.7923863E-1,-5.850054E-2,2.3602295E-1,4.1987973E-1,1.6934705E-1,-4.1531216E-2,9.0067595E-1,6.154441E-1,5.364729E-1,2.5953844E-1,1.3106458E0,8.6167127E-1,8.0532074E-1,4.7451878E-1,1.7594248E0,1.1418691E0,1.221097E0,8.09487E-1,2.371875E0,1.146501E0,1.7006874E0,1.3390248E0,3.1493819E0,2.2557504E0,4.6287704E0,3.2065122E0,2.0913167E0,1.411497E0,2.5485494E0,2.117253E0,2.7244937E0,3.597126E0],"split_indices":[5,5,5,5,5,5,5,5,5,5,5,5,1,1,0,4,4,4,4,4,4,4,4,1,1,5,5,4,4,0,3,4,0,1,4,1,5,1,5,5,1,1,1,1,1,4,4,4,4,4,4,4,4,0,0,5,0,0,0,0,0,0,0,0,0,0,0,0,0,0,0,0,0,0,0,0,0,0,0,0,0,0,0,0,0,0,0,0,0,0,0,0,0,0,0,0,0,0,0,0,0,0,0],"split_type":[0,0,0,0,0,0,0,0,0,0,0,0,0,0,0,0,0,0,0,0,0,0,0,0,0,0,0,0,0,0,0,0,0,0,0,0,0,0,0,0,0,0,0,0,0,0,0,0,0,0,0,0,0,0,0,0,0,0,0,0,0,0,0,0,0,0,0,0,0,0,0,0,0,0,0,0,0,0,0,0,0,0,0,0,0,0,0,0,0,0,0,0,0,0,0,0,0,0,0,0,0,0,0],"sum_hessian":[1.6923E4,1.5047E4,1.876E3,1.0431E4,4.616E3,1.61E3,2.66E2,8.111E3,2.32E3,3.187E3,1.429E3,1.07E3,5.4E2,2.15E2,5.1E1,6.779E3,1.332E3,1.03E3,1.29E3,1.722E3,1.465E3,7.81E2,6.48E2,5.13E2,5.57E2,1.22E2,4.18E2,1.08E2,1.07E2,8.7E1,6.692E3,6.3E2,7.02E2,2.61E2,7.69E2,6.97E2,5.93E2,1.003E3,7.19E2,1.012E3,4.53E2,2.74E2,5.07E2,3.23E2,3.25E2,2.38E2,2.75E2,1.34E2,4.23E2,9.1E1,3.1E1,1.42E2,2.76E2,8.7E1,2.1E1,8.7E1,2E1,1.593E3,5.099E3,1.13E2,5.17E2,1.42E2,1.19E2,5.13E2,2.56E2,2.61E2,4.36E2,3.08E2,2.85E2,5.15E2,4.88E2,3.14E2,4.05E2,7.03E2,3.09E2,1.79E2,2.74E2,9.9E1,1.75E2,2.62E2,2.45E2,8.8E1,2.35E2,2.16E2,1.09E2,1.49E2,8.9E1,1.88E2,8.7E1,1.15E2,1.9E1,3.27E2,9.6E1,7.8E1,1.3E1,1.2E1,1.9E1,1.2E2,2.2E1,2.02E2,7.4E1,2.6E1,6.1E1],"tree_param":{"num_deleted":"0","num_feature":"6","num_nodes":"103","size_leaf_vector":"1"}},{"base_weights":[4.887569E-2,-5.617244E0,3.9998615E1,-9.609937E0,5.094154E0,3.3025894E1,8.0293846E1,-1.1080601E1,-5.191148E0,2.258293E0,1.1622893E1,2.614261E1,4.4571804E1,6.918921E1,7.059835E0,-1.1341837E1,-9.759066E0,-6.9215255E0,-3.689266E0,-1.0358379E-1,4.354824E0,1.4800344E1,8.826067E0,2.3366943E1,3.24329E1,5.7211033E1,4.0861565E1,7.9402275E1,5.861224E1,-1.1549139E1,-1.1033128E1,-8.794483E0,-1.0604773E1,-5.974372E0,-8.564965E0,-2.712898E0,-5.2476497E0,9.8345387E-1,-2.3450472E0,6.553332E0,1.794195E0,1.1639938E1,1.7920052E1,6.298477E0,1.1662467E1,2.7439411E1,1.9235321E1,3.7676006E1,2.5796616E1,6.0415344E1,4.401952E1,3.6875668E1,4.5302616E1,8.157861E1,2.2346509E0,6.0175777E1,3.5658554E1,-5.968575E-1,-5.698995E-1,-5.163213E-1,-5.6376517E-1,-4.7373477E-1,-4.1578063E-1,-4.951991E-1,-5.444137E-1,-3.3067402E-1,-2.3926936E-1,-3.8519654E-1,-4.7511515E-1,-2.070339E-1,-1.03196405E-1,-3.204193E-1,-2.1120928E-1,1.21772066E-1,-2.6178403E-2,-1.9074272E-1,-8.48498E-2,2.7653378E-1,4.360426E-1,2.1917088E-1,9.832255E-3,6.067425E-1,2.2130696E-1,1.0920445E0,7.084202E-1,4.2578718E-1,1.7891239E-1,3.5345167E-1,6.8282145E-1,1.6654259E0,1.1713911E0,1.1442877E0,8.416416E-1,2.105393E0,1.4355751E0,1.1663198E0,1.7281284E0,2.8182817E0,3.9274933E0,1.0907393E0,2.4072976E0,1.9443823E0,1.3401291E0,2.4900632E0,2.1457944E0,3.5493226E0,4.4047737E0,2.8460033E0,3.7586038E0,-1.6729335E-1,1.9946793E0],"categories":[],"categories_nodes":[],"categories_segments":[],"categories_sizes":[],"default_left":[0,0,0,0,0,0,0,0,0,0,0,0,0,0,0,0,0,0,0,0,0,0,0,0,0,0,0,0,0,0,0,0,0,0,0,0,0,0,0,0,0,0,0,0,0,0,0,0,0,0,0,0,0,0,0,0,0,0,0,0,0,0,0,0,0,0,0,0,0,0,0,0,0,0,0,0,0,0,0,0,0,0,0,0,0,0,0,0,0,0,0,0,0,0,0,0,0,0,0,0,0,0,0,0,0,0,0,0,0,0,0],"id":12,"left_children":[1,3,5,7,9,11,13,15,17,19,21,23,25,27,-1,29,31,33,35,37,39,41,43,45,47,49,51,53,55,57,59,61,63,65,67,69,71,73,75,77,79,81,83,85,87,89,91,93,95,97,99,101,103,105,-1,107,109,-1,-1,-1,-1,-1,-1,-1,-1,-1,-1,-1,-1,-1,-1,-1,-1,-1,-1,-1,-1,-1,-1,-1,-1,-1,-1,-1,-1,-1,-1,-1,-1,-1,-1,-1,-1,-1,-1,-1,-1,-1,-1,-1,-1,-1,-1,-1,-1,-1,-1,-1,-1,-1,-1],"loss_changes":[3.8506082E6,6.371965E5,5.910325E5,7.047131E4,7.488381E4,1.42126E5,2.0056112E5,2.7001875E3,7.0224766E3,1.3974281E4,1.0755672E4,1.9006562E4,2.91755E4,2.3972125E4,0E0,3.0725E2,1.0088203E3,1.9085703E3,2.1981074E3,3.2380513E3,8.4044375E3,5.431086E3,4.6152383E3,1.27478125E4,1.0997469E4,3.6809688E3,7.587375E3,6.32525E3,2.6633125E3,1.01E2,3.54375E2,1.2870312E2,3.4210938E1,5.7778516E2,2.964414E2,8.216748E2,6.3700684E2,1.9596931E3,4.0691577E2,1.7339375E3,2.8615356E3,9.709297E2,3.8974844E3,2.0684795E3,2.7153164E3,8.519719E3,3.0789688E3,6.3395938E3,2.550125E3,4.238375E3,1.973375E3,4.6526875E3,4.718125E2,2.2368125E3,0E0,1.7753125E3,1.9505107E3,0E0,0E0,0E0,0E0,0E0,0E0,0E0,0E0,0E0,0E0,0E0,0E0,0E0,0E0,0E0,0E0,0E0,0E0,0E0,0E0,0E0,0E0,0E0,0E0,0E0,0E0,0E0,0E0,0E0,0E0,0E0,0E0,0E0,0E0,0E0,0E0,0E0,0E0,0E0,0E0,0E0,0E0,0E0,0E0,0E0,0E0,0E0,0E0,0E0,0E0,0E0,0E0,0E0,0E0],"parents":[2147483647,0,0,1,1,2,2,3,3,4,4,5,5,6,6,7,7,8,8,9,9,10,10,11,11,12,12,13,13,15,15,16,16,17,17,18,18,19,19,20,20,21,21,22,22,23,23,24,24,25,25,26,26,27,27,28,28,29,29,30,30,31,31,32,32,33,33,34,34,35,35,36,36,37,37,38,38,39,39,40,40,41,41,42,42,43,43,44,44,45,45,46,46,47,47,48,48,49,49,50,50,51,51,52,52,53,53,55,55,56,56],"right_children":[2,4,6,8,10,12,14,16,18,20,22,24,26,28,-1,30,32,34,36,38,40,42,44,46,48,50,52,54,56,58,60,62,64,66,68,70,72,74,76,78,80,82,84,86,88,90,92,94,96,98,100,102,104,106,-1,108,110,-1,-1,-1,-1,-1,-1,-1,-1,-1,-1,-1,-1,-1,-1,-1,-1,-1,-1,-1,-1,-1,-1,-1,-1,-1,-1,-1,-1,-1,-1,-1,-1,-1,-1,-1,-1,-1,-1,-1,-1,-1,-1,-1,-1,-1,-1,-1,-1,-1,-1,-1,-1,-1,-1],"split_conditions":[5.4E1,1.8E1,1.3E2,6E0,3.6E1,8.7E1,2.14E2,3E0,1.1E1,2.5E1,2E0,7.5E1,5E0,8E0,7.059835E0,1E0,1E0,2E0,2E0,4E0,2E0,4.4E1,8E0,2E0,8E0,1.7E1,1.05E2,5.7E1,3.2E1,5E0,0E0,4E0,2E0,9E0,4E0,4E0,7E0,8E0,4E0,3.2E1,6E0,1.9E1,8E0,8E0,4.1E1,7E0,6E0,1.6E1,1.2E1,1.2E2,9.9E1,2.1E1,3E0,1.44E2,2.2346509E0,1.73E2,1.35E2,-5.968575E-1,-5.698995E-1,-5.163213E-1,-5.6376517E-1,-4.7373477E-1,-4.1578063E-1,-4.951991E-1,-5.444137E-1,-3.3067402E-1,-2.3926936E-1,-3.8519654E-1,-4.7511515E-1,-2.070339E-1,-1.03196405E-1,-3.204193E-1,-2.1120928E-1,1.21772066E-1,-2.6178403E-2,-1.9074272E-1,-8.48498E-2,2.7653378E-1,4.360426E-1,2.1917088E-1,9.832255E-3,6.067425E-1,2.2130696E-1,1.0920445E0,7.084202E-1,4.2578718E-1,1.7891239E-1,3.5345167E-1,6.8282145E-1,1.6654259E0,1.1713911E0,1.1442877E0,8.416416E-1,2.105393E0,1.4355751E0,1.1663198E0,1.7281284E0,2.8182817E0,3.9274933E0,1.0907393E0,2.4072976E0,1.9443823E0,1.3401291E0,2.4900632E0,2.1457944E0,3.5493226E0,4.4047737E0,2.8460033E0,3.7586038E0,-1.6729335E-1,1.9946793E0],"split_indices":[5,5,5,5,5,5,5,5,5,5,4,5,1,1,0,5,4,4,4,4,4,5,3,4,1,4,5,4,4,3,4,5,4,5,4,3,3,1,3,5,1,3,1,1,5,1,1,4,1,5,5,4,3,5,0,5,5,0,0,0,0,0,0,0,0,0,0,0,0,0,0,0,0,0,0,0,0,0,0,0,0,0,0,0,0,0,0,0,0,0,0,0,0,0,0,0,0,0,0,0,0,0,0,0,0,0,0,0,0,0,0],"split_type":[0,0,0,0,0,0,0,0,0,0,0,0,0,0,0,0,0,0,0,0,0,0,0,0,0,0,0,0,0,0,0,0,0,0,0,0,0,0,0,0,0,0,0,0,0,0,0,0,0,0,0,0,0,0,0,0,0,0,0,0,0,0,0,0,0,0,0,0,0,0,0,0,0,0,0,0,0,0,0,0,0,0,0,0,0,0,0,0,0,0,0,0,0,0,0,0,0,0,0,0,0,0,0,0,0,0,0,0,0,0,0],"sum_hessian":[1.7009E4,1.4897E4,2.112E3,1.0852E4,4.045E3,1.802E3,3.1E2,8.141E3,2.711E3,2.821E3,1.224E3,1.131E3,6.71E2,2.64E2,4.6E1,6.791E3,1.35E3,1.258E3,1.453E3,1.327E3,1.494E3,5.71E2,6.53E2,7.88E2,3.43E2,1.49E2,5.22E2,1.31E2,1.33E2,4.041E3,2.75E3,6.36E2,7.14E2,8.01E2,4.57E2,8.95E2,5.58E2,8.94E2,4.33E2,8.03E2,6.91E2,2.86E2,2.85E2,3.47E2,3.06E2,3.94E2,3.94E2,1.89E2,1.54E2,1.17E2,3.2E1,2.8E2,2.42E2,1.22E2,9E0,1.23E2,1E1,1.111E3,2.93E3,7.13E2,2.037E3,2.55E2,3.81E2,2.16E2,4.98E2,5.18E2,2.83E2,2.43E2,2.14E2,2.78E2,6.17E2,2.59E2,2.99E2,4.55E2,4.39E2,1.31E2,3.02E2,5.48E2,2.55E2,2.63E2,4.28E2,2.67E2,1.9E1,1.37E2,1.48E2,1.9E2,1.57E2,9.4E1,2.12E2,1.57E2,2.37E2,1.53E2,2.41E2,1.24E2,6.5E1,1.23E2,3.1E1,9.9E1,1.8E1,6E0,2.6E1,2.31E2,4.9E1,7.7E1,1.65E2,5.1E1,7.1E1,1.05E2,1.8E1,1E0,9E0],"tree_param":{"num_deleted":"0","num_feature":"6","num_nodes":"111","size_leaf_vector":"1"}},{"base_weights":[-5.535371E-4,-5.356236E0,3.806732E1,-9.091382E0,4.8412657E0,3.1324575E1,7.771367E1,-1.0409064E1,-4.544359E0,1.4384941E0,9.541209E0,2.466047E1,4.284294E1,6.574792E1,1.2974446E2,-1.0689304E1,-8.4431305E0,-5.776766E0,-2.8191252E0,3.177657E-1,3.9734406E0,1.1728673E1,6.4826074E0,1.952425E1,2.8172235E1,3.6948483E1,4.616096E1,6.1115456E1,8.181356E1,1.0981041E2,1.7271643E2,-1.08544445E1,-1.0010626E1,-7.323672E0,-9.584972E0,-3.5644484E0,-6.542737E0,-2.1279967E0,-5.419443E0,1.298339E0,-1.6789986E0,5.405105E0,7.193432E-1,9.499913E0,1.597219E1,4.033364E0,9.0928755E0,2.2172548E1,1.645015E1,2.9728817E1,2.0932251E1,3.9680714E1,2.8190868E1,5.052081E1,4.30465E1,6.3929882E1,4.510606E1,8.6530014E1,2.7969458E0,5.69421E1,5.8623314E0,2.941751E0,9.239135E0,-4.350706E-1,-5.437624E-1,-4.689915E-1,-5.249729E-1,-2.335739E-1,-3.8162416E-1,-4.6207625E-1,-5.32482E-1,-2.2308414E-1,-1.2208545E-1,-2.904851E-1,-3.8308546E-1,-7.806053E-2,-1.5095513E-1,-2.3909092E-1,-3.6159787E-1,1.4867586E-2,1.4207087E-1,6.342292E-2,-1.1055886E-1,2.922092E-1,8.1654415E-2,1.9650207E-1,-3.0123873E-2,5.771533E-1,4.2185232E-1,6.372506E-1,8.349604E-1,3.176919E-1,7.933243E-2,4.938155E-1,1.7260142E-1,9.684424E-1,1.2477602E0,1.0576009E0,7.35783E-1,-3.1677017E-1,1.493548E0,1.3682733E0,8.86714E-1,2.2716346E0,1.770583E0,1.4286598E0,1.3128233E-1,2.3657138E0,2.7821403E0,2.0875144E0,2.5916274E0,2.5713005E0,3.4008977E0,2.323118E0,8.0278254E-1,1.0931462E0,4.377458E0,3.16764E0,4.61948E-1],"categories":[],"categories_nodes":[],"categories_segments":[],"categories_sizes":[],"default_left":[0,0,0,0,0,0,0,0,0,0,0,0,0,0,0,0,0,0,0,0,0,0,0,0,0,0,0,0,0,0,0,0,0,0,0,0,0,0,0,0,0,0,0,0,0,0,0,0,0,0,0,0,0,0,0,0,0,0,0,0,0,0,0,0,0,0,0,0,0,0,0,0,0,0,0,0,0,0,0,0,0,0,0,0,0,0,0,0,0,0,0,0,0,0,0,0,0,0,0,0,0,0,0,0,0,0,0,0,0,0,0,0,0,0,0,0,0,0,0],"id":13,"left_children":[1,3,5,7,9,11,13,15,17,19,21,23,25,27,29,31,33,35,37,39,41,43,45,47,49,51,53,55,57,59,61,63,65,67,69,71,73,75,77,79,81,83,85,87,89,91,93,95,97,99,101,103,105,107,109,111,113,115,-1,117,-1,-1,-1,-1,-1,-1,-1,-1,-1,-1,-1,-1,-1,-1,-1,-1,-1,-1,-1,-1,-1,-1,-1,-1,-1,-1,-1,-1,-1,-1,-1,-1,-1,-1,-1,-1,-1,-1,-1,-1,-1,-1,-1,-1,-1,-1,-1,-1,-1,-1,-1,-1,-1,-1,-1,-1,-1,-1,-1],"loss_changes":[3.476349E6,5.694007E5,5.5975075E5,6.5506062E4,6.4085555E4,1.37034E5,1.8135862E5,4.5828125E3,5.2141445E3,6.606872E3,1.1184203E4,2.0048438E4,1.11635E4,1.3605875E4,2.9003875E4,7.229375E2,1.2885703E3,2.4066875E3,1.834144E3,3.1623496E3,3.3178184E3,9.116891E3,4.464123E3,3.4371719E3,6.996E3,4.671875E3,3.4875625E3,6.037625E3,1.6275312E3,9.442469E3,1.11143125E4,1.721875E2,3.5325E2,4.0743945E2,9.282422E1,3.6283643E2,8.2823047E2,4.0590552E2,2.1389404E2,1.6719584E3,8.372859E2,8.1028125E2,9.3179645E2,1.303293E3,5.755E2,2.0622212E3,1.4684473E3,1.4514766E3,1.4829062E3,3.0291875E3,2.0452031E3,2.86025E3,5.2120703E2,1.265E2,6.83125E2,4.9875E3,5.5425E2,9.1984375E2,0E0,1.5553574E3,0E0,0E0,0E0,0E0,0E0,0E0,0E0,0E0,0E0,0E0,0E0,0E0,0E0,0E0,0E0,0E0,0E0,0E0,0E0,0E0,0E0,0E0,0E0,0E0,0E0,0E0,0E0,0E0,0E0,0E0,0E0,0E0,0E0,0E0,0E0,0E0,0E0,0E0,0E0,0E0,0E0,0E0,0E0,0E0,0E0,0E0,0E0,0E0,0E0,0E0,0E0,0E0,0E0,0E0,0E0,0E0,0E0,0E0,0E0],"parents":[2147483647,0,0,1,1,2,2,3,3,4,4,5,5,6,6,7,7,8,8,9,9,10,10,11,11,12,12,13,13,14,14,15,15,16,16,17,17,18,18,19,19,20,20,21,21,22,22,23,23,24,24,25,25,26,26,27,27,28,28,29,29,30,30,31,31,32,32,33,33,34,34,35,35,36,36,37,37,38,38,39,39,40,40,41,41,42,42,43,43,44,44,45,45,46,46,47,47,48,48,49,49,50,50,51,51,52,52,53,53,54,54,55,55,56,56,57,57,59,59],"right_children":[2,4,6,8,10,12,14,16,18,20,22,24,26,28,30,32,34,36,38,40,42,44,46,48,50,52,54,56,58,60,62,64,66,68,70,72,74,76,78,80,82,84,86,88,90,92,94,96,98,100,102,104,106,108,110,112,114,116,-1,118,-1,-1,-1,-1,-1,-1,-1,-1,-1,-1,-1,-1,-1,-1,-1,-1,-1,-1,-1,-1,-1,-1,-1,-1,-1,-1,-1,-1,-1,-1,-1,-1,-1,-1,-1,-1,-1,-1,-1,-1,-1,-1,-1,-1,-1,-1,-1,-1,-1,-1,-1,-1,-1,-1,-1,-1,-1,-1,-1],"split_conditions":[5.4E1,1.8E1,1.3E2,7E0,3.2E1,8.7E1,2.14E2,4E0,1.3E1,2.7E1,5E0,6.5E1,9.9E1,1.73E2,3.5E1,2E0,1E0,-3E0,5E0,4E0,6E0,4.4E1,4.1E1,3E0,1.7E1,1.4E1,0E0,3.5E1,3.4E1,5E0,-6E1,-4E0,1E0,-7E0,4E0,1E1,3E0,2.024E3,4.2E1,2.3E1,1E1,4.7E1,2.023E3,-7E0,2.023E3,1E1,4E1,5.9E1,2.023E3,2E0,2.023E3,1E1,4.6E1,2.024E3,4.1E1,2.023E3,5.5E1,-7.3E1,2.7969458E0,3.3E1,5.8623314E0,2.941751E0,9.239135E0,-4.350706E-1,-5.437624E-1,-4.689915E-1,-5.249729E-1,-2.335739E-1,-3.8162416E-1,-4.6207625E-1,-5.32482E-1,-2.2308414E-1,-1.2208545E-1,-2.904851E-1,-3.8308546E-1,-7.806053E-2,-1.5095513E-1,-2.3909092E-1,-3.6159787E-1,1.4867586E-2,1.4207087E-1,6.342292E-2,-1.1055886E-1,2.922092E-1,8.1654415E-2,1.9650207E-1,-3.0123873E-2,5.771533E-1,4.2185232E-1,6.372506E-1,8.349604E-1,3.176919E-1,7.933243E-2,4.938155E-1,1.7260142E-1,9.684424E-1,1.2477602E0,1.0576009E0,7.35783E-1,-3.1677017E-1,1.493548E0,1.3682733E0,8.86714E-1,2.2716346E0,1.770583E0,1.4286598E0,1.3128233E-1,2.3657138E0,2.7821403E0,2.0875144E0,2.5916274E0,2.5713005E0,3.4008977E0,2.323118E0,8.0278254E-1,1.0931462E0,4.377458E0,3.16764E0,4.61948E-1],"split_indices":[5,5,5,5,5,5,5,5,5,5,4,5,5,5,2,5,4,4,4,4,4,5,5,4,4,4,4,2,4,2,4,4,4,4,4,5,4,0,2,5,2,2,0,4,0,4,2,5,0,2,0,2,4,0,2,0,4,4,0,4,0,0,0,0,0,0,0,0,0,0,0,0,0,0,0,0,0,0,0,0,0,0,0,0,0,0,0,0,0,0,0,0,0,0,0,0,0,0,0,0,0,0,0,0,0,0,0,0,0,0,0,0,0,0,0,0,0,0,0],"split_type":[0,0,0,0,0,0,0,0,0,0,0,0,0,0,0,0,0,0,0,0,0,0,0,0,0,0,0,0,0,0,0,0,0,0,0,0,0,0,0,0,0,0,0,0,0,0,0,0,0,0,0,0,0,0,0,0,0,0,0,0,0,0,0,0,0,0,0,0,0,0,0,0,0,0,0,0,0,0,0,0,0,0,0,0,0,0,0,0,0,0,0,0,0,0,0,0,0,0,0,0,0,0,0,0,0,0,0,0,0,0,0,0,0,0,0,0,0,0,0],"sum_hessian":[1.7049E4,1.4947E4,2.102E3,1.094E4,4.007E3,1.798E3,3.04E2,8.481E3,2.459E3,2.325E3,1.682E3,1.141E3,6.57E2,2.49E2,5.5E1,7.419E3,1.062E3,1.433E3,1.026E3,1.613E3,7.12E2,9.79E2,7.03E2,4.66E2,6.75E2,2.41E2,4.16E2,1.97E2,5.2E1,4E1,1.5E1,5.955E3,1.464E3,5.4E2,5.22E2,3.7E2,1.063E3,8.12E2,2.14E2,1.082E3,5.31E2,4.94E2,2.18E2,6.44E2,3.35E2,3.64E2,3.39E2,2.47E2,2.19E2,5.53E2,1.22E2,1.81E2,6E1,1.67E2,2.49E2,1.65E2,3.2E1,4.2E1,1E1,6E0,3.4E1,2E0,1.3E1,6.1E1,5.894E3,6.48E2,8.16E2,5.8E1,4.82E2,4.02E2,1.2E2,2.04E2,1.66E2,6.46E2,4.17E2,4.98E2,3.14E2,1.61E2,5.3E1,6.57E2,4.25E2,8.1E1,4.5E2,4.42E2,5.2E1,6.3E1,1.55E2,2.17E2,4.27E2,6.5E1,2.7E2,1.86E2,1.78E2,2.97E2,4.2E1,1.27E2,1.2E2,5.6E1,1.63E2,2E0,5.51E2,3.8E1,8.4E1,7.3E1,1.08E2,5.9E1,1E0,1.09E2,5.8E1,2.22E2,2.7E1,4.4E1,1.21E2,3E1,2E0,1E0,4.1E1,5E0,1E0],"tree_param":{"num_deleted":"0","num_feature":"6","num_nodes":"119","size_leaf_vector":"1"}},{"base_weights":[-2.4201835E-3,-4.8334827E0,3.8169033E1,-8.752245E0,4.7740426E0,3.0339647E1,6.56945E1,-9.903836E0,-4.433089E0,2.027481E0,1.1794855E1,2.527871E1,4.0574726E1,5.7716396E1,1.2541071E2,-1.0153208E1,-8.131493E0,-5.96379E0,-3.3109305E0,1.4724827E-1,4.4779987E0,9.465241E0,1.4248885E1,2.2215088E1,2.910303E1,4.78639E1,3.837529E1,5.346354E1,3.4676912E0,9.232967E0,5.3731647E0,-1.0311213E1,-9.503925E0,-7.1426153E0,-9.162514E0,-3.955217E0,-6.624076E0,-2.2925482E0,-4.936189E0,1.2287804E0,-1.331806E0,6.32412E0,1.850943E0,1.0557522E1,4.380716E0,1.631497E1,1.0519443E1,2.5358826E1,1.7314445E1,3.0559433E1,2.3607988E1,3.0293224E0,4.210459E1,2.6037754E1,3.9055035E1,5.6518547E1,4.4068336E1,-4.095521E-1,-5.166593E-1,-4.4385177E-1,-4.9993372E-1,-2.7765504E-1,-3.8184702E-1,-4.440747E-1,-5.042174E-1,-1.2208756E-1,-2.3229508E-1,-3.0716977E-1,-4.0746132E-1,-1.6958319E-1,-7.437134E-2,-2.9567632E-1,-2.0145015E-1,-1.0530023E-2,1.1632573E-1,-1.6542317E-1,-2.2073062E-2,3.6762354E-1,2.2545324E-1,2.0676737E-1,4.9732473E-2,4.2623433E-1,6.4282185E-1,2.913222E-1,1.6097268E-2,1.0761566E0,7.8309715E-1,3.295612E-1,5.87814E-1,1.2182636E0,1.6916714E0,9.8263264E-1,6.3280517E-1,1.2780486E0,1.5983318E0,1.6537294E0,9.5421857E-1,2.4290334E-1,2.1259913E0,1.376565E0,6.030291E-1,1.8536742E0,2.1537921E0,2.442939E0,2.9484367E0,1.883817E0,2.575655E0],"categories":[],"categories_nodes":[],"categories_segments":[],"categories_sizes":[],"default_left":[0,0,0,0,0,0,0,0,0,0,0,0,0,0,0,0,0,0,0,0,0,0,0,0,0,0,0,0,0,0,0,0,0,0,0,0,0,0,0,0,0,0,0,0,0,0,0,0,0,0,0,0,0,0,0,0,0,0,0,0,0,0,0,0,0,0,0,0,0,0,0,0,0,0,0,0,0,0,0,0,0,0,0,0,0,0,0,0,0,0,0,0,0,0,0,0,0,0,0,0,0,0,0,0,0,0,0],"id":14,"left_children":[1,3,5,7,9,11,13,15,17,19,21,23,25,27,29,31,33,35,37,39,41,43,45,47,49,51,53,55,-1,-1,-1,57,59,61,63,65,67,69,71,73,75,77,79,81,83,85,87,89,91,93,95,-1,97,99,101,103,105,-1,-1,-1,-1,-1,-1,-1,-1,-1,-1,-1,-1,-1,-1,-1,-1,-1,-1,-1,-1,-1,-1,-1,-1,-1,-1,-1,-1,-1,-1,-1,-1,-1,-1,-1,-1,-1,-1,-1,-1,-1,-1,-1,-1,-1,-1,-1,-1,-1,-1],"loss_changes":[3.1417708E6,5.6941675E5,4.1048825E5,5.338575E4,8.4474586E4,7.62585E4,1.9428825E5,3.6654375E3,3.8673867E3,1.4517711E4,6.908422E3,1.10815E4,6.051E3,1.485175E4,3.2260562E4,6.641875E2,1.0061094E3,1.2416797E3,2.1535986E3,2.8554028E3,6.6229062E3,3.4803672E3,4.436164E3,8.1884688E3,2.8159062E3,5.5090625E3,2.1950625E3,5.5173125E3,0E0,0E0,0E0,1.931875E2,3.6623438E2,3.8267578E2,4.2808594E1,2.3848926E2,4.7630664E2,7.0820166E2,4.2214844E2,1.6295293E3,1.3255089E3,1.4656562E3,1.1030509E3,2.329871E3,6.670625E2,9.655156E2,9.7196094E2,2.03E3,2.169336E3,1.616625E3,3.5226445E3,0E0,1.01525E3,1.4809375E2,1.2793125E3,1.0038125E3,1.5330156E3,0E0,0E0,0E0,0E0,0E0,0E0,0E0,0E0,0E0,0E0,0E0,0E0,0E0,0E0,0E0,0E0,0E0,0E0,0E0,0E0,0E0,0E0,0E0,0E0,0E0,0E0,0E0,0E0,0E0,0E0,0E0,0E0,0E0,0E0,0E0,0E0,0E0,0E0,0E0,0E0,0E0,0E0,0E0,0E0,0E0,0E0,0E0,0E0,0E0,0E0],"parents":[2147483647,0,0,1,1,2,2,3,3,4,4,5,5,6,6,7,7,8,8,9,9,10,10,11,11,12,12,13,13,14,14,15,15,16,16,17,17,18,18,19,19,20,20,21,21,22,22,23,23,24,24,25,25,26,26,27,27,31,31,32,32,33,33,34,34,35,35,36,36,37,37,38,38,39,39,40,40,41,41,42,42,43,43,44,44,45,45,46,46,47,47,48,48,49,49,50,50,52,52,53,53,54,54,55,55,56,56],"right_children":[2,4,6,8,10,12,14,16,18,20,22,24,26,28,30,32,34,36,38,40,42,44,46,48,50,52,54,56,-1,-1,-1,58,60,62,64,66,68,70,72,74,76,78,80,82,84,86,88,90,92,94,96,-1,98,100,102,104,106,-1,-1,-1,-1,-1,-1,-1,-1,-1,-1,-1,-1,-1,-1,-1,-1,-1,-1,-1,-1,-1,-1,-1,-1,-1,-1,-1,-1,-1,-1,-1,-1,-1,-1,-1,-1,-1,-1,-1,-1,-1,-1,-1,-1,-1,-1,-1,-1,-1,-1],"split_conditions":[5.8E1,1.7E1,1.2E2,7E0,3.8E1,8.9E1,2.14E2,4E0,1.1E1,2.7E1,4.7E1,7.3E1,-1.3E1,1.57E2,2.023E3,2E0,1E0,-3E0,2E0,2E0,4E0,1.2E1,8E0,5E0,1.7E1,3E0,2E0,2E1,3.4676912E0,9.232967E0,5.3731647E0,-4E0,1E0,-4E0,4E0,-8E0,4E0,7E0,7E0,2.1E1,4E0,2.024E3,2.023E3,8E0,2.024E3,2E0,4.9E1,7.1E1,1.4E1,2.023E3,2.023E3,3.0293224E0,-6.2E1,3.6E1,1.09E2,2.023E3,1.3E1,-4.095521E-1,-5.166593E-1,-4.4385177E-1,-4.9993372E-1,-2.7765504E-1,-3.8184702E-1,-4.440747E-1,-5.042174E-1,-1.2208756E-1,-2.3229508E-1,-3.0716977E-1,-4.0746132E-1,-1.6958319E-1,-7.437134E-2,-2.9567632E-1,-2.0145015E-1,-1.0530023E-2,1.1632573E-1,-1.6542317E-1,-2.2073062E-2,3.6762354E-1,2.2545324E-1,2.0676737E-1,4.9732473E-2,4.2623433E-1,6.4282185E-1,2.913222E-1,1.6097268E-2,1.0761566E0,7.8309715E-1,3.295612E-1,5.87814E-1,1.2182636E0,1.6916714E0,9.8263264E-1,6.3280517E-1,1.2780486E0,1.5983318E0,1.6537294E0,9.5421857E-1,2.4290334E-1,2.1259913E0,1.376565E0,6.030291E-1,1.8536742E0,2.1537921E0,2.442939E0,2.9484367E0,1.883817E0,2.575655E0],"split_indices":[5,5,5,5,5,5,5,5,5,5,5,5,4,5,0,5,4,4,4,4,4,4,4,4,4,3,3,4,0,0,0,4,4,4,4,4,4,3,3,5,3,0,0,3,0,3,5,5,3,0,0,0,4,4,5,0,3,0,0,0,0,0,0,0,0,0,0,0,0,0,0,0,0,0,0,0,0,0,0,0,0,0,0,0,0,0,0,0,0,0,0,0,0,0,0,0,0,0,0,0,0,0,0,0,0,0,0],"split_type":[0,0,0,0,0,0,0,0,0,0,0,0,0,0,0,0,0,0,0,0,0,0,0,0,0,0,0,0,0,0,0,0,0,0,0,0,0,0,0,0,0,0,0,0,0,0,0,0,0,0,0,0,0,0,0,0,0,0,0,0,0,0,0,0,0,0,0,0,0,0,0,0,0,0,0,0,0,0,0,0,0,0,0,0,0,0,0,0,0,0,0,0,0,0,0,0,0,0,0,0,0,0,0,0,0,0,0],"sum_hessian":[1.7035E4,1.5122E4,1.913E3,1.0741E4,4.381E3,1.491E3,4.22E2,8.479E3,2.262E3,3.15E3,1.231E3,1E3,4.91E2,3.74E2,4.8E1,7.429E3,1.05E3,9.55E2,1.307E3,1.783E3,1.367E3,6.34E2,5.97E2,5.59E2,4.41E2,1.09E2,3.82E2,2.78E2,9.6E1,9E0,3.9E1,5.963E3,1.466E3,5.4E2,5.1E2,2.38E2,7.17E2,8.05E2,5.02E2,1.03E3,7.53E2,8.02E2,5.65E2,5.21E2,1.13E2,3.82E2,2.15E2,3.38E2,2.21E2,3.45E2,9.6E1,3.1E1,7.8E1,2.2E1,3.6E2,2.06E2,7.2E1,6.5E1,5.898E3,6.55E2,8.11E2,1.31E2,4.09E2,3.99E2,1.11E2,7.6E1,1.62E2,5.49E2,1.68E2,3.39E2,4.66E2,2.39E2,2.63E2,4.46E2,5.84E2,2.33E2,5.2E2,5.1E2,2.92E2,1.53E2,4.12E2,2.79E2,2.42E2,8.3E1,3E1,3.9E1,3.43E2,5.3E1,1.62E2,3.06E2,3.2E1,1.45E2,7.6E1,8E1,2.65E2,2.9E1,6.7E1,1E0,7.7E1,1.9E1,3E0,2.48E2,1.12E2,5.5E1,1.51E2,4.2E1,3E1],"tree_param":{"num_deleted":"0","num_feature":"6","num_nodes":"107","size_leaf_vector":"1"}},{"base_weights":[8.6916305E-2,-5.0723696E0,3.2784664E1,-8.452269E0,3.3548284E0,2.7503946E1,7.419664E1,-9.4222555E0,-4.4885983E0,7.904684E-1,8.013172E0,2.1019844E1,3.9634468E1,6.0623005E1,1.2758638E2,-9.658904E0,-7.7786717E0,-5.8906565E0,-3.6654809E0,-1.1789052E0,2.2143788E0,6.202021E0,1.0630331E1,1.662074E1,2.5595058E1,5.1909992E1,3.6166004E1,3.5837765E0,5.34106E1,1.8110677E2,1.0881001E2,-9.818229E0,-4.5025864E-1,-8.0434265E0,-7.0520635E0,-5.328897E0,-6.594988E0,-4.3717136E0,-2.9719043E0,-2.347607E-1,-2.6520076E0,3.798401E0,1.3070112E0,8.455467E0,5.1305947E0,1.2975761E1,8.19504E0,1.9971012E1,1.2419686E1,2.9738705E1,2.040596E1,4.856331E1,6.239191E1,3.059419E1,3.91527E1,5.7154224E1,1.7625726E0,2.2827897E0,1.018157E1,6.360357E0,7.823551E1,-4.9559417E-1,-4.8048344E-1,-4.2036963E-1,-3.6576793E-1,-4.5117876E-1,-3.4408996E-1,-2.8565162E-1,-2.212111E-1,-3.3940253E-1,-2.4068303E-1,-1.9583791E-1,-2.4621633E-1,-1.20822445E-1,-2.1702054E-1,2.9031564E-2,-7.1405075E-2,-1.7791454E-1,8.300214E-3,1.5489975E-1,2.919806E-1,1.5694503E-1,1.8209377E-2,4.6811515E-1,2.4645117E-1,3.0916667E-1,1.3742489E-1,3.716592E-1,6.818199E-1,3.4232494E-1,6.3150203E-1,9.110468E-1,1.1280966E0,5.404134E-1,9.3705034E-1,1.6639582E0,1.3250599E0,9.208132E-1,1.4989303E0,1.9424866E0,2.527286E0,2.6153193E0,3.733017E0,1.8357642E0,1.3617289E0,2.136815E0,1.8358202E0,2.1325657E0,3.0308752E0,1.3101574E0,4.344755E0],"categories":[],"categories_nodes":[],"categories_segments":[],"categories_sizes":[],"default_left":[0,0,0,0,0,0,0,0,0,0,0,0,0,0,0,0,0,0,0,0,0,0,0,0,0,0,0,0,0,0,0,0,0,0,0,0,0,0,0,0,0,0,0,0,0,0,0,0,0,0,0,0,0,0,0,0,0,0,0,0,0,0,0,0,0,0,0,0,0,0,0,0,0,0,0,0,0,0,0,0,0,0,0,0,0,0,0,0,0,0,0,0,0,0,0,0,0,0,0,0,0,0,0,0,0,0,0,0,0,0,0],"id":15,"left_children":[1,3,5,7,9,11,13,15,17,19,21,23,25,27,29,31,33,35,37,39,41,43,45,47,49,51,53,-1,55,57,59,61,-1,63,65,67,69,71,73,75,77,79,81,83,85,87,89,91,93,95,97,99,101,103,105,107,-1,-1,-1,-1,109,-1,-1,-1,-1,-1,-1,-1,-1,-1,-1,-1,-1,-1,-1,-1,-1,-1,-1,-1,-1,-1,-1,-1,-1,-1,-1,-1,-1,-1,-1,-1,-1,-1,-1,-1,-1,-1,-1,-1,-1,-1,-1,-1,-1,-1,-1,-1,-1,-1,-1],"loss_changes":[2.8631235E6,4.1756172E5,5.0377725E5,4.0184938E4,5.0129645E4,1.6064675E5,1.8141025E5,3.194E3,2.3546094E3,7.596416E3,6.9967734E3,2.6544562E4,2.852275E4,1.2912E4,3.2549562E4,6.76375E2,1.4776172E2,2.655625E2,6.237832E2,1.5807413E3,2.2544556E3,2.088539E3,3.3664453E3,9.407203E3,1.3476844E4,2.407375E3,8.12125E3,0E0,6.8907812E3,2.7314812E4,1.3109719E4,1.9875E1,0E0,1.4307422E2,3.591992E1,1.23461914E2,8.184668E1,1.4212012E2,4.9044678E2,6.761194E2,1.1345303E3,7.996836E2,1.7277324E3,8.588594E2,1.4901484E3,1.0264219E3,1.7137422E3,1.3119531E3,2.9246328E3,3.267375E3,5.047617E3,3.8559375E2,3.0171875E2,3.113E3,1.5826875E3,2.7889062E3,0E0,0E0,0E0,0E0,5.833508E3,0E0,0E0,0E0,0E0,0E0,0E0,0E0,0E0,0E0,0E0,0E0,0E0,0E0,0E0,0E0,0E0,0E0,0E0,0E0,0E0,0E0,0E0,0E0,0E0,0E0,0E0,0E0,0E0,0E0,0E0,0E0,0E0,0E0,0E0,0E0,0E0,0E0,0E0,0E0,0E0,0E0,0E0,0E0,0E0,0E0,0E0,0E0,0E0,0E0,0E0],"parents":[2147483647,0,0,1,1,2,2,3,3,4,4,5,5,6,6,7,7,8,8,9,9,10,10,11,11,12,12,13,13,14,14,15,15,16,16,17,17,18,18,19,19,20,20,21,21,22,22,23,23,24,24,25,25,26,26,28,28,29,29,30,30,31,31,33,33,34,34,35,35,36,36,37,37,38,38,39,39,40,40,41,41,42,42,43,43,44,44,45,45,46,46,47,47,48,48,49,49,50,50,51,51,52,52,53,53,54,54,55,55,60,60],"right_children":[2,4,6,8,10,12,14,16,18,20,22,24,26,28,30,32,34,36,38,40,42,44,46,48,50,52,54,-1,56,58,60,62,-1,64,66,68,70,72,74,76,78,80,82,84,86,88,90,92,94,96,98,100,102,104,106,108,-1,-1,-1,-1,110,-1,-1,-1,-1,-1,-1,-1,-1,-1,-1,-1,-1,-1,-1,-1,-1,-1,-1,-1,-1,-1,-1,-1,-1,-1,-1,-1,-1,-1,-1,-1,-1,-1,-1,-1,-1,-1,-1,-1,-1,-1,-1,-1,-1,-1,-1,-1,-1,-1,-1],"split_conditions":[5E1,1.6E1,1.35E2,7E0,3.2E1,8.7E1,2.14E2,4E0,1E1,2.2E1,4.1E1,6.5E1,5E0,7E0,2.023E3,2E0,6E0,8E0,1.3E1,9E0,6E0,6E0,8E0,8E0,8E0,1.2E2,9.9E1,3.5837765E0,3.5E1,5E0,8E0,1E0,-4.5025864E-1,3.4E1,2E0,9E0,4.7E1,8E0,3.9E1,2.024E3,1.2E1,2.9E1,2.023E3,3.8E1,2.024E3,2E0,1.2E1,5.9E1,1.2E1,5E0,1.2E1,2E0,3E0,8E0,8E0,1.44E2,1.7625726E0,2.2827897E0,1.018157E1,6.360357E0,5E0,-4.9559417E-1,-4.8048344E-1,-4.2036963E-1,-3.6576793E-1,-4.5117876E-1,-3.4408996E-1,-2.8565162E-1,-2.212111E-1,-3.3940253E-1,-2.4068303E-1,-1.9583791E-1,-2.4621633E-1,-1.20822445E-1,-2.1702054E-1,2.9031564E-2,-7.1405075E-2,-1.7791454E-1,8.300214E-3,1.5489975E-1,2.919806E-1,1.5694503E-1,1.8209377E-2,4.6811515E-1,2.4645117E-1,3.0916667E-1,1.3742489E-1,3.716592E-1,6.818199E-1,3.4232494E-1,6.3150203E-1,9.110468E-1,1.1280966E0,5.404134E-1,9.3705034E-1,1.6639582E0,1.3250599E0,9.208132E-1,1.4989303E0,1.9424866E0,2.527286E0,2.6153193E0,3.733017E0,1.8357642E0,1.3617289E0,2.136815E0,1.8358202E0,2.1325657E0,3.0308752E0,1.3101574E0,4.344755E0],"split_indices":[5,5,5,5,5,5,5,5,5,5,5,5,1,1,0,5,5,1,5,1,1,1,1,1,1,5,5,0,2,2,1,5,0,2,1,5,2,1,2,0,1,5,0,2,0,1,1,5,1,1,1,1,1,1,1,5,0,0,0,0,2,0,0,0,0,0,0,0,0,0,0,0,0,0,0,0,0,0,0,0,0,0,0,0,0,0,0,0,0,0,0,0,0,0,0,0,0,0,0,0,0,0,0,0,0,0,0,0,0,0,0],"split_type":[0,0,0,0,0,0,0,0,0,0,0,0,0,0,0,0,0,0,0,0,0,0,0,0,0,0,0,0,0,0,0,0,0,0,0,0,0,0,0,0,0,0,0,0,0,0,0,0,0,0,0,0,0,0,0,0,0,0,0,0,0,0,0,0,0,0,0,0,0,0,0,0,0,0,0,0,0,0,0,0,0,0,0,0,0,0,0,0,0,0,0,0,0,0,0,0,0,0,0,0,0,0,0,0,0,0,0,0,0,0,0],"sum_hessian":[1.697E4,1.4658E4,2.312E3,1.0462E4,4.196E3,2.052E3,2.6E2,8.404E3,2.058E3,2.707E3,1.489E3,1.339E3,7.13E2,2.09E2,5.1E1,7.342E3,1.062E3,7.59E2,1.299E3,1.136E3,1.571E3,8.82E2,6.07E2,6.85E2,6.54E2,1.54E2,5.59E2,7.9E1,1.3E2,1.1E1,4E1,5.892E3,1.45E3,7.71E2,2.91E2,4.27E2,3.32E2,6.41E2,6.58E2,6.93E2,4.43E2,5.71E2,1E3,2.82E2,6E2,3.07E2,3E2,3.79E2,3.06E2,3.61E2,2.93E2,1.21E2,3.3E1,1.99E2,3.6E2,1.06E2,2.4E1,2E0,9E0,2.3E1,1.7E1,4.034E3,1.858E3,5.07E2,2.64E2,1.9E1,2.72E2,2.96E2,1.31E2,2.97E2,3.5E1,3.56E2,2.85E2,4.7E2,1.88E2,4.12E2,2.81E2,3.35E2,1.08E2,4.27E2,1.44E2,3.39E2,6.61E2,2.23E2,5.9E1,4.15E2,1.85E2,3.4E1,2.73E2,2.32E2,6.8E1,2.31E2,1.48E2,2.46E2,6E1,1.68E2,1.93E2,2.45E2,4.8E1,2.4E1,9.7E1,2.1E1,1.2E1,6.7E1,1.32E2,1.39E2,2.21E2,2.3E1,8.3E1,3E0,1.4E1],"tree_param":{"num_deleted":"0","num_feature":"6","num_nodes":"111","size_leaf_vector":"1"}},{"base_weights":[-2.8312742E-3,-4.287038E0,3.4967125E1,-7.725022E0,5.0968146E0,2.9904194E1,7.6637405E1,-8.92774E0,-3.7505233E0,2.3317976E0,1.0560173E1,2.3720219E1,4.060497E1,6.3002888E1,1.2091376E2,-9.1608925E0,-7.3120775E0,-5.5096264E0,-2.7219815E0,5.631744E-1,4.2954154E0,1.3866736E1,8.601695E0,2.1560036E1,2.8807238E1,3.741757E1,4.6449978E1,6.5473206E1,2.2061071E0,1.8066948E2,1.0357915E2,-9.313738E0,-8.540836E0,-6.2975354E0,-8.307443E0,-3.5020874E0,-6.2042847E0,-1.363624E0,-4.0310574E0,1.6421142E0,-8.162786E-1,6.0462685E0,2.12309E0,1.0933461E1,1.5207794E1,6.6718297E0,1.0966497E1,2.4798594E1,1.913371E1,3.160213E1,2.1397367E1,4.4235695E1,3.5267673E1,5.0476894E1,3.8421455E1,5.88026E1,8.5106636E1,1.5855271E0,9.766276E0,3.51761E1,1.0640221E2,-3.7069726E-1,-4.665768E-1,-3.889385E-1,-4.436461E-1,-2.1376835E-1,-3.2504705E-1,-3.9947206E-1,-4.6712968E-1,-7.954244E-2,-2.0756808E-1,-2.8552446E-1,-3.902569E-1,-1.08527325E-1,-2.0871265E-2,-1.8116541E-1,-3.4001562E-1,3.3278625E-2,1.4144877E-1,-9.470231E-3,-1.6076986E-1,3.5415134E-1,1.9954164E-1,2.3606472E-1,5.5883605E-2,5.930094E-1,3.0374193E-1,5.777445E-1,8.000738E-1,4.022772E-1,1.1255801E-1,5.929604E-1,2.7629983E-1,1.120602E0,1.3119088E0,8.5836595E-1,1.1446328E0,1.2156417E0,1.6811069E0,1.1898265E0,7.1998066E-1,2.027875E-1,2.231854E0,1.712016E0,2.3209941E0,2.588334E0,1.1684742E0,1.3960034E0,2.1304963E0,3.0801322E0,2.240116E0,2.477927E0,4.570197E0,2.8331643E-1,2.3548913E0,3.5503948E0,5.778519E0],"categories":[],"categories_nodes":[],"categories_segments":[],"categories_sizes":[],"default_left":[0,0,0,0,0,0,0,0,0,0,0,0,0,0,0,0,0,0,0,0,0,0,0,0,0,0,0,0,0,0,0,0,0,0,0,0,0,0,0,0,0,0,0,0,0,0,0,0,0,0,0,0,0,0,0,0,0,0,0,0,0,0,0,0,0,0,0,0,0,0,0,0,0,0,0,0,0,0,0,0,0,0,0,0,0,0,0,0,0,0,0,0,0,0,0,0,0,0,0,0,0,0,0,0,0,0,0,0,0,0,0,0,0,0,0,0,0],"id":16,"left_children":[1,3,5,7,9,11,13,15,17,19,21,23,25,27,29,31,33,35,37,39,41,43,45,47,49,51,53,55,-1,57,59,61,63,65,67,69,71,73,75,77,79,81,83,85,87,89,91,93,95,97,99,101,103,105,107,109,111,-1,-1,113,115,-1,-1,-1,-1,-1,-1,-1,-1,-1,-1,-1,-1,-1,-1,-1,-1,-1,-1,-1,-1,-1,-1,-1,-1,-1,-1,-1,-1,-1,-1,-1,-1,-1,-1,-1,-1,-1,-1,-1,-1,-1,-1,-1,-1,-1,-1,-1,-1,-1,-1,-1,-1,-1,-1,-1,-1],"loss_changes":[2.5422702E6,4.8773694E5,3.8843175E5,5.2854688E4,6.1216234E4,1.08421375E5,1.13119375E5,3.1323125E3,4.638551E3,9.350101E3,8.700797E3,1.09173125E4,9.5146875E3,4.3405625E3,2.8935125E4,6.234375E2,1.0342734E3,1.3003105E3,2.8840674E3,2.1118162E3,4.84033E3,1.8202344E3,3.8425312E3,5.348125E3,5.7438594E3,4.2445625E3,4.817625E3,1.2676E4,0E0,1.34545E4,3.5951875E3,1.316875E2,3.0526562E2,1.9308594E2,1.0311719E2,2.9866187E2,5.1114648E2,6.091378E2,9.0917676E2,9.2069653E2,9.3634875E2,1.4762129E3,1.4863352E3,6.57375E2,8.124453E2,2.8664395E3,1.7994688E3,4.9073438E2,2.7705938E3,2.4660938E3,1.13475E3,1.2865469E3,1.9165E3,3.5451562E3,2.0651953E3,1.317E3,2.6335781E3,0E0,0E0,7.8855005E2,3.475625E3,0E0,0E0,0E0,0E0,0E0,0E0,0E0,0E0,0E0,0E0,0E0,0E0,0E0,0E0,0E0,0E0,0E0,0E0,0E0,0E0,0E0,0E0,0E0,0E0,0E0,0E0,0E0,0E0,0E0,0E0,0E0,0E0,0E0,0E0,0E0,0E0,0E0,0E0,0E0,0E0,0E0,0E0,0E0,0E0,0E0,0E0,0E0,0E0,0E0,0E0,0E0,0E0,0E0,0E0,0E0,0E0],"parents":[2147483647,0,0,1,1,2,2,3,3,4,4,5,5,6,6,7,7,8,8,9,9,10,10,11,11,12,12,13,13,14,14,15,15,16,16,17,17,18,18,19,19,20,20,21,21,22,22,23,23,24,24,25,25,26,26,27,27,29,29,30,30,31,31,32,32,33,33,34,34,35,35,36,36,37,37,38,38,39,39,40,40,41,41,42,42,43,43,44,44,45,45,46,46,47,47,48,48,49,49,50,50,51,51,52,52,53,53,54,54,55,55,56,56,59,59,60,60],"right_children":[2,4,6,8,10,12,14,16,18,20,22,24,26,28,30,32,34,36,38,40,42,44,46,48,50,52,54,56,-1,58,60,62,64,66,68,70,72,74,76,78,80,82,84,86,88,90,92,94,96,98,100,102,104,106,108,110,112,-1,-1,114,116,-1,-1,-1,-1,-1,-1,-1,-1,-1,-1,-1,-1,-1,-1,-1,-1,-1,-1,-1,-1,-1,-1,-1,-1,-1,-1,-1,-1,-1,-1,-1,-1,-1,-1,-1,-1,-1,-1,-1,-1,-1,-1,-1,-1,-1,-1,-1,-1,-1,-1,-1,-1,-1,-1,-1,-1],"split_conditions":[5.9E1,1.9E1,1.44E2,7E0,3.7E1,9.4E1,2.14E2,4E0,1.1E1,2.7E1,-1E0,8.1E1,1.2E2,4.3E1,2.023E3,2E0,1E0,-3E0,0E0,2E0,3E0,4.3E1,4.7E1,-1E0,1.4E1,-1.3E1,1.7E1,2.8E1,2.2061071E0,5E0,5E0,-4E0,0E0,-7E0,4E0,-9E0,4E0,1.5E1,8E0,2.3E1,1E1,2.024E3,2.023E3,4.2E1,2.023E3,1.4E1,2E1,-1.4E1,7.3E1,2.023E3,2.024E3,-6.2E1,4.3E1,4.5E1,8E0,3.1E1,2.023E3,1.5855271E0,9.766276E0,2.024E3,-2.8E1,-3.7069726E-1,-4.665768E-1,-3.889385E-1,-4.436461E-1,-2.1376835E-1,-3.2504705E-1,-3.9947206E-1,-4.6712968E-1,-7.954244E-2,-2.0756808E-1,-2.8552446E-1,-3.902569E-1,-1.08527325E-1,-2.0871265E-2,-1.8116541E-1,-3.4001562E-1,3.3278625E-2,1.4144877E-1,-9.470231E-3,-1.6076986E-1,3.5415134E-1,1.9954164E-1,2.3606472E-1,5.5883605E-2,5.930094E-1,3.0374193E-1,5.777445E-1,8.000738E-1,4.022772E-1,1.1255801E-1,5.929604E-1,2.7629983E-1,1.120602E0,1.3119088E0,8.5836595E-1,1.1446328E0,1.2156417E0,1.6811069E0,1.1898265E0,7.1998066E-1,2.027875E-1,2.231854E0,1.712016E0,2.3209941E0,2.588334E0,1.1684742E0,1.3960034E0,2.1304963E0,3.0801322E0,2.240116E0,2.477927E0,4.570197E0,2.8331643E-1,2.3548913E0,3.5503948E0,5.778519E0],"split_indices":[5,5,5,5,5,5,5,5,5,5,4,5,5,2,0,5,4,4,4,4,4,5,5,4,4,4,4,2,0,2,2,4,4,4,4,4,4,5,4,5,4,0,0,5,0,4,4,4,5,0,0,4,2,2,2,4,0,0,0,0,4,0,0,0,0,0,0,0,0,0,0,0,0,0,0,0,0,0,0,0,0,0,0,0,0,0,0,0,0,0,0,0,0,0,0,0,0,0,0,0,0,0,0,0,0,0,0,0,0,0,0,0,0,0,0,0,0],"split_type":[0,0,0,0,0,0,0,0,0,0,0,0,0,0,0,0,0,0,0,0,0,0,0,0,0,0,0,0,0,0,0,0,0,0,0,0,0,0,0,0,0,0,0,0,0,0,0,0,0,0,0,0,0,0,0,0,0,0,0,0,0,0,0,0,0,0,0,0,0,0,0,0,0,0,0,0,0,0,0,0,0,0,0,0,0,0,0,0,0,0,0,0,0,0,0,0,0,0,0,0,0,0,0,0,0,0,0,0,0,0,0,0,0,0,0,0,0],"sum_hessian":[1.6967E4,1.5116E4,1.851E3,1.1063E4,4.053E3,1.652E3,1.99E2,8.492E3,2.571E3,2.692E3,1.361E3,1.049E3,6.03E2,1.54E2,4.5E1,7.417E3,1.075E3,9.47E2,1.624E3,1.417E3,1.275E3,5.04E2,8.57E2,7.4E2,3.09E2,3.95E2,2.08E2,1.34E2,2E1,8E0,3.7E1,5.939E3,1.478E3,5.36E2,5.39E2,2.45E2,7.02E2,7.98E2,8.26E2,7.95E2,6.22E2,7.05E2,5.7E2,1.61E2,3.43E2,4.74E2,3.83E2,3.13E2,4.27E2,2.22E2,8.7E1,9E1,3.05E2,1.35E2,7.3E1,1.03E2,